{"layers": [{"out_sx": 1, "out_sy": 1, "out_depth": 2, "layer_type": "input"}, {"biases": {"w": {"0": -0.08247895243707695, "1": -0.012977403071912903, "2": -0.037186976284862165, "3": -0.07482593081175408, "4": -0.09319350500702464, "5": -0.05625419542952258, "6": -0.03555347372119782, "7": -0.03733805413341714, "8": -0.019238826914295407, "9": -0.05025757420572435, "10": -0.02451085409338584, "11": -0.09848906971554204, "12": -0.08350969441758344, "13": -0.029855974921547655, "14": -0.04412777524542934, "15": -0.04319665549842521, "16": -0.0842249136299378, "17": -0.057217846615147686, "18": -0.05156064430383191, "19": -0.07538352927194196}, "sx": 1, "sy": 1, "depth": 20}, "out_sx": 1, "out_sy": 1, "filters": [{"w": {"0": 0.17420087177160035, "1": 0.08794264426148786}, "sx": 1, "sy": 1, "depth": 2}, {"w": {"0": 0.4376994220759413, "1": -0.5510318885149345}, "sx": 1, "sy": 1, "depth": 2}, {"w": {"0": 0.3495627086975542, "1": -0.6621543874599444}, "sx": 1, "sy": 1, "depth": 2}, {"w": {"0": -0.06394248892520477, "1": -0.4584818629075795}, "sx": 1, "sy": 1, "depth": 2}, {"w": {"0": 0.6923467425476291, "1": 1.0655263594152427}, "sx": 1, "sy": 1, "depth": 2}, {"w": {"0": 0.642775858637682, "1": -0.7676218394548453}, "sx": 1, "sy": 1, "depth": 2}, {"w": {"0": -0.1869809399185316, "1": -0.15913794343152537}, "sx": 1, "sy": 1, "depth": 2}, {"w": {"0": 0.02303561797268501, "1": -0.10889435691343247}, "sx": 1, "sy": 1, "depth": 2}, {"w": {"0": -0.440317617595979, "1": -0.6674399283816106}, "sx": 1, "sy": 1, "depth": 2}, {"w": {"0": 0.21103245968626147, "1": 0.5091470770613111}, "sx": 1, "sy": 1, "depth": 2}, {"w": {"0": -0.18731381314662804, "1": 0.005183842413072325}, "sx": 1, "sy": 1, "depth": 2}, {"w": {"0": 0.3297698558590159, "1": 0.5212162802076578}, "sx": 1, "sy": 1, "depth": 2}, {"w": {"0": -0.6765655076278706, "1": -0.371592822214965}, "sx": 1, "sy": 1, "depth": 2}, {"w": {"0": -0.08386106124120288, "1": -0.3936488318428723}, "sx": 1, "sy": 1, "depth": 2}, {"w": {"0": 0.6352056827839597, "1": 0.8055969795317487}, "sx": 1, "sy": 1, "depth": 2}, {"w": {"0": -0.25650264948785345, "1": 0.10941355130151896}, "sx": 1, "sy": 1, "depth": 2}, {"w": {"0": 0.023908981382381327, "1": -0.15218078310413904}, "sx": 1, "sy": 1, "depth": 2}, {"w": {"0": -0.24819177473547094, "1": 0.12524057524467444}, "sx": 1, "sy": 1, "depth": 2}, {"w": {"0": -0.06668955212447912, "1": 0.06304464380165686}, "sx": 1, "sy": 1, "depth": 2}, {"w": {"0": -0.05654915643424519, "1": -0.3764847744985615}, "sx": 1, "sy": 1, "depth": 2}], "out_depth": 20, "layer_type": "fc", "num_inputs": 2, "l1_decay_mul": 0, "l2_decay_mul": 1}, {"out_sx": 1, "out_sy": 1, "out_depth": 20, "layer_type": "relu"}, {"biases": {"w": {"0": 0.16213150409424812, "1": -0.03323000019518868, "2": 0.06739158468777538, "3": -0.022890685322566037, "4": 0.266463870046311, "5": -0.354514320047641, "6": 0.0636048195668166, "7": 0.017420486815950195, "8": -0.34317554009953743, "9": 0.17679828045383097}, "sx": 1, "sy": 1, "depth": 10}, "out_sx": 1, "out_sy": 1, "filters": [{"w": {"0": -0.06351521044539138, "1": -0.03791658478596855, "2": 0.14792379134820136, "3": 0.05906657610270204, "4": -0.07007394111576708, "5": 0.185834058712792, "6": 0.06505947965177258, "7": 0.09735956419418683, "8": -0.19871921915775692, "9": 0.1002259573365959, "10": -0.11514785098283854, "11": -0.17352808212918813, "12": 0.37341982804513846, "13": -0.10823119118185091, "14": 0.007891443049033801, "15": 0.1869593591785267, "16": 0.02492661970130126, "17": -0.09920274523167295, "18": 0.1177282977734329, "19": 0.22653510556501605}, "sx": 1, "sy": 1, "depth": 20}, {"w": {"0": 0.11780809569132128, "1": -0.11689634617844834, "2": -0.1563878869587795, "3": -0.08229699487532473, "4": -0.013828601154459982, "5": 0.009300733150092201, "6": -0.25472801022762687, "7": 0.04976541350797347, "8": 0.40272037080115536, "9": -0.11031862199963233, "10": 0.14103519586219052, "11": -0.29454040990014596, "12": -0.030984009509485436, "13": 0.21743285674348198, "14": 0.013865755098450698, "15": -0.25413227950224976, "16": -0.022916989426159395, "17": -0.13394770449357987, "18": 0.2997939766691295, "19": -0.2020175347076123}, "sx": 1, "sy": 1, "depth": 20}, {"w": {"0": 0.09156397807028695, "1": -0.07890533454887182, "2": 0.19696279726440605, "3": -0.3406923373288738, "4": -0.2103389992057415, "5": -0.15561380122633298, "6": -0.0005873499921341418, "7": 0.07863784128540093, "8": 0.01827338863515908, "9": 0.0789378274694326, "10": 0.3447696042695808, "11": 0.059233821635845174, "12": 0.20106313373282222, "13": -0.2277366075025782, "14": 0.05030779727285887, "15": -0.14053167662187763, "16": -0.16333560437851385, "17": -0.043646529214163884, "18": -0.05460590029546078, "19": 0.021903653609413095}, "sx": 1, "sy": 1, "depth": 20}, {"w": {"0": -0.1126592016884129, "1": 0.19949609253082506, "2": -0.012043084090175413, "3": 0.05307099100557743, "4": 0.11693033950842746, "5": -0.03614023324809774, "6": -0.061365200798766936, "7": -0.27551602600941133, "8": -0.18614174647544451, "9": -0.0798504523168669, "10": 0.08485171055749094, "11": -0.23740478381926863, "12": -0.3506736040828682, "13": 0.004460044468406702, "14": -0.2039650627917187, "15": -0.04534890457435312, "16": -0.1651228324231029, "17": 0.06635376509023314, "18": -0.050451723512419666, "19": 0.06176624213636878}, "sx": 1, "sy": 1, "depth": 20}, {"w": {"0": -0.11517396658837986, "1": -0.1976032802164968, "2": 0.05670580577512502, "3": -0.20937998702641986, "4": -0.032199559624201526, "5": 0.3217283604661103, "6": 0.2423157961937172, "7": -0.013482380411904972, "8": -0.011085832726093715, "9": 0.021183737908034534, "10": 0.18205068474760594, "11": -0.11751082046003732, "12": 0.0824710793338576, "13": 0.045833205938607006, "14": -0.11677854512200227, "15": 0.1291741290495673, "16": 0.2785325958864259, "17": -0.4566657814341724, "18": -0.04957314221312901, "19": 0.19869725808484592}, "sx": 1, "sy": 1, "depth": 20}, {"w": {"0": -0.028749667019338575, "1": -0.2727913693638576, "2": -0.1775625359926922, "3": 0.2100841832361866, "4": 0.07152704783407032, "5": -0.09539987927410042, "6": 0.13532653337247447, "7": -0.10089722855989168, "8": 0.024303509433693322, "9": -0.03184994029466079, "10": -0.13425058999406136, "11": 0.35614499166526814, "12": 0.041379054114267816, "13": 0.048567268612669426, "14": 0.17862226835344033, "15": 0.25036047288445284, "16": 0.02038797691052509, "17": -0.09838469557838614, "18": -0.22825151529823462, "19": 0.07032510314782582}, "sx": 1, "sy": 1, "depth": 20}, {"w": {"0": -0.13926023841280458, "1": -0.05320082246732015, "2": 0.17767029492832534, "3": -0.16081078235326532, "4": 0.4497838591972859, "5": -0.0671147747700847, "6": 0.03906715263640476, "7": -0.17101485486053952, "8": 0.05147627369437053, "9": 0.014144586809580265, "10": -0.28442402976309733, "11": 0.0922360744307173, "12": -0.05369577639081738, "13": -0.21510259389494926, "14": 0.05413917218529354, "15": -0.20541446396476157, "16": 0.22839702963927158, "17": -0.08375949353913137, "18": 0.05580260168752937, "19": -0.16679314451036867}, "sx": 1, "sy": 1, "depth": 20}, {"w": {"0": 0.08271464642425454, "1": -0.18382070212995333, "2": -0.18515269694388276, "3": -0.13606926789534915, "4": 0.014420001041473616, "5": -0.04476507574444797, "6": 0.030417039572048443, "7": 0.07153095129701405, "8": -0.1708038593011246, "9": -0.405866171904457, "10": 0.006639899297537769, "11": -0.01836579175356201, "12": 0.29477206617495655, "13": 0.13416587164812818, "14": 0.017245335447050578, "15": 0.2503559203885394, "16": 0.07232982370554575, "17": 0.17148224322024921, "18": -0.05776784735779965, "19": 0.29186491586437335}, "sx": 1, "sy": 1, "depth": 20}, {"w": {"0": -0.3572109289183674, "1": 0.04162215321431409, "2": -0.14162741398982753, "3": 0.10475978990815187, "4": 0.21471473147076486, "5": -0.025925406658995526, "6": 0.01645532092854622, "7": 0.10198746997781412, "8": 0.14876662369972302, "9": -0.17787911570261658, "10": 0.12722465906432373, "11": 0.03642006260534102, "12": -0.10355564214606718, "13": 0.06298346395855431, "14": 0.03938649608955207, "15": -0.06013561632008047, "16": 0.19323762742912115, "17": 0.17145135765682448, "18": 0.0894197957726658, "19": -0.17289343127438675}, "sx": 1, "sy": 1, "depth": 20}, {"w": {"0": 0.020552244028054428, "1": 0.1279368750425689, "2": -0.19424865021771973, "3": -0.06321180038081846, "4": -0.17938371260797376, "5": -0.10838763331109388, "6": -0.1510523732634759, "7": 0.21726232334997125, "8": -0.1925435661197396, "9": 0.008987490258525296, "10": 0.03743035214187521, "11": -0.2078173924776949, "12": -0.03535594202613628, "13": -0.017861557387625245, "14": 0.02587350363871179, "15": 0.055069012831347165, "16": -0.1527988074870424, "17": 0.11064454522610569, "18": -0.15672693179266836, "19": -0.11887914841420832}, "sx": 1, "sy": 1, "depth": 20}], "out_depth": 10, "layer_type": "fc", "num_inputs": 20, "l1_decay_mul": 0, "l2_decay_mul": 1}, {"out_sx": 1, "out_sy": 1, "out_depth": 10, "layer_type": "softmax", "num_inputs": 10}]}