{
  "layers": [
    {
      "out_depth": 1,
      "out_sx": 28,
      "out_sy": 28,
      "layer_type": "input"
    },
    {
      "sx": 5,
      "sy": 5,
      "stride": 1,
      "in_depth": 1,
      "out_depth": 8,
      "out_sx": 28,
      "out_sy": 28,
      "layer_type": "conv",
      "l1_decay_mul": 0,
      "l2_decay_mul": 1,
      "pad": 2,
      "filters": [
        {
          "sx": 5,
          "sy": 5,
          "depth": 1,
          "w": {
            "0": 0.3762268468258445,
            "1": 0.1545512649146383,
            "2": -0.10040371947490831,
            "3": 0.12081867551006072,
            "4": -0.3615776948616397,
            "5": 0.3328470500134085,
            "6": -0.020314238844966317,
            "7": -0.21852292862006198,
            "8": -0.18173747129166598,
            "9": -0.36929313485280596,
            "10": 0.38038583145761223,
            "11": 0.14422224942174472,
            "12": -0.142023372829723,
            "13": -0.17808601854561512,
            "14": -0.49526368500399137,
            "15": 0.10500786651254132,
            "16": -0.03527263406727471,
            "17": 0.005010201076086468,
            "18": -0.42409121994386556,
            "19": -0.04692713397241099,
            "20": 0.130293317985759,
            "21": 0.12328966403236576,
            "22": -0.2820374724830301,
            "23": -0.13549776690173232,
            "24": -0.5485472962801428
          }
        },
        {
          "sx": 5,
          "sy": 5,
          "depth": 1,
          "w": {
            "0": -0.16094983429357543,
            "1": -0.07307819192543935,
            "2": 0.440768296211393,
            "3": 0.020277204432063413,
            "4": -0.4205014599244324,
            "5": 0.21683434412318398,
            "6": 0.44486612390123886,
            "7": -0.46496181876685083,
            "8": -0.1093667171014273,
            "9": -0.24311485134239075,
            "10": 0.4094413386920182,
            "11": 0.07102685056830303,
            "12": -0.20982292265730146,
            "13": -0.026632479714886435,
            "14": 0.10793192126298007,
            "15": 0.1094122033945155,
            "16": 0.10705313391327179,
            "17": 0.4783449735392485,
            "18": 0.34696324691472225,
            "19": 0.052498887913842024,
            "20": 0.22228054418628482,
            "21": 0.139033916038139,
            "22": -0.03732312469705733,
            "23": 0.3673782880339306,
            "24": 0.0667285426645723
          }
        },
        {
          "sx": 5,
          "sy": 5,
          "depth": 1,
          "w": {
            "0": -0.16342904618295798,
            "1": 0.31728799266295726,
            "2": -0.01085643309508526,
            "3": 0.23731647194288208,
            "4": 0.20454421984441012,
            "5": 0.2849765727793518,
            "6": 0.3064326169337266,
            "7": 0.18276901830980347,
            "8": 0.4243474467342527,
            "9": 0.6609026865651835,
            "10": 0.009159336188217482,
            "11": -0.19080598883989833,
            "12": 0.07469381308865708,
            "13": 0.016907722786082706,
            "14": 0.18925938488874497,
            "15": -0.2929105366627672,
            "16": 0.11682566432576157,
            "17": -0.3027176986054068,
            "18": -0.3993447075593146,
            "19": -0.402863864705201,
            "20": -0.11433200469335539,
            "21": -0.07559163458866609,
            "22": -0.6675377269935158,
            "23": -0.44680910644178884,
            "24": -0.41426833552756315
          }
        },
        {
          "sx": 5,
          "sy": 5,
          "depth": 1,
          "w": {
            "0": -0.5339854128133154,
            "1": -0.785209245174487,
            "2": -0.16321626770332873,
            "3": -0.48306839978879773,
            "4": -0.32203183968112137,
            "5": -0.11065630060669719,
            "6": -0.2532986598299404,
            "7": -0.47391410576921467,
            "8": -0.5292103238028899,
            "9": -0.1336684917333949,
            "10": 0.2781537774185934,
            "11": 0.23957378075948038,
            "12": 0.11738726419703291,
            "13": 0.28081538543202506,
            "14": 0.05611420043718089,
            "15": 0.41314090935029973,
            "16": 0.22618603474703441,
            "17": 0.1182638270013308,
            "18": -0.32091478782472643,
            "19": 0.09070175563519293,
            "20": 0.6907255988042055,
            "21": -0.0276561206514258,
            "22": 0.525243377328724,
            "23": 0.03691356649160256,
            "24": -0.1644374727066596
          }
        },
        {
          "sx": 5,
          "sy": 5,
          "depth": 1,
          "w": {
            "0": 0.0460406508303315,
            "1": 0.17719010739649754,
            "2": -0.03583345540704079,
            "3": 0.32696185451271204,
            "4": -0.29065699910424897,
            "5": 0.7326663824848274,
            "6": 0.4561202468218462,
            "7": 0.29548175095353485,
            "8": -0.13893167182906352,
            "9": -0.00864573786368773,
            "10": 0.09489665863073832,
            "11": 0.1475994648292061,
            "12": -0.30999326197142596,
            "13": -0.6302336835613258,
            "14": 0.07469585991295921,
            "15": -0.1121187984906493,
            "16": 0.17915536673514892,
            "17": -0.16282878430856204,
            "18": -0.32222776261525743,
            "19": -0.22708861404829653,
            "20": -0.24142734432999935,
            "21": 0.08552230702707239,
            "22": 0.25244525055833894,
            "23": 0.060476503075055504,
            "24": -0.1084295992940546
          }
        },
        {
          "sx": 5,
          "sy": 5,
          "depth": 1,
          "w": {
            "0": 0.1311230109397416,
            "1": 0.46331130684992766,
            "2": 0.22775356295713267,
            "3": 0.1642830149278447,
            "4": -0.09350380949080035,
            "5": -0.10591218264608315,
            "6": 0.12104473035622235,
            "7": 0.07772973477134958,
            "8": 0.18436883099586393,
            "9": 0.2997583411505689,
            "10": 0.1520350445320986,
            "11": 0.14703479161302743,
            "12": -0.0009514009724026818,
            "13": -0.38716807159829264,
            "14": -0.37430992503969635,
            "15": 0.10935355861518532,
            "16": 0.0747368288378908,
            "17": -0.4293555505838932,
            "18": -0.11871887666670448,
            "19": -0.20424469179245808,
            "20": -0.12898133207232662,
            "21": -0.20508897998727835,
            "22": -0.47601758297815616,
            "23": -0.22928918240206614,
            "24": -0.3801189750865718
          }
        },
        {
          "sx": 5,
          "sy": 5,
          "depth": 1,
          "w": {
            "0": -0.1882591384759699,
            "1": -0.43524439791406916,
            "2": -0.04622738241783854,
            "3": -0.4203200241841244,
            "4": -0.01593253375499078,
            "5": -0.33071959378803906,
            "6": -0.37379780105232874,
            "7": -0.5780956282281193,
            "8": 0.2413318256060472,
            "9": -0.12156985618712624,
            "10": -0.1290905500087048,
            "11": -0.2564724725731298,
            "12": -0.26748097792787,
            "13": 0.13256226021195341,
            "14": 0.018962729849713655,
            "15": -0.20907878526732218,
            "16": -0.1343422970566781,
            "17": 0.04237354383101276,
            "18": 0.23973454263509067,
            "19": 0.06735360867515303,
            "20": 0.3781448924853243,
            "21": 0.12282146912061714,
            "22": 0.45687908052673865,
            "23": 0.3184928926092908,
            "24": 0.5252348183681668
          }
        },
        {
          "sx": 5,
          "sy": 5,
          "depth": 1,
          "w": {
            "0": -0.11333311866507388,
            "1": -0.10850663883855369,
            "2": -0.15046313415185358,
            "3": -0.3477587936104434,
            "4": -0.4675642591711025,
            "5": -0.214969015675269,
            "6": -0.242936622059041,
            "7": -0.25183090005712006,
            "8": -0.016742931319226464,
            "9": -0.26896595721813343,
            "10": -0.2094939736626531,
            "11": -0.21636802368303437,
            "12": -0.29661240669731065,
            "13": -0.1473083227096054,
            "14": -0.22677569157137487,
            "15": -0.2335284703109045,
            "16": -0.24347032505151806,
            "17": -0.20801795360692152,
            "18": -0.32463835532312774,
            "19": 0.6254319722405342,
            "20": -0.0767924879626526,
            "21": -0.29067917812457406,
            "22": 0.24446459292827094,
            "23": 0.6751863070375624,
            "24": 0.16427258517396937
          }
        }
      ],
      "biases": {
        "sx": 1,
        "sy": 1,
        "depth": 8,
        "w": {
          "0": 0.12512440032715894,
          "1": -0.15842703286806634,
          "2": 0.09860826555496217,
          "3": 0.08968878257047135,
          "4": -0.003970755337506102,
          "5": 0.08925463865991941,
          "6": -0.02300117576404733,
          "7": 0.26088863560712666
        }
      }
    },
    {
      "out_depth": 8,
      "out_sx": 28,
      "out_sy": 28,
      "layer_type": "relu"
    },
    {
      "sx": 2,
      "sy": 2,
      "stride": 2,
      "in_depth": 8,
      "out_depth": 8,
      "out_sx": 14,
      "out_sy": 14,
      "layer_type": "pool",
      "pad": 0
    },
    {
      "sx": 5,
      "sy": 5,
      "stride": 1,
      "in_depth": 8,
      "out_depth": 16,
      "out_sx": 14,
      "out_sy": 14,
      "layer_type": "conv",
      "l1_decay_mul": 0,
      "l2_decay_mul": 1,
      "pad": 2,
      "filters": [
        {
          "sx": 5,
          "sy": 5,
          "depth": 8,
          "w": {
            "0": -0.041451390042653004,
            "1": 0.03316671163111405,
            "2": -0.020103155775754333,
            "3": 0.0849708462599015,
            "4": -0.012184164624318074,
            "5": -0.07195487618700691,
            "6": -0.058367548463446,
            "7": -0.22154888717248555,
            "8": -0.05042214270408936,
            "9": -0.0473742887063539,
            "10": -0.06464497628753364,
            "11": -0.08014161596780561,
            "12": 0.041038098447254354,
            "13": 0.018817425318697963,
            "14": -0.0562051362908101,
            "15": -0.23965082231289742,
            "16": 0.059847955082773595,
            "17": -0.06254103936515358,
            "18": -0.22932731901509548,
            "19": -0.01855184599714351,
            "20": -0.009285487117197355,
            "21": 0.09388363456157242,
            "22": 0.01381395767687417,
            "23": 0.17088530491193088,
            "24": -0.06574583643986788,
            "25": 0.07577150449345266,
            "26": -0.16299663593084468,
            "27": -0.034644415913037976,
            "28": 0.16161727272398652,
            "29": -0.027226214975378246,
            "30": 0.041328013604794565,
            "31": 0.12370276940708293,
            "32": -0.05325546357456513,
            "33": -0.02839436207716345,
            "34": -0.05991654264040473,
            "35": 0.1456286503003756,
            "36": -0.15251315712880104,
            "37": -0.17925897684927553,
            "38": 0.09324173490033827,
            "39": 0.23650357096481314,
            "40": -0.05805223030799058,
            "41": 0.031814196225672935,
            "42": -0.041561567397047174,
            "43": -0.18682578151464702,
            "44": -0.0446390264599361,
            "45": -0.02985000217703145,
            "46": -0.02169944142450692,
            "47": 0.07139977505218,
            "48": 0.04403899355932812,
            "49": 0.034361922396587315,
            "50": -0.16603475262148326,
            "51": -0.06479073347704427,
            "52": -0.07044682866620008,
            "53": -0.04256711238982523,
            "54": 0.09784813572192863,
            "55": 0.18318715511704114,
            "56": 0.07514572222573267,
            "57": -0.020480783881864393,
            "58": -0.04614782983455533,
            "59": -0.11538941335420361,
            "60": 0.02084042596745167,
            "61": 0.1253831487123805,
            "62": 0.04922251369397382,
            "63": 0.1102024773798315,
            "64": 0.0686778453277669,
            "65": 0.010575246818011202,
            "66": 0.10077603589924473,
            "67": 0.031846914731608944,
            "68": 0.02424027227581435,
            "69": 0.0865961025688003,
            "70": 0.08455366771306912,
            "71": 0.07006563665615556,
            "72": -0.12419919932570586,
            "73": -0.011645165316348807,
            "74": -0.01940201309233207,
            "75": -0.02053189761695989,
            "76": 0.17177722512550347,
            "77": -0.021231619874640072,
            "78": 0.004723806198356495,
            "79": -0.16937969062640018,
            "80": -0.12564921748988314,
            "81": -0.03287517454220821,
            "82": -0.14224481198239725,
            "83": -0.07843613018042335,
            "84": -0.024823946713134527,
            "85": -0.23160724164665775,
            "86": 0.04093770705038499,
            "87": 0.021529694980555826,
            "88": 0.06852400649216672,
            "89": 0.07482186538129028,
            "90": -0.052664157539441765,
            "91": -0.21802653363302868,
            "92": -0.050272590029601,
            "93": -0.11367813547477595,
            "94": 0.0762953828035148,
            "95": 0.07543446028553659,
            "96": -0.005202834812168378,
            "97": 0.10585379570591372,
            "98": -0.08918192900731028,
            "99": -0.26340583001591217,
            "100": 0.18321565594054412,
            "101": 0.14341626814171454,
            "102": -0.026295804821307854,
            "103": -0.22343300830716495,
            "104": 0.021949974962162493,
            "105": 0.1636800155448761,
            "106": -0.011261576565798586,
            "107": -0.1117512300019892,
            "108": 0.14027452130355916,
            "109": 0.07316142041641258,
            "110": -0.03849303596890919,
            "111": -0.23205677530487348,
            "112": -0.026667601417366977,
            "113": 0.008390381290331197,
            "114": -0.13672394781879968,
            "115": -0.02786837783996394,
            "116": 0.08703082933852169,
            "117": -0.028798517867293948,
            "118": -0.0647652656184577,
            "119": -0.012463254318527534,
            "120": -0.046497929418502594,
            "121": -0.015245066993588768,
            "122": -0.011897533625271671,
            "123": 0.021651897590938638,
            "124": -0.10242134917800284,
            "125": -0.19539221983124658,
            "126": -0.02016204465441833,
            "127": -0.2390246540054702,
            "128": -0.1435793722264384,
            "129": 0.14302242680691665,
            "130": -0.20957389843512236,
            "131": -0.26802324903822417,
            "132": 0.13383676902096228,
            "133": -0.21433549866941848,
            "134": -0.04838969467637708,
            "135": -0.2482036536180495,
            "136": 0.02725328678626349,
            "137": 0.16911940411058654,
            "138": -0.12148831386752974,
            "139": -0.3569922139249976,
            "140": 0.2187076315331769,
            "141": -0.13414270471718864,
            "142": -0.1594345386139924,
            "143": -0.39738617035449675,
            "144": -0.037329306170146015,
            "145": 0.032241719595025906,
            "146": -0.0958086528435502,
            "147": -0.12618814579033852,
            "148": 0.043008250867780845,
            "149": -0.25591764404453216,
            "150": 0.01753646119995752,
            "151": -0.16751286030927198,
            "152": -0.09929886062796203,
            "153": 0.057896684625973055,
            "154": -0.007150952046034173,
            "155": 0.05761318736524867,
            "156": -0.11002988834790733,
            "157": -0.09803018750549373,
            "158": -0.07154487775460928,
            "159": -0.004087522602029345,
            "160": -0.037095955363312734,
            "161": -0.07278886969996465,
            "162": 0.13113629709317337,
            "163": -0.1286602042034499,
            "164": -0.08806463069605223,
            "165": 0.06426127373375376,
            "166": -0.06378795833661967,
            "167": -0.10869208562069758,
            "168": -0.22980316502580214,
            "169": 0.1604514825461792,
            "170": 0.1528156760199513,
            "171": -0.2820680533198003,
            "172": -0.037787921188426526,
            "173": -0.13887549288403192,
            "174": -0.07172420096154127,
            "175": -0.2830301648889735,
            "176": -0.19305689149406127,
            "177": 0.21363519177117554,
            "178": 0.03910814235557391,
            "179": -0.05138034112587941,
            "180": -0.0876306804547142,
            "181": -0.15961545913466035,
            "182": -0.20862293489674466,
            "183": -0.44815468928202,
            "184": -0.06761021332400313,
            "185": 0.27147940673698895,
            "186": 0.16424857340746787,
            "187": 0.23307126403251985,
            "188": 0.016394264134619183,
            "189": -0.052840230142433844,
            "190": -0.014705720004974956,
            "191": -0.17099327634679112,
            "192": -0.07962429869537935,
            "193": 0.06547073108173426,
            "194": 0.18593602746626137,
            "195": 0.189769047191415,
            "196": 0.07005593410504593,
            "197": 0.04087493519265145,
            "198": -0.07521380756488054,
            "199": -0.10142281227897572
          }
        },
        {
          "sx": 5,
          "sy": 5,
          "depth": 8,
          "w": {
            "0": -0.13265629462303855,
            "1": 0.04839144488479315,
            "2": -0.011561237383476471,
            "3": 0.13273886443540897,
            "4": -0.14540816625841313,
            "5": -0.08002687336692615,
            "6": -0.021122643221768326,
            "7": -0.12181133069612467,
            "8": -0.08241998726303784,
            "9": -0.05357604949323935,
            "10": -0.030259588485767853,
            "11": 0.16031697678653767,
            "12": -0.1132587692929901,
            "13": -0.1814392468679441,
            "14": -0.08056711614044311,
            "15": 0.035724542731339834,
            "16": -0.16877872700221525,
            "17": -0.03622905185970204,
            "18": 0.10057142415672903,
            "19": -0.048742245098765784,
            "20": -0.3018484920026487,
            "21": -0.1400302426912124,
            "22": -0.00043845046730545936,
            "23": 0.13986339271700368,
            "24": -0.1641840933356065,
            "25": 0.05125405668086376,
            "26": -0.05155127863469879,
            "27": -0.048893226711003816,
            "28": -0.14581940576756888,
            "29": -0.17754409844561217,
            "30": 0.11088870526450881,
            "31": 0.17599660175947432,
            "32": -0.12891728202822567,
            "33": -0.052363781775581125,
            "34": -0.2896919080165677,
            "35": 0.1978917583908088,
            "36": -0.013430411657524946,
            "37": -0.19873570274199856,
            "38": 0.005156883655144897,
            "39": 0.045773758152273816,
            "40": 0.015532046913908025,
            "41": 0.04640948500558346,
            "42": 0.011475675021473427,
            "43": 0.2868564538356919,
            "44": 0.16088411955877294,
            "45": -0.038042427096238375,
            "46": 0.046672736183274506,
            "47": -0.04352453426235614,
            "48": -0.13028921823951556,
            "49": 0.26437522267800156,
            "50": -0.02146632487026679,
            "51": 0.06634684606807864,
            "52": -0.06810173368213067,
            "53": -0.02755207403231778,
            "54": 0.09692344705069542,
            "55": 0.0553530350571313,
            "56": 0.043716833687591584,
            "57": 0.041554578087587564,
            "58": 0.06179716856907155,
            "59": 0.17134350086461286,
            "60": -0.07608104677984458,
            "61": 0.06864127271694903,
            "62": 0.20435437890033456,
            "63": 0.11639107272775956,
            "64": -0.0030778183387186373,
            "65": 0.046879482160647086,
            "66": -0.01428759174628524,
            "67": 0.08284900119166884,
            "68": 0.017565775636502048,
            "69": 0.022147888572480335,
            "70": 0.27998555198199254,
            "71": 0.06484985578176831,
            "72": 0.10273871412217099,
            "73": 0.11573646674717708,
            "74": 0.01602971930522671,
            "75": 0.046067366338616196,
            "76": -0.008253904581774364,
            "77": 0.018539452476530837,
            "78": 0.28778739646685514,
            "79": 0.19929298290793465,
            "80": 0.1031537926707664,
            "81": -0.08542060652133186,
            "82": 0.249642934330818,
            "83": -0.002956223162627254,
            "84": -0.04336865440759618,
            "85": 0.12304677835967635,
            "86": -0.2403124524716577,
            "87": -0.11695320490333502,
            "88": 0.0034986577231096603,
            "89": -0.1452288049404503,
            "90": 0.1610446772478726,
            "91": 0.11600945532968787,
            "92": -0.0736981585475901,
            "93": 0.06403811112678992,
            "94": -0.14481212112306233,
            "95": -0.15987680589288178,
            "96": 0.08900918211383695,
            "97": -0.06382721668220495,
            "98": 0.16953834262173498,
            "99": 0.1284590730975262,
            "100": 0.12817331157743006,
            "101": -0.10361022375130861,
            "102": -0.18695493682894515,
            "103": -0.11104598033161814,
            "104": 0.06285871845851236,
            "105": -0.030914010185524986,
            "106": 0.22469615783350358,
            "107": 0.04081696419828468,
            "108": 0.03180037650386106,
            "109": -0.007602151575978829,
            "110": -0.20047060647865048,
            "111": -0.23666080603573675,
            "112": -0.10936209835401789,
            "113": -0.039531369497409,
            "114": 0.1285487173596176,
            "115": -0.17197340555599622,
            "116": 0.048578463842108024,
            "117": 0.01186520873568661,
            "118": -0.24890904699819216,
            "119": -0.26614972803694886,
            "120": 0.07759535879693627,
            "121": -0.3673286260833502,
            "122": 0.2902037263087457,
            "123": 0.10139845196890596,
            "124": -0.005358689636151234,
            "125": 0.08826322567801433,
            "126": -0.10480305208313186,
            "127": -0.07332227779904675,
            "128": -0.006808735466828024,
            "129": -0.30425929902543764,
            "130": 0.3067307453014756,
            "131": -0.05707559068988609,
            "132": -0.0754473930470655,
            "133": 0.09604007092455352,
            "134": -0.15931846304969477,
            "135": -0.0564481191487002,
            "136": 0.08399629305003506,
            "137": -0.09906080254340528,
            "138": 0.2601079328436522,
            "139": -0.07766064634263588,
            "140": 0.11092979975569589,
            "141": 0.08800357016461034,
            "142": -0.2708089735423713,
            "143": -0.02425973361977727,
            "144": -0.12616438316422385,
            "145": -0.1904984067473989,
            "146": 0.07467882873788652,
            "147": -0.11452579638776796,
            "148": -0.002522186960193166,
            "149": -0.017842984556787,
            "150": 0.07132615728201556,
            "151": 0.02125062110190162,
            "152": -0.13518081222105724,
            "153": -0.07755531976379576,
            "154": -0.03613122530391448,
            "155": -0.10868019190468396,
            "156": -0.11514055130990503,
            "157": -0.13460201117903645,
            "158": -0.05802492981640525,
            "159": -0.16379326564854374,
            "160": -0.13131231149133216,
            "161": -0.16470755462121361,
            "162": -0.15403681343603004,
            "163": 0.12370249710813522,
            "164": -0.20018019638070458,
            "165": -0.053471614949240666,
            "166": 0.0729122470757109,
            "167": 0.08054178217737674,
            "168": -0.10686558153418943,
            "169": -0.21046345862870644,
            "170": -0.2184787449710339,
            "171": 0.13231653833871612,
            "172": -0.07538956066402219,
            "173": -0.04399233982262625,
            "174": 0.12975153766055322,
            "175": 0.20201418313739627,
            "176": -0.0686954147587427,
            "177": -0.2268803325143504,
            "178": -0.2410732275213674,
            "179": -0.06867669795260091,
            "180": -0.23160859067559605,
            "181": -0.151081802032945,
            "182": 0.06832760587445949,
            "183": 0.40192203092383905,
            "184": -0.2688726229404704,
            "185": -0.014209280534246409,
            "186": -0.26394949605197787,
            "187": -0.05257519671368098,
            "188": -0.2950712867325366,
            "189": -0.29555721730662715,
            "190": 0.24098419191684695,
            "191": 0.26332489193109204,
            "192": -0.30760551024339194,
            "193": 0.10902256962763043,
            "194": -0.17566563725503245,
            "195": 0.13772683483137568,
            "196": -0.23222914273916598,
            "197": -0.05797660016996077,
            "198": 0.15483742530129,
            "199": 0.022865113595309485
          }
        },
        {
          "sx": 5,
          "sy": 5,
          "depth": 8,
          "w": {
            "0": 0.20685089514076646,
            "1": 0.03245232388890521,
            "2": -0.06907120237197269,
            "3": -0.033587642000789245,
            "4": 0.028997251268928267,
            "5": 0.05089371580504733,
            "6": -0.1501878710448602,
            "7": 0.07409244397738352,
            "8": 0.0638056943484358,
            "9": -0.06921577385561166,
            "10": -0.1566918179658793,
            "11": -0.023917310962968175,
            "12": -0.038306492680987965,
            "13": -0.06882249054226079,
            "14": -0.0398599207776518,
            "15": -0.09698127881576749,
            "16": -0.006117190425171375,
            "17": -0.04727744393953569,
            "18": -0.19076261174080753,
            "19": -0.10003973052005126,
            "20": -0.16792825497497496,
            "21": -0.06983919174127921,
            "22": 0.102336256706199,
            "23": 0.062251371693375336,
            "24": -0.047512599125454455,
            "25": 0.019664808384600805,
            "26": -0.16826885632617286,
            "27": -0.12688495751103157,
            "28": -0.16261849456293917,
            "29": -0.20629159800534336,
            "30": 0.12607692770519827,
            "31": 0.0663447929703064,
            "32": 0.14168125368227538,
            "33": 0.08888251890891527,
            "34": -0.14853558400045452,
            "35": -0.12092470258766214,
            "36": -0.04342841655402584,
            "37": -0.04197813821976481,
            "38": -0.0467451057363027,
            "39": -0.04250115529481395,
            "40": 0.2628500775501343,
            "41": 0.0017293418113079376,
            "42": 0.08559895601149066,
            "43": 0.06304721979615256,
            "44": 0.06407150024607612,
            "45": 0.06238127012836207,
            "46": -0.08077085063930473,
            "47": -0.08952493726874411,
            "48": 0.2170362605055284,
            "49": -0.009461259600487437,
            "50": -0.16283556843066258,
            "51": 0.0031080456436343097,
            "52": 0.008363799434146007,
            "53": -0.024100620278302048,
            "54": -0.13297084320685473,
            "55": -0.09899795410322416,
            "56": 0.10833085055103564,
            "57": 0.0016737509341312549,
            "58": -0.19647886386801997,
            "59": -0.22718846407749968,
            "60": -0.1816338733041609,
            "61": -0.15728871532725358,
            "62": -0.13927415463894427,
            "63": -0.05891873943400357,
            "64": -0.16506306756603206,
            "65": -0.11322798644609343,
            "66": -0.11071786304501384,
            "67": -0.33199314207103264,
            "68": 0.0339443031101996,
            "69": -0.13755650251090257,
            "70": 0.037564020783551,
            "71": -0.06793454426852086,
            "72": 0.2442413238959169,
            "73": -0.008833097064933928,
            "74": -0.11414829677834484,
            "75": -0.2770310247607599,
            "76": 0.1958019461303344,
            "77": 0.14126815598868592,
            "78": -0.16345456333488892,
            "79": -0.2178702339862307,
            "80": 0.16838893042783915,
            "81": 0.07016337902174574,
            "82": 0.08071858434042978,
            "83": -0.09900090836396618,
            "84": 0.23121908108378042,
            "85": 0.17201457294514097,
            "86": -0.1422717394715721,
            "87": -0.1448746967476851,
            "88": 0.14818661541157063,
            "89": -0.12007960756252545,
            "90": -0.05323766448663047,
            "91": -0.030152796637817055,
            "92": -0.000869590441380771,
            "93": 0.04302174581640549,
            "94": -0.08116459786879819,
            "95": 0.023863462476958794,
            "96": -0.09680973065744118,
            "97": 0.01420754276714523,
            "98": -0.11605316710631937,
            "99": -0.16824737349086508,
            "100": -0.1564321897082225,
            "101": -0.12569007280792882,
            "102": 0.04388054058453802,
            "103": -0.06626816430215465,
            "104": -0.07354625070625394,
            "105": -0.0889588216368046,
            "106": -0.01842618700664936,
            "107": -0.13744784145417166,
            "108": 0.0457538165798666,
            "109": -0.0022886803575624262,
            "110": -0.07060724293712992,
            "111": -0.15259903382900547,
            "112": 0.04375210727560496,
            "113": 0.09026171319241244,
            "114": 0.03604392562096219,
            "115": 0.027834502684060104,
            "116": 0.1909720029401907,
            "117": 0.12264094635401931,
            "118": -0.11298206720771543,
            "119": -0.1362669504410742,
            "120": 0.3356928757492472,
            "121": 0.1382928755623542,
            "122": -0.05058232883170705,
            "123": 0.0034598765370594583,
            "124": 0.07942332146804663,
            "125": 0.12417740926410652,
            "126": -0.12162379283662483,
            "127": 0.07010795911744931,
            "128": -0.13866660707439638,
            "129": -0.08811247579337238,
            "130": -0.1753169091706635,
            "131": -0.08815802393337185,
            "132": -0.061425074001492205,
            "133": -0.14190171735181362,
            "134": -0.1049232191749368,
            "135": 0.10144096205019505,
            "136": -0.0789805876904999,
            "137": -0.15218683348409434,
            "138": 0.002716283546116122,
            "139": 0.03463805322638483,
            "140": -0.19257742180080203,
            "141": -0.24228283969644898,
            "142": 0.08259978577091318,
            "143": -0.0753765616725247,
            "144": -0.11632890952291405,
            "145": 0.05948978114248649,
            "146": 0.0327762977266342,
            "147": 0.012813846150666545,
            "148": 0.14702585783406508,
            "149": 0.030021495286267144,
            "150": 0.09659851312858352,
            "151": -0.11825282690004418,
            "152": 0.11184993418464294,
            "153": 0.056492606255597225,
            "154": 0.1777201258371919,
            "155": -0.03660631661678362,
            "156": 0.09227521344329159,
            "157": 0.0941566895141211,
            "158": -0.08621637134014856,
            "159": -0.06517109360548809,
            "160": -0.002283643123817596,
            "161": 0.12339307070116481,
            "162": -0.14424452240867214,
            "163": 0.047900963386967824,
            "164": 0.0832121769770179,
            "165": -0.10472322388142476,
            "166": 0.06701324765614196,
            "167": 0.16873007322689823,
            "168": -0.11917445816906352,
            "169": 0.02654455457799873,
            "170": -0.08984431487790931,
            "171": -0.0845811016203488,
            "172": -0.18021899457587215,
            "173": -0.02119075245463773,
            "174": 0.1489730793783352,
            "175": 0.06946905338190051,
            "176": 0.06755579069519238,
            "177": -0.06254011426769286,
            "178": 0.0062460699832576645,
            "179": 0.024053869907431275,
            "180": -0.11358175076666283,
            "181": -0.023461569594929597,
            "182": 0.005106446072034881,
            "183": -0.027067863381003927,
            "184": 0.18476271870371602,
            "185": 0.0702229020655196,
            "186": 0.17029253038643566,
            "187": -0.09554795183621555,
            "188": 0.03462216988400325,
            "189": 0.1902662065370882,
            "190": -0.21046710322636825,
            "191": 0.006634738708545225,
            "192": 0.12499403765669119,
            "193": -0.05351348400118581,
            "194": 0.08591030003784961,
            "195": -0.024193197426398416,
            "196": 0.1193085409093697,
            "197": 0.0904842390011368,
            "198": -0.23716992156500025,
            "199": -0.0667876803030772
          }
        },
        {
          "sx": 5,
          "sy": 5,
          "depth": 8,
          "w": {
            "0": -0.03109202210122766,
            "1": -0.01889139266592567,
            "2": 0.018406416104768904,
            "3": 0.13907796454296886,
            "4": -0.10043371655726771,
            "5": 0.03772417405920176,
            "6": 0.015668862007996533,
            "7": -0.2547373614241928,
            "8": -0.03641229110890723,
            "9": 0.026473829971953605,
            "10": 0.07225279371769232,
            "11": 0.20074759074799922,
            "12": 0.010123255912129089,
            "13": -0.006891171117922744,
            "14": 0.066633323110177,
            "15": -0.08781298635748838,
            "16": -0.055977669911522546,
            "17": -0.08548408554825168,
            "18": 0.05840112181869567,
            "19": -0.11621358309399944,
            "20": 0.02947172111131288,
            "21": -0.08455447545574019,
            "22": 0.027178733860432604,
            "23": -0.02293346612277862,
            "24": -0.10278332386230049,
            "25": -0.04612701296284465,
            "26": 0.2506357621034592,
            "27": -0.03408326627490274,
            "28": 0.09236971442102038,
            "29": 0.18889642441060392,
            "30": 0.007249398118862427,
            "31": -0.09997603555404995,
            "32": 0.048550247855565505,
            "33": 0.07621630345180866,
            "34": 0.23602942423417617,
            "35": -0.22318932653853502,
            "36": 0.05234055497634062,
            "37": 0.20558146587872358,
            "38": -0.18521227267262175,
            "39": -0.14805832556667112,
            "40": -0.11025689500200478,
            "41": -0.0585365556515277,
            "42": -0.00996022312579501,
            "43": 0.05572415946545308,
            "44": 0.03567001484924455,
            "45": 0.18399144989195937,
            "46": -0.0430805708692461,
            "47": -0.07990274244557223,
            "48": 0.11152130313711349,
            "49": -0.07304954650859487,
            "50": 0.22610528207790792,
            "51": -0.2247255916939206,
            "52": 0.1664839737493557,
            "53": 0.18104974365534512,
            "54": 0.18017403600543117,
            "55": 0.00123226681993865,
            "56": 0.04326977762589596,
            "57": -0.0648534212889399,
            "58": 0.13002493599915718,
            "59": -0.021456003846002537,
            "60": -0.04403245289509289,
            "61": -0.03559315067502395,
            "62": 0.08960468149458581,
            "63": -0.03425298945429434,
            "64": 0.1109286146950726,
            "65": -0.03918585313505442,
            "66": 0.14315673906056875,
            "67": -0.06332854306847827,
            "68": 0.1557565204608266,
            "69": 0.13336410245621538,
            "70": -0.07823578983744607,
            "71": 0.06004015112554964,
            "72": 0.03077460766711079,
            "73": -0.04466862287373108,
            "74": 0.11548821595085378,
            "75": -0.20662507436597446,
            "76": 0.085046251590875,
            "77": 0.12519284008984236,
            "78": -0.09961915580471449,
            "79": 0.009490554200222837,
            "80": -0.036152701596147856,
            "81": -0.03392755442873278,
            "82": 0.01016584610436642,
            "83": -0.04914353046023386,
            "84": 0.03967952438019247,
            "85": 0.05792828836376357,
            "86": 0.02712650887814693,
            "87": 0.01285176705311335,
            "88": 0.014140515076197777,
            "89": 0.005440376958684487,
            "90": 0.0462204811840265,
            "91": 0.2611576976547618,
            "92": -0.003425339837248729,
            "93": 0.15077777474983362,
            "94": 0.08028672292270154,
            "95": 0.035970200184192,
            "96": 0.051090894265498295,
            "97": -0.1407135404764787,
            "98": -0.050080866379583235,
            "99": 0.0340691117224296,
            "100": 0.025548269303367246,
            "101": 0.05903120980425199,
            "102": -0.09052913090621587,
            "103": 0.03525476389085431,
            "104": 0.05852729509492371,
            "105": -0.1662440569272087,
            "106": -0.15177478154301535,
            "107": -0.09559413459627253,
            "108": 0.11458937268115903,
            "109": -0.03843729833603373,
            "110": -0.20703825283347785,
            "111": 0.0711946140435389,
            "112": -0.18379252939604218,
            "113": -0.2163485988088953,
            "114": -0.22529421960324944,
            "115": -0.18522261546025842,
            "116": -0.13588251509674718,
            "117": -0.23246940452710718,
            "118": 0.04453682391440887,
            "119": 0.026231553787027486,
            "120": -0.040728248042833946,
            "121": -0.022566280793632317,
            "122": -0.013266071080494941,
            "123": 0.01709454544093329,
            "124": 0.04193676199698899,
            "125": 0.020510450306033802,
            "126": 0.033537525425172514,
            "127": 0.10938884325348486,
            "128": -0.14455833879856786,
            "129": -0.021519521378887425,
            "130": -0.040293114683215316,
            "131": 0.14162055443187396,
            "132": -0.08901747305260918,
            "133": -0.05354184307982947,
            "134": -0.051500443801583376,
            "135": -0.17359448884801676,
            "136": 0.1104490544551041,
            "137": -0.11813480007047349,
            "138": -0.1288336766080897,
            "139": 0.00006207243286402542,
            "140": -0.04942698932596873,
            "141": 0.21389304342045348,
            "142": -0.0827907169180855,
            "143": -0.05074741714359444,
            "144": 0.01385911698449857,
            "145": -0.04935423994065512,
            "146": -0.20519844652587102,
            "147": -0.08976334000204927,
            "148": -0.18220569881647405,
            "149": -0.04628606652257176,
            "150": 0.10334500098210264,
            "151": 0.02276696973130918,
            "152": -0.021440152040470107,
            "153": 0.0020238614460986615,
            "154": -0.17306359178314623,
            "155": -0.08737529976612679,
            "156": -0.20637460323114556,
            "157": -0.19309525550062173,
            "158": 0.027796794791819374,
            "159": 0.25237253268990445,
            "160": -0.08832448416945043,
            "161": -0.024349288606794615,
            "162": -0.19397319367154534,
            "163": 0.01531969596580401,
            "164": -0.06900437090444327,
            "165": -0.06204003751079782,
            "166": 0.05449345934454616,
            "167": 0.012047044359513375,
            "168": 0.11908095048836136,
            "169": -0.023286243334240796,
            "170": -0.19233079373228143,
            "171": -0.003596994511351944,
            "172": 0.026745407227143032,
            "173": -0.06632497027891482,
            "174": -0.08199112280697113,
            "175": 0.05081538084336849,
            "176": -0.026249995852597994,
            "177": 0.027567035065675066,
            "178": -0.17851191548877807,
            "179": 0.07659166084287741,
            "180": -0.03854408692229795,
            "181": -0.16702333341533074,
            "182": 0.040754144052006815,
            "183": 0.06211514840923327,
            "184": 0.05060242696334737,
            "185": -0.04956990626750005,
            "186": -0.23079953689169763,
            "187": -0.08174647025666085,
            "188": -0.018116610195784397,
            "189": -0.23424084907849124,
            "190": -0.07332882145748199,
            "191": 0.061542465516807504,
            "192": -0.07994786852687878,
            "193": -0.14677374103027657,
            "194": -0.28205915092073985,
            "195": -0.1070949076767075,
            "196": -0.28008748177359927,
            "197": -0.24973784278094086,
            "198": 0.2003408614647963,
            "199": 0.06903246119635684
          }
        },
        {
          "sx": 5,
          "sy": 5,
          "depth": 8,
          "w": {
            "0": -0.01343465849839303,
            "1": -0.05454705008418556,
            "2": -0.01627741866902668,
            "3": -0.10981336491984349,
            "4": 0.013422868296060113,
            "5": -0.03399801504982298,
            "6": -0.04610987880017612,
            "7": 0.02761425199515851,
            "8": -0.026741678817300458,
            "9": -0.13898694364998299,
            "10": 0.11558166543481538,
            "11": 0.024687478937269743,
            "12": 0.02062142848426594,
            "13": -0.07882612181800337,
            "14": -0.06266274220784822,
            "15": -0.11280043390182438,
            "16": -0.10374579125472064,
            "17": -0.15725805597924758,
            "18": 0.3375548458886624,
            "19": -0.08697019985047538,
            "20": -0.022117570069798385,
            "21": 0.1303655803481813,
            "22": -0.17302500477475904,
            "23": -0.2296854563507867,
            "24": -0.17680562799589178,
            "25": -0.10508867851530615,
            "26": 0.3010097197625552,
            "27": -0.027108380956989496,
            "28": 0.186004943387056,
            "29": 0.1610315909724077,
            "30": -0.2387716466543728,
            "31": -0.08220924533544094,
            "32": -0.21729659844988142,
            "33": -0.201464827812175,
            "34": 0.15148959613571764,
            "35": 0.003976551937223073,
            "36": 0.1266487129019201,
            "37": 0.08913731436845375,
            "38": -0.10223239651990268,
            "39": -0.15713269150859452,
            "40": 0.03583037262972566,
            "41": 0.07459296011750426,
            "42": -0.0006814905926382284,
            "43": -0.02724908488737152,
            "44": 0.06394986541560205,
            "45": -0.024340428209936878,
            "46": -0.3475206743429776,
            "47": 0.040573757510933624,
            "48": -0.009970601820840265,
            "49": -0.006985213948233931,
            "50": -0.0225243891262299,
            "51": -0.12030122618492292,
            "52": 0.06255464726889842,
            "53": -0.03982970362024321,
            "54": -0.011574982729448492,
            "55": -0.04213752167077774,
            "56": -0.051840500041344245,
            "57": -0.1542303798918005,
            "58": -0.01262886727119114,
            "59": -0.005808965486808761,
            "60": 0.036617705855786616,
            "61": 0.05039915831880295,
            "62": 0.012785265442644102,
            "63": 0.021116999675602637,
            "64": -0.14630798476810422,
            "65": 0.01164155237390253,
            "66": -0.13477780746572812,
            "67": -0.022616593093475097,
            "68": -0.07817635125129747,
            "69": 0.09350565082018977,
            "70": 0.13110525130508924,
            "71": 0.36405333495887376,
            "72": -0.1274348984681447,
            "73": 0.09436346796699328,
            "74": -0.03951117195951197,
            "75": 0.05217624855925182,
            "76": -0.09637724177550921,
            "77": -0.004539472849755465,
            "78": 0.1876289623145793,
            "79": 0.08778737758638812,
            "80": -0.16152340348184252,
            "81": 0.13042726694257362,
            "82": 0.10145816581683106,
            "83": -0.02637616850667874,
            "84": -0.014740065766204638,
            "85": -0.03361896529928411,
            "86": -0.03997721586846904,
            "87": -0.037543725756684146,
            "88": -0.09482999738013317,
            "89": 0.006432192508743693,
            "90": -0.195657888552393,
            "91": -0.039516236540428386,
            "92": 0.11751861444579982,
            "93": -0.10952769065936477,
            "94": 0.006976481241500016,
            "95": 0.17807504966126847,
            "96": -0.0703501436085789,
            "97": 0.056101876251837095,
            "98": -0.12873040368254318,
            "99": 0.05502811134323888,
            "100": 0.12376319450394864,
            "101": -0.08989781919542916,
            "102": 0.08012593372255926,
            "103": 0.08803827560192491,
            "104": -0.03188031310362947,
            "105": -0.05902326997045292,
            "106": 0.014246613415953673,
            "107": 0.1879435586726547,
            "108": -0.2020267962408568,
            "109": -0.0026983250244704132,
            "110": -0.01146012766610598,
            "111": -0.0625357757705138,
            "112": 0.014800288960006396,
            "113": -0.08385430057670426,
            "114": -0.018337795708068396,
            "115": 0.16853820077990242,
            "116": 0.11557408856739515,
            "117": 0.11287601303917036,
            "118": -0.05361303151270711,
            "119": 0.03706095677403187,
            "120": 0.04934197063070983,
            "121": -0.04447942270380263,
            "122": 0.23343420611157822,
            "123": -0.11506853983529029,
            "124": -0.007259086859134811,
            "125": 0.13449660973211014,
            "126": -0.281149395777021,
            "127": -0.1562362165166481,
            "128": 0.1135022678252701,
            "129": -0.07218126390356974,
            "130": 0.27171596417752475,
            "131": 0.05024468862786028,
            "132": 0.20970983909364374,
            "133": 0.050522904329623114,
            "134": -0.09122529906818434,
            "135": -0.16366542580849736,
            "136": 0.08579539045988113,
            "137": -0.18362691209323867,
            "138": 0.2904775097887143,
            "139": 0.0003862267012208917,
            "140": 0.18167671156416337,
            "141": 0.1873583611704549,
            "142": -0.09743939661596576,
            "143": -0.21034663278314963,
            "144": 0.0987698635271922,
            "145": 0.017484669915488783,
            "146": 0.20455255963439126,
            "147": -0.1363801772060823,
            "148": 0.05807748587275021,
            "149": 0.022621097783330227,
            "150": -0.05442442411903097,
            "151": -0.16042276707044248,
            "152": 0.01132797492019232,
            "153": 0.04918515007135415,
            "154": 0.022509045427795953,
            "155": -0.293388690631882,
            "156": 0.28479860655109107,
            "157": 0.04881751162861021,
            "158": -0.08937812766806577,
            "159": -0.04556328236197469,
            "160": 0.05739161250043872,
            "161": -0.08896633868237297,
            "162": -0.1120078835091457,
            "163": 0.0836914449607802,
            "164": 0.02174916185863067,
            "165": -0.05644869100665528,
            "166": -0.24149754218424854,
            "167": 0.045797327460711086,
            "168": -0.0012887606692163255,
            "169": -0.19874182251551648,
            "170": -0.03708435730122174,
            "171": 0.1451337564566455,
            "172": -0.06695939184390998,
            "173": 0.04889818258766237,
            "174": -0.08919838598101044,
            "175": -0.008306405790579403,
            "176": 0.051607354386966946,
            "177": -0.1728990984760822,
            "178": -0.06972804771821112,
            "179": 0.13612477294317948,
            "180": -0.05751567633643908,
            "181": -0.01815184154408511,
            "182": -0.09574946622622252,
            "183": 0.11579952736754613,
            "184": 0.01638131872276277,
            "185": -0.31356946295541344,
            "186": -0.06406992619945172,
            "187": -0.04163138657754833,
            "188": 0.08779816424300887,
            "189": 0.07739509108636555,
            "190": 0.09744928859639172,
            "191": -0.007113803566188887,
            "192": -0.12213248210076405,
            "193": -0.06352446739693268,
            "194": -0.12881680742390822,
            "195": 0.0002594943444590112,
            "196": -0.09531726150994987,
            "197": -0.02726461479909822,
            "198": 0.0016251335212793126,
            "199": -0.025598028428662458
          }
        },
        {
          "sx": 5,
          "sy": 5,
          "depth": 8,
          "w": {
            "0": 0.007723147054250885,
            "1": 0.13886330946745798,
            "2": -0.04943355748826842,
            "3": -0.18539289170480638,
            "4": 0.14188741919762876,
            "5": -0.0722415795947027,
            "6": -0.09233461302765193,
            "7": -0.0018554242050173202,
            "8": -0.1085152134405674,
            "9": 0.14398782484664832,
            "10": -0.09277035164999461,
            "11": -0.026666834443781033,
            "12": 0.0850125659665724,
            "13": 0.012525859872609684,
            "14": -0.09921549726738473,
            "15": -0.1355087136914787,
            "16": 0.0005954858973181432,
            "17": 0.13143265042951247,
            "18": -0.21608641300442313,
            "19": 0.19902705838467438,
            "20": -0.054861288619336666,
            "21": -0.08676923140859479,
            "22": 0.1141549700414608,
            "23": -0.06737930139327299,
            "24": -0.0809645998951424,
            "25": 0.07327964804290524,
            "26": -0.026789972038123465,
            "27": 0.13663760671884334,
            "28": 0.14038611514720323,
            "29": -0.10944569141966143,
            "30": 0.022748035223152867,
            "31": -0.20752361841780695,
            "32": 0.0987120326400404,
            "33": 0.07892201808678527,
            "34": -0.23753167662503152,
            "35": 0.16010336890112326,
            "36": -0.0447156878882957,
            "37": -0.03735679885973483,
            "38": -0.09611883642758623,
            "39": 0.03592803664126622,
            "40": -0.09457446375202899,
            "41": -0.23303730547080165,
            "42": 0.1436921125600867,
            "43": -0.21140319621432122,
            "44": -0.043728006502156046,
            "45": 0.13239023225544141,
            "46": -0.19023727997660347,
            "47": -0.2210252737128075,
            "48": -0.03283155734086881,
            "49": 0.018608464514498498,
            "50": 0.1268399067059718,
            "51": -0.11123258734730387,
            "52": 0.023114382898049207,
            "53": -0.07643533180976875,
            "54": -0.3109171327913853,
            "55": -0.2281013153796013,
            "56": 0.08117069687467889,
            "57": 0.16809599884003568,
            "58": 0.05536387545800328,
            "59": 0.16398454108403818,
            "60": 0.14436654865536208,
            "61": -0.1206300189501249,
            "62": -0.020923436845862554,
            "63": -0.29898931926182526,
            "64": 0.11046249884903032,
            "65": -0.004480496682580293,
            "66": -0.1653899870019738,
            "67": 0.2470870912231902,
            "68": 0.08240410328636592,
            "69": -0.16004744847808458,
            "70": -0.15513724648002084,
            "71": -0.22243774288285503,
            "72": -0.016009600540044584,
            "73": 0.14272451057142121,
            "74": -0.17396065991839757,
            "75": 0.23006455232966422,
            "76": -0.0922205983224995,
            "77": -0.1205736281460949,
            "78": -0.044525043496055676,
            "79": 0.0611491112441386,
            "80": -0.13599643149873358,
            "81": -0.10008693886236496,
            "82": 0.08646419984160264,
            "83": -0.07105181491218769,
            "84": -0.09950395088111195,
            "85": 0.08125995339605438,
            "86": -0.1134503790954309,
            "87": -0.031066385287985825,
            "88": 0.005440965566785418,
            "89": -0.08554165077069822,
            "90": 0.05396473686311122,
            "91": -0.22610178351898125,
            "92": 0.022658233267616366,
            "93": 0.018307918942051044,
            "94": 0.06118493072713423,
            "95": -0.09714919221906478,
            "96": -0.01992877665560093,
            "97": 0.05486308577307421,
            "98": 0.013785009435611265,
            "99": -0.08196458840596597,
            "100": -0.10657004298193347,
            "101": -0.04744156359780513,
            "102": 0.039740665225157054,
            "103": -0.13894776090618766,
            "104": 0.03442543297143268,
            "105": 0.13569672973708527,
            "106": -0.03691635774485422,
            "107": 0.11313213517736025,
            "108": 0.09392838341058869,
            "109": 0.13495326935589935,
            "110": 0.11633790120497917,
            "111": -0.20612418328182705,
            "112": -0.039786462436912445,
            "113": -0.03670445816862498,
            "114": -0.025153456880764008,
            "115": 0.0421038585090482,
            "116": 0.006043664846290739,
            "117": -0.04251108298178115,
            "118": 0.09383150579133684,
            "119": -0.12200237474705472,
            "120": -0.13214273709274307,
            "121": -0.08371989406378229,
            "122": -0.06527675652606307,
            "123": -0.07296186529801857,
            "124": -0.1463068640273859,
            "125": -0.11830918908801957,
            "126": 0.04177271288493573,
            "127": 0.18117652912945376,
            "128": -0.030241037282556078,
            "129": 0.06255631950152421,
            "130": -0.024711030169963063,
            "131": -0.08908874553740176,
            "132": -0.21647348262373553,
            "133": -0.03835783633854841,
            "134": 0.1038907585441764,
            "135": 0.107260331670761,
            "136": 0.004981211688792189,
            "137": -0.006747581633855865,
            "138": -0.10539946365252913,
            "139": -0.013159146860088072,
            "140": -0.03370657569210144,
            "141": 0.08721763573880142,
            "142": 0.16207559952735867,
            "143": 0.06371121756777882,
            "144": 0.16045111318934352,
            "145": 0.09061266745233201,
            "146": -0.08288231166785895,
            "147": -0.1981568954987987,
            "148": 0.11164085864306376,
            "149": 0.12364854927951142,
            "150": 0.09768075292238318,
            "151": 0.02300379521076233,
            "152": 0.14573238649090298,
            "153": 0.08168482792200527,
            "154": 0.002188318690321998,
            "155": -0.08021542056690739,
            "156": 0.035023542351419384,
            "157": 0.012825522988354819,
            "158": -0.05228466203491714,
            "159": -0.18003215177692303,
            "160": -0.09572125736943579,
            "161": -0.08858470031822824,
            "162": -0.03335096426476493,
            "163": -0.05869308800437975,
            "164": -0.206616149357997,
            "165": 0.012146048798228145,
            "166": 0.09200657635428,
            "167": 0.170249410368827,
            "168": -0.07408938117284786,
            "169": -0.04343874261389566,
            "170": 0.029178016124390128,
            "171": 0.027782891602030204,
            "172": -0.035337721206200184,
            "173": -0.07377208937598159,
            "174": -0.06024139518828909,
            "175": -0.010567813708484967,
            "176": 0.036994554744183596,
            "177": 0.037156382559713104,
            "178": -0.027038581807311213,
            "179": -0.21968793409796,
            "180": 0.0775759054577012,
            "181": 0.07942059128254766,
            "182": 0.044490054667067645,
            "183": -0.10985084086990891,
            "184": -0.02370013969794136,
            "185": 0.05972555102988284,
            "186": -0.10629877358909086,
            "187": -0.23908803818977084,
            "188": -0.00433417174289603,
            "189": 0.03229745151461846,
            "190": -0.07642245684794237,
            "191": 0.02200422512293155,
            "192": -0.02080728498229847,
            "193": 0.016301200003602846,
            "194": -0.19652841576668453,
            "195": -0.1862831686424102,
            "196": 0.017340714444992522,
            "197": -0.07237183155111596,
            "198": -0.08076153490695094,
            "199": -0.11346093150124135
          }
        },
        {
          "sx": 5,
          "sy": 5,
          "depth": 8,
          "w": {
            "0": -0.18055644581286293,
            "1": -0.05778039815693061,
            "2": 0.09780245277719542,
            "3": -0.03129670037768375,
            "4": 0.08433835586503571,
            "5": -0.07920018343682961,
            "6": -0.06667228742999481,
            "7": 0.056397986138214666,
            "8": -0.03619091781460503,
            "9": -0.11826062966826463,
            "10": -0.0336021230666601,
            "11": -0.09377399017702301,
            "12": 0.08801798035626687,
            "13": -0.06949458111734894,
            "14": -0.010115419362246993,
            "15": 0.08905449473903225,
            "16": -0.0050840541861618,
            "17": 0.08000091153994678,
            "18": -0.11394535704842686,
            "19": 0.024563860551796615,
            "20": 0.018399630244298557,
            "21": 0.0012541277014146888,
            "22": 0.24735581286158845,
            "23": 0.08005032506101169,
            "24": 0.024462098277672328,
            "25": 0.19042950272287637,
            "26": 0.046119069600582804,
            "27": 0.05526931361355252,
            "28": -0.04153072236777722,
            "29": -0.1292370203170103,
            "30": 0.21916478227861763,
            "31": 0.1077765725927403,
            "32": -0.15792680955750468,
            "33": 0.005935515644545241,
            "34": -0.07854068490232974,
            "35": 0.13138937395196332,
            "36": -0.10671403690153727,
            "37": -0.14954183637689847,
            "38": 0.01055246644466875,
            "39": 0.10525150178802284,
            "40": -0.07052754471632273,
            "41": -0.13557164743423825,
            "42": -0.016417385496273307,
            "43": 0.035023355794318735,
            "44": -0.23263934060124217,
            "45": -0.08831961462835806,
            "46": 0.05623989605961741,
            "47": -0.06512654932794908,
            "48": -0.009629442977468986,
            "49": 0.045295691962980056,
            "50": -0.2626815909941754,
            "51": -0.10884798342239682,
            "52": -0.0074230773397085704,
            "53": -0.03918565226060617,
            "54": 0.1861362169979301,
            "55": -0.13138090533884875,
            "56": -0.05033088452463383,
            "57": -0.012997871090161853,
            "58": -0.06331701318475305,
            "59": 0.09389344646745586,
            "60": -0.12065968723834693,
            "61": -0.08143555612533004,
            "62": 0.005766141344560221,
            "63": -0.05237455041945552,
            "64": -0.059578301697877686,
            "65": -0.03659202263662449,
            "66": -0.04296215158427865,
            "67": 0.18039852237944642,
            "68": 0.017714709341988637,
            "69": 0.0051822233515769565,
            "70": -0.0559710068204291,
            "71": 0.014503392815305733,
            "72": -0.14642630792535377,
            "73": -0.1611052561866507,
            "74": 0.03433399090516058,
            "75": -0.0023030514526792985,
            "76": -0.011646085216163496,
            "77": -0.01453392092091204,
            "78": 0.006534738093544934,
            "79": -0.025432485167042267,
            "80": 0.1080395885252712,
            "81": -0.07503200135258352,
            "82": 0.03701005030122432,
            "83": -0.011162151065772518,
            "84": -0.04419624245765457,
            "85": -0.09480987090733502,
            "86": -0.06867202856379499,
            "87": -0.07508991059740726,
            "88": -0.10786979421385942,
            "89": -0.06329144680858742,
            "90": -0.03150950692413238,
            "91": -0.10482160196852704,
            "92": -0.053194399819028355,
            "93": -0.11303415044347424,
            "94": 0.015614009713188942,
            "95": -0.0684847056286421,
            "96": -0.09290392738316298,
            "97": -0.07426335387542084,
            "98": -0.12789334208844103,
            "99": -0.28264566549161657,
            "100": 0.09619655353490117,
            "101": -0.055311764766047274,
            "102": -0.02435551243665269,
            "103": 0.01225932887631686,
            "104": -0.024996256653917682,
            "105": 0.05109398805082065,
            "106": -0.022236175389152676,
            "107": -0.18995366939513428,
            "108": 0.11568493743729347,
            "109": 0.03128389981086477,
            "110": 0.021166565137978113,
            "111": 0.028695203932734836,
            "112": -0.11488271989197295,
            "113": 0.11289095641892755,
            "114": -0.11113858626688154,
            "115": 0.06089775028518801,
            "116": 0.03111124016151879,
            "117": -0.007052386703451562,
            "118": 0.10523165533583212,
            "119": -0.044730157626003374,
            "120": -0.01874946174972654,
            "121": -0.07229740751762398,
            "122": -0.07920644010868053,
            "123": -0.08037320419366928,
            "124": -0.11183041524955313,
            "125": -0.03248549845592396,
            "126": -0.0028428607972970465,
            "127": -0.0033356505436497983,
            "128": -0.13558605548143018,
            "129": 0.025423362741366615,
            "130": 0.10955787015724891,
            "131": -0.024145884292240127,
            "132": 0.06862189879009829,
            "133": -0.0007814425286658,
            "134": 0.12194643946917044,
            "135": 0.20346830500514565,
            "136": -0.14424375966567204,
            "137": 0.05438873128676326,
            "138": -0.21215346231490875,
            "139": 0.022406791769881834,
            "140": 0.1102571174099743,
            "141": -0.1568561315233257,
            "142": 0.12053526085235203,
            "143": -0.04784135348203177,
            "144": -0.2629301675676646,
            "145": 0.26828305166876143,
            "146": -0.19109687240337483,
            "147": 0.1209623318696704,
            "148": 0.019506287815962368,
            "149": -0.011056292763999118,
            "150": 0.02481590472552672,
            "151": -0.22685977560688256,
            "152": -0.36920222027812,
            "153": 0.06571840325015224,
            "154": -0.20314564838530635,
            "155": 0.25224109603573214,
            "156": -0.12581148734564168,
            "157": -0.053351896996593255,
            "158": 0.1354778696950152,
            "159": 0.019167144969227487,
            "160": -0.2710101111090722,
            "161": 0.04007855961728273,
            "162": -0.04417363971433115,
            "163": 0.2200647756645001,
            "164": -0.04718404765266162,
            "165": -0.08268728858453954,
            "166": 0.07875046537051816,
            "167": -0.0038466442070923612,
            "168": -0.15144928671686878,
            "169": -0.05872457031764441,
            "170": 0.19800729771875403,
            "171": 0.18209726758804726,
            "172": 0.04907956945741187,
            "173": 0.020677173853848766,
            "174": 0.11558615586860914,
            "175": -0.026570676657547775,
            "176": 0.02211296774009685,
            "177": 0.08974793636050209,
            "178": 0.2407972091134216,
            "179": 0.09447550365205007,
            "180": -0.09392247297157674,
            "181": 0.06519546883544805,
            "182": -0.06962392422679684,
            "183": -0.18446996630525786,
            "184": -0.4088504523891639,
            "185": 0.17707894772124327,
            "186": 0.1099646152829781,
            "187": -0.1372983013277995,
            "188": -0.04006971926304612,
            "189": -0.16815646055753763,
            "190": -0.18009438671869776,
            "191": -0.22176649571157248,
            "192": -0.27507368631951495,
            "193": 0.1257893771801649,
            "194": 0.09864368449040199,
            "195": -0.02659301475445526,
            "196": -0.048564709657358276,
            "197": -0.22293162163022162,
            "198": -0.11974638021495379,
            "199": -0.11736098122766271
          }
        },
        {
          "sx": 5,
          "sy": 5,
          "depth": 8,
          "w": {
            "0": 0.09917465140291866,
            "1": -0.1273494249786069,
            "2": -0.0963284880148554,
            "3": -0.08925894187085381,
            "4": -0.022304530106323568,
            "5": 0.22370498236980427,
            "6": -0.04999041940875252,
            "7": -0.06599947706981298,
            "8": 0.005728002591131837,
            "9": -0.056598319571955776,
            "10": 0.03370220450016752,
            "11": -0.05581013388208769,
            "12": 0.1797228264353855,
            "13": 0.0829594290550036,
            "14": -0.04814351233372003,
            "15": -0.0031714761297539965,
            "16": 0.20422498769043787,
            "17": -0.05328313962086741,
            "18": -0.11702093866933742,
            "19": 0.009664016646048464,
            "20": -0.03750997774955332,
            "21": 0.06293030104551216,
            "22": 0.06529774827859539,
            "23": 0.0015460906885450265,
            "24": 0.13180319215729788,
            "25": 0.014092312556579608,
            "26": 0.029414437556194717,
            "27": -0.009958591440466494,
            "28": 0.08485958825973422,
            "29": -0.0475139805478359,
            "30": 0.03918681912151993,
            "31": -0.06278282079213858,
            "32": 0.17558702302660034,
            "33": -0.03217984827708117,
            "34": -0.10559545471431055,
            "35": -0.09613310578567591,
            "36": -0.0690542160492749,
            "37": 0.021243489863055142,
            "38": 0.0026963018411909467,
            "39": 0.12819062040361054,
            "40": 0.024557942152965497,
            "41": -0.039629191175111676,
            "42": 0.0792690022567187,
            "43": -0.157361235051596,
            "44": -0.13314561396945016,
            "45": 0.030344316845326114,
            "46": -0.03685651810832469,
            "47": 0.0854671129445352,
            "48": -0.056212115446699545,
            "49": -0.08064638732178081,
            "50": 0.05469975172005985,
            "51": -0.07071088812819185,
            "52": -0.0840670167067517,
            "53": -0.13289807133057546,
            "54": -0.14119062319740955,
            "55": -0.03370663287190296,
            "56": -0.07814555550977152,
            "57": -0.14538207079728166,
            "58": -0.09015148784402592,
            "59": -0.1591360355439389,
            "60": -0.0012349415861007602,
            "61": 0.02740325875746794,
            "62": -0.08950623060177836,
            "63": 0.045801130314416315,
            "64": 0.1974853920421612,
            "65": -0.15988395546484524,
            "66": -0.07747230329174146,
            "67": -0.1972231646190665,
            "68": 0.049266657075817476,
            "69": 0.17626175602251717,
            "70": -0.14385607816790455,
            "71": -0.01309513141340977,
            "72": 0.17065039709558746,
            "73": -0.04917229201375553,
            "74": -0.21693573416911183,
            "75": -0.17728917438853345,
            "76": -0.05023058910639577,
            "77": 0.11483991966411013,
            "78": -0.0438221106148699,
            "79": 0.15830813176079744,
            "80": 0.03596141904792203,
            "81": 0.018017939925121462,
            "82": -0.046593309659292606,
            "83": 0.07531996438897189,
            "84": -0.06946040040196068,
            "85": -0.06553275790333361,
            "86": 0.16341056885978608,
            "87": 0.06360746360066302,
            "88": -0.0688231986357397,
            "89": 0.020463233492051383,
            "90": -0.06199639022606009,
            "91": 0.12930251866231224,
            "92": -0.22474327897231014,
            "93": 0.00359282072164864,
            "94": 0.03502616910425242,
            "95": -0.049980258995226935,
            "96": -0.03175173136570658,
            "97": -0.021122342889987804,
            "98": -0.16422013929183307,
            "99": -0.08470112465326221,
            "100": -0.07404800838461385,
            "101": 0.0286463935932288,
            "102": 0.022259550970739277,
            "103": -0.09157228202105364,
            "104": 0.007576330065179885,
            "105": -0.13216210477185647,
            "106": -0.26328004381782083,
            "107": -0.07660277870345744,
            "108": -0.08696305190844811,
            "109": -0.04379848466103755,
            "110": -0.02758277700768437,
            "111": 0.026472051468827196,
            "112": -0.10700073720945878,
            "113": -0.10695052097675042,
            "114": -0.0744000236723364,
            "115": -0.04563093183074252,
            "116": -0.006054375955086729,
            "117": 0.1569206005503037,
            "118": -0.09877167283013355,
            "119": -0.13351983981884977,
            "120": -0.10686627264715293,
            "121": 0.0145713437987484,
            "122": -0.09097850110773567,
            "123": 0.10259980672317649,
            "124": -0.0027726253642271197,
            "125": -0.018711557229903107,
            "126": 0.31256339584307025,
            "127": 0.010927708307001146,
            "128": -0.06116438881965097,
            "129": 0.17177514574923966,
            "130": 0.005058908067014934,
            "131": 0.07412813140087066,
            "132": -0.02322182968067553,
            "133": -0.16151636132852193,
            "134": 0.21225926993164101,
            "135": -0.09141184239658817,
            "136": -0.08048190791781507,
            "137": 0.006512636339012017,
            "138": -0.09843159497869437,
            "139": 0.029927582059655643,
            "140": -0.09322874798953992,
            "141": -0.035909828140631615,
            "142": 0.07668158404228638,
            "143": -0.009073990938355104,
            "144": -0.11284351677043862,
            "145": 0.1282624977455206,
            "146": -0.1859492469020338,
            "147": 0.13029561834617157,
            "148": 0.12160563963117496,
            "149": -0.19040659200454815,
            "150": 0.06924920677949646,
            "151": -0.10803025473730937,
            "152": -0.1171135894024196,
            "153": 0.07196779290214912,
            "154": -0.2708500713502183,
            "155": 0.11654668551462928,
            "156": -0.0643286411658999,
            "157": -0.14862697042524706,
            "158": 0.02465020245713058,
            "159": 0.06329379973731888,
            "160": -0.13185643620786788,
            "161": 0.1141260816580835,
            "162": 0.09110180739343167,
            "163": 0.2810327429356488,
            "164": -0.012426494555748674,
            "165": 0.05269744523150347,
            "166": 0.14609113401143323,
            "167": 0.03916894159257901,
            "168": -0.1617686653365565,
            "169": 0.15183450752954294,
            "170": 0.002024331271224836,
            "171": 0.08889256904053681,
            "172": -0.04271736073615144,
            "173": 0.045297347005017,
            "174": -0.05563550069917864,
            "175": -0.08941289092598238,
            "176": -0.11892820054626121,
            "177": 0.29769134169580574,
            "178": -0.052661538848874145,
            "179": 0.19392355679414605,
            "180": 0.03461572243567465,
            "181": -0.11838023445564119,
            "182": -0.03342387342552611,
            "183": -0.1461497781155914,
            "184": -0.04986732281633598,
            "185": 0.13318683242177132,
            "186": -0.05822533465483103,
            "187": 0.259587203704234,
            "188": -0.10505142038573088,
            "189": -0.14899253478110083,
            "190": -0.09549035345111392,
            "191": -0.10894118084464023,
            "192": -0.14672710218901602,
            "193": 0.11843116864832842,
            "194": -0.18844653992052074,
            "195": 0.1587973528093605,
            "196": -0.0735378313387982,
            "197": -0.1607450279635508,
            "198": 0.17307179940913675,
            "199": 0.005744453904681469
          }
        },
        {
          "sx": 5,
          "sy": 5,
          "depth": 8,
          "w": {
            "0": -0.0764912698475788,
            "1": -0.07320811794916919,
            "2": -0.18016415019785345,
            "3": 0.04529726078515251,
            "4": -0.02457603885508805,
            "5": -0.1564160333188395,
            "6": 0.02330505041944954,
            "7": 0.10450085124171306,
            "8": 0.12144961733096775,
            "9": 0.08997044328819591,
            "10": -0.17464669940896738,
            "11": 0.05570347762541426,
            "12": 0.033983426298169236,
            "13": -0.1480312319610904,
            "14": 0.008760439370333157,
            "15": 0.2632813333403563,
            "16": 0.09093622817050868,
            "17": -0.010446814756028567,
            "18": -0.019979292363436003,
            "19": 0.33454446183014097,
            "20": -0.10556334870517134,
            "21": -0.011415291807063944,
            "22": 0.06905807982714786,
            "23": 0.2537332468452155,
            "24": -0.08757626728477254,
            "25": -0.1300805890737744,
            "26": -0.0085767704085157,
            "27": 0.2380405172103001,
            "28": -0.09963283714606375,
            "29": -0.1129854128197073,
            "30": 0.07329888988070463,
            "31": 0.009705786607278598,
            "32": -0.06479037004300703,
            "33": -0.03965978960180904,
            "34": -0.06360799198483548,
            "35": 0.05985882654120259,
            "36": -0.020590859295619154,
            "37": -0.08126312008744276,
            "38": -0.09412882423040429,
            "39": -0.11333882587038568,
            "40": -0.04102441512866493,
            "41": -0.022046809730390315,
            "42": -0.176736509678435,
            "43": -0.1960651298948785,
            "44": -0.13423344977067275,
            "45": -0.1561534431987959,
            "46": 0.02567464121750792,
            "47": 0.14880254233732168,
            "48": 0.09318883671654715,
            "49": 0.015609710464250436,
            "50": -0.3440925103850893,
            "51": 0.019763277236018652,
            "52": 0.010939050434010037,
            "53": -0.1398761033239511,
            "54": 0.16617752500262678,
            "55": 0.0029112449389400935,
            "56": 0.13339189751219602,
            "57": 0.09133017589838306,
            "58": -0.05548721587937599,
            "59": 0.297542322304519,
            "60": 0.1090840470217419,
            "61": -0.05166952377152447,
            "62": 0.07959962804104322,
            "63": -0.11829406946352287,
            "64": 0.024227173104587545,
            "65": -0.0011352745794674722,
            "66": -0.13932341968888862,
            "67": 0.22317984054267528,
            "68": -0.15605123647715724,
            "69": 0.033385571326518815,
            "70": -0.05054526646739039,
            "71": 0.06386613862706378,
            "72": -0.018078785854635425,
            "73": -0.06188728203418705,
            "74": 0.22396382609576798,
            "75": -0.22329616825240703,
            "76": -0.059628938161008886,
            "77": 0.03155819081367478,
            "78": -0.011325398576398927,
            "79": -0.06099803757187535,
            "80": 0.1009959573509926,
            "81": -0.11204374402576149,
            "82": -0.22524603714819358,
            "83": -0.1896206289457573,
            "84": -0.22685203468640147,
            "85": -0.22406828940368387,
            "86": 0.17942851712760183,
            "87": 0.0028822536938766935,
            "88": -0.019284365365435957,
            "89": -0.05188989966431164,
            "90": -0.293214608362855,
            "91": -0.0505237332516356,
            "92": -0.09249252385279487,
            "93": -0.23076073579937717,
            "94": 0.08190456159028145,
            "95": 0.11983980822936462,
            "96": 0.2550046966610889,
            "97": 0.09794556693503975,
            "98": -0.12109253110842366,
            "99": 0.025218026930925785,
            "100": 0.06421122518056027,
            "101": 0.04213969718893447,
            "102": -0.17011897140386467,
            "103": -0.12057971787085117,
            "104": 0.07108725048598173,
            "105": -0.030181110215333987,
            "106": -0.1543569189989149,
            "107": 0.11093456969461667,
            "108": -0.10217908584261157,
            "109": -0.08479756571497477,
            "110": -0.17525038989603195,
            "111": 0.118301438463693,
            "112": -0.08976730070260809,
            "113": -0.11818894130408486,
            "114": 0.03218217228901471,
            "115": -0.1560937522375061,
            "116": -0.020063652335552334,
            "117": -0.011974839236866671,
            "118": -0.03580437030391344,
            "119": 0.08805815707980118,
            "120": -0.01426441572492334,
            "121": -0.1334082510617675,
            "122": -0.17192860813223107,
            "123": -0.28004417033672346,
            "124": -0.21999421127547325,
            "125": -0.21861638048822188,
            "126": 0.065486298827883,
            "127": 0.060978072484018146,
            "128": -0.07468843569230964,
            "129": 0.014208397348774911,
            "130": -0.2872906761178727,
            "131": -0.2517089487704273,
            "132": -0.1227966601880863,
            "133": -0.12059137865647857,
            "134": 0.0481845107296803,
            "135": -0.11473601360969388,
            "136": 0.10912873416005418,
            "137": 0.14214180391759645,
            "138": -0.015813353574575088,
            "139": -0.022919936788262894,
            "140": 0.19817302544129228,
            "141": 0.013633274684033499,
            "142": -0.17131440309143406,
            "143": -0.2153077981662686,
            "144": 0.05267704431413974,
            "145": -0.04890074535979511,
            "146": 0.007471329162491716,
            "147": 0.1552175966261939,
            "148": 0.18795913390800095,
            "149": -0.1283780485402136,
            "150": -0.0413859894141637,
            "151": -0.10129747897038358,
            "152": 0.049074902621252324,
            "153": -0.04166555804971577,
            "154": 0.12979774582645923,
            "155": -0.008464865016868007,
            "156": -0.07095883680258924,
            "157": 0.09817035755152072,
            "158": -0.0014026710246394913,
            "159": -0.07602051218214777,
            "160": -0.07907599992798414,
            "161": -0.07639719888466237,
            "162": -0.013803349747209146,
            "163": -0.24707045670004793,
            "164": -0.23270007271496604,
            "165": -0.08361457524356769,
            "166": 0.11169995212465265,
            "167": 0.02323132588852094,
            "168": -0.05481494927605942,
            "169": 0.12387375593746408,
            "170": -0.10835807548455835,
            "171": -0.24294883307024265,
            "172": -0.03364686271337358,
            "173": -0.16024098848350024,
            "174": 0.07895992370388591,
            "175": -0.0036463975137628487,
            "176": 0.17100724017012206,
            "177": 0.10717083520051006,
            "178": 0.14922213934170603,
            "179": -0.07751106544934122,
            "180": -0.04151751888314018,
            "181": 0.13216303360354337,
            "182": -0.28990495127766974,
            "183": -0.20786803703070955,
            "184": 0.0894634110736159,
            "185": -0.007834470600472482,
            "186": 0.13972711836345478,
            "187": 0.05479635129630426,
            "188": -0.05045963006111956,
            "189": 0.04760623630385381,
            "190": -0.06299228297560286,
            "191": -0.049238083287613504,
            "192": -0.045771283425795,
            "193": -0.34765139577760285,
            "194": -0.08138517180082694,
            "195": -0.07249507986838746,
            "196": -0.16283897819245743,
            "197": -0.14248387180356326,
            "198": 0.016678194624033187,
            "199": 0.030825611590006224
          }
        },
        {
          "sx": 5,
          "sy": 5,
          "depth": 8,
          "w": {
            "0": -0.05301883811190687,
            "1": 0.0701351817832253,
            "2": 0.02823150875161661,
            "3": 0.06460275638634913,
            "4": -0.11967205445679663,
            "5": -0.20496062169597734,
            "6": 0.010597139467727203,
            "7": -0.003054736783048461,
            "8": -0.1008987918977462,
            "9": -0.018362501858954106,
            "10": 0.1333613961650385,
            "11": -0.05844404363501162,
            "12": -0.12645074377015877,
            "13": -0.048274672018759235,
            "14": 0.049846358194480335,
            "15": -0.13969818277182533,
            "16": -0.03418780654340867,
            "17": -0.057983996640613246,
            "18": 0.10121656202741296,
            "19": 0.029914262060299703,
            "20": -0.0739940829263474,
            "21": -0.0203298034152953,
            "22": -0.05411965001853341,
            "23": -0.15656756894192322,
            "24": -0.13728933402298757,
            "25": 0.0029727772186461,
            "26": 0.2376042076905461,
            "27": 0.011830909090120302,
            "28": 0.11688011181856439,
            "29": 0.16348263222325587,
            "30": -0.2416445359595608,
            "31": -0.3011791988872784,
            "32": 0.1179065795165449,
            "33": 0.00782707549007115,
            "34": 0.062051181560611304,
            "35": -0.1754487336391286,
            "36": 0.22526046186618412,
            "37": 0.15838053248895934,
            "38": -0.10927419221619869,
            "39": -0.1300192457397312,
            "40": -0.0960955874664857,
            "41": 0.03125423060082415,
            "42": -0.0017073189941400218,
            "43": -0.004780375612827073,
            "44": -0.04074805082453848,
            "45": 0.016246225785314646,
            "46": -0.0656240851580659,
            "47": -0.0777514966028209,
            "48": -0.020967382971747328,
            "49": -0.021094686159194843,
            "50": 0.1523217219814564,
            "51": -0.021203847140238735,
            "52": 0.12175176804407828,
            "53": 0.11917443834120538,
            "54": -0.09353250135662197,
            "55": -0.0692727387261425,
            "56": -0.07749381508912931,
            "57": -0.023253797349505397,
            "58": 0.13167215058441908,
            "59": -0.21246373832183288,
            "60": 0.06574971083312706,
            "61": 0.19115938851863196,
            "62": -0.16083526250923308,
            "63": -0.11543371371851822,
            "64": -0.05240282125222901,
            "65": -0.00259029378572897,
            "66": 0.01080383890982794,
            "67": -0.03643148691065384,
            "68": -0.06173827556416482,
            "69": 0.11587362617269684,
            "70": -0.05493381944091486,
            "71": 0.05681322142078177,
            "72": -0.1444791777179555,
            "73": 0.04939426827982632,
            "74": -0.15993660031857737,
            "75": -0.27732475760187963,
            "76": -0.19902192564522056,
            "77": -0.24628629082349784,
            "78": -0.08176767377726159,
            "79": 0.07239431167023798,
            "80": -0.006262631597728932,
            "81": -0.08905305724089296,
            "82": 0.010318182854455028,
            "83": -0.15560403471944337,
            "84": 0.07361210158899814,
            "85": 0.0522180489151963,
            "86": -0.24116331107254943,
            "87": -0.03729808609956155,
            "88": 0.10537823139565307,
            "89": 0.05537400016226598,
            "90": -0.08069689059767064,
            "91": -0.11701534947696507,
            "92": 0.0689837905118097,
            "93": -0.08908459126709303,
            "94": 0.011531555055620146,
            "95": 0.30536294029117034,
            "96": -0.054260985545517906,
            "97": -0.03193996318181154,
            "98": -0.1397013073990289,
            "99": 0.19052582468417467,
            "100": -0.15701217361674694,
            "101": -0.0427858015865385,
            "102": 0.11653070701741451,
            "103": 0.035950524220907415,
            "104": -0.14718527350514685,
            "105": -0.09282161322858476,
            "106": -0.061923331994836565,
            "107": 0.18687576341280018,
            "108": -0.19195629783105755,
            "109": -0.04791332597508716,
            "110": 0.005224144734202178,
            "111": 0.022233601783105017,
            "112": 0.10392871336203317,
            "113": -0.055816407391895924,
            "114": -0.10649221761000842,
            "115": -0.09058502127375473,
            "116": 0.014569605718408174,
            "117": 0.025270021077232266,
            "118": 0.005410460846116134,
            "119": -0.10398192415297951,
            "120": 0.12837652737173114,
            "121": 0.010426869589992692,
            "122": -0.04433150438263516,
            "123": -0.13441118838532437,
            "124": 0.1055360986288034,
            "125": -0.07273071104276532,
            "126": 0.11793651066154077,
            "127": 0.0938181566962352,
            "128": 0.029621736663949325,
            "129": -0.007320853142385162,
            "130": -0.2943863064371367,
            "131": 0.053600939279049686,
            "132": -0.19530291204678452,
            "133": -0.15650022636087763,
            "134": 0.0925634348868251,
            "135": 0.07005558110545408,
            "136": 0.01604798831433388,
            "137": 0.06668576025473132,
            "138": -0.05844192530630288,
            "139": 0.19412514679385243,
            "140": -0.0241490374355311,
            "141": -0.03962819622256371,
            "142": -0.005661000446855311,
            "143": -0.030983904153752722,
            "144": 0.007529847432882381,
            "145": 0.08438934780664256,
            "146": -0.02217115505040011,
            "147": -0.030368397446846773,
            "148": 0.1400301243756868,
            "149": 0.046993696823634086,
            "150": -0.1396192894461008,
            "151": -0.2628301323693234,
            "152": 0.005088355685475697,
            "153": -0.04423234932426715,
            "154": 0.08247358730553038,
            "155": -0.20245156413369994,
            "156": 0.15177371391902286,
            "157": 0.09622659336957208,
            "158": -0.3047840144237557,
            "159": 0.08060044036692399,
            "160": 0.09642394779557768,
            "161": -0.07072596767457998,
            "162": -0.017066763408925753,
            "163": -0.10214692835020277,
            "164": 0.012550729802241103,
            "165": -0.10971933444363179,
            "166": 0.15119566675622453,
            "167": 0.08210768019444956,
            "168": -0.020487550924740538,
            "169": -0.07623432096531167,
            "170": 0.08894510313256801,
            "171": -0.08513592883315013,
            "172": -0.020766453490134968,
            "173": -0.00045312835746050837,
            "174": 0.10683904559564338,
            "175": -0.051787005819375016,
            "176": 0.28070123249200335,
            "177": -0.042877667357572376,
            "178": 0.13258036134280418,
            "179": 0.07439019743749231,
            "180": 0.061357130476530256,
            "181": 0.076286451645221,
            "182": -0.09791245776753518,
            "183": -0.13122253292000932,
            "184": 0.17711318034691417,
            "185": 0.03984126459096948,
            "186": -0.0476930656745124,
            "187": -0.18613442904941432,
            "188": 0.0035592499376275104,
            "189": 0.045621513269404,
            "190": -0.019941611923890122,
            "191": 0.02688380249149737,
            "192": -0.06502319405178447,
            "193": -0.0238660780242329,
            "194": -0.13833932390703385,
            "195": -0.002215590286115555,
            "196": -0.05741351307304534,
            "197": -0.051358099461332345,
            "198": 0.09281841169672246,
            "199": 0.15813106169786653
          }
        },
        {
          "sx": 5,
          "sy": 5,
          "depth": 8,
          "w": {
            "0": -0.026083857545321304,
            "1": -0.12411675412778413,
            "2": -0.03751550565565071,
            "3": 0.13742215685374629,
            "4": -0.14264243616546363,
            "5": -0.10151055814818113,
            "6": 0.010846187005036752,
            "7": 0.09367218408243085,
            "8": 0.1348705307013672,
            "9": -0.017004077120524295,
            "10": 0.03722784692186531,
            "11": 0.10855566166449868,
            "12": 0.14807683221111115,
            "13": -0.014819945926876937,
            "14": -0.04306155890117354,
            "15": -0.07188229047346134,
            "16": 0.011834437022029215,
            "17": -0.02619259906365224,
            "18": 0.10762189783036803,
            "19": -0.0031396620196284136,
            "20": 0.01980878502482673,
            "21": -0.028433823565493642,
            "22": -0.14103796118615466,
            "23": -0.044455312344947984,
            "24": -0.006790557870652927,
            "25": 0.049665256012980365,
            "26": -0.15763128800660314,
            "27": -0.16375561975389719,
            "28": -0.04370541937181483,
            "29": -0.08681548131828053,
            "30": 0.03369547591955524,
            "31": -0.026291205147847108,
            "32": 0.18806402490056692,
            "33": -0.03591261144220344,
            "34": -0.2631028124422139,
            "35": 0.006841447072948243,
            "36": 0.09272327973808979,
            "37": -0.10213996469910562,
            "38": 0.10670734855044545,
            "39": 0.08385039693654765,
            "40": -0.01780969416235435,
            "41": -0.05058356986251353,
            "42": 0.10041165921483099,
            "43": -0.0009317278960644884,
            "44": 0.05920782885874639,
            "45": -0.03915478423279875,
            "46": -0.06425947203633987,
            "47": -0.15534250802498284,
            "48": 0.0029135708846538206,
            "49": -0.07674667284003096,
            "50": 0.08955108509020687,
            "51": -0.026817812041143824,
            "52": -0.09260403708281141,
            "53": 0.04290565077834698,
            "54": -0.1475692868139147,
            "55": -0.1752306341431125,
            "56": 0.11417444385604769,
            "57": -0.1528603586582018,
            "58": 0.019013876953871047,
            "59": 0.038577165366585994,
            "60": 0.005844153045721862,
            "61": -0.06911184485686736,
            "62": 0.00823874741147906,
            "63": -0.013771530255835303,
            "64": 0.05427462634495486,
            "65": 0.012372476466325142,
            "66": -0.23858461593129351,
            "67": -0.06003554183227679,
            "68": -0.006476059504080811,
            "69": -0.05456759225593893,
            "70": 0.07175055141885471,
            "71": 0.07988483241381711,
            "72": 0.09163785366702486,
            "73": -0.029134015236195233,
            "74": -0.03513538054450063,
            "75": -0.10102940489281012,
            "76": 0.05839924908151184,
            "77": -0.06608101179328381,
            "78": 0.03731654301342711,
            "79": 0.0761721586227748,
            "80": -0.058218444525437896,
            "81": -0.20709547191230493,
            "82": -0.025913487987844784,
            "83": 0.10145329505502067,
            "84": -0.092968269906667,
            "85": 0.04642938337692126,
            "86": -0.01428331391407575,
            "87": -0.19930110045842464,
            "88": 0.015697593239343742,
            "89": -0.21076553782074128,
            "90": 0.03233990193217267,
            "91": -0.07649041442759355,
            "92": -0.04770721260289309,
            "93": -0.03696202937355723,
            "94": -0.21643888061645372,
            "95": -0.09878324515436045,
            "96": -0.15433136797894365,
            "97": -0.06867971847617334,
            "98": 0.0451916697118713,
            "99": -0.14617513718830358,
            "100": -0.01988104268478696,
            "101": -0.05502391456259696,
            "102": 0.1428692001242604,
            "103": 0.07940451472909846,
            "104": 0.11199448914390817,
            "105": 0.0586404067496172,
            "106": -0.145350101396869,
            "107": 0.017822372688646435,
            "108": 0.10903212805121708,
            "109": -0.12788785956237322,
            "110": 0.09351142985267327,
            "111": -0.007386575072283269,
            "112": 0.28265269843105556,
            "113": -0.09046696749081383,
            "114": 0.021816855020862717,
            "115": -0.10703192040182657,
            "116": 0.12552923361701904,
            "117": 0.105840818799993,
            "118": -0.0881573976619554,
            "119": -0.16180035267582982,
            "120": 0.050086532943983963,
            "121": -0.1246000643653735,
            "122": 0.057415633251995404,
            "123": 0.20377205970471216,
            "124": -0.21319630074731596,
            "125": -0.06803044527942786,
            "126": -0.05625195547603477,
            "127": -0.16284617229918877,
            "128": -0.004030562985123782,
            "129": -0.10107973258662857,
            "130": -0.10500626494051687,
            "131": -0.07087113732042744,
            "132": -0.017186264744045388,
            "133": 0.07145162149660643,
            "134": 0.03239686450674622,
            "135": 0.21204202672843378,
            "136": -0.020685319101408577,
            "137": -0.04244873824972515,
            "138": -0.18517332666481928,
            "139": -0.2136765647469614,
            "140": -0.14664543215482892,
            "141": -0.047794466053674454,
            "142": 0.17985546713109304,
            "143": 0.1901589775425325,
            "144": 0.12626266377147657,
            "145": -0.021108300304876943,
            "146": -0.16296042984331943,
            "147": -0.10725431591143396,
            "148": -0.034699904776023756,
            "149": -0.11286858393732907,
            "150": 0.14204066368360257,
            "151": -0.16017076648687964,
            "152": 0.35137507002601825,
            "153": 0.017389469703993993,
            "154": -0.1428481334401064,
            "155": -0.09050156859314608,
            "156": 0.18225884023453068,
            "157": 0.20616490712078844,
            "158": -0.2381446346670012,
            "159": -0.21148595220698277,
            "160": -0.0455119636697047,
            "161": 0.02319814191361911,
            "162": -0.07969705450303059,
            "163": 0.015259590125218134,
            "164": 0.10359931598018092,
            "165": 0.01395212563444875,
            "166": 0.020724348180441846,
            "167": -0.03977137639548264,
            "168": -0.06670323649550432,
            "169": -0.001121022318883319,
            "170": -0.19504097198902298,
            "171": -0.05217244091034827,
            "172": -0.19071093171707676,
            "173": -0.10468116103815377,
            "174": 0.08247166961163412,
            "175": 0.2130721004793896,
            "176": 0.0059726897632683545,
            "177": -0.1281594050859619,
            "178": -0.16771887238915023,
            "179": -0.08366456156469329,
            "180": -0.1438177046946355,
            "181": -0.14574879875337726,
            "182": 0.3787885019536541,
            "183": -0.03455073374978995,
            "184": 0.1611677893787551,
            "185": 0.039085841183606945,
            "186": -0.2053727200552608,
            "187": -0.2000345012931769,
            "188": 0.18125060709570176,
            "189": 0.1039796394709861,
            "190": 0.03696379218466286,
            "191": -0.4241247836133413,
            "192": 0.4275105646974449,
            "193": 0.238883215803255,
            "194": -0.19385972334875326,
            "195": -0.2155878159964604,
            "196": 0.22794016495431224,
            "197": 0.14516421271634886,
            "198": -0.19284888588216414,
            "199": -0.22540928821610437
          }
        },
        {
          "sx": 5,
          "sy": 5,
          "depth": 8,
          "w": {
            "0": -0.1153420253237645,
            "1": -0.13831137563571633,
            "2": 0.18088217235587833,
            "3": -0.051987331668049815,
            "4": 0.046855885886910545,
            "5": 0.12729303488798954,
            "6": -0.1305311878326718,
            "7": -0.050863767684019914,
            "8": 0.0387766957654068,
            "9": -0.11067518902596915,
            "10": -0.06907734673013875,
            "11": -0.0638423781908321,
            "12": 0.09830081754559297,
            "13": 0.10044743714339062,
            "14": 0.030418546648230314,
