{"layers": [{"out_sx": 24, "out_sy": 24, "out_depth": 1, "layer_type": "input"}, {"sx": 5, "sy": 5, "pad": 1, "biases": {"w": {"0": 0.017795743808924028, "1": -0.014708208848449447, "2": -0.026395395590385416, "3": -0.054898478357005426, "4": 0.1478011487211356, "5": 0.09928577551394165, "6": 0.22610014484597066, "7": -0.11232533372832118}, "sx": 1, "sy": 1, "depth": 8}, "out_sx": 22, "out_sy": 22, "stride": 1, "filters": [{"w": {"0": -0.09180785084819122, "1": 0.06143517969235854, "2": -0.3283811056979749, "3": -0.16157937507528605, "4": -0.26724913820719276, "5": 0.3731106917607015, "6": -0.21962226913042418, "7": -0.19110139576197682, "8": -0.1419918052510823, "9": -0.3104802359991981, "10": 0.5226623688424721, "11": 0.03138498581821043, "12": 0.1409218084601049, "13": -0.020703156531718468, "14": 0.09494888436703716, "15": 0.11527189797935641, "16": 0.38885690168983805, "17": 0.053682954569461955, "18": 0.30438938689472667, "19": 0.37366189871384464, "20": 0.0766566719408057, "21": 0.41813906173786136, "22": 0.29419135875045854, "23": 0.2684838873279457, "24": -0.00389348919209496}, "sx": 5, "sy": 5, "depth": 1}, {"w": {"0": 0.6405059600283326, "1": 0.18024332453713895, "2": 0.4650457268897819, "3": 0.37831452983882485, "4": -0.13341445193776696, "5": 0.39532755914232515, "6": 0.0164223394282275, "7": 0.07701113535277557, "8": 0.07340993450111964, "9": -0.2257396152383931, "10": -0.27272147655761036, "11": -0.03819346280670812, "12": 0.30530650844270557, "13": 0.22727755321566093, "14": -0.019448843588528577, "15": -0.08337972772140986, "16": -0.3589533211398909, "17": 0.33395110218100504, "18": 0.16032392285489774, "19": 0.1189016271651527, "20": -0.19018759070141075, "21": -0.08894347964302649, "22": 0.10881048303804898, "23": 0.5001729027287164, "24": -0.11463389180773717}, "sx": 5, "sy": 5, "depth": 1}, {"w": {"0": 0.12612861030226183, "1": 0.0795530798991319, "2": 0.2288065331691081, "3": 0.11932753997249429, "4": 0.06213446938402519, "5": -0.15017729255875747, "6": 0.16243284744655523, "7": -0.062416165881601815, "8": -0.09415548244845903, "9": -0.4570048728652933, "10": 0.1047792204551909, "11": 0.04488494563904849, "12": 0.3894822339003691, "13": -0.0511119861173988, "14": -0.4732797081381474, "15": 0.2371890809818468, "16": 0.7494264877617106, "17": 0.5110964317045045, "18": 0.3699287833788489, "19": -0.25081956075777373, "20": 0.30343020925126013, "21": 0.18994104141364354, "22": -0.3682634924732135, "23": 0.03142129964147215, "24": 0.38563339773628946}, "sx": 5, "sy": 5, "depth": 1}, {"w": {"0": 0.10728782087941191, "1": 0.28825590564049713, "2": 0.05811993784369969, "3": 0.5058190486412052, "4": 0.06392097766840567, "5": 0.07130517264128017, "6": -0.06236651909854759, "7": 0.0718651531379985, "8": 0.3977941408746679, "9": 0.28000309023167064, "10": 0.04564002600010674, "11": 0.16036528391380195, "12": -0.22097666032763777, "13": 0.13367899942232425, "14": 0.30878664133492795, "15": -0.008580396570064236, "16": 0.10537121158230449, "17": -0.055693317442941266, "18": 0.20801901926428676, "19": 0.31589070419483284, "20": 0.16067521774717014, "21": -0.03707280202081453, "22": 0.09763341136629067, "23": -0.306379916887851, "24": 0.09399393812421455}, "sx": 5, "sy": 5, "depth": 1}, {"w": {"0": 0.34540592106637774, "1": -0.33045158517510287, "2": -0.002108521593045765, "3": -0.10303077436183462, "4": -0.44947236780626376, "5": -0.09401971907220422, "6": 0.08246525094600968, "7": -0.10681934817271771, "8": -0.1277978371569668, "9": 0.18346981532397452, "10": -0.08627236066730769, "11": -0.05807177711436909, "12": -0.36978851438717864, "13": -0.20817695652744314, "14": 0.20784220556453215, "15": 0.34260287111798177, "16": 0.01631948807168962, "17": -0.028598266788357765, "18": 0.03611728925837398, "19": -0.054323156596630215, "20": 0.3534851867757437, "21": -0.48165972901734266, "22": 0.30641873851107165, "23": 0.1256357026492895, "24": -0.21616022899958978}, "sx": 5, "sy": 5, "depth": 1}, {"w": {"0": -0.5608621358046582, "1": -0.2716704267053752, "2": 0.015437598252607878, "3": 0.057818191036487526, "4": 0.14670110350345458, "5": -0.1330067232876844, "6": -0.10517520387778637, "7": 0.2539505275101952, "8": -0.19129140786548265, "9": -0.22346013682936575, "10": 0.22994679148109948, "11": 0.0332332595995225, "12": -0.09189185150667041, "13": 0.2931133964983033, "14": 0.4435376610077171, "15": 0.2981015069624668, "16": -0.027122705271317143, "17": -0.00431169647530783, "18": -0.3612456510347745, "19": 0.08474074262971504, "20": 0.029558649201928484, "21": 0.14181900496301766, "22": 0.04690062953178017, "23": 0.19978915495443442, "24": 0.27658782302944573}, "sx": 5, "sy": 5, "depth": 1}, {"w": {"0": -0.05535164464739733, "1": -0.2581787124248587, "2": -0.3963610859141035, "3": 0.059788696474951115, "4": -0.1530075929845199, "5": -0.1463009111119392, "6": -0.557101388020354, "7": -0.12846120699861344, "8": 0.14011714303449885, "9": 0.29651644793286797, "10": 0.2437306672126693, "11": -0.2801717741303203, "12": -0.25224471623108397, "13": -0.024643582492191944, "14": 0.1529191737714276, "15": 0.681284577644636, "16": -0.05520898480290282, "17": -0.043120204264146506, "18": -0.0969146793060871, "19": 0.30356760507349034, "20": 0.16483684410587177, "21": 0.0038081898018353607, "22": 0.252390881650834, "23": 0.2063226855317885, "24": 0.30419235444349807}, "sx": 5, "sy": 5, "depth": 1}, {"w": {"0": -0.10886955610514819, "1": 0.14694252692904844, "2": 0.11572296326499619, "3": 0.052480091934475316, "4": 0.02929664434187697, "5": -0.010950502008609893, "6": 0.28644715253697056, "7": -0.02768739595739662, "8": 0.09783738996760749, "9": 0.18266298144143137, "10": 0.28903162367338, "11": 0.25295034316554843, "12": 0.43484021249368776, "13": 0.5520726365500089, "14": 0.0908963739108332, "15": 0.2889985325306308, "16": 0.13594658644100197, "17": 0.5034821207013714, "18": 0.5797922469125597, "19": 0.316915843120122, "20": 0.025053564794173484, "21": 0.13709609054808397, "22": -0.4141831631877488, "23": -0.29087011465976603, "24": 0.059273406671479914}, "sx": 5, "sy": 5, "depth": 1}], "in_depth": 1, "out_depth": 8, "layer_type": "conv", "l1_decay_mul": 0, "l2_decay_mul": 1}, {"out_sx": 22, "out_sy": 22, "out_depth": 8, "layer_type": "relu"}, {"sx": 2, "sy": 2, "pad": 0, "out_sx": 11, "out_sy": 11, "stride": 2, "in_depth": 8, "out_depth": 8, "layer_type": "pool"}, {"sx": 5, "sy": 5, "pad": 1, "biases": {"w": {"0": 0.10014800033005153, "1": 0.10099456745521256, "2": 0.07335576056265972, "3": 0.0465313521843676, "4": 0.10533722619035435, "5": 0.10754823012018731, "6": 0.09165059111995426, "7": 0.10259089678491357, "8": 0.13658115308220362, "9": 0.07361376362318911, "10": 0.09403456113510475, "11": 0.0856200750379449, "12": -0.011043977565010821, "13": 0.07836596560749647, "14": 0.10396430932582848, "15": 0.13607326812672974, "16": 0.11440888269123035, "17": 0.10275096559073026, "18": 0.09672978785330914, "19": 0.12019114997558614, "20": 0.1076799392452385, "21": 0.15354211208629753, "22": 0.10595545976066793, "23": 0.06898892461940713, "24": 0.1377803198808101, "25": 0.10344553184628993, "26": 0.10393837718930417, "27": 0.1392575030543955, "28": 0.11526244746826037, "29": 0.10330651336478457, "30": 0.13213176903461513, "31": 0.17215756313187616}, "sx": 1, "sy": 1, "depth": 32}, "out_sx": 9, "out_sy": 9, "stride": 1, "filters": [{"w": {"0": -0.012365169044175789, "1": 0.16193280258446996, "2": -0.02991549194768629, "3": -0.1192708576388307, "4": -0.006482016106062278, "5": 0.0884723537580726, "6": -0.07316620556335528, "7": -0.06676504243707707, "8": -0.12952489901808903, "9": -0.12484683097570233, "10": -0.019915318985089355, "11": 0.15891733874835423, "12": 0.005068271924895808, "13": 0.08984035217681555, "14": 0.07155016504424178, "15": 0.0887726529384878, "16": -0.018189951001170046, "17": -0.07188396767190751, "18": 0.04680187954136035, "19": 0.0453868976685501, "20": -0.044696325495125096, "21": -0.11422938144615517, "22": -0.0024194324861134073, "23": 0.08263922581961346, "24": -0.017407949586759546, "25": 0.10278632629747424, "26": -0.01563442716256228, "27": -0.06113512170011254, "28": -0.09224367974339906, "29": 0.09357995752349337, "30": -0.04806783149184526, "31": -0.0535084361133782, "32": -0.07675611363962748, "33": 0.08048028506380848, "34": -0.05846088034124769, "35": 0.13896536321397596, "36": -0.06359673945629037, "37": 0.06426351082246112, "38": 0.18117481242712294, "39": 0.13214005487874675, "40": -0.01939394546729953, "41": -0.003262055990119643, "42": -0.0023215643830564736, "43": 0.007223272549567702, "44": 0.017593597386661032, "45": -0.08226065125990996, "46": -0.00424560390645234, "47": -0.06661456860798468, "48": 0.002823670148891287, "49": 0.0008938186914954279, "50": -0.005235580428614428, "51": -0.06490775671072405, "52": 0.006228517229161285, "53": 0.0357492625801126, "54": -0.03967231546583715, "55": -0.08200029764752644, "56": -0.0689050602294729, "57": 0.0025137192386237, "58": -0.08853636779127944, "59": -0.023048799423307134, "60": 0.018877277243162124, "61": 0.0037828737493521385, "62": 0.005590039695274484, "63": 0.038173378288989916, "64": 0.03188298817910997, "65": 0.12805704298029727, "66": -0.10780880276137325, "67": 0.012684341754109167, "68": -0.03665393043668364, "69": 0.042238320805086986, "70": -0.08279494137912867, "71": -0.10286255410675581, "72": 0.030857908243780412, "73": 0.05946498445479817, "74": 0.0031050344082902193, "75": -0.04195599821022795, "76": -0.013268246756488815, "77": 0.01867431466274623, "78": 0.053240297802343954, "79": 0.10538128286280381, "80": -0.13036380229403222, "81": -0.04095040616144694, "82": 0.04786845115305549, "83": -0.01605316141091748, "84": -0.07575337844923354, "85": 0.0012820286350419233, "86": -0.1653956304777877, "87": -0.04949308807223594, "88": 0.08173915714538475, "89": -0.0585147500830323, "90": -0.033793671889357065, "91": 0.13748831165710845, "92": -0.0791295370489244, "93": 0.09346000638918983, "94": 0.102118196491183, "95": -0.05895631781913805, "96": 0.038663779327543266, "97": -0.027020416687764705, "98": -0.039748482836708156, "99": -0.09187304517186975, "100": -0.05231704029817299, "101": 0.13261280359147043, "102": -0.03313237417444639, "103": 0.040430551367950755, "104": -0.05824685949263682, "105": 0.012423772493534081, "106": -0.02663530032116693, "107": 0.0008450891913424826, "108": -0.0759287497254935, "109": -0.061311634406747834, "110": 0.16123912086739692, "111": -0.07777241581942639, "112": 0.09083363103502379, "113": -0.0818446030386544, "114": -0.009074775230306737, "115": -0.16359051615412157, "116": -0.04474419423125265, "117": -0.07875121100877479, "118": 0.1099315779586058, "119": 0.06694078297803893, "120": 0.022253055493666053, "121": 0.05320688128881637, "122": -0.01685217737944361, "123": -0.10722591142614736, "124": -0.00948883143938626, "125": -0.1252362553894648, "126": 0.10964430436230696, "127": -0.0031968735595558602, "128": -0.15460737391512705, "129": -0.017928344149591078, "130": -0.11703382037666055, "131": 0.08242061777014281, "132": -0.1023377532203682, "133": -0.02248042018757418, "134": 0.09280288816521087, "135": -0.0469566948638203, "136": -0.06133470094632441, "137": 0.01778367146115505, "138": -0.03988546042852931, "139": -0.055271150728987944, "140": 0.004468434144567509, "141": -0.013353801183951734, "142": -0.06408115741922077, "143": 0.12640818530309172, "144": -0.06902211496080907, "145": -0.09277579302542352, "146": 0.1609638247745367, "147": 0.13206908251927282, "148": 0.056874573420142675, "149": 0.014907673857110126, "150": 0.0783096937717463, "151": 0.17380622792283054, "152": -0.06826895412919126, "153": 0.060058807861715004, "154": -0.17815374356945524, "155": 0.10621450023969328, "156": 0.09445123863973871, "157": -0.03987700027731647, "158": -0.019058670208482814, "159": 0.08207624274286554, "160": 0.011408320863630528, "161": 0.11124481515090999, "162": -0.17519367828938862, "163": 0.15346231918885617, "164": 0.22890871369252724, "165": -0.10773451715818251, "166": 0.05195414168197922, "167": -0.07735331492010841, "168": -0.12689849510231202, "169": 0.0065977159314268485, "170": 0.09142664919671271, "171": 0.04423913987455013, "172": -0.03173590751943465, "173": -0.05502821636253719, "174": 0.13615934350048867, "175": -0.05054633073706408, "176": -0.06990078189391166, "177": 0.0778838669613947, "178": 0.14415725817079278, "179": -0.05617639326890938, "180": -0.06327510870132015, "181": -0.032950969949316546, "182": 0.06511677504985189, "183": 0.058433345994137624, "184": 0.04356114716724901, "185": 0.07954862488858135, "186": -0.09152822934607863, "187": 0.04354473325633085, "188": -0.022557661547242647, "189": -0.058443790420591085, "190": -0.1144272222923549, "191": -0.22664328814651816, "192": -0.03017383959685582, "193": 0.1774171110319601, "194": 0.06892371503453892, "195": 0.037545075173699885, "196": 0.16046204538844566, "197": 0.037605522210057106, "198": -0.0662031306042824, "199": -0.03731857597052017}, "sx": 5, "sy": 5, "depth": 8}, {"w": {"0": -0.01298099580826358, "1": 0.11049520596614797, "2": 0.042223227768080546, "3": 0.07363994377750202, "4": 0.053893090019521916, "5": 0.06443649316611048, "6": -0.19074796631322727, "7": -0.07678326286614374, "8": 0.02144338586463765, "9": 0.011754654786427057, "10": 0.016450972795955733, "11": -0.030349938233714884, "12": 0.09433718750753009, "13": 0.07114547175177623, "14": -0.004430644840044312, "15": -0.037790494597553397, "16": -0.0298188077786577, "17": 0.05520536445901202, "18": -0.007128087936264206, "19": 0.0979960442884441, "20": 0.06482208084980112, "21": 0.03151177401486299, "22": 0.07011597452462341, "23": -0.00978528171639386, "24": -0.049923150840757026, "25": -0.07836320564319908, "26": -0.03825050800860268, "27": 0.025666857978026217, "28": 0.08090741434559345, "29": 0.04832333892097843, "30": 0.08959282241419632, "31": 0.029240274261939293, "32": -0.19265126014612016, "33": 0.21195689353743116, "34": -0.0894863963348464, "35": 0.16344127536888794, "36": -0.05392317476462874, "37": 0.09211163342086363, "38": 0.05999454229893057, "39": 0.05594995344858719, "40": 0.08203599427216009, "41": -0.02552811122588771, "42": 0.0009647638948573669, "43": -0.1249486136828939, "44": -0.058105057410201055, "45": 0.1638163465005719, "46": -0.09406092905751863, "47": -0.02440258359038645, "48": 0.052586771782293186, "49": 0.059480942164484255, "50": -0.10894763670381392, "51": 0.04111844116206716, "52": 0.0041034004185842255, "53": -0.048057065345341904, "54": 0.11779987910866868, "55": -0.05284614927655863, "56": -0.0687438469381068, "57": 0.006375730025800713, "58": -0.08533457485655761, "59": -0.22980612691232474, "60": 0.0436979797073949, "61": 0.005687758632656875, "62": -0.0770162636360007, "63": -0.0630294994718349, "64": -0.038878377309484825, "65": 0.14306735981530488, "66": 0.027099856554334528, "67": -0.006950423740934714, "68": 0.08271946530294569, "69": 0.11501567109311686, "70": 0.005091657565144145, "71": 0.15675611414834068, "72": -0.04663717679501823, "73": 0.024369969155906994, "74": 0.05261275540179083, "75": -0.12526785627768655, "76": -0.1731303354960644, "77": 0.00703676855167757, "78": -0.02456464840673332, "79": -0.006847959043656809, "80": -0.09156026594270876, "81": -0.07411045238678202, "82": -0.0019551069893388724, "83": -0.031198385609976217, "84": -0.024138874020348977, "85": -0.0328649974266306, "86": 0.04934868265862377, "87": -0.014105660428718246, "88": 0.03139070629448808, "89": -0.08214907730878185, "90": 0.08975305707092303, "91": 0.008428563388606895, "92": -0.02033176642185739, "93": 0.04361934466240032, "94": 0.06678117580477623, "95": -0.16505866290530138, "96": -0.06961972772687874, "97": 0.04806766279262029, "98": -0.045458056526823755, "99": 0.01266417506808344, "100": -0.09918299759832024, "101": 0.07362942285372716, "102": -0.09069721239384124, "103": -0.07529759868516764, "104": -0.08975486608723926, "105": -0.0458341222579859, "106": -0.012940164858851414, "107": 0.09785454369148451, "108": 0.14413771567305927, "109": -0.04430470342638724, "110": 0.006058199944929135, "111": -0.06641874090718909, "112": 0.02216785413315865, "113": -0.06049183209405253, "114": 0.041515608490017626, "115": 0.019300609101132807, "116": -0.1322061048527952, "117": 0.11768555096469677, "118": 0.020215349094751145, "119": 0.06511393282404268, "120": -0.035932507191641684, "121": 0.15390064937715847, "122": -0.05142433391113667, "123": 0.10279057984462414, "124": -0.0010450663769487087, "125": -0.02276065483539669, "126": -0.05446149962335732, "127": 0.08067628198345198, "128": -0.05010291768182934, "129": -0.06551958301157243, "130": -0.0796305645729421, "131": -0.18860038681960353, "132": -0.02899321212597173, "133": 0.11974606536550456, "134": -0.045878190394924134, "135": 0.03217870977787094, "136": -0.022318685694506613, "137": -0.11414595941825849, "138": -0.07595713875560675, "139": -0.1378143899810494, "140": 0.004108044635633509, "141": 0.15712210554740022, "142": 0.02814266410932127, "143": 0.09439508458998622, "144": -0.05277373866683554, "145": -0.0014512182780095986, "146": -0.11287740717537313, "147": -0.054671773215357614, "148": -0.021766444903581542, "149": 0.08223421417561622, "150": 0.08856257116086733, "151": 0.09186352776910506, "152": -0.06485970580081171, "153": 0.023570068766453647, "154": 0.05220377534999053, "155": -0.10235181709526363, "156": 0.08839636169208624, "157": -0.003899631339778265, "158": -0.06667146413064562, "159": -0.1874843167707079, "160": -0.05557643857700881, "161": -0.05648539762344685, "162": 0.002151720104720023, "163": 0.07118959236035163, "164": -0.04714972676645192, "165": 0.07739350400130278, "166": -0.04802796515268212, "167": 0.03584148491169779, "168": 0.005900893769725693, "169": -0.04946084585819018, "170": -0.06862016331949751, "171": -0.053813228264750615, "172": 0.051962986928835865, "173": -0.03826524751774928, "174": 0.0035432049166995434, "175": -0.012639648267223197, "176": 0.036602947540358595, "177": 0.15219525795313393, "178": 0.10813392161785194, "179": 0.10366055403182663, "180": -0.0104272056624225, "181": 0.13034052230811155, "182": -0.04699272024659441, "183": 0.07379830088216674, "184": 0.0253432550888972, "185": -0.028045051547290208, "186": -0.04974186149331275, "187": 0.1452881681770353, "188": 0.07716383425563726, "189": 0.01806620383050655, "190": 0.14172864685945905, "191": 0.04160655769968419, "192": 0.031233773572462983, "193": -0.0742294852813528, "194": 0.009786115053436717, "195": -0.03783891871939189, "196": 0.1318517628097989, "197": -0.08440197208415791, "198": 0.07550652964543947, "199": -0.010915840316252494}, "sx": 5, "sy": 5, "depth": 8}, {"w": {"0": 0.048660522733661775, "1": -0.09457882855556665, "2": -0.09369581064077202, "3": -0.08337120081462142, "4": -0.0460699603824627, "5": -0.06879369606586574, "6": -0.07339724307374647, "7": 0.0036038525242955513, "8": 0.01290455686551199, "9": -0.04214245838335165, "10": -0.0964943303980614, "11": 0.09914909997127708, "12": 0.02913016828657535, "13": 0.051689047599598865, "14": -0.15026474076433355, "15": -0.15161836152247662, "16": -0.10727115441000855, "17": -0.02431751870177127, "18": -0.10986796210296552, "19": 0.09225833766770149, "20": 0.08883775988446586, "21": 0.13546501971713287, "22": 0.06825420100111525, "23": -0.14600612203963972, "24": -0.09123213301440264, "25": -0.07873565668096147, "26": -0.03488789332577621, "27": -0.03005791481795383, "28": 0.007301923504282957, "29": -0.0306945183578867, "30": 0.010470147959145863, "31": -0.10286833987422561, "32": 0.08721117706473759, "33": -0.037010229235863924, "34": -0.07897143340114098, "35": -0.03781748452616043, "36": 0.025718473211793085, "37": -0.10063887851405667, "38": 0.07121307701885383, "39": 0.011219751587006221, "40": 0.09311565096814176, "41": 0.036187228664112135, "42": -0.055413108034646504, "43": -0.08580244787339976, "44": -0.05914330162653561, "45": -0.06405559604524474, "46": -0.024083050296789688, "47": -0.04866359230817113, "48": 0.07835715819506679, "49": -0.1101030190001633, "50": 0.08161951801453816, "51": 0.050175249611342426, "52": -0.03387768904565155, "53": -0.04832918836376405, "54": -0.06362562182168599, "55": 0.028360607758601296, "56": 0.06039815738260797, "57": -0.09836450050162361, "58": 0.025332505935004492, "59": 0.06401516650515551, "60": -0.05673093276460561, "61": 0.035847575065142356, "62": 0.11902471121074941, "63": -0.004848085106775356, "64": 0.057790471887809565, "65": -0.02471628326686111, "66": 0.04831694264260432, "67": -0.07475810262843993, "68": -0.13083428094646307, "69": 0.058551132126011866, "70": 0.011897305150320593, "71": -0.09603006009810269, "72": -0.010275874465226155, "73": 0.039128017861664505, "74": 0.1688673624795787, "75": -0.060707204232383086, "76": 0.02698015085906248, "77": 0.21829708633619135, "78": -0.015721954237888008, "79": -0.127071247170793, "80": 0.04424921194319388, "81": -0.10732063656291524, "82": -0.0802801134204973, "83": -0.09068034748014106, "84": -0.019344264349203, "85": 0.01905263818854848, "86": 0.06964066656264073, "87": -0.037892036117220834, "88": -0.10912655676421736, "89": -0.028101463730283067, "90": -0.019238842637350095, "91": 0.008794075981031059, "92": 0.10769052065064576, "93": -0.04552750787718291, "94": 0.01694810273789363, "95": 0.10672487017558793, "96": 0.04696110668148877, "97": 0.0784060748906744, "98": -0.08834614131219792, "99": -0.0257250197214247, "100": -0.011251613501994884, "101": 0.03458453008487929, "102": 0.054867036915038074, "103": 0.17394856019033214, "104": 0.10001705781578615, "105": 0.06512689816593761, "106": 0.18919483634813067, "107": 0.07604553055636945, "108": 0.031274975662841493, "109": -0.133702220704714, "110": 0.030695836876982293, "111": 0.06114567073801336, "112": -0.025393524942652863, "113": -0.07735004602577854, "114": 0.17010003768075546, "115": -0.009780267505888658, "116": -0.16848009005780398, "117": -0.0554972904215792, "118": -0.04188556800894524, "119": 0.05776155442018001, "120": -0.04823107609534089, "121": -0.13727787577320427, "122": -0.06327499161195559, "123": -0.029224173985149832, "124": -0.08078432385318356, "125": 0.1561150692311092, "126": 0.024280562953504926, "127": 0.028347720133748307, "128": -0.04913187627537754, "129": -0.01975187983394921, "130": -0.07065026253549538, "131": -0.05269824760081752, "132": -0.12292120830640636, "133": -0.014206995513194102, "134": -0.07726806697141439, "135": -0.07323145764629305, "136": -0.03865753966741648, "137": 0.04438260775205225, "138": 0.08931441805834776, "139": 0.14588918993948816, "140": 0.045060400937602885, "141": -0.09782607320963516, "142": -0.1255520557267828, "143": -0.10700225003678474, "144": 0.05547057589191842, "145": 0.09283163420255608, "146": 0.016218056263216925, "147": 0.029738457172273493, "148": -0.07884098986879774, "149": -0.021830698923385124, "150": -0.051019705162172635, "151": -0.047977656778714406, "152": -0.061034249740649686, "153": 0.07390482672937643, "154": -0.06839026531179496, "155": 0.1119460758345505, "156": 0.01192162100015943, "157": 0.0020499983417020325, "158": -0.07407111027303108, "159": 0.008357712289695646, "160": 0.0625366629246813, "161": -0.019852348922843092, "162": 0.05410002927738677, "163": -0.04705066714080903, "164": -0.035477400741171554, "165": -0.0492723670383099, "166": -0.05600062101860972, "167": 0.0500963104329694, "168": 0.060044346288574746, "169": -0.08379837475066738, "170": -0.007704257207677036, "171": 0.06247459360026514, "172": 0.13205503453155695, "173": 0.01874769637511516, "174": 0.041733253915162825, "175": 0.19342120560401582, "176": 0.21150101986375897, "177": -0.0743884952946837, "178": 0.10666603391070195, "179": 0.10727314706752004, "180": 0.047459960970446476, "181": 0.08054162562669397, "182": -0.06358857911113722, "183": 0.014286790856554016, "184": 0.13514387082024096, "185": 0.02644796779882623, "186": 0.024351055486996526, "187": 0.061273767526527474, "188": 0.022853163080843404, "189": 0.09260136478672963, "190": -0.04119343298856619, "191": 0.010599555114665787, "192": 0.05303215464786787, "193": -0.028664084662507965, "194": 0.10860477982100288, "195": 0.03272077567526313, "196": -0.06735329018184757, "197": -0.002277745601485222, "198": -0.033682700644334686, "199": -0.0007522880671971519}, "sx": 5, "sy": 5, "depth": 8}, {"w": {"0": 0.06269538836919582, "1": 0.10843342894835513, "2": 0.023731843167101748, "3": -0.055556145952390834, "4": 0.11154091242712448, "5": 0.0016540725458641305, "6": -0.13743051856233668, "7": -0.009389625164468838, "8": 0.09681302849934578, "9": 0.059575470679473164, "10": -0.0167482747326161, "11": 0.005434528431866923, "12": 0.05788606597976027, "13": -0.07239799446822717, "14": -0.10685567123206748, "15": 0.0053229900839552036, "16": 0.09598513728939434, "17": -0.09215201361194401, "18": 0.05521698475600257, "19": -0.0895766844217524, "20": 0.005627279987937047, "21": 0.028579084841444943, "22": -0.08194089754963632, "23": 0.03488731955829416, "24": -0.01712087749058385, "25": 0.03836874915731795, "26": 0.0660956749035215, "27": -0.04031727630317638, "28": -0.15249290346572258, "29": -0.09369592127461197, "30": 0.08586400794518212, "31": -0.04987857183887328, "32": 0.008284025882110533, "33": -0.021134764905816988, "34": 0.16786003099276756, "35": -0.056351348788859654, "36": 0.08959343033966553, "37": -0.03563943975029701, "38": -0.17753225056938743, "39": 0.08017578162217515, "40": -0.049256183341659196, "41": -0.07420888440400511, "42": -0.02020729062965646, "43": -0.023911021235494358, "44": -0.14986239679453495, "45": -0.10514073640742519, "46": -0.12290863742510515, "47": -0.024943478456444745, "48": -0.06608800449920404, "49": -0.0010010630230144664, "50": 0.08012342108862236, "51": 0.022805318642719567, "52": -0.20536959849329847, "53": -0.12337425254166233, "54": -0.17010721724075328, "55": -0.015699361179306672, "56": 0.06465199572692797, "57": -0.11625400301302612, "58": -0.14427714064621872, "59": 0.018351476739904428, "60": 0.07574071133625111, "61": -0.03030403043602653, "62": -0.05172330155134282, "63": 0.05081162505560829, "64": -0.07545355702411492, "65": -0.11038416300811102, "66": -0.04323037330147056, "67": 0.010448180966256033, "68": -0.05281185415311153, "69": -0.009416327831215588, "70": 0.0662007991305334, "71": -0.00852279426121128, "72": 0.07339678741961614, "73": -0.10764990267166069, "74": 0.02021946794578611, "75": -0.15975229033415309, "76": -0.02536346810306316, "77": -0.042260824666321556, "78": -0.1738494242202289, "79": 0.01395440682864708, "80": -0.004189990584788533, "81": -0.02360241149113915, "82": -0.12714636336281507, "83": -0.003415715747378785, "84": 0.09310941823416266, "85": 0.07096466049907572, "86": 0.014784402899611925, "87": 0.037533134509688704, "88": 0.04478336108909481, "89": 0.06150055661191591, "90": 0.051983099151653445, "91": -0.11848251425129402, "92": 0.03826050525668609, "93": -0.02077291964635132, "94": 0.005879971808808533, "95": 0.09945015273713502, "96": 0.1208866927186644, "97": -0.09222151023789618, "98": -0.02710291460389145, "99": 0.060147027100830114, "100": -0.0627538024654948, "101": -0.021982824113695208, "102": 0.09155341182197974, "103": -0.09788004242706247, "104": 0.0684697166018388, "105": -0.031961717311076845, "106": -0.049266823968652174, "107": -0.020158573928515135, "108": -0.022966662346743445, "109": 0.05505626882797252, "110": 0.05657554089941398, "111": 0.050410655322395394, "112": 0.0640633841895524, "113": -0.08857442108446043, "114": 0.055017519833406824, "115": -0.17262209615862817, "116": 0.003091197494638004, "117": -0.0081742972705357, "118": 0.005718332041274024, "119": -0.03040928247237935, "120": 0.06450098354078657, "121": -0.058061372143089346, "122": -0.10035194072321173, "123": 0.06504594388453938, "124": 0.05841165818832387, "125": -0.017358262807031514, "126": 0.07678771584460373, "127": -0.11582147144395812, "128": 0.12106062753862726, "129": 0.15562654084511604, "130": 0.22017981146339546, "131": 0.1091034763347474, "132": -0.08515488913574586, "133": 0.08708742573163351, "134": 0.01841554004258359, "135": 0.07366189848942688, "136": 0.20051658089293367, "137": -0.10544209812298082, "138": -0.051532414390642725, "139": 0.183940703935911, "140": -0.07995742010592746, "141": -0.05427375258175789, "142": 0.08812778992440433, "143": -0.0081493706603898, "144": 0.01085724106977395, "145": 0.12138619530499485, "146": 0.040473759717804675, "147": 0.15184147041999405, "148": -0.004962118739054741, "149": -0.07581198894941925, "150": 0.08920038339456758, "151": 0.050169440137645654, "152": 0.04862551659963779, "153": 0.059316146920140936, "154": 0.20142532893270762, "155": 0.1070216594211288, "156": 0.018867827676745472, "157": -0.010037238222732234, "158": 0.13841796912821364, "159": 0.10777282521947071, "160": 0.03644396559994485, "161": 0.09814341218725979, "162": 0.10142839382421702, "163": 0.07643768923533886, "164": -0.017404433173002682, "165": -0.029977070204903422, "166": -0.0491800510931836, "167": 0.0641628565180171, "168": -0.0027354873856061087, "169": 0.008697496623523064, "170": -0.01347376081800265, "171": 0.0975775578425423, "172": -0.026754762260790863, "173": -0.10764825369307136, "174": -0.06977707026385581, "175": -0.024593261660544718, "176": 0.05520241171012373, "177": 0.05684679973027353, "178": -0.02403120821859508, "179": 0.11747512950169613, "180": 0.11767630534614586, "181": -0.09081547767551029, "182": -0.03203691551672826, "183": 0.2354770580087618, "184": -0.036630178382469035, "185": 0.10510546465754865, "186": -0.033975826365876, "187": 0.08496662488551275, "188": 0.08853472397932813, "189": 0.09657527597267752, "190": 0.054222363966849936, "191": 0.08082022500062033, "192": -0.14018648315010723, "193": 0.04889327847481775, "194": 0.018993651572013055, "195": 0.029759474610939706, "196": -0.031354727429066774, "197": -0.03758770227142097, "198": -0.09064806729300157, "199": -0.020480920466835945}, "sx": 5, "sy": 5, "depth": 8}, {"w": {"0": -0.10094678672403934, "1": 0.03592833543617614, "2": -0.08788816759607823, "3": 0.09541779505613607, "4": -0.1259630030614081, "5": -0.02974986934345111, "6": -0.09085006465120851, "7": -0.12429800514630006, "8": 0.03915290561176938, "9": 0.039112756022945235, "10": -0.0583750842967454, "11": 0.10572404617877705, "12": -0.01746124511654132, "13": 0.13189490412457483, "14": 0.024527093183219, "15": 0.12339862428902346, "16": 0.028523397364239086, "17": -0.018001163895686, "18": 0.017573465242233743, "19": 0.008537782503895733, "20": 0.02724243409413786, "21": 0.04012607665461229, "22": 0.07225417287155832, "23": 0.01410669461169738, "24": 0.119612825350866, "25": -0.06421701878751689, "26": 0.09453222608971298, "27": -0.011788471332031668, "28": -0.014804214275865934, "29": -0.07553553425628566, "30": 0.057829361649822206, "31": 0.12860596953778225, "32": -0.04049782761720475, "33": -0.14139907807188387, "34": 0.1324741254336853, "35": -0.12210112415629819, "36": 0.027306935274392524, "37": -0.03343794336429482, "38": 0.019980299198534415, "39": -0.07515953201973057, "40": 0.0407925310131148, "41": -0.0969419542808958, "42": 0.06499185519749041, "43": -0.016181429999052768, "44": 0.035881914089320475, "45": -0.05521662405590324, "46": 0.020233675277332712, "47": -0.09054832985255906, "48": 0.05266492472395374, "49": 0.010481971931708129, "50": -0.030288751888056863, "51": 0.1139993855050919, "52": -0.09324141585643761, "53": -0.05753060177158233, "54": -0.036860823138793256, "55": -0.005218793508900869, "56": 0.04611789274437847, "57": 0.038213735799349724, "58": -0.029547298329003657, "59": 0.050159809739188266, "60": 0.07865786980276218, "61": -0.0829134980629714, "62": -0.05954500427968168, "63": 0.013973398987220649, "64": 0.03927546090363886, "65": -0.10978801426172097, "66": -0.04208258877279816, "67": -0.05719027913630066, "68": -0.011355603619272656, "69": 0.013896657294054166, "70": -0.06053079594472709, "71": 0.11745144588207743, "72": -0.07837092135309047, "73": 0.005435718908770351, "74": 0.08736725879977034, "75": -0.20818946829873156, "76": -0.05144892644227141, "77": -0.04430914589218075, "78": -0.02729279542952974, "79": -0.08061495251877228, "80": 0.0076516071935942035, "81": 0.08837907636500966, "82": 0.014586905728919951, "83": -0.03370899281180744, "84": 0.037953283406171025, "85": -0.04950111817178045, "86": 0.047153628197604054, "87": 0.03525559030764498, "88": -0.09741953986309097, "89": -0.13531982479652396, "90": 0.03743552071562162, "91": -0.04871256207242035, "92": -0.023761332084463734, "93": 0.12363941310121981, "94": 0.004000685500345589, "95": 0.037608057460861224, "96": 0.002550279186395052, "97": -0.03441202063010513, "98": 0.05093825028640858, "99": 0.017173782682422364, "100": -0.032492897668313814, "101": -0.06307160364834305, "102": 0.0305092637329276, "103": -0.04579342516907132, "104": 0.07967820961876852, "105": -0.15257115727793458, "106": -0.044068684587796274, "107": 0.03915003281825478, "108": 0.06988433212260457, "109": 0.0615540511113835, "110": -0.07278578007497119, "111": -0.01781465167502567, "112": 0.041391450042285664, "113": 0.008308781597526748, "114": 0.0037937431201936194, "115": 0.12356241146313454, "116": -0.005637640305716266, "117": 0.053154264545242705, "118": 0.04204277433268257, "119": -0.0969351664278983, "120": -0.03894390474257829, "121": -0.06009659641212182, "122": -0.016554177083723004, "123": 0.048841298610770814, "124": 0.05600781955991506, "125": 0.07636583438480506, "126": -0.0186200259342622, "127": -0.08229184763104028, "128": -0.017467021733286733, "129": -0.07063377962476207, "130": 0.03426091904016252, "131": -0.04594119597498122, "132": -0.01803950150737919, "133": 0.04037604741722438, "134": 0.03096338885990889, "135": -0.024005161927081544, "136": -0.044687293447054834, "137": 0.1232622070808089, "138": 0.06205940531406143, "139": -0.13390130822156043, "140": -0.09491724854624838, "141": 0.012679754449649623, "142": -0.1404977014341219, "143": 0.12743413365456388, "144": -0.03528465975867936, "145": -0.05033709259756889, "146": 0.11015520416359442, "147": -0.00876133875615326, "148": 0.008925852882338998, "149": 0.0626078324843545, "150": 0.047991554441950086, "151": -0.005910313682077292, "152": -0.05956274300102041, "153": -0.013681435933278502, "154": 0.024440114877056086, "155": -0.012880467514278642, "156": -0.08569554809067836, "157": -0.07469676696650508, "158": 0.04831085291378842, "159": 0.032531532845953275, "160": -0.15893833047919545, "161": -0.06100954757547275, "162": 0.002518540722225265, "163": 0.057164590078316695, "164": 0.08261456234559811, "165": 0.05076171884073592, "166": -0.009363955243140104, "167": 0.03912919333471796, "168": -0.01645926838018469, "169": 0.1484807271941151, "170": -0.06947149744077571, "171": 0.02659399292946692, "172": -0.0367644491893215, "173": -0.08105755202693278, "174": -0.024552910982528122, "175": -0.008531829453654221, "176": 0.02528205784355083, "177": 0.10810733668707957, "178": 0.02399743685134392, "179": -0.004436426185188855, "180": 0.010154994143695507, "181": 0.004034445936428544, "182": -0.025631866768961422, "183": 0.13273557792883933, "184": 0.14659284495085764, "185": -0.03860566471069038, "186": 0.03576232090396306, "187": -0.015558256636961329, "188": 0.07364514503722468, "189": 0.0013201062864061637, "190": 0.04310204884713685, "191": 0.004031967142607056, "192": 0.014567890357598567, "193": -0.013371777765752412, "194": 0.004694674392312301, "195": -0.000143560884169815, "196": 0.01924113363605798, "197": 0.008409712115150838, "198": 0.06039384132646095, "199": -0.1491762879848432}, "sx": 5, "sy": 5, "depth": 8}, {"w": {"0": 0.08756987348871789, "1": 0.09620118855562984, "2": 0.10973908341064541, "3": -0.03356715009939749, "4": -0.07175418430530289, "5": 0.03457204107168617, "6": 0.06003590606994594, "7": 0.10502866129504575, "8": 0.02454613406807664, "9": 0.04059318459125115, "10": 0.00007542845982853741, "11": 0.16166910222270364, "12": -0.09043430059041106, "13": 0.062375797768152455, "14": -0.06803618699145308, "15": 0.2025743893684975, "16": 0.04526043969236145, "17": 0.050054631373193395, "18": 0.15154158105647805, "19": 0.035617034203018795, "20": 0.07822049367670802, "21": 0.0270017093259809, "22": 0.01010658568048128, "23": 0.1133470950407152, "24": 0.15246588368123018, "25": 0.004659576961094782, "26": 0.012692725220638912, "27": 0.07567286975818172, "28": 0.10924013546816644, "29": 0.18017245546924182, "30": 0.09351756759128453, "31": 0.11739904916961613, "32": 0.13427546186306016, "33": -0.14963893127126615, "34": 0.1084547679609662, "35": -0.08919737761272539, "36": 0.10833425531367843, "37": 0.04090017651863752, "38": 0.10918748737313397, "39": 0.10999078956697053, "40": -0.006373608800587139, "41": -0.0664477603851612, "42": -0.05602355824688058, "43": 0.022593753781074893, "44": -0.09045261346410156, "45": 0.018040012636007973, "46": -0.0559844299397913, "47": 0.04471559197087645, "48": -0.08868181374138542, "49": -0.06985589791225554, "50": -0.05957787542246997, "51": 0.10104946828971338, "52": 0.09857289557858105, "53": 0.03921987157207917, "54": -0.014508779455903825, "55": 0.05822395625891885, "56": -0.0297561015665532, "57": 0.015671505171122344, "58": 0.08861703197685136, "59": -0.0233033134038665, "60": 0.0115890663024947, "61": -0.09699226209539691, "62": 0.07208132962324534, "63": 0.08291435576385024, "64": -0.05563671711196371, "65": 0.04038838618706943, "66": -0.04887365053211037, "67": 0.06843665528913584, "68": -0.051988382640601516, "69": -0.0014907887825065975, "70": 0.029555549552574722, "71": 0.07417971084429548, "72": 0.030958765203067846, "73": 0.051579691526743084, "74": -0.07566612259840785, "75": 0.16336187926444126, "76": -0.019128530691941283, "77": -0.09690656072194279, "78": -0.014959666440121838, "79": 0.05645574557538023, "80": -0.0025621553848315212, "81": -0.029380449176600456, "82": 0.018375263820278424, "83": 0.09701845901191421, "84": 0.1506688815370588, "85": 0.000502468975291133, "86": -0.08028692263292482, "87": -0.19279593616858912, "88": -0.12264386274089759, "89": -0.034990140455237254, "90": -0.05136591752093345, "91": -0.011897954853670371, "92": 0.004598550996374967, "93": -0.041999407122250934, "94": -0.010894537078726818, "95": 0.038326168068069634, "96": 0.028605899584226078, "97": 0.13691608688258772, "98": 0.06977568587771732, "99": 0.002087454768749297, "100": -0.06661366280753452, "101": 0.008018664378437701, "102": -0.020109818682588952, "103": -0.06781170289271769, "104": 0.09002650368675083, "105": -0.04810097660829862, "106": -0.032656072471475533, "107": -0.022275267571947612, "108": -0.06641735798933966, "109": 0.0320292797043058, "110": -0.10434513901111005, "111": -0.003839580258463355, "112": -0.09743512990266671, "113": 0.050890407385646715, "114": -0.010210682728224865, "115": 0.19150277147897785, "116": -0.008702498085039242, "117": 0.05949541061656353, "118": -0.11742220772930866, "119": -0.17560352545583788, "120": -0.06465009788664858, "121": -0.10607536148120655, "122": 0.04388730213547362, "123": -0.035801499807568006, "124": -0.10310819452398892, "125": -0.001986783797270222, "126": 0.0038865514066924608, "127": -0.12696691733357088, "128": -0.02339063593362609, "129": 0.0628708155299291, "130": 0.018875796630203445, "131": 0.0643241547196028, "132": -0.058009210371853845, "133": 0.07371905567987272, "134": 0.005956365933047206, "135": 0.01769606177507226, "136": -0.06217980595352745, "137": -0.04238802464486545, "138": 0.0276425383887735, "139": -0.002894223685044125, "140": 0.1613193393089351, "141": 0.027451011810289933, "142": -0.03885711395186123, "143": -0.07634727035005869, "144": 0.02748495294183826, "145": -0.060203047651281705, "146": -0.029711669280410097, "147": -0.03369771199245557, "148": 0.012717128966185806, "149": 0.00896807451218469, "150": -0.009983503229270104, "151": -0.02449574333147522, "152": 0.0032618104154254882, "153": -0.058669631132009674, "154": -0.0992084871488876, "155": -0.03007593699201283, "156": -0.001295291916920599, "157": -0.09604514080442124, "158": -0.11200605144009497, "159": -0.11421996021977102, "160": -0.08603469000671707, "161": -0.09777135996882326, "162": -0.0255602235201642, "163": -0.016291034416129172, "164": 0.1276184914599442, "165": -0.045509618308952386, "166": -0.010618574390332267, "167": -0.06729807364434542, "168": -0.02389316478369753, "169": -0.07560429650754423, "170": 0.03374316048443328, "171": 0.08938126786789946, "172": -0.0411073925560311, "173": 0.19508498328111504, "174": 0.057595911967967324, "175": -0.13623496064121815, "176": 0.015165777575291363, "177": -0.09302821542285168, "178": 0.07001129541471326, "179": -0.02403998091631311, "180": 0.047490843240323426, "181": 0.052771716419686324, "182": 0.03725932561018497, "183": -0.15353811570929687, "184": 0.019155956631628304, "185": -0.1461943670571899, "186": -0.0632250959154849, "187": -0.07151080692249184, "188": -0.07386233400997462, "189": 0.008138345563066486, "190": -0.039411494397067245, "191": 0.04546811487350273, "192": -0.04730722598000694, "193": -0.09934346094897363, "194": -0.04822602978399931, "195": 0.08559510735447244, "196": -0.011071966819383695, "197": 0.12384776907549322, "198": -0.07144120028058386, "199": 0.08863227236413428}, "sx": 5, "sy": 5, "depth": 8}, {"w": {"0": 0.06265116454594453, "1": 0.048538570224256505, "2": 0.11006081973412607, "3": -0.051857421801409134, "4": -0.01823393086983161, "5": 0.07525238041238658, "6": 0.17243796069997655, "7": -0.07806842735429063, "8": -0.04698298160509196, "9": 0.02468891987496263, "10": -0.028199621693514632, "11": 0.07311860842214994, "12": -0.03415880862941041, "13": 0.0027622540060707555, "14": -0.14670206601778582, "15": 0.05123498970044084, "16": 0.028664033098834047, "17": -0.019561926931777524, "18": 0.10534999933403047, "19": 0.06723933542745014, "20": 0.012304976506633253, "21": -0.03887591428545497, "22": 0.09055437165384314, "23": -0.05976214904242408, "24": -0.08052359130429278, "25": -0.07135940098404775, "26": 0.053914479215500896, "27": -0.15361911404642176, "28": -0.17056897068861154, "29": -0.07667435328346084, "30": 0.02052279450130246, "31": 0.10896513655259796, "32": -0.050849064540356294, "33": 0.01292769289744382, "34": -0.041499593061347324, "35": -0.08039361160597909, "36": 0.028550801672804636, "37": 0.033951754936488755, "38": 0.005350713691919505, "39": 0.028972906637141575, "40": 0.005457639786263316, "41": -0.0785539895999426, "42": -0.004907642944880695, "43": -0.002870201921248594, "44": -0.03617213199545924, "45": 0.0734905684467527, "46": -0.07451946913992065, "47": 0.0639505589482514, "48": -0.05635208281931258, "49": 0.052378874763309956, "50": -0.06386689074004706, "51": 0.004666505816832285, "52": -0.04983193873718691, "53": 0.1584469832126464, "54": 0.005245876009832725, "55": 0.1039438218205508, "56": 0.06007242842164534, "57": 0.006440386166369525, "58": 0.001143216238650313, "59": 0.02580135182560884, "60": -0.05951037727752415, "61": -0.1228906174902505, "62": 0.06383956642372059, "63": 0.030480550180168587, "64": -0.06376552505402429, "65": -0.07597525376064046, "66": 0.04094173541828242, "67": 0.14634184767046746, "68": -0.07696985485489378, "69": -0.12257584257869003, "70": 0.06942616346727908, "71": 0.034454314316280696, "72": -0.044558927713368716, "73": -0.007340975390576418, "74": -0.1507227228876769, "75": 0.00008503288475409049, "76": -0.005146518810076747, "77": 0.07412654197809446, "78": 0.022238396426804898, "79": 0.02747481103732241, "80": -0.07559945278313901, "81": 0.08323979496316218, "82": 0.06465083080125861, "83": 0.06141924139078009, "84": 0.12675699059704865, "85": 0.049859104389194255, "86": -0.12820889613327488, "87": 0.06522988906564169, "88": -0.0015346886463304167, "89": 0.10773980049957141, "90": 0.050012376851742084, "91": 0.07724678527612915, "92": -0.024223972176312385, "93": -0.01892324488354804, "94": -0.038704625745266986, "95": -0.0006236805837395467, "96": 0.023066583180323494, "97": -0.13542088534424182, "98": 0.004177930400206278, "99": 0.05160352136507317, "100": -0.12367559153502004, "101": -0.10282268869061688, "102": -0.12706438901202052, "103": 0.06781890072782708, "104": -0.02338114876021022, "105": 0.03901740898566727, "106": -0.06010292835796869, "107": -0.06009123076325609, "108": -0.05635620813795486, "109": -0.005127384360240584, "110": -0.021532565969739386, "111": -0.0802729650603407, "112": -0.01081705781597611, "113": 0.02135432868226428, "114": -0.16733951986526732, "115": 0.005866307125264589, "116": 0.04121937989125171, "117": 0.004093939266595621, "118": 0.027248919992011875, "119": 0.07371378304940905, "120": -0.0048379780906874096, "121": -0.05040138459609053, "122": 0.0753372046446798, "123": -0.07245357151138292, "124": -0.09104456659331775, "125": -0.01507317025008899, "126": 0.012427133918954308, "127": 0.07874345283363789, "128": -0.07813630763462302, "129": 0.07090718825237456, "130": 0.11033257817929587, "131": 0.05222539516443333, "132": 0.022693077689207846, "133": 0.030363417578952518, "134": -0.05411285709578774, "135": 0.07225940769580488, "136": 0.09903887638507837, "137": 0.07086875542620705, "138": 0.013055318118754121, "139": -0.07071159135371329, "140": 0.0625283702255585, "141": 0.011757812833790873, "142": -0.16686805299377241, "143": 0.11843428080618618, "144": 0.0041307614419255345, "145": -0.06558780804100822, "146": -0.031969957211895994, "147": -0.07415119069779116, "148": -0.008697887253047978, "149": -0.06051035892304153, "150": -0.04498836320468066, "151": -0.15165930118330506, "152": -0.06698370344228602, "153": -0.018368259741253102, "154": -0.05524920820064899, "155": 0.024527262378597172, "156": 0.03857734697489039, "157": -0.08746830155387546, "158": 0.0029034405436294507, "159": 0.08878624189115245, "160": -0.02596138226742647, "161": 0.00508677106539003, "162": 0.027201031118132064, "163": 0.09702266094605297, "164": 0.046311996066915176, "165": 0.08908549834441185, "166": -0.05637046762859947, "167": 0.08528892920467476, "168": -0.0002213264941496337, "169": 0.06044377868388818, "170": 0.07966702934157877, "171": 0.2325221695240132, "172": -0.0045235306514599645, "173": 0.04929768505856885, "174": 0.006622346841601056, "175": 0.015834972526144027, "176": -0.040871563796661355, "177": -0.015728876949102615, "178": 0.052422468036293746, "179": -0.2051492242330989, "180": 0.06658864089582556, "181": -0.07679538814534087, "182": -0.07491224064691121, "183": 0.08204519128638511, "184": 0.11756499031908459, "185": -0.07130057592840892, "186": 0.03950903671378597, "187": 0.02110796739212398, "188": 0.11672924078486856, "189": -0.015448310209335408, "190": 0.06591093494651619, "191": -0.03468638393615513, "192": -0.06710456871263819, "193": 0.001602823197945435, "194": -0.21770901155881364, "195": 0.10009443881580939, "196": 0.004294689659453467, "197": -0.05390816058093108, "198": -0.11169017179173965, "199": 0.017091600309574687}, "sx": 5, "sy": 5, "depth": 8}, {"w": {"0": -0.031726756775167335, "1": 0.023753773722107588, "2": 0.16818530215967656, "3": -0.0004987927781466875, "4": 0.07191804154177978, "5": 0.09073311114634759, "6": 0.049704585668994106, "7": -0.02558828281613214, "8": 0.09739755394759401, "9": -0.052182117295126604, "10": 0.015254156464930922, "11": -0.01352876691536005, "12": -0.139098508866341, "13": -0.04089656956016907, "14": -0.11454168365862136, "15": 0.12415885219345554, "16": 0.05031384228745306, "17": -0.09131652194796676, "18": -0.15012731845678906, "19": 0.12018158369208176, "20": 0.022408535694834707, "21": -0.040082675504988216, "22": 0.13898684604657233, "23": 0.07802273517602958, "24": 0.158834066100847, "25": -0.02796338247290067, "26": -0.08490643177749306, "27": -0.011792984375845646, "28": -0.013658906546509345, "29": -0.17297560174643908, "30": -0.10387803131166454, "31": -0.025319486268125403, "32": 0.063363819062342, "33": 0.11198923737464042, "34": -0.0355065696438633, "35": -0.013703605392550108, "36": 0.040920777374030715, "37": 0.002816327357967495, "38": -0.12009632339198031, "39": -0.07709673736967504, "40": 0.1722640030842973, "41": -0.08397935296350403, "42": -0.02041995833322432, "43": 0.1575909108805513, "44": 0.049867307667469746, "45": -0.03168580407039901, "46": 0.07154460777078304, "47": -0.03216076935497142, "48": -0.07311492163206712, "49": -0.02069118384305586, "50": -0.07232111912267149, "51": -0.1126751541793972, "52": 0.015301017457458963, "53": 0.04460637390336853, "54": 0.029793850506061415, "55": -0.014170048684842706, "56": 0.04953063578558973, "57": -0.01398578882092731, "58": -0.09313885749765709, "59": -0.1270824297792514, "60": 0.019070943981931557, "61": 0.016013372708335763, "62": 0.03663121558914937, "63": -0.061101189927667866, "64": 0.01852572791775576, "65": -0.026346236680361526, "66": -0.024011148862996903, "67": -0.10259495352627818, "68": -0.062199331972411114, "69": 0.05903154467007787, "70": -0.01629876733255406, "71": 0.10826239148595192, "72": -0.08115816187400028, "73": -0.1573562596794367, "74": 0.06739646595584128, "75": -0.014145157836459745, "76": 0.0406623892846389, "77": -0.038060282651402655, "78": -0.06629090999345243, "79": 0.12173060569696392, "80": 0.1489656805308326, "81": 0.005253248099214897, "82": -0.08453605631412911, "83": 0.0120444733412319, "84": 0.04141742180991548, "85": 0.047302904437502714, "86": -0.05037352356036553, "87": 0.1388866846302144, "88": 0.02331173611542273, "89": -0.10020256541360642, "90": 0.036391108313205016, "91": 0.02631313417871305, "92": -0.0022358928473679407, "93": -0.008234843551186255, "94": 0.003907730417596254, "95": -0.05023392264125385, "96": -0.0066224584031077185, "97": -0.09744038045726582, "98": -0.11879775869834953, "99": -0.09553595407917229, "100": -0.050864090447556506, "101": -0.06132775323146199, "102": -0.05994920810133525, "103": -0.050512965560600934, "104": 0.09832319755880446, "105": -0.14032713249541265, "106": 0.10887858843229192, "107": -0.01078558571851534, "108": 0.059026666125694585, "109": 0.023131894013500326, "110": 0.011992025890555596, "111": -0.014620806889449535, "112": 0.08379658946905624, "113": 0.061549323606060496, "114": 0.013440106628226867, "115": 0.00702751281828562, "116": 0.16701564487597773, "117": 0.07140013371763758, "118": 0.012829192886384715, "119": -0.13162863517827728, "120": -0.040144977604206974, "121": 0.07751287267356509, "122": -0.02863413022544136, "123": 0.08359972120389432, "124": 0.0255184281266443, "125": 0.003387741288931886, "126": -0.05598350757222422, "127": -0.05090446827557946, "128": 0.05021852473019836, "129": 0.009868248935984902, "130": -0.0019207503432197843, "131": -0.08600706313659297, "132": 0.06689169850884372, "133": 0.0739576616184335, "134": -0.09147230814706704, "135": 0.026085408097980826, "136": 0.11615585692329772, "137": 0.06733719982645776, "138": -0.01543407890682611, "139": -0.04043650106931733, "140": -0.050669245762874994, "141": -0.09280270702515123, "142": 0.0042197613137603405, "143": 0.013503240122292584, "144": 0.14560157405604046, "145": -0.011869868683719314, "146": -0.02726367688609929, "147": -0.09702420123615792, "148": -0.14373663108546247, "149": 0.19434378776565975, "150": 0.0991011206833818, "151": 0.042860107067156004, "152": -0.1098949618733461, "153": -0.08847047808133843, "154": -0.1014078650731596, "155": -0.011902356828423962, "156": -0.10266341172859603, "157": -0.03396445106843111, "158": 0.005438805830422693, "159": 0.054825615916308836, "160": 0.011276008121165214, "161": 0.05749635300247703, "162": -0.050635049766283226, "163": -0.1439746720220515, "164": -0.04606919275185837, "165": -0.08606500497017784, "166": -0.013180225175613866, "167": -0.06857794140601975, "168": -0.11807785339741797, "169": 0.04237776484757848, "170": 0.0000179042068037247, "171": -0.14035948461045133, "172": -0.08117218230649519, "173": -0.016615871124051742, "174": -0.0912109026787781, "175": 0.02991823140157086, "176": 0.06025742183108844, "177": 0.03322464381656927, "178": 0.1258407143715824, "179": 0.008858667049815572, "180": 0.06095463924389225, "181": -0.09046178865415931, "182": 0.07784362723058645, "183": -0.09613243567300629, "184": -0.010310370368987208, "185": 0.12804161142902012, "186": -0.03423960912052425, "187": 0.019963576569307785, "188": -0.03490565277407116, "189": 0.05341233585603109, "190": -0.028065096941986025, "191": -0.013360593255928381, "192": 0.011707355237339423, "193": -0.05398382017777926, "194": -0.06544340023277494, "195": 0.07367545110772372, "196": -0.11265723706443852, "197": -0.04822037862798116, "198": -0.042992507665993225, "199": 0.03599054140370352}, "sx": 5, "sy": 5, "depth": 8}, {"w": {"0": 0.12056966298936495, "1": -0.0457182563238106, "2": 0.04293693167441667, "3": 0.010427972033770438, "4": 0.006120144676711606, "5": -0.037057328746364034, "6": -0.05479663964705353, "7": -0.18980056466604872, "8": -0.09390907135145443, "9": 0.05406118160797791, "10": 0.05083257628713573, "11": -0.05010749692884833, "12": 0.049001998532913524, "13": -0.04213099984354289, "14": 0.043989359933623934, "15": -0.03406371145112477, "16": -0.0855332670464199, "17": 0.04152952955417005, "18": -0.0267444919769316, "19": 0.027351485970312353, "20": 0.1287725532972717, "21": 0.04031168632082228, "22": -0.035131091748931795, "23": 0.04584439518628731, "24": -0.043440823875460034, "25": 0.05941056483179217, "26": -0.02189806350086321, "27": -0.1003113544959268, "28": -0.10935927715700194, "29": 0.001141455105576723, "30": 0.013055834903219439, "31": -0.06731670987933372, "32": -0.046190657984318303, "33": -0.02274849400597273, "34": 0.07457276040132356, "35": 0.03831963679122032, "36": 0.005308969728417322, "37": -0.04954211183276045, "38": -0.16006560861411448, "39": -0.05531355136252651, "40": -0.06620903761717384, "41": -0.06886288863889875, "42": -0.02516353339968768, "43": 0.06603534830530015, "44": -0.006202275494439257, "45": -0.017820052323850515, "46": -0.039703327782559666, "47": 0.03355577963259348, "48": 0.1541574857467485, "49": -0.03031680278502637, "50": -0.18790993840510117, "51": -0.007012047563319498, "52": 0.04849685729929924, "53": 0.010326689928825218, "54": 0.014386489035712675, "55": 0.03595605001431755, "56": -0.002854715655173054, "57": -0.09024302133311807, "58": 0.002245918334790635, "59": 0.005808895093341233, "60": -0.0819735144852437, "61": -0.05819779885794893, "62": -0.034495376957948666, "63": 0.05601685358229974, "64": -0.0832180681567554, "65": -0.1915375261377652, "66": 0.11556514544796292, "67": -0.0030266546309694223, "68": 0.0036275089383382515, "69": -0.032872847037677407, "70": -0.01619454604656843, "71": -0.07682888457397713, "72": -0.019812738567912023, "73": -0.048203312489603654, "74": -0.04602420745271107, "75": -0.13594183966211357, "76": 0.11904678482081547, "77": 0.01718991330199848, "78": 0.07650204049750921, "79": -0.08857513773980556, "80": -0.06571088294487065, "81": -0.013541246364855014, "82": -0.0767907657104843, "83": -0.044556555620613926, "84": -0.059620563223372815, "85": -0.018848710122003117, "86": 0.07869614113678086, "87": -0.019132722802967017, "88": 0.041130609619290166, "89": -0.11363235683455983, "90": -0.019017055721537383, "91": -0.09926645924622178, "92": -0.02843342162715148, "93": 0.006477474568014072, "94": 0.030799243419608366, "95": -0.09379184742880642, "96": 0.025945458350008454, "97": 0.012195271933697922, "98": -0.0751039894361723, "99": -0.04700770070212581, "100": -0.08415884014413234, "101": 0.06909275595476824, "102": -0.07738961008365763, "103": -0.1293844476990856, "104": -0.024420281055517017, "105": 0.016251203283832016, "106": 0.028554482342552347, "107": 0.07296960450204634, "108": -0.049291524522045826, "109": 0.03552550492178342, "110": -0.05779283250966246, "111": -0.014177450286111289, "112": 0.006789179522491211, "113": 0.03978556838082428, "114": 0.12098171886212143, "115": -0.013407676290998136, "116": 0.10713394819572332, "117": -0.02327478238492907, "118": 0.09551292980152017, "119": -0.019622535081341947, "120": 0.030771409076647445, "121": -0.06336531822745654, "122": 0.09466500595887238, "123": 0.09828052156543869, "124": 0.021191797480956426, "125": 0.04407800492248507, "126": -0.06837885100024937, "127": -0.01240849929113922, "128": 0.10980522687885878, "129": 0.05437900145854862, "130": -0.11220763919406399, "131": 0.016474523264030757, "132": 0.04183571391756983, "133": -0.0869536486907649, "134": -0.0256753011023721, "135": -0.07116519980422437, "136": 0.14192853064536012, "137": -0.09168157978685407, "138": 0.02609317743989368, "139": 0.05913645886073418, "140": 0.027940149493214952, "141": 0.056954574751654996, "142": 0.08220075141311514, "143": -0.1567204721205129, "144": 0.05593485597199568, "145": -0.09679011117635662, "146": 0.10889068485675235, "147": 0.08939423507794687, "148": 0.05246623860343185, "149": 0.1250691169147452, "150": 0.057164682285009795, "151": -0.026005478245566212, "152": 0.12806788652442322, "153": 0.022171163881185806, "154": 0.0849184471792629, "155": -0.00002896193271569608, "156": -0.043019559723330214, "157": -0.013088634163936899, "158": 0.1508172132200661, "159": 0.03253128436459199, "160": 0.005838901814129949, "161": 0.0013050975573785522, "162": 0.05279280646630015, "163": 0.12177314688601057, "164": 0.12025265398341142, "165": -0.053492431067725395, "166": 0.11664320391805391, "167": -0.06751268358423751, "168": 0.0028007472256589678, "169": -0.027087273712685954, "170": -0.1162097934663583, "171": -0.005364790389534554, "172": 0.024881681116895416, "173": 0.03972315736164099, "174": 0.037411072662668354, "175": 0.012266024929911143, "176": 0.10483824734755934, "177": -0.06255948533468095, "178": 0.09272312569030239, "179": 0.01650242152853217, "180": 0.01421586112674547, "181": 0.07269964474387443, "182": 0.09812587959918191, "183": 0.22531741103076705, "184": 0.059163147406645376, "185": 0.09912349260874087, "186": 0.07188907652135802, "187": -0.09577132424005586, "188": 0.09352359753772534, "189": 0.13413036708797335, "190": 0.039849949485964105, "191": 0.07126427387326209, "192": 0.1635705258186109, "193": 0.023370688275608835, "194": 0.04051727703968425, "195": -0.02119969658765938, "196": 0.08020148924383388, "197": -0.02904893763484878, "198": -0.10045765824378902, "199": -0.05063921638150371}, "sx": 5, "sy": 5, "depth": 8}, {"w": {"0": 0.06605764806250207, "1": 0.16785289904682904, "2": 0.16344660111237408, "3": 0.06099155444676379, "4": 0.03608304503706524, "5": 0.005120221187462064, "6": 0.050723918112167234, "7": -0.029733312848557108, "8": 0.12541786127460322, "9": 0.06275520877333342, "10": -0.00378570156031214, "11": 0.03406146804248144, "12": 0.00105487687665463, "13": 0.017144503889690823, "14": 0.0375197058847123, "15": -0.14148128761043163, "16": -0.03008752119346736, "17": 0.07325748148010801, "18": -0.03878559589769162, "19": -0.02663610615702556, "20": 0.05920639609974958, "21": 0.015535631658498361, "22": -0.06314044730623013, "23": 0.09432455719962891, "24": 0.021243222506901416, "25": -0.10946001799924299, "26": -0.005496344764642192, "27": -0.11682148325191241, "28": -0.08108799223571858, "29": 0.002045738555603146, "30": 0.15625970384296187, "31": -0.06454245841450511, "32": -0.011320452382703705, "33": -0.18431942463397416, "34": -0.02744669340251378, "35": 0.04601351456130386, "36": 0.045958470789445906, "37": -0.09772679286877375, "38": 0.06724707404827474, "39": -0.0517126831082276, "40": 0.06075313813514418, "41": -0.008883956769762023, "42": -0.030520042603894567, "43": 0.015982160507225642, "44": -0.058828349321461186, "45": -0.08937125569505792, "46": -0.06850944440110208, "47": 0.11600382477491547, "48": -0.12345984038760846, "49": -0.12034094318537512, "50": 0.04828468747759341, "51": -0.047463618213047724, "52": 0.06730069104035577, "53": -0.023905015742525466, "54": 0.10898413825361884, "55": -0.006910278604252782, "56": 0.008905451191121414, "57": 0.20534406528029522, "58": 0.06200033990325576, "59": 0.04856414799802574, "60": 0.06876631216696054, "61": 0.10973688142360724, "62": -0.009248013795696506, "63": -0.0033158404552037155, "64": 0.05340400859536379, "65": -0.10339243521899566, "66": -0.14229280593126223, "67": -0.07449063464043275, "68": 0.0954306660650793, "69": 0.10628781588054327, "70": -0.06767513226769602, "71": 0.013725221851413116, "72": 0.012652408813206718, "73": -0.013965093748118397, "74": -0.034519876537947955, "75": 0.03068623168374549, "76": -0.10669456108977539, "77": -0.1420342212116269, "78": 0.03615856131801551, "79": -0.05973470908769996, "80": 0.11131037690422492, "81": -0.08567190546623227, "82": 0.14276394769531645, "83": 0.05261505911181192, "84": -0.06728987260360061, "85": 0.031118617166300818, "86": -0.036772454342512334, "87": -0.005129780941216499, "88": -0.1463763694221742, "89": 0.1185094701273055, "90": 0.0004659171248704637, "91": 0.0933941521730242, "92": -0.0003885875629362085, "93": 0.07454559027428632, "94": 0.04472285957074642, "95": -0.0639713055979697, "96": -0.08288968599047522, "97": 0.09793153909542629, "98": 0.08285736555293388, "99": 0.002013163936793095, "100": -0.09323950870550686, "101": -0.06026425577032354, "102": -0.027401149417604485, "103": -0.11825441148664469, "104": 0.1339787426492897, "105": -0.009151266012841809, "106": -0.038958458748986055, "107": -0.03544929785226773, "108": -0.06865784533562726, "109": -0.08369753483415249, "110": -0.07823390561464297, "111": -0.08659773003856153, "112": 0.09950967745772538, "113": 0.02144250215827683, "114": 0.07425719372137111, "115": -0.05257871327978236, "116": -0.04883552794552351, "117": -0.02234825035060929, "118": -0.06065720770684567, "119": 0.03763764235374052, "120": 0.0044609629315963085, "121": 0.037609913592778155, "122": 0.07244671918964074, "123": 0.11428655435723122, "124": -0.047140315447092206, "125": -0.0866958539748971, "126": 0.24209073073567539, "127": 0.026514918463573477, "128": -0.07603609389310291, "129": -0.2152051175681126, "130": 0.0681348445719763, "131": -0.010504057764600097, "132": -0.0356156696045709, "133": -0.05303109266065991, "134": -0.012278448877394248, "135": -0.07492544324066028, "136": -0.09419482121108814, "137": 0.03319762145545943, "138": 0.10099917664044618, "139": -0.06583520257662615, "140": -0.018881719122462597, "141": -0.10965789994410363, "142": -0.015613641586507975, "143": 0.09909264944447338, "144": 0.09982587975459661, "145": 0.006423621767174282, "146": 0.04782896689222593, "147": -0.001109491301757109, "148": -0.0054557881215758245, "149": 0.0077496906983136205, "150": -0.03191906614772603, "151": 0.039735919353757906, "152": -0.0673815641660534, "153": -0.10868632747849014, "154": -0.024289599758239022, "155": 0.04515220857922055, "156": -0.12387900403129247, "157": 0.02022912837362753, "158": 0.008130995575155788, "159": 0.066956935321034, "160": -0.034891715510060727, "161": 0.013413416119141194, "162": 0.17357461909139466, "163": 0.09349633905222784, "164": -0.009856604276505478, "165": -0.07551378636417522, "166": 0.025833870041588398, "167": -0.024008976705009795, "168": 0.01459004290214487, "169": -0.03091685931559662, "170": 0.08973864963145925, "171": -0.011837181776760616, "172": 0.052603713738867304, "173": 0.03132350329491988, "174": 0.18330992481681455, "175": -0.01728879084509602, "176": 0.09550414131655711, "177": 0.09355912459066419, "178": 0.060760694907052944, "179": 0.012668283105704033, "180": 0.03139416165080557, "181": -0.08527580759667697, "182": -0.00338743524213445, "183": -0.08339091147312945, "184": 0.0020975816473125315, "185": -0.0408761503630081, "186": 0.0487632633704663, "187": 0.07329470997375792, "188": -0.19757715810600152, "189": 0.023778451215728663, "190": -0.09055126335575747, "191": -0.03676526583486417, "192": 0.013008079218768065, "193": 0.016253769694957107, "194": -0.16095596137763668, "195": 0.021254292900717422, "196": -0.04709824377795126, "197": -0.049044178341196086, "198": -0.18199253524113426, "199": -0.08555570179323174}, "sx": 5, "sy": 5, "depth": 8}, {"w": {"0": 0.05531528157329516, "1": 0.014676256292053448, "2": 0.014636693909877211, "3": -0.15312215654687922, "4": -0.01021361730432839, "5": 0.05654325579142935, "6": -0.011414483907301891, "7": -0.20998481780871356, "8": -0.17693047391360786, "9": -0.23809460845369249, "10": -0.05190285282391118, "11": -0.094266707466238, "12": -0.01940711755360049, "13": 0.0705515758052484, "14": 0.010967452484495002, "15": -0.04835788391366928, "16": 0.0644779374329942, "17": -0.06349540280393078, "18": -0.13628485261774906, "19": -0.09274332358739952, "20": -0.03343765565881063, "21": -0.043473920928938634, "22": -0.0634530911865302, "23": -0.11918581647556768, "24": 0.018533615873420495, "25": -0.09165864385903535, "26": -0.08034608338139307, "27": -0.04069711350981043, "28": 0.1119369059256931, "29": 0.071862484246039, "30": 0.009493534524737337, "31": -0.16124006802199883, "32": 0.11693080863796076, "33": -0.06234440675894362, "34": 0.009676242315359568, "35": -0.17128160302728357, "36": -0.07088119165481467, "37": 0.06183137691293919, "38": 0.023456792694903184, "39": 0.057701313096717256, "40": 0.03758412446248857, "41": -0.07939978953981512, "42": 0.026813400369336347, "43": -0.14301959773705133, "44": -0.11563883484350966, "45": 0.010088493042954812, "46": 0.03255225305831397, "47": -0.029623445875912483, "48": -0.0025035051568377664, "49": -0.0777595321284642, "50": 0.08523098008868178, "51": -0.031444944342995766, "52": 0.07821148491693342, "53": 0.026774444727694267, "54": 0.047412253913019085, "55": -0.023458961704195543, "56": 0.006483295839896786, "57": 0.06688107147556928, "58": 0.042738416627730896, "59": -0.030776199011117056, "60": 0.00036154155375890435, "61": -0.024323510731574533, "62": 0.06648392756242603, "63": 0.09583892108419506, "64": 0.05042622451531009, "65": -0.05653632708344881, "66": -0.0007743777447533798, "67": -0.10072983275103314, "68": -0.0025223603478437043, "69": -0.023866581615844693, "70": 0.08564343298141885, "71": -0.11543085854104765, "72": 0.134011430453962, "73": -0.012443864695228526, "74": -0.09884774909008473, "75": 0.017303067760207128, "76": 0.12369885693513764, "77": -0.17201971618904388, "78": 0.04801977293404649, "79": -0.1474039533784909, "80": 0.0676995809048346, "81": -0.0964646397485816, "82": 0.013635614957209777, "83": -0.049875896305061625, "84": 0.030086375206828615, "85": -0.027173066461342973, "86": 0.011402969345156992, "87": -0.01340814348855419, "88": 0.22444968984176855, "89": -0.06099016963545608, "90": -0.1391843977491048, "91": -0.0011808360190887221, "92": -0.07971565203055725, "93": 0.036757807436836626, "94": 0.0881109029595601, "95": 0.04556783332611164, "96": 0.04195587338544384, "97": -0.13101833833046855, "98": 0.16735388705172252, "99": -0.04968515494653682, "100": -0.019794297523096985, "101": 0.07809118492910082, "102": 0.017449213755961264, "103": 0.08198333212041362, "104": 0.1481080518269635, "105": -0.2700579835227375, "106": 0.04710424151044585, "107": -0.02662336610324483, "108": -0.029244187645816405, "109": 0.13704765376392505, "110": 0.11418716064199623, "111": 0.1905507447008545, "112": -0.03489765862301633, "113": -0.03591515858330928, "114": 0.1993519844562858, "115": 0.10528444390077005, "116": 0.05947223808227026, "117": -0.05847518216597634, "118": -0.018030541519654185, "119": -0.014106854551173793, "120": -0.061593769378418095, "121": -0.011494981997803654, "122": 0.08238013306988919, "123": 0.022422617811074318, "124": 0.0456333765531556, "125": -0.025832296168775932, "126": 0.04320338841881778, "127": 0.15076532341974172, "128": -0.004303982430700117, "129": 0.0964656612694714, "130": -0.11750975863078572, "131": 0.03524474935961827, "132": 0.04417465338306069, "133": -0.062358114604900323, "134": -0.021042871834325187, "135": 0.15201856687240858, "136": 0.014214304814521198, "137": -0.09778355345646242, "138": 0.03695017490779801, "139": 0.14812810511522062, "140": 0.10700392450123873, "141": -0.021327880571142162, "142": -0.24850939239225273, "143": 0.09061252195088824, "144": 0.07084384379987298, "145": 0.12960731030622183, "146": -0.029284266929261657, "147": 0.16049008984378657, "148": 0.061486184079697595, "149": -0.04174772724719793, "150": -0.06360891577775195, "151": 0.12225859811920496, "152": 0.08428890260322526, "153": 0.02685626589423326, "154": 0.046048604892382015, "155": 0.03469274057259534, "156": -0.1307245810513977, "157": -0.07512227887071724, "158": 0.08117796594200351, "159": -0.015534439133113795, "160": -0.03332025403962719, "161": 0.019758870315747433, "162": 0.06318636781075021, "163": -0.08862539852787218, "164": 0.05342262899672754, "165": 0.0092089561863435, "166": 0.10705683439459984, "167": 0.08804256429329076, "168": -0.13801565513594682, "169": 0.06764974511260138, "170": -0.12774824901834536, "171": 0.09534283759055112, "172": 0.059956651702405925, "173": -0.05292144004505091, "174": 0.024030847931925864, "175": -0.05253571765370194, "176": -0.03210750716465558, "177": 0.15395977603339353, "178": -0.025078620530586276, "179": 0.004236378785828422, "180": -0.0370636332383522, "181": -0.027223300624667327, "182": -0.09829655822747603, "183": -0.05998548447136949, "184": 0.017705031682772904, "185": 0.09291120800952181, "186": 0.046195703303300736, "187": 0.044571924670938054, "188": -0.01728788023784255, "189": 0.0577134998400111, "190": -0.0006207353546415809, "191": -0.07174623645399957, "192": -0.06578422963104542, "193": -0.184336064236768, "194": 0.08285925592450454, "195": 0.030628986315315597, "196": 0.0032347632183474567, "197": -0.03843028326577119, "198": -0.08001162958006683, "199": -0.0438901961980662}, "sx": 5, "sy": 5, "depth": 8}, {"w": {"0": 0.01330628372775383, "1": 0.007843565285408336, "2": 0.1618012787762854, "3": 0.016681103370878147, "4": -0.040644472087435636, "5": -0.0915092015881298, "6": -0.02717220695629795, "7": 0.05153742069149158, "8": 0.15099452827475743, "9": 0.08158215027779976, "10": 0.0005518792165050947, "11": 0.14056784850363654, "12": 0.044091739596588755, "13": 0.07219274294766359, "14": -0.06856296765704938, "15": 0.13088466952894734, "16": -0.025123651895280773, "17": 0.20727932649999575, "18": 0.053406374922770415, "19": 0.07524478313811106, "20": -0.06828043923449, "21": -0.090961317137501, "22": -0.02434874343700906, "23": 0.14119649730498732, "24": 0.056750590284364306, "25": 0.21763458294380805, "26": -0.006941943883201725, "27": 0.07229425996127005, "28": 0.02548605801893807, "29": 0.0029589201661271145, "30": 0.06048917191479825, "31": 0.18898736399727412, "32": 0.10131434550309064, "33": 0.29956974364067945, "34": 0.05660369257486096, "35": 0.13509577033364298, "36": -0.00931978798293528, "37": 0.07898435161410099, "38": 0.03643199125764981, "39": 0.12651492785115087, "40": -0.01763518753292467, "41": -0.038903022555599194, "42": -0.07894903306325514, "43": 0.06058660384747048, "44": -0.021920659023175467, "45": -0.0565598902781206, "46": -0.09695161378736461, "47": -0.02510611896620262, "48": 0.054006635319044954, "49": -0.04483909159948556, "50": 0.018003769184829387, "51": 0.07913918937752575, "52": -0.03758285695360204, "53": -0.13567527738477048, "54": -0.11194475760382351, "55": 0.07825181279155376, "56": 0.026989480133667473, "57": -0.009078318434493844, "58": 0.008948410661559901, "59": 0.05132165487461323, "60": -0.0861079483079243, "61": -0.1132159976550077, "62": -0.01431198602894581, "63": 0.046065754529444815, "64": 0.0392076521178006, "65": -0.00360018098837126, "66": 0.08547976888391387, "67": 0.07047033697312735, "68": 0.027817557419021918, "69": 0.03051056887295445, "70": -0.0713300687653949, "71": 0.12938869045337018, "72": 0.03189495514113573, "73": 0.09677981907194493, "74": 0.17159507651317554, "75": 0.019518585071956394, "76": 0.003577785633032052, "77": 0.01403382442745048, "78": 0.0578760859827428, "79": 0.13523825589195662, "80": -0.06303023295025575, "81": -0.17320238034075602, "82": -0.006130189034977753, "83": 0.022331813615421456, "84": -0.0790949596621488, "85": -0.0473316201545105, "86": -0.0024913473559463233, "87": -0.03523634340283755, "88": -0.12445544237570236, "89": 0.029160000753096105, "90": -0.03962449912444386, "91": -0.025242374327979777, "92": -0.06526798751018682, "93": -0.02513783150564427, "94": -0.015092555221468577, "95": 0.014110141039989301, "96": 0.0013488425272475757, "97": -0.005066903510527879, "98": 0.017193231974381256, "99": -0.02367087846003917, "100": 0.13822720130657998, "101": 0.06929728063374588, "102": -0.10717069913671745, "103": -0.05461175885679708, "104": 0.07734160789889069, "105": 0.008581211707732636, "106": -0.037034726261750875, "107": -0.0315146232935947, "108": 0.044198812037720386, "109": 0.041836499075067514, "110": 0.02182870699404872, "111": 0.09924289193569778, "112": 0.10756439852108969, "113": -0.04177339977411993, "114": 0.04121048207274129, "115": -0.03348299806467385, "116": 0.0419233778593505, "117": 0.0020538472712581753, "118": 0.028484587603868402, "119": 0.048169988170900686, "120": -0.12314903095516433, "121": 0.013865342470802414, "122": 0.003969586950873401, "123": -0.058334373241059126, "124": 0.02608688434614535, "125": -0.06252645215599315, "126": 0.03940458553263381, "127": -0.05881979650840716, "128": 0.08862301032523695, "129": -0.00926713911390465, "130": 0.09500099354429012, "131": -0.11768559349079986, "132": 0.16188358596602925, "133": -0.1397321482792089, "134": -0.13681072051714252, "135": 0.06912285240541134, "136": 0.08953052587117338, "137": 0.007675715013331592, "138": -0.05140150921828511, "139": -0.011596251149128883, "140": -0.09948217302821244, "141": 0.0023890568772533217, "142": -0.08147063931342059, "143": -0.04451228658228534, "144": 0.07050708488365058, "145": 0.014748173296029772, "146": -0.14501449997308447, "147": -0.1636427159051684, "148": -0.04446248795685385, "149": -0.04633168725929894, "150": 0.11279829479889603, "151": -0.023667507546110994, "152": -0.06353913047149291, "153": -0.10626378651673683, "154": 0.03707594944387363, "155": 0.019747634530419438, "156": 0.03106387302706533, "157": -0.011239171693576008, "158": 0.03671587916118191, "159": -0.13882872988644132, "160": -0.01075252915192516, "161": -0.13027103688756542, "162": -0.004246715699200047, "163": -0.1243878691543593, "164": 0.05424903104729212, "165": -0.12295890082661698, "166": -0.0026879849061142796, "167": -0.0958305801812415, "168": 0.05787557295498102, "169": -0.11467234676845356, "170": -0.0831518710136562, "171": -0.040096786684107266, "172": -0.10676539784475303, "173": 0.12314021153236186, "174": -0.1133375153925853, "175": 0.09460927846516656, "176": -0.05260799783599659, "177": -0.13418884092481714, "178": -0.03256108228218024, "179": 0.06387805442218737, "180": -0.07530492812699176, "181": -0.06853471706702953, "182": -0.047136516586872554, "183": -0.13634093484080467, "184": 0.031037545052318455, "185": -0.03573461622787869, "186": -0.05782541128660375, "187": 0.04636706440827907, "188": -0.08100515908161378, "189": -0.013722079274779838, "190": -0.13318458897050756, "191": 0.14765168889305375, "192": -0.06299847676741549, "193": 0.2369165261091801, "194": 0.0021782682155315762, "195": 0.12700074879050538, "196": -0.1514475937723136, "197": -0.0990527228976181, "198": 0.02186800670089793, "199": 0.017144153874724333}, "sx": 5, "sy": 5, "depth": 8}, {"w": {"0": 0.031429296901156825, "1": 0.043822163282841615, "2": 0.071072424027737, "3": 0.02774717632811074, "4": -0.141989454494826, "5": -0.009539157166145599, "6": 0.02827867248101843, "7": -0.09802826368900494, "8": 0.1653952278373335, "9": 0.11412398299170382, "10": -0.01248369020520601, "11": -0.06581588963835565, "12": -0.029018752570416858, "13": -0.03239862060715427, "14": 0.03104989192377622, "15": -0.06711957477711882, "16": -0.035715333183258986, "17": 0.00925518113360801, "18": -0.0643517137891551, "19": -0.11097955284009275, "20": -0.13381566750658788, "21": 0.03848890909332437, "22": 0.16982234288826376, "23": 0.06135778288607134, "24": 0.03597220699710039, "25": -0.08320806251387432, "26": -0.07168872860197054, "27": -0.1606534132102016, "28": 0.05477397659927439, "29": -0.0040422850375396585, "30": 0.014157926117324717, "31": -0.04938002740582455, "32": -0.07346452045419437, "33": 0.018936254699730367, "34": -0.0129449325963234, "35": -0.10474356905227208, "36": -0.0023276399727382236, "37": 0.05376805607692088, "38": 0.04384225357504337, "39": -0.14611232002709823, "40": 0.03867753363474482, "41": -0.047984624390728516, "42": 0.07216333280422647, "43": -0.05112184761735381, "44": -0.1208852806951647, "45": 0.09714939486107531, "46": 0.11716057653080326, "47": 0.0038020976752804543, "48": 0.23030764761669048, "49": 0.07106386955324441, "50": 0.05626068799983697, "51": 0.0333103576836882, "52": 0.09795690315825092, "53": 0.14156633337409616, "54": -0.03940608836461565, "55": 0.05658769582887927, "56": 0.11877489396024588, "57": 0.005948687845808411, "58": 0.20011036685588646, "59": 0.025297876639477218, "60": -0.07042949788024615, "61": 0.155576593075901, "62": -0.12850537174894874, "63": 0.17573543162744612, "64": 0.25519270566528685, "65": -0.0059016730864153025, "66": 0.16284189917782402, "67": 0.20312073802709485, "68": -0.049492821240355936, "69": -0.09205676818662521, "70": -0.05232392106449823, "71": 0.26239927775804084, "72": 0.16846379890822555, "73": -0.06504098502712885, "74": 0.11622546284644777, "75": 0.01839059596461172, "76": 0.04312501678208322, "77": 0.21474492526310388, "78": 0.12639293630565032, "79": 0.2384151314812511, "80": -0.06700484110642442, "81": 0.0897983452326926, "82": 0.07554615980475214, "83": 0.11929769926818747, "84": -0.07976280850449151, "85": 0.027406890661069133, "86": -0.0482127340354423, "87": 0.04652033444653334, "88": -0.03916541466504322, "89": 0.008659106748263437, "90": -0.019636685713774228, "91": 0.0017490905745031458, "92": -0.04842233979950212, "93": 0.07770379379754236, "94": -0.11721464635473318, "95": 0.1141040176899283, "96": 0.09652562736214368, "97": 0.08329559244504797, "98": -0.013516795258355647, "99": -0.009156174944572522, "100": -0.019473676190763636, "101": 0.029590880277765606, "102": -0.15440130850132394, "103": -0.01607082262219913, "104": 0.10521833246120924, "105": 0.025686653670476595, "106": -0.06869738766942009, "107": 0.02388040245985623, "108": -0.023522562132698002, "109": 0.0030988518168390392, "110": -0.04867193701236614, "111": 0.24849468313299913, "112": 0.08105077331317864, "113": 0.1455273512959259, "114": -0.06247847198864184, "115": 0.049895615043210446, "116": -0.060728541493834914, "117": -0.01346479405938377, "118": -0.13016631518517005, "119": 0.11294679074441855, "120": -0.07584388787839329, "121": 0.06290136731091105, "122": 0.021444849293421372, "123": 0.0408585516980407, "124": -0.1073761512111466, "125": 0.02950129028611031, "126": -0.1606537926458554, "127": 0.15368860737601844, "128": -0.05998149301510864, "129": -0.10561566739256237, "130": -0.013435911345191216, "131": 0.09252764482284453, "132": -0.027602948081583138, "133": -0.05223581252306519, "134": -0.18022332596087787, "135": 0.04086512440829752, "136": -0.13557596255003215, "137": 0.13116669478989498, "138": -0.06516154533284003, "139": 0.013605529880047536, "140": -0.11923972557255691, "141": -0.07003359196896701, "142": -0.18053656095292647, "143": -0.05310637575870271, "144": -0.12945923980308485, "145": 0.06762731702423196, "146": -0.020177217256293685, "147": 0.054688877404762304, "148": 0.07975203069345826, "149": -0.09297196195237663, "150": -0.2882739419348113, "151": 0.15740750744133014, "152": -0.15007402358818267, "153": 0.06385233911298442, "154": 0.006891002354413864, "155": 0.007345175082638523, "156": -0.11254524610438002, "157": -0.07124983829547919, "158": 0.015855767783153084, "159": 0.04731414028085388, "160": -0.026310967226971998, "161": -0.073873644494596, "162": 0.04999134653701661, "163": 0.03205968139069958, "164": 0.02712264660828212, "165": 0.03379307291977193, "166": -0.17620107210359037, "167": 0.04706675236080751, "168": -0.05646572745539484, "169": 0.006038487025109922, "170": -0.15299609678911186, "171": -0.11648022222848867, "172": 0.016835371277981376, "173": 0.0845298189280547, "174": -0.13900313564463979, "175": -0.040376924771246096, "176": -0.08222516290839116, "177": -0.0783152756286713, "178": -0.0294914136107709, "179": 0.023019299986618523, "180": 0.025838713852929598, "181": -0.021953322851498154, "182": -0.025642150684811675, "183": -0.011506133115084452, "184": -0.14458287837997966, "185": 0.033421399086864846, "186": 0.08151010180056852, "187": -0.11449834005947833, "188": -0.013860231493351267, "189": -0.20669153578506244, "190": -0.08317450842376682, "191": -0.08156335734450954, "192": -0.01269350834122433, "193": -0.05612770656738788, "194": -0.04050637662554287, "195": 0.003609947946551749, "196": 0.061948550152788946, "197": 0.012871533371095643, "198": -0.052889565748934074, "199": 0.047172128762027164}, "sx": 5, "sy": 5, "depth": 8}, {"w": {"0": 0.02125513296809478, "1": -0.05093295799038413, "2": 0.05211682947481891, "3": -0.09810702118584089, "4": -0.009241085456914325, "5": -0.06295508082904051, "6": -0.07756299028372605, "7": 0.07620692984962647, "8": 0.0026660728662962273, "9": -0.05061029605608413, "10": -0.055031668999907614, "11": 0.04205447248746938, "12": -0.10000373230330895, "13": 0.035001877070409415, "14": 0.06627057011847344, "15": 0.03627589305336818, "16": 0.12084191108430067, "17": -0.016152732856028463, "18": 0.04009237503259726, "19": 0.014895547677160807, "20": 0.008158087217212933, "21": -0.004725531963156667, "22": -0.10257086993653904, "23": -0.04675050184624994, "24": -0.1773813936781033, "25": 0.105380229693357, "26": -0.05175150888680473, "27": 0.01420263016525747, "28": -0.06419011408190374, "29": -0.0693938309442443, "30": -0.09688609403743481, "31": -0.16426691324862266, "32": -0.10337559652226418, "33": -0.028871763480149592, "34": 0.07337098501870135, "35": -0.051125032785192474, "36": 0.06431454221993714, "37": -0.11168084801949284, "38": 0.17071498075682484, "39": -0.022285242168828105, "40": -0.1429315069765541, "41": 0.01402949887643354, "42": 0.013125894633423774, "43": -0.044283311794308354, "44": -0.01722049540052634, "45": -0.06906047664856839, "46": -0.0812134535372596, "47": -0.12610221363972943, "48": -0.11265521331140348, "49": 0.052458063124588575, "50": -0.06643233086417281, "51": -0.010980494256429758, "52": 0.04178657436538342, "53": -0.04530872095639766, "54": -0.10427788279577231, "55": 0.0021846545981973856, "56": 0.055082974203608505, "57": -0.010605071350315446, "58": -0.05639282315631751, "59": 0.005753477618577018, "60": -0.021704851161617404, "61": -0.040826049456689335, "62": 0.014414470968785651, "63": 0.05723786851065264, "64": 0.023131806816684097, "65": 0.10851259015123993, "66": 0.10447931485937613, "67": 0.017957907527502894, "68": -0.08621504439484938, "69": 0.05076845021770445, "70": -0.1107959019796752, "71": -0.022987187619797223, "72": 0.110141821703997, "73": 0.013160265789968196, "74": -0.06471603781942868, "75": -0.10738140210043598, "76": -0.01439409871746795, "77": -0.23212137016566262, "78": 0.10277064597519985, "79": 0.12798476079823207, "80": -0.19005472629266693, "81": -0.0600784833955603, "82": -0.10558235937692521, "83": -0.12506924562202265, "84": 0.030954451207198794, "85": 0.08957868777400181, "86": 0.03140645396173863, "87": -0.058861882818008165, "88": 0.11610399348802226, "89": -0.07898873904777046, "90": -0.2070068052204122, "91": -0.11481209248693619, "92": 0.05577386145129775, "93": 0.011012778459568152, "94": -0.009606781537663584, "95": 0.13265264058910264, "96": -0.061351582682371585, "97": 0.1036815042470135, "98": -0.05600593170727327, "99": -0.007309430682157938, "100": -0.06430872028564627, "101": 0.04409018974690644, "102": 0.021752664353818858, "103": 0.06318559304341208, "104": -0.11613666269128256, "105": -0.005646414100830807, "106": -0.10841503179567352, "107": 0.06362895106399304, "108": -0.02926534396620645, "109": -0.13703747413486125, "110": 0.15270556462696203, "111": -0.06712409686374139, "112": -0.0319598736500254, "113": 0.07749492621691101, "114": -0.07110919510776141, "115": 0.035182213589829606, "116": -0.1282252431389835, "117": -0.07535063494640397, "118": 0.0727891467649852, "119": -0.017155926969904978, "120": 0.05881608997585788, "121": -0.11457203845076352, "122": -0.04673537928656689, "123": 0.05514340492158713, "124": -0.012297123315908905, "125": 0.06481766179145729, "126": -0.029939641512376432, "127": 0.1328373347180958, "128": 0.27115281470676095, "129": 0.01635019928710117, "130": 0.14834795153465546, "131": 0.008226322689389077, "132": 0.11650440740196125, "133": 0.06374059746392959, "134": 0.04654775133222962, "135": -0.008117379555306094, "136": -0.20554764349664031, "137": 0.04352879562420151, "138": 0.18675967203842592, "139": -0.05081336517308229, "140": 0.058898720624519944, "141": -0.016546709900297614, "142": -0.07917306405457537, "143": 0.004403595658127572, "144": -0.03448782550822756, "145": -0.03911038920071956, "146": -0.12893465004880397, "147": -0.09585829994640326, "148": 0.023513277670531768, "149": -0.0410904176267873, "150": 0.023383581960519675, "151": 0.026412251575490715, "152": -0.07274416495304892, "153": 0.07467454133259474, "154": 0.09757249773420179, "155": -0.07347354900363226, "156": -0.054736600416082484, "157": 0.15487062016664516, "158": -0.0037377578377513366, "159": -0.13459275208641258, "160": 0.09715188486639635, "161": -0.04128703956565119, "162": -0.024201337955487963, "163": 0.0460192907637828, "164": -0.19221304672054002, "165": -0.015363457726310455, "166": 0.13312712681151023, "167": 0.0029521272308071908, "168": 0.016088307911775363, "169": 0.05610299215442094, "170": -0.05509965625918241, "171": 0.05815700054368551, "172": -0.03005591530691859, "173": 0.1117864339478713, "174": -0.07886764383654989, "175": 0.14691727078300312, "176": -0.08877467416931575, "177": 0.002036332190191304, "178": -0.055849490365139365, "179": 0.13508635519118745, "180": -0.019613110936103486, "181": 0.1268691404322562, "182": -0.0951465527643374, "183": 0.11737169957443865, "184": 0.09329876933742591, "185": 0.03355887635036171, "186": 0.03681415176791637, "187": -0.021534713275798003, "188": -0.03226898187226252, "189": 0.059493446515163736, "190": -0.01212357194334877, "191": 0.11137149444186795, "192": 0.2130957703581095, "193": -0.03974796695553422, "194": -0.06313125615899684, "195": 0.06656130201311784, "196": -0.019561271065237144, "197": -0.02491865990383571, "198": 0.01105039000547395, "199": 0.028028651239143543}, "sx": 5, "sy": 5, "depth": 8}, {"w": {"0": 0.05927518482892798, "1": 0.03875504725684622, "2": 0.010090814713788365, "3": -0.07742813845832612, "4": -0.01854600301613093, "5": 0.011048952273776266, "6": 0.002010009308263924, "7": 0.07993257344233726, "8": -0.040955685466237075, "9": 0.058695549784234045, "10": -0.042051110911914436, "11": -0.081029527185668, "12": -0.02176833817405762, "13": 0.12285650657459654, "14": -0.057101396611627414, "15": -0.030864243098528095, "16": -0.014858294256704669, "17": -0.02540325975881528, "18": -0.041119041722316105, "19": -0.054380853999780786, "20": 0.03528304839292271, "21": 0.0072172344619099915, "22": -0.0022919221674820526, "23": -0.07085436677916936, "24": 0.016879398762038828, "25": 0.007318427027135463, "26": 0.03527968603597804, "27": -0.04998775944330272, "28": 0.013048658165246892, "29": -0.05657604091709025, "30": -0.01432044967149093, "31": 0.07668652257998491, "32": 0.028198708823426365, "33": -0.043724839670706867, "34": -0.02114854849030605, "35": -0.02842394613638073, "36": -0.016613520343770033, "37": -0.09011221448009038, "38": -0.028272876155671926, "39": -0.018397958357515835, "40": 0.03546095774579117, "41": 0.034524644171165436, "42": -0.12021433217802445, "43": 0.02210587348522207, "44": -0.04689469985915352, "45": 0.0871968872576488, "46": -0.07443296468587338, "47": -0.11009553847003681, "48": -0.02693949111270045, "49": 0.002940730470896928, "50": 0.004823120599399808, "51": -0.04337457106737444, "52": -0.050424620098658134, "53": 0.027016220904647628, "54": -0.02692095757751171, "55": -0.09674388851576794, "56": -0.049755700550786194, "57": -0.015547050531164919, "58": -0.08389225187955666, "59": -0.10637103270671323, "60": 0.044786859631005226, "61": 0.08914422712603565, "62": -0.02280244473968527, "63": -0.036960351503057834, "64": -0.034578180847948246, "65": -0.018608110235539748, "66": -0.029627204561847167, "67": -0.10372784004727467, "68": 0.04820641000424929, "69": 0.0013446204093194554, "70": -0.03339770615194498, "71": 0.02151168049587774, "72": -0.014080708042880299, "73": -0.08466967440600767, "74": -0.04481305382873468, "75": 0.010703346587953863, "76": 0.12703114549162525, "77": -0.013406832185678556, "78": 0.10446787018783352, "79": -0.09308027660282475, "80": 0.04948129038839411, "81": 0.026271634631749172, "82": 0.000731729814460825, "83": -0.02243146224373552, "84": -0.04364533811469219, "85": 0.09084312292895404, "86": 0.09242302572295802, "87": 0.006513874942218269, "88": 0.035338762472614735, "89": 0.04900956979963252, "90": 0.026917298620824707, "91": -0.13527049155396836, "92": 0.00916661344600194, "93": 0.022533524350925052, "94": -0.0032915398868749142, "95": 0.009249328203626585, "96": 0.06362928785614774, "97": -0.009921960073804446, "98": 0.213802733566115, "99": -0.07855934403218594, "100": 0.017483817646182852, "101": 0.035076693740335174, "102": 0.029373955500869027, "103": 0.023460902749693376, "104": 0.07379784426094033, "105": -0.09492408770989962, "106": -0.06909195670242732, "107": 0.14938117546230867, "108": -0.028460029327695712, "109": -0.02644422928593969, "110": 0.06876859487317791, "111": -0.09034255966724179, "112": -0.12026162277680137, "113": 0.09601419986468036, "114": 0.11221761987959096, "115": -0.06266161688290668, "116": -0.18834087567409388, "117": 0.09000239134513668, "118": 0.13201831709868594, "119": 0.06828649316829419, "120": -0.0308938502905938, "121": -0.03646467227692029, "122": -0.10949397604562626, "123": -0.08896219698136652, "124": -0.00070355757095314, "125": 0.07638020223683437, "126": -0.05394921119546304, "127": 0.011792527299822837, "128": -0.055208978798161494, "129": -0.1883953730385499, "130": 0.10691454512071703, "131": 0.07436609146181937, "132": 0.10041070851130486, "133": 0.018769348095010116, "134": 0.056208257010056197, "135": 0.029133921406849048, "136": -0.016319919529227296, "137": 0.06720898704378854, "138": 0.015337923976137865, "139": 0.06152564144925623, "140": 0.08663079530125153, "141": 0.021143708358002958, "142": 0.08922782985326877, "143": -0.0752444861294126, "144": 0.06584335840624198, "145": 0.006247793242532027, "146": -0.0549788230238749, "147": 0.02022004766300997, "148": 0.02714235373831781, "149": 0.04683395726044245, "150": 0.04755229635178754, "151": -0.009656097510736004, "152": -0.04821644086457503, "153": 0.0061803557825946265, "154": 0.1207249653205756, "155": 0.02573828011376719, "156": 0.03673187798563552, "157": 0.07904345150253173, "158": -0.06019646943019684, "159": 0.07187877613180702, "160": 0.04092874595979797, "161": 0.020328533629423502, "162": -0.07389656820125547, "163": 0.03917361789476766, "164": -0.15026103116607512, "165": 0.06559490239588046, "166": -0.10805064658560218, "167": 0.005225089630970139, "168": -0.09405262106238096, "169": 0.07586441004925137, "170": 0.07557099661147645, "171": -0.05472302521118103, "172": 0.04907730538611778, "173": -0.052417294500034295, "174": 0.008008907034237322, "175": 0.019388241587053955, "176": -0.05474604442731362, "177": 0.03025871418688774, "178": 0.12000726159213398, "179": -0.026224668747953105, "180": -0.021331895772476767, "181": -0.0023172741197086144, "182": -0.03157293315119543, "183": -0.13000949098358425, "184": -0.15396254905185655, "185": 0.0652962633934253, "186": -0.030845382345735067, "187": 0.011283608102352249, "188": 0.042308730761692906, "189": -0.044707477536583454, "190": 0.09697398028529694, "191": -0.0730056542244465, "192": 0.003974058350110442, "193": 0.032553850214901106, "194": -0.0498594363051559, "195": -0.022558539090066047, "196": -0.049685509418244844, "197": 0.08687761672156057, "198": 0.0050684642020371535, "199": -0.10924849042996586}, "sx": 5, "sy": 5, "depth": 8}, {"w": {"0": 0.019671774442576163, "1": 0.029319260011819587, "2": -0.07016866345749347, "3": -0.11798486863055088, "4": 0.13286859511074464, "5": -0.058602847191436866, "6": -0.08592074677026754, "7": -0.12337246023645886, "8": -0.07492730621603212, "9": -0.06582236169813327, "10": 0.05720077552064047, "11": 0.04493365291164761, "12": 0.00863186051341254, "13": -0.04419794657041568, "14": 0.03342661721739956, "15": -0.2025101398451226, "16": -0.07450949084509915, "17": -0.1190848768034679, "18": -0.03369675964050415, "19": 0.0300101848752687, "20": 0.0347916677378653, "21": -0.03389189791600217, "22": 0.10410729101391152, "23": -0.08144050679274076, "24": 0.10711548569614249, "25": 0.011674793064621597, "26": 0.026185652156393624, "27": 0.03809491086055501, "28": 0.12604632323743498, "29": 0.04485606398301962, "30": -0.08163774783781766, "31": 0.018001733897702973, "32": 0.08286449099075786, "33": 0.036530610737458905, "34": -0.017375681935827482, "35": -0.10017030816318652, "36": 0.012620069253450782, "37": 0.03110864079240405, "38": 0.04569388111110907, "39": -0.053232041563957826, "40": 0.10380537405209322, "41": -0.02080544741114857, "42": -0.0025147417965947954, "43": 0.016400882030645908, "44": 0.1506710315359156, "45": 0.0013645710909758126, "46": -0.026142846075965, "47": 0.09955136515612009, "48": -0.009129530968599654, "49": -0.003428416418472548, "50": -0.04401132771023272, "51": -0.0024761579929332956, "52": 0.1840326961518146, "53": -0.09048422734279936, "54": 0.07359356053707607, "55": -0.055575667080657185, "56": -0.14336189372234287, "57": 0.005157420195126838, "58": 0.08463967738817767, "59": 0.21472845214293798, "60": 0.14294583101717456, "61": -0.033803050427247815, "62": 0.0494330520839714, "63": -0.013400257836786434, "64": 0.05712445999977681, "65": -0.01992306066499034, "66": 0.06316403619096839, "67": 0.027984303645184633, "68": -0.034947136309792314, "69": -0.015068106365861257, "70": 0.06661723990149714, "71": 0.09366129351972495, "72": 0.03534465328919108, "73": -0.11369031886836749, "74": 0.158000788626902, "75": 0.07687297301081482, "76": 0.14663479665515422, "77": -0.04314504107655031, "78": -0.10567825736470209, "79": -0.07966170384977414, "80": -0.03875322088893117, "81": 0.008412372200765173, "82": -0.016767235001724907, "83": -0.1277271343111053, "84": 0.047875365767750165, "85": -0.001117681487013736, "86": 0.02463461000690038, "87": 0.026561973329936487, "88": -0.03739136059044928, "89": -0.00048487846925677336, "90": 0.02623371199959751, "91": -0.0029304424782132595, "92": 0.008865067791779311, "93": -0.08545068548141939, "94": 0.013540286363250621, "95": 0.00807386381266981, "96": -0.11791329130345103, "97": -0.16413725224987252, "98": -0.07255508500298063, "99": -0.019327332276865943, "100": -0.07720520001681216, "101": 0.02086490910545222, "102": -0.004016118579623716, "103": -0.008317852282203988, "104": -0.05223268608867381, "105": 0.061297514876048044, "106": -0.0006899220715614854, "107": 0.06937270300670001, "108": 0.11969483546364972, "109": 0.05985323315910973, "110": -0.039834087301632445, "111": -0.09813062815962187, "112": -0.10234965829284667, "113": -0.041345942592357555, "114": -0.04605644044948691, "115": -0.02971735457252166, "116": -0.015368349715919941, "117": -0.1757277231304561, "118": -0.09658328858508361, "119": -0.10574398670087871, "120": 0.12692096023562285, "121": -0.0006728050418354511, "122": 0.01651968102115283, "123": -0.043442952515360886, "124": 0.15029566601670202, "125": 0.01986530764097894, "126": 0.043691661878195245, "127": 0.06183174530496926, "128": 0.00011962389184283023, "129": 0.04344556597856647, "130": 0.06436118986399086, "131": 0.0663221869891184, "132": -0.0705144875993483, "133": 0.09709758127829793, "134": 0.11130703126056724, "135": -0.07800960055435155, "136": 0.13630561662869844, "137": 0.13293236509066336, "138": 0.053442264608254596, "139": 0.041534186107540845, "140": 0.0006354560761969915, "141": 0.09693532386021866, "142": 0.09188375930102395, "143": 0.04370222396904046, "144": 0.06443091340342748, "145": 0.026395811665131125, "146": 0.06863531396851875, "147": -0.009425165708212349, "148": 0.02588296833984727, "149": 0.00572991472992246, "150": 0.13570761370658385, "151": -0.06141915804075912, "152": 0.0585547438664164, "153": 0.07790833336101252, "154": -0.05030880571961284, "155": -0.10796139490919472, "156": 0.044170975145343266, "157": 0.0006981061858306914, "158": 0.00275368116669697, "159": -0.15006194355115543, "160": 0.0706620004338933, "161": 0.0005282115951530095, "162": 0.0126627438633123, "163": 0.05834935662621632, "164": -0.048600690174158856, "165": -0.09568907478678047, "166": -0.035220652246330524, "167": 0.008548329092931614, "168": -0.15673832033982404, "169": 0.02493481693683886, "170": -0.06262486026682047, "171": 0.04797100775779453, "172": 0.0483698753604802, "173": 0.05930255130502349, "174": 0.1467458497351834, "175": 0.05969231223052605, "176": 0.02805278929984348, "177": -0.04031694801749205, "178": -0.02718039182126137, "179": 0.07726018977974808, "180": 0.014047469888547885, "181": 0.018568088990831916, "182": 0.09799959715028495, "183": 0.23498740718130537, "184": 0.10986394553962667, "185": -0.04174243595478773, "186": 0.1027599806955265, "187": -0.09260897516079605, "188": 0.02551991909677501, "189": 0.046451349079073605, "190": 0.02393822822068457, "191": 0.1606562774978107, "192": -0.025517837870685976, "193": -0.1659292786632643, "194": -0.15850307605282485, "195": -0.07995240157750158, "196": -0.05602861141428016, "197": 0.028563737160434564, "198": 0.01543221893444211, "199": -0.15391261013028637}, "sx": 5, "sy": 5, "depth": 8}, {"w": {"0": -0.07884550772563868, "1": 0.0040185258431381194, "2": -0.04457269029057713, "3": 0.07824065634564425, "4": -0.04625173108420707, "5": 0.033154787081356024, "6": 0.07518246953348197, "7": 0.02342173980902415, "8": 0.0570217384790128, "9": 0.08688840800724577, "10": -0.0238849444566662, "11": -0.12981742092074164, "12": 0.09123866348228378, "13": 0.06944566423498494, "14": -0.03810538647402201, "15": 0.010781524360264111, "16": 0.001290265069924444, "17": -0.1214423736876651, "18": -0.11290327507238614, "19": 0.07067752259593477, "20": 0.039202906657736285, "21": 0.019608914314326216, "22": 0.01905731042093362, "23": -0.02136586090181778, "24": -0.014656538626046645, "25": 0.04763973214270472, "26": -0.04400053353483321, "27": -0.008446949733418318, "28": -0.09532470287642883, "29": -0.05659844653266572, "30": 0.05121047095328683, "31": -0.020919474584625997, "32": -0.02059029092227897, "33": -0.042999795414118316, "34": -0.036308729123217066, "35": 0.13142894889438464, "36": -0.06816436782419652, "37": -0.03406727372563371, "38": -0.017246237079204457, "39": -0.058845641850334154, "40": -0.10611712910110972, "41": -0.020435002094056475, "42": -0.02992591303580502, "43": -0.06878904031140685, "44": -0.06822737852135626, "45": 0.060798295319446395, "46": -0.08359705538504797, "47": -0.15420528215182527, "48": -0.025007070227114053, "49": -0.052848531208719636, "50": 0.009689240053317796, "51": 0.03834804307910186, "52": 0.19373033503762147, "53": 0.0013358881358173217, "54": 0.012638120916615835, "55": 0.03415742293884216, "56": 0.038419278211467636, "57": -0.11007462656762208, "58": 0.0020974076006525415, "59": -0.03197908785297685, "60": 0.03271023788206442, "61": -0.0812321812547357, "62": -0.027863699276223893, "63": -0.07035528776647425, "64": -0.06522491301037048, "65": 