{"layers":[{"out_depth":1,"out_sx":24,"out_sy":24,"layer_type":"input"},{"sx":5,"sy":5,"stride":1,"in_depth":1,"out_depth":8,"out_sx":24,"out_sy":24,"layer_type":"conv","l1_decay_mul":0,"l2_decay_mul":1,"pad":2,"filters":[{"sx":5,"sy":5,"depth":1,"w":{"0":0.1091109701256827,"1":-0.04798634421660748,"2":0.2882409976164105,"3":0.25227192943460075,"4":0.15266312337647703,"5":0.1923672293143688,"6":0.15383709906834714,"7":-0.07754838935300637,"8":0.1852476822471598,"9":0.19741101362533112,"10":0.0057792919080868,"11":0.14057881541008052,"12":0.12564585941423922,"13":-0.32170779065968114,"14":-0.004825778949848087,"15":0.06861455132048387,"16":-0.1588204117920198,"17":-0.08100765162873264,"18":-0.2110646552063309,"19":-0.24544889213307097,"20":0.020049984894066588,"21":-0.04399005621045889,"22":-0.20102170265951025,"23":-0.5127290245218051,"24":-0.4658435601605937}},{"sx":5,"sy":5,"depth":1,"w":{"0":-0.15283334610300905,"1":-0.15207522591503228,"2":-0.23010074786563348,"3":0.30184202161465706,"4":-0.2757242873972178,"5":-0.1576171832824665,"6":-0.27755389837217237,"7":-0.08237867550432156,"8":0.24169675076547734,"9":0.017327331724978173,"10":-0.060629362056997156,"11":0.24122952904768438,"12":0.2237542338396408,"13":0.13565710307120188,"14":0.3209046949339114,"15":0.0068952811738349235,"16":0.1140212832060565,"17":0.3647864018409167,"18":0.22256281648747447,"19":0.33428770762830273,"20":0.13933161757597276,"21":0.3123842385756862,"22":0.31566699715456314,"23":0.18982372037262313,"24":0.17518601331205505}},{"sx":5,"sy":5,"depth":1,"w":{"0":-0.31384964365599344,"1":-0.12691097601260246,"2":0.11446498562155644,"3":0.034290995624917595,"4":0.10919180830685701,"5":-0.15753600260545866,"6":-0.3033182671838299,"7":-0.5416099530814877,"8":-0.5806049468076534,"9":-0.36011295014179484,"10":0.15000181903090112,"11":-0.4883596905353902,"12":-0.038280507022169154,"13":-0.3051369940485533,"14":-0.19350060303384392,"15":0.07155016383967792,"16":0.23432814315917114,"17":0.17934130067858772,"18":0.4305539339500699,"19":0.3465985022293143,"20":0.20883966245151445,"21":0.2654408691350043,"22":0.37341111641268404,"23":-0.02066130301115016,"24":0.04115917750062236}},{"sx":5,"sy":5,"depth":1,"w":{"0":-0.31136446209633734,"1":-0.35990928371863795,"2":-0.23258048372116108,"3":0.2090518293414152,"4":0.13013173118008725,"5":0.03798565942108676,"6":-0.33327577785588786,"7":0.8821476315519586,"8":0.18893718786309838,"9":-0.055062731943173675,"10":0.21895609707672126,"11":0.26157693052605835,"12":0.47718586686427544,"13":0.6479227288478512,"14":0.17785675011594548,"15":-0.21276130306192165,"16":0.47182056442913806,"17":0.47250869786112004,"18":0.11566884242092254,"19":-0.4085526190523162,"20":0.04620967662689109,"21":0.3029097033604548,"22":0.16682725976939014,"23":0.3883779481741355,"24":0.07073859764883511}},{"sx":5,"sy":5,"depth":1,"w":{"0":-0.05201269019725194,"1":0.1893041850714654,"2":0.20763647296226911,"3":-0.02026175729687824,"4":0.30255909426404026,"5":-0.4264445209968103,"6":-0.05706338141453263,"7":0.22002419121308991,"8":-0.012412177712328,"9":-0.04999748550489388,"10":-0.35670739651684885,"11":-0.3758246480707115,"12":0.03782336186520494,"13":0.22421153955151044,"14":0.060688556025796994,"15":-0.1249961566435245,"16":-0.28896968952465235,"17":-0.06265244725331467,"18":-0.1181730389049482,"19":0.30856576448045275,"20":-0.2764196309725255,"21":-0.06552508578084172,"22":0.1802639714771801,"23":-0.04816524935995981,"24":-0.2202300672146046}},{"sx":5,"sy":5,"depth":1,"w":{"0":0.3022420983878393,"1":0.12140220034260159,"2":0.2788107112036126,"3":0.08287482511597216,"4":0.0721311783039981,"5":0.28313518818123984,"6":-0.24858937746980697,"7":-0.09608025101625534,"8":0.1708031261612289,"9":-0.21446742383465944,"10":-0.07132488546282996,"11":-0.2832929559017864,"12":0.12216171437559749,"13":0.189999186559697,"14":-0.05212714715485649,"15":0.07770146838205193,"16":0.050483424512563574,"17":-0.05461589619334222,"18":-0.009022268891447631,"19":-0.5359123545390584,"20":-0.08332612591883043,"21":-0.02800756544193596,"22":0.14062628985265258,"23":-0.1180505774128689,"24":-0.13718994977157103}},{"sx":5,"sy":5,"depth":1,"w":{"0":-0.001620892997300564,"1":-0.04569494838245266,"2":0.04040697125074582,"3":-0.366198198845514,"4":-0.5112126470008201,"5":0.1345290379635133,"6":0.23386633642784285,"7":0.08652083769627665,"8":-0.1968587285170674,"9":-0.1939879906241342,"10":0.485951143736723,"11":0.11147045588908472,"12":0.2544177211859883,"13":0.12923287567263197,"14":-0.12883829478595424,"15":0.41605481267956296,"16":0.7371302504590009,"17":0.4974452794550797,"18":0.27818851314417514,"19":0.04875373636051859,"20":0.10643189133919372,"21":0.06518198776797593,"22":0.6022590936539731,"23":0.13079602785262961,"24":0.3580561104418264}},{"sx":5,"sy":5,"depth":1,"w":{"0":0.10967436405434305,"1":0.22939301423125721,"2":-0.17393166631921955,"3":-0.26432666982847974,"4":-0.21835816826021973,"5":0.08419986593413108,"6":0.11554298564067564,"7":-0.307618239414822,"8":0.06944758142903633,"9":-0.15588972304138676,"10":-0.028064270073278094,"11":-0.13564653872682464,"12":-0.31881566448043225,"13":-0.6600827657230576,"14":-0.17117713713088403,"15":0.6281932415582664,"16":0.08424353230345558,"17":0.12056339591139227,"18":-0.031676968515166416,"19":-0.28777222566630706,"20":0.26973489366975556,"21":0.16748855021301134,"22":0.32263751601655455,"23":0.4314356388608988,"24":0.06342046939375078}}],"biases":{"sx":1,"sy":1,"depth":8,"w":{"0":0.2625216500544955,"1":-0.016725553523765122,"2":0.14673889148109573,"3":-0.017318305602723332,"4":0.25436879239877047,"5":0.09413292643984753,"6":-0.005986394785085209,"7":0.13369614025089505}}},{"out_depth":8,"out_sx":24,"out_sy":24,"layer_type":"relu"},{"sx":2,"sy":2,"stride":2,"in_depth":8,"out_depth":8,"out_sx":12,"out_sy":12,"layer_type":"pool","pad":0},{"sx":5,"sy":5,"stride":1,"in_depth":8,"out_depth":16,"out_sx":12,"out_sy":12,"layer_type":"conv","l1_decay_mul":0,"l2_decay_mul":1,"pad":2,"filters":[{"sx":5,"sy":5,"depth":8,"w":{"0":0.09712114297858558,"1":0.11444152295575455,"2":-0.094026694633555,"3":0.23059062310007022,"4":-0.22114906286129918,"5":0.07522725872007059,"6":0.003982331458752108,"7":-0.051272861534922484,"8":0.04064615193199191,"9":-0.10193828656475845,"10":-0.07008015399515008,"11":-0.08689914686539624,"12":-0.08924379116832468,"13":0.11623787569310771,"14":0.11343232170085715,"15":-0.013516290405947706,"16":0.03287229132266331,"17":-0.14718436038985422,"18":-0.13857214284252375,"19":0.05427074643981941,"20":-0.14983308450871613,"21":0.09866693573631291,"22":-0.08504039363126202,"23":0.0007186109354265256,"24":0.2427604809478125,"25":-0.02630888602532164,"26":0.01987094461830022,"27":-0.030875085947904883,"28":0.07062855881983514,"29":0.11938153668211808,"30":-0.06009693992952207,"31":-0.052798867514612983,"32":0.04873490594734848,"33":0.08669702963828821,"34":0.11792471001717625,"35":-0.02392411588943432,"36":-0.006841969461267838,"37":-0.026054975726498956,"38":-0.014321619089205085,"39":0.02661691718032871,"40":-0.03584660549863648,"41":-0.07246758899766437,"42":-0.04429968201174832,"43":-0.1789597239330356,"44":-0.24055972609608056,"45":0.05956834844451292,"46":-0.1966943431004673,"47":0.007307686153198381,"48":-0.01325776397293793,"49":-0.1297191951081685,"50":-0.06522084649862557,"51":0.12302391603797669,"52":-0.003868261316209562,"53":0.1755604220662435,"54":-0.08866128107476191,"55":0.03974857269035887,"56":-0.02263762398891054,"57":-0.04377666912967135,"58":0.005983341579346083,"59":-0.03517124173404101,"60":0.019321971086253546,"61":-0.04168782110901657,"62":-0.179278075699772,"63":0.08250625228734006,"64":-0.05698814702589384,"65":-0.0018439077023072268,"66":0.06515188125117445,"67":-0.16930731069633542,"68":-0.07246253807676446,"69":0.041695962164731204,"70":0.019676756603992613,"71":0.044193964254071835,"72":0.06073142643285697,"73":0.014852884592091739,"74":-0.034371292134227585,"75":-0.05929961544059629,"76":0.06668186993093045,"77":0.047173071875749484,"78":0.02116823941797357,"79":-0.025674038231166624,"80":0.135848874782607,"81":-0.10154747599502903,"82":0.08294944796923502,"83":-0.0731697527129198,"84":0.054402495594387985,"85":-0.03523682494312794,"86":-0.06610907034122666,"87":-0.0796684208966405,"88":-0.15018306552378263,"89":0.024765027201574943,"90":0.1920306111061019,"91":-0.006720041668032871,"92":-0.04929141077131183,"93":-0.11582649766732638,"94":-0.0826779664235782,"95":-0.09361638744434993,"96":0.030654320642802102,"97":0.06444475397179748,"98":-0.12411482922771466,"99":-0.12524230725376004,"100":0.0022012565269228586,"101":-0.17590582716037212,"102":-0.13124800476121298,"103":-0.1094946223193348,"104":0.11984209135641669,"105":-0.04704968838917476,"106":0.056025137179318375,"107":0.028506388402522412,"108":-0.06312995609469547,"109":-0.03312395770588146,"110":-0.05108167194705924,"111":-0.0053822906080112426,"112":0.0017302424503265511,"113":-0.0588854240006435,"114":-0.11546277522176711,"115":-0.0600921007010126,"116":0.09765893332968947,"117":-0.068972230934262,"118":-0.016440621119565093,"119":-0.03530160710616637,"120":-0.011197219249925864,"121":0.06078375404994035,"122":0.02019592145285602,"123":-0.06614566629392664,"124":0.07756641949643404,"125":-0.12410563233816253,"126":-0.16398471391669062,"127":0.032978832746510416,"128":0.06885543103554564,"129":-0.11476711864673916,"130":0.02672556270555393,"131":-0.07716880539488546,"132":-0.06992146154188182,"133":0.052556707121713446,"134":0.08021461680045087,"135":-0.08981385700403402,"136":0.06777593902611265,"137":0.045291969133908906,"138":0.06809472864399363,"139":0.08730414066667828,"140":-0.08308277617364504,"141":0.042402408534017014,"142":-0.09326082188388667,"143":0.018590603645733277,"144":0.0017218252522356791,"145":-0.057050487816688665,"146":-0.04242892446879958,"147":0.03209494596746781,"148":0.14535694304583685,"149":0.06726186689201655,"150":-0.021321103954776134,"151":0.13219469043,"152":-0.021720716107746927,"153":-0.04645157419402668,"154":-0.01107719903961283,"155":-0.011576258329794918,"156":0.07349561453733781,"157":-0.1057143354822164,"158":-0.09769822081522224,"159":-0.05455454671470387,"160":-0.021312479177600808,"161":0.03574324484707691,"162":-0.04028436833988855,"163":0.02557779913550766,"164":-0.03650383067337828,"165":0.03735451606687874,"166":-0.0830708628755449,"167":-0.06015363677547674,"168":0.05825163267915447,"169":-0.21278680615719947,"170":-0.15546495668406982,"171":-0.12653516310628565,"172":-0.13224067926360475,"173":0.06508723073306819,"174":-0.01635973194908939,"175":0.005685406120410502,"176":-0.10591514579862743,"177":0.12230695499204533,"178":-0.002679943190319361,"179":0.11756578385277577,"180":-0.029402208708427486,"181":0.028707956629394776,"182":0.06312744660380468,"183":0.03361523904103883,"184":0.06689767978620595,"185":-0.07514963347310073,"186":0.003871783887517589,"187":-0.1008002621164784,"188":-0.116828225336314,"189":0.003637756329752776,"190":-0.04410599526109758,"191":-0.08071384910024967,"192":-0.03018269322288249,"193":-0.04235928348601921,"194":-0.07430762607526405,"195":0.005160622354759099,"196":-0.04984564587999904,"197":0.006289699370236596,"198":-0.09035176398702326,"199":-0.05523707467698162}},{"sx":5,"sy":5,"depth":8,"w":{"0":-0.013749626736540925,"1":-0.05263673574642954,"2":0.012467753244344787,"3":0.1494238519575805,"4":0.03267512713307503,"5":0.07338034239143022,"6":-0.0329008702447517,"7":0.01491132171941378,"8":0.036326862982241435,"9":-0.033927159047842874,"10":-0.056254053593737086,"11":-0.12039502459191398,"12":-0.0637793244581948,"13":0.0393274727836976,"14":-0.014700739993386561,"15":0.0056937708360732305,"16":-0.01381067739399525,"17":0.020177914651649337,"18":-0.01917607268451764,"19":-0.09337342957750354,"20":0.008705392136338858,"21":-0.05233021044671026,"22":-0.04507029077362231,"23":-0.09742662553747834,"24":-0.05314729765921877,"25":-0.08459662433359073,"26":-0.06833064088258332,"27":-0.1473472721470489,"28":-0.01030231722706416,"29":-0.040838682946685086,"30":-0.09159803162336243,"31":-0.054714471366810354,"32":0.0009330518747305099,"33":-0.036824416747295786,"34":0.04496534141725669,"35":0.02150127674803661,"36":0.09955198018382973,"37":0.059840539010208985,"38":-0.05963771648622869,"39":-0.040355338257086294,"40":-0.047685626702423566,"41":-0.02266576609932192,"42":-0.042158967808708654,"43":0.016123607788066808,"44":0.10618189256417346,"45":0.07100564762624254,"46":-0.05131811075980451,"47":-0.10279876729652018,"48":-0.06227511834616747,"49":-0.05374491964415776,"50":-0.0013817661015366413,"51":-0.2428378375666596,"52":-0.07958846894568687,"53":0.08586385532146816,"54":-0.030513658352804673,"55":-0.017331080240687656,"56":0.022915624471260696,"57":-0.030392203328470906,"58":-0.037072478783688766,"59":0.012830499520696498,"60":-0.018625002104147945,"61":0.08907702757952342,"62":-0.1526122326914719,"63":-0.03184721876518339,"64":0.04829854947298518,"65":-0.003343839081783607,"66":-0.053243835336070015,"67":0.01115455457750884,"68":0.05233916608700133,"69":0.08742962098813561,"70":-0.03545408020867614,"71":0.02926439067454284,"72":-0.022321799661687593,"73":-0.06419167271864838,"74":-0.08693270419067099,"75":0.030299624273470008,"76":-0.03670300181273899,"77":-0.053292426085267436,"78":0.11722816621358333,"79":0.12928884086229145,"80":-0.04588001903274026,"81":-0.08596925496438619,"82":0.01610672468396228,"83":-0.0739139700706306,"84":-0.259077355204077,"85":0.03947367286050128,"86":-0.057404696280751275,"87":0.08658421182391964,"88":0.04363831342912227,"89":-0.0024516636551645925,"90":-0.01371183683611755,"91":-0.027718225218024625,"92":-0.05224555609079466,"93":-0.08215880237916473,"94":-0.04137408716530574,"95":0.09755784569265964,"96":-0.06094222950116064,"97":-0.02734082861438262,"98":-0.12841843121291663,"99":-0.013565055984131479,"100":-0.06929244849096382,"101":0.009085358123234657,"102":0.0014329202889961632,"103":-0.1744313859188127,"104":-0.032808570881862224,"105":-0.05460033665507626,"106":-0.0507198520176278,"107":-0.0654143079227913,"108":-0.11773753336304127,"109":0.00008218339764151834,"110":0.017316273654994187,"111":0.008494512775026703,"112":-0.05650384180208069,"113":0.03446649875528174,"114":0.011122521008663882,"115":-0.022145213412838413,"116":0.07448121468082354,"117":-0.07544861003631853,"118":-0.09455545719173503,"119":-0.017412850476161597,"120":-0.00315450772155405,"121":0.05903291141226032,"122":0.07304649853648626,"123":-0.14445074092732094,"124":-0.1586379001937378,"125":-0.09623861175458893,"126":0.11111436371218528,"127":0.05650522077567404,"128":-0.049753945969944965,"129":0.12441609188730617,"130":0.026278844622041882,"131":-0.02050700406812412,"132":-0.08528278260691305,"133":-0.00011577268682226843,"134":-0.026904635437402052,"135":-0.17687647076505858,"136":-0.05618062438960988,"137":-0.06718041656304542,"138":-0.14207013053456743,"139":0.014746765252992414,"140":-0.04450812453653719,"141":-0.037401481691925025,"142":0.0836485763666655,"143":-0.02261711386959175,"144":-0.04560829890280452,"145":-0.12644384452023208,"146":0.032368130409200856,"147":-0.016850195401365467,"148":-0.08464060440729497,"149":0.019234970488861747,"150":0.02621745476317255,"151":-0.017322690897404305,"152":0.13434001579883426,"153":-0.20758414567754885,"154":-0.019801594580618177,"155":-0.05563471775399783,"156":-0.05019298812405214,"157":0.0072318668030842675,"158":-0.18182886065104467,"159":0.07703382045872806,"160":-0.07907652489163113,"161":0.08800141612017219,"162":0.003271321492422892,"163":0.024775127013152456,"164":-0.06672957059372561,"165":0.13472950807173711,"166":-0.0015082633153141,"167":0.05585809597430338,"168":-0.11399733591546646,"169":-0.0032715539992852747,"170":0.14478058239789357,"171":0.08513033355407436,"172":0.08353362111850138,"173":-0.12138227021431394,"174":0.04090458487812556,"175":0.03497185296703262,"176":-0.1243495716686299,"177":0.08011394455288202,"178":0.030011203214545194,"179":-0.053098728816422004,"180":-0.09772376150149692,"181":0.10529414376428436,"182":0.06255798447165092,"183":0.08165322693904689,"184":-0.24772928804698727,"185":0.08893725691406054,"186":0.12271689925342773,"187":0.08929072716021329,"188":0.03245296395495846,"189":0.024239258330753435,"190":0.07449797205812196,"191":0.22022356711519064,"192":-0.07745751885030105,"193":0.041194422461258325,"194":0.024316889483813744,"195":-0.06479227798242881,"196":-0.2884070950840958,"197":0.15006124661484882,"198":0.10560692690619163,"199":0.18096631341708758}},{"sx":5,"sy":5,"depth":8,"w":{"0":-0.0003914046071266277,"1":0.008461140973294944,"2":0.003340548808494131,"3":-0.020818880396668175,"4":0.02083770752302775,"5":-0.009500892950169369,"6":-0.12409661335612542,"7":0.04745885561492258,"8":0.005986247990224437,"9":0.03622672668156982,"10":-0.10655904336382031,"11":-0.04708795468229151,"12":-0.044917180945934845,"13":0.08167150866413857,"14":-0.08906472154625895,"15":-0.07722884692873273,"16":-0.17642071883130747,"17":-0.04541375419512991,"18":0.011777020347135727,"19":-0.15623388869614233,"20":-0.12949807165024882,"21":-0.14935418374728382,"22":-0.07917547255609467,"23":0.09645725246713135,"24":-0.027469935335944183,"25":-0.03364511995751272,"26":-0.014252213367274232,"27":-0.04200017909483158,"28":-0.0009799799700610917,"29":0.03580008606519468,"30":-0.07229235645851316,"31":-0.024839390855170913,"32":-0.06708944265902142,"33":-0.10948912110876467,"34":0.0746981553051996,"35":-0.12383701378859195,"36":-0.0542332464239295,"37":-0.11654496969682643,"38":0.16403921250339362,"39":-0.0017969275735619772,"40":-0.06271126975003252,"41":-0.04013323272283665,"42":-0.18498482069224506,"43":-0.15973409561669097,"44":-0.012994362879610467,"45":-0.0493129533769371,"46":0.049578254153171235,"47":-0.1030283242730691,"48":0.015365609262855249,"49":0.03920808598951762,"50":-0.1129115299799586,"51":0.03174906113051292,"52":-0.03353402836233295,"53":-0.06147090721392531,"54":-0.08661762223851223,"55":-0.03534508200495823,"56":-0.021225407257367285,"57":-0.09019804569222412,"58":-0.08270534851839814,"59":0.012170785857019634,"60":-0.08633247007223308,"61":-0.030773350063542683,"62":0.04632858505981255,"63":-0.1277261545084159,"64":-0.04213351360548545,"65":-0.06848632991199564,"66":0.03832018115745934,"67":0.016746831272573818,"68":-0.058665549540375325,"69":0.03090341963586403,"70":0.04318636549153373,"71":-0.15142017291367588,"72":-0.0819081151633129,"73":0.1252901878771495,"74":0.05561512481416337,"75":0.01263722683869909,"76":0.0446872451681966,"77":-0.07070523194816239,"78":0.07530120485375932,"79":-0.058903498070167565,"80":0.017608678639846793,"81":-0.13566783034450067,"82":-0.03935488828519916,"83":-0.07641320245051923,"84":0.008394578778315207,"85":-0.18052501342141933,"86":-0.09312056604770667,"87":-0.0995899276083921,"88":-0.25159305393441517,"89":-0.010052102544771815,"90":-0.04492919775419711,"91":0.005299222248664877,"92":-0.04122676066096556,"93":-0.01688241139172193,"94":0.04633791816618263,"95":0.10616828291174712,"96":-0.057827587512450096,"97":0.03220918131902137,"98":0.18196364984863317,"99":0.07826276455017751,"100":-0.06057167396693542,"101":-0.028999418399654777,"102":0.021232803251980535,"103":-0.03708170691926103,"104":0.039512506320281804,"105":-0.09414100619730748,"106":0.052175995254712504,"107":-0.0087045576865927,"108":0.08643096771066199,"109":-0.016768080465451234,"110":-0.08669288737589467,"111":0.013434853612517447,"112":-0.05316663310718952,"113":0.023922124856514466,"114":-0.012802319037136226,"115":-0.07709680140754847,"116":0.02932778626048421,"117":-0.08424302015380765,"118":-0.13181261092504945,"119":-0.1713655658139461,"120":-0.07787083520787919,"121":-0.08103423627317091,"122":-0.012566599133879808,"123":-0.02037754668118778,"124":-0.09818314392248363,"125":-0.03471082862929895,"126":-0.0501409295663029,"127":0.0032695765376781006,"128":-0.04056781981071308,"129":0.022300052106718583,"130":0.17860381297768121,"131":0.13176417898454634,"132":-0.03854781784162247,"133":-0.14638156287275136,"134":-0.142041153041372,"135":-0.013735125884747285,"136":-0.02407841160754491,"137":-0.08527716128828651,"138":-0.03795962861060913,"139":0.05014699576062232,"140":0.011469387352746302,"141":0.08325683262245201,"142":-0.13003122480930573,"143":-0.17386585282904995,"144":-0.11415260441587126,"145":0.11020876988637467,"146":0.011870520166108598,"147":-0.021635855961268588,"148":-0.16130815162821582,"149":0.11108059474520131,"150":0.029432272872346395,"151":0.032115641795935256,"152":0.01353533342834096,"153":-0.04663980192070443,"154":-0.13410394570199188,"155":-0.08672343086287053,"156":-0.038999299218498804,"157":-0.09205069845356813,"158":-0.08519987452459611,"159":-0.07072180627190143,"160":-0.19925618033315595,"161":-0.21300577038141966,"162":0.11334433155168393,"163":0.06020712589523597,"164":-0.007852025947612142,"165":-0.06400404633241674,"166":-0.07667151038031099,"167":0.1417422697483029,"168":-0.031703531545469704,"169":-0.04641443808172232,"170":-0.11187307401403779,"171":-0.008225723133307121,"172":0.07110945757679077,"173":0.11236196196828736,"174":-0.07020536464015582,"175":0.012215215251912959,"176":-0.019047164818205634,"177":-0.03172509794735133,"178":0.0349512790262557,"179":0.007042616348645417,"180":0.005560807970462443,"181":0.05691993458085793,"182":0.0982601562955141,"183":-0.1458821429634291,"184":-0.25099345744523993,"185":0.09899967795968691,"186":0.050860706109264506,"187":-0.020329437453476932,"188":-0.003981883373258647,"189":-0.038640541248522814,"190":-0.02404739149215744,"191":0.11436378445594622,"192":-0.09792800903933466,"193":-0.001076235116575836,"194":0.1881932481533699,"195":0.04053383445633712,"196":-0.1374176874966281,"197":0.05539461590029505,"198":0.08759137068586852,"199":0.264878751750838}},{"sx":5,"sy":5,"depth":8,"w":{"0":-0.0025737278556667723,"1":-0.13243057222246368,"2":-0.02295724713905247,"3":0.13703201027755774,"4":0.09035924113864247,"5":0.06741583869591888,"6":-0.013600451469917826,"7":0.09395734967829013,"8":0.05600309874005285,"9":-0.12049269067835312,"10":-0.21190753695563036,"11":-0.12718373174579659,"12":0.07130268609631625,"13":0.18317596728897792,"14":-0.05589225052042452,"15":0.07835014580523092,"16":0.047511998344900365,"17":-0.2416802732159829,"18":0.03027069555161817,"19":-0.19773742815417658,"20":-0.04535115404264483,"21":0.04467732615163421,"22":-0.16873262696867075,"23":0.06916086144243144,"24":-0.054446057713209255,"25":0.028234198815896283,"26":-0.0073523484136814275,"27":-0.09710448058830831,"28":0.010858584629548047,"29":-0.07605370637449282,"30":-0.12966703702643584,"31":-0.10144862946299252,"32":-0.012482474289370016,"33":0.05365590120531924,"34":-0.05849453735354827,"35":0.07690647406677659,"36":0.0842123415804416,"37":0.029588773263897118,"38":-0.06090641967881096,"39":-0.22561306612456392,"40":0.0034740082617921186,"41":0.023274460908649316,"42":-0.03951153530194483,"43":0.016773093121603428,"44":0.04406022007073442,"45":0.061365610284477255,"46":0.04768450255822666,"47":-0.0029861624694233887,"48":-0.0857265960663367,"49":-0.03805704064160238,"50":0.005035703356594017,"51":-0.019019909028138642,"52":-0.1794331368698633,"53":0.04058869189681763,"54":-0.09196587512414135,"55":0.015482254797642647,"56":-0.19855190335383538,"57":-0.08170370521896927,"58":0.0430967520352579,"59":-0.11397121251601157,"60":-0.08142011178477172,"61":-0.07527046204306137,"62":0.027159406463956263,"63":0.039698582531783266,"64":-0.09385447889858797,"65":0.027245746416059934,"66":-0.0667975836749901,"67":0.05771758262700315,"68":0.02609028007312087,"69":-0.09472766835296889,"70":-0.1068024909977305,"71":-0.19332689184702465,"72":-0.020010530868846025,"73":0.06624508959546353,"74":-0.18757177092142377,"75":0.239306174289493,"76":-0.050255107792648725,"77":0.03398025570528339,"78":-0.0065054873077292855,"79":-0.18396097782758197,"80":-0.06693148612348956,"81":0.07766109433524687,"82":-0.12270381441496397,"83":-0.012102886212703483,"84":-0.0498039278164754,"85":-0.02722840726264146,"86":-0.039202698251276195,"87":-0.005164892407622882,"88":-0.07754114510292341,"89":-0.09535808975134055,"90":-0.12553293454780032,"91":-0.21053901665888344,"92":-0.07731756653110673,"93":-0.05597791284661442,"94":-0.21700848936296263,"95":0.0515638110097424,"96":-0.029407470873775904,"97":0.03918668990847706,"98":-0.11497392349354867,"99":-0.11548113065433337,"100":0.14350027431221338,"101":-0.17126303447156013,"102":-0.10353257233514168,"103":-0.19903106337781504,"104":-0.048135408551892786,"105":0.13651978549366484,"106":-0.1081214102657703,"107":0.17129064573933586,"108":0.01842724059314017,"109":-0.06217511815629266,"110":-0.09029002338984037,"111":-0.10260927811536139,"112":-0.01860220393289374,"113":0.04583320806280543,"114":-0.07130669963755441,"115":0.154186858655154,"116":-0.04977880301686726,"117":-0.04391908678646286,"118":-0.037459803945768845,"119":-0.05451403387987891,"120":-0.1724871303622993,"121":0.04853076476862163,"122":-0.027411390150000464,"123":0.027925900129430803,"124":-0.15871477586701258,"125":0.061790357352905806,"126":0.13052711478754314,"127":0.08265002640385755,"128":-0.2972731082916181,"129":0.030393231224473887,"130":-0.026858608929997804,"131":-0.06672327188225498,"132":-0.12317146705072683,"133":-0.09323018128240976,"134":0.054086319693170334,"135":0.08345162039407225,"136":-0.1719194658051285,"137":0.013679044411398887,"138":0.02054769216195584,"139":0.13452263765482927,"140":-0.11912414292732718,"141":-0.03621609022634634,"142":-0.1407589736523334,"143":-0.04171769316183995,"144":0.014109600826968861,"145":-0.02275456543501937,"146":-0.2392242306069853,"147":-0.008479020397035044,"148":-0.0828824893282179,"149":-0.05772645227732184,"150":0.03504223230942222,"151":0.003251923897391761,"152":-0.0965815817094442,"153":0.006663686819804033,"154":-0.10100532532488342,"155":-0.06787511709523449,"156":-0.02061043399746793,"157":-0.022266625065449238,"158":0.019610102766657138,"159":0.03526244693125617,"160":-0.08907473218999823,"161":-0.08113688661622634,"162":0.018762819774704783,"163":0.09712299524360377,"164":-0.12524518897085088,"165":0.2646381840886483,"166":0.2492746177360268,"167":0.04882462284643686,"168":-0.14740334552685935,"169":0.07959784318453922,"170":-0.02066100612742498,"171":0.09021204353291275,"172":-0.126015373506,"173":-0.07664947624602937,"174":0.05776388552354779,"175":0.10765914978427703,"176":-0.03825961577586084,"177":0.014037127825652166,"178":0.004702470564334304,"179":0.06247400107849067,"180":-0.01588272562811824,"181":-0.014810909520717246,"182":-0.015824955111410997,"183":-0.12669301427853905,"184":-0.09269984757088234,"185":-0.09617333274761435,"186":-0.06894910555610835,"187":0.09037925787310296,"188":0.0003849996707578243,"189":-0.052518053293500136,"190":0.06077432949532474,"191":0.0991876744701362,"192":-0.218923223765707,"193":0.03963536882795339,"194":0.0627300566114957,"195":-0.023102315653274513,"196":0.017965479891182166,"197":0.05081124498678701,"198":0.011711399919748122,"199":0.2611308937806094}},{"sx":5,"sy":5,"depth":8,"w":{"0":-0.0818992900696624,"1":0.0036807557809550783,"2":0.27445364746149004,"3":0.09602916102607621,"4":-0.16672087403330654,"5":-0.10104923998617998,"6":0.11697976382838582,"7":0.10506813708889967,"8":-0.050494994463311536,"9":0.09112361741567819,"10":0.029767735071110482,"11":0.039650876672198014,"12":-0.004272526366255573,"13":0.0014229188106622648,"14":0.10203561974582988,"15":-0.01749882128801741,"16":0.019354623002376566,"17":0.13195467834305447,"18":-0.005446908397670673,"19":0.16353351009786693,"20":0.08389330508176919,"21":0.02872234527145412,"22":0.054293686614027184,"23":0.05789615072202501,"24":-0.0479066681055235,"25":0.04576682136746276,"26":0.07647360992603476,"27":0.04381339871336191,"28":-0.1074878904828286,"29":0.07280474562161314,"30":-0.042353295066750056,"31":0.03781471309320829,"32":-0.10670901181094901,"33":0.07873751112601449,"34":0.007068829605132671,"35":-0.15345471749639605,"36":-0.12908463529413255,"37":-0.04678305841321726,"38":0.1301627492946888,"39":0.08964539457160943,"40":0.06153228415502828,"41":-0.03572213044578932,"42":0.03370487563101127,"43":0.04503716815211179,"44":0.06701138795640495,"45":0.02889357172991384,"46":-0.10163171735528337,"47":-0.07666457389181998,"48":0.13598660101730028,"49":0.02401273217110008,"50":0.0945355962843134,"51":-0.13776565729166432,"52":0.08592136630401305,"53":0.11122223092356298,"54":-0.0798536770573283,"55":0.07880237323503311,"56":-0.11739954366941063,"57":-0.052770918726089674,"58":-0.01355766796214573,"59":-0.0032136383632801056,"60":0.10555751011560394,"61":0.12775444758831953,"62":-0.05486874402182919,"63":0.06753822176865626,"64":-0.2870272885698572,"65":-0.10585455789968319,"66":0.1282350389256007,"67":0.023680977323085363,"68":0.05766868735970693,"69":0.04522209199247801,"70":0.17116538047986601,"71":0.18705357030886052,"72":-0.056675179731034434,"73":0.2767788497557831,"74":0.28217732759295944,"75":0.06753698582857588,"76":-0.09079036542160931,"77":-0.12225230031242681,"78":0.2487857443282995,"79":0.17821253815881857,"80":0.0007529193279578738,"81":-0.04079203133750004,"82":0.010056812021297119,"83":-0.1003284719188329,"84":0.07420708740605378,"85":0.05316245501637931,"86":-0.17194213719008253,"87":-0.03151652846547002,"88":-0.05058925616777908,"89":-0.09483282461428974,"90":-0.15623107653922141,"91":-0.08116617389372156,"92":0.08792858748196389,"93":-0.04887532021556247,"94":-0.12709147226658243,"95":-0.09864804534134787,"96":0.04086790093708044,"97":-0.03876709089041888,"98":0.054847616716261684,"99":-0.04323988612310307,"100":0.0130849635955443,"101":0.03680714999009901,"102":-0.14197577951556317,"103":-0.20644824186137492,"104":0.004180048810528763,"105":-0.18286137860396295,"106":0.00025693202359193014,"107":0.010705568222217755,"108":0.06482062853949597,"109":0.14141827075740362,"110":0.02498163260971005,"111":-0.1596570485645539,"112":0.14139245729939,"113":-0.043313126734455074,"114":-0.06101527709305481,"115":0.024466678017305354,"116":-0.08511864583906373,"117":0.07143281276313677,"118":-0.09972363319168903,"119":-0.1085800637159051,"120":0.03211380139364303,"121":-0.10012848487617085,"122":0.09309143284463636,"123":-0.13497761939028796,"124":-0.059213628123117805,"125":0.0546355619145189,"126":0.01066402202598013,"127":0.015622196847943179,"128":0.07381258387962343,"129":-0.09744691049820922,"130":-0.1125139369695808,"131":-0.1440424926099332,"132":-0.02826454309039406,"133":0.11219371307792804,"134":-0.11109307962642843,"135":-0.0237020883886308,"136":-0.010009526165854222,"137":-0.15915452944809905,"138":-0.006370688257109849,"139":-0.19519124727951867,"140":-0.011632914956697488,"141":-0.14182669760455444,"142":-0.09956128867069321,"143":0.0023916176464536857,"144":0.07001136422393445,"145":-0.17494805041727315,"146":0.04969968790920588,"147":-0.2054583950672327,"148":0.03190074297807552,"149":-0.16201660895453393,"150":-0.17866316659060935,"151":-0.10967033941323547,"152":0.10922910644584415,"153":-0.06930637646007569,"154":0.14901559261197425,"155":-0.1443072295935877,"156":-0.13147248870738246,"157":0.025700631559502512,"158":-0.14735366615207132,"159":-0.006566549998761755,"160":-0.08755829425250249,"161":-0.058305130282579526,"162":0.0383048513670954,"163":0.06497152158597205,"164":-0.0926289796974103,"165":-0.08216968173146431,"166":0.02238782400959845,"167":0.18240876619889085,"168":-0.021660338464636844,"169":0.10978952751264474,"170":0.1220117040850522,"171":0.02346733285276665,"172":0.04617023907063353,"173":0.004104849736177103,"174":0.1300698672836539,"175":-0.06262509267976243,"176":-0.14307931404009835,"177":-0.10840142513714135,"178":0.01663285170978817,"179":-0.12365432442088475,"180":-0.003091100118119716,"181":0.009215610383101754,"182":-0.002431576719757752,"183":-0.01055243263749978,"184":-0.10803293043910826,"185":0.007742992219653319,"186":0.058783418146771564,"187":-0.23796660445350762,"188":-0.12448370554142532,"189":-0.17922475394184445,"190":-0.08846755114133319,"191":0.040030579227988014,"192":-0.14522732661647303,"193":-0.028313878113349483,"194":-0.025370982474908037,"195":0.013994178706068857,"196":0.008971072345214893,"197":-0.084605035462365,"198":0.10591445906692593,"199":-0.04906937521460659}},{"sx":5,"sy":5,"depth":8,"w":{"0":-0.04501374690071986,"1":0.07039001624281585,"2":0.043412163267163545,"3":0.02481730568081386,"4":-0.021897068093398503,"5":-0.14525964282693915,"6":-0.03461714052396602,"7":-0.07116668968907643,"8":-0.08544882643831175,"9":-0.006889345991777773,"10":0.047119558411335034,"11":0.17391888637614705,"12":-0.03915001999552678,"13":-0.05580715620371745,"14":0.02601039417106712,"15":-0.14515070615682957,"16":0.017920505997327436,"17":0.03770345599868807,"18":-0.03624002979572402,"19":0.16439363740685792,"20":-0.03984395632013564,"21":-0.07584971906513184,"22":0.03185175548374956,"23":-0.12332573759729362,"24":0.14245456117815866,"25":0.10855481129468798,"26":-0.04656084721053573,"27":0.01627544810472556,"28":-0.11864728693509315,"29":0.05437638858783198,"30":0.04547554292149969,"31":0.042250236156592305,"32":0.1101746841690586,"33":0.007520730634808214,"34":0.03229088147790629,"35":0.049154675666252076,"36":-0.0966172144397089,"37":-0.040104455011034226,"38":-0.030178295240344877,"39":-0.07113138924722537,"40":-0.00462602134459382,"41":0.15959313962429084,"42":0.23495944387219223,"43":0.1503257007349289,"44":-0.20762789761467826,"45":-0.059717743890899476,"46":0.01450063263655223,"47":-0.046297788893122055,"48":0.15783836592619904,"49":0.05913210926327534,"50":-0.1157339263724041,"51":-0.0005191670016277562,"52":0.04894418786897993,"53":-0.02537485698574852,"54":-0.07933224647153846,"55":-0.09058470038170822,"56":0.24275152099232467,"57":-0.12358814683960052,"58":-0.07824098078810095,"59":-0.032682119215659416,"60":-0.09234432052947193,"61":0.004186237765732497,"62":-0.05243804469587939,"63":-0.06804133548124958,"64":-0.08515946297501151,"65":-0.03577645089592381,"66":-0.054088893937783,"67":0.04619769142296009,"68":0.09812509282645858,"69":0.03329259125357906,"70":-0.10655750196829816,"71":-0.02398499871935284,"72":0.008494753948859167,"73":-0.10888441242721143,"74":0.0340187030109815,"75":-0.11688214510233878,"76":-0.06527816999322959,"77":-0.13381846973468173,"78":-0.044385044954766605,"79":-0.08355676592494116,"80":0.03923285440383284,"81":0.002241376595200294,"82":-0.03600628938358457,"83":0.1364170919070988,"84":0.0071611930665548,"85":-0.14055439427325558,"86":0.04685789851239989,"87":0.026492114657865832,"88":0.052222577421734716,"89":-0.013290214484558202,"90":-0.13073794156244697,"91":0.045697142636054,"92":0.014495869848233357,"93":0.002707508694973444,"94":-0.04052884125733497,"95":0.004124467135711314,"96":-0.0946058645835471,"97":-0.16781705553935472,"98":-0.08109229416081981,"99":-0.13942564765547855,"100":-0.028236022540950433,"101":0.04327358075635367,"102":-0.08238383929486809,"103":0.07134207927953558,"104":-0.05236854871127876,"105":-0.03111108220517789,"106":-0.005928764681100616,"107":-0.16123977813473397,"108":-0.09894460952842705,"109":-0.03694728003368292,"110":-0.07666934668671543,"111":-0.005380630699801768,"112":-0.024479743269725806,"113":-0.09039352723588202,"114":0.01782787037132074,"115":-0.041833012692447095,"116":0.04944411029894748,"117":-0.020571444876146334,"118":-0.14580717575565236,"119":-0.1531413782275372,"120":0.0577931586194812,"121":-0.06343227464653942,"122":-0.0680340407488331,"123":0.06207705482497318,"124":-0.04788883502438862,"125":0.06304347114036067,"126":-0.2095476970827007,"127":-0.027146739523050026,"128":0.050705264499998584,"129":-0.11691027293285691,"130":-0.1062504216859132,"131":-0.12630654206342778,"132":-0.0031967715347390336,"133":0.14580221048861994,"134":-0.07527978341786236,"135":-0.025882913110358292,"136":0.06649947203945057,"137":0.004811504757250195,"138":-0.02760532204098788,"139":-0.15156592242264222,"140":-0.003147988426642952,"141":0.14800694464452313,"142":-0.20745749464363153,"143":-0.0006684621251489744,"144":0.09290830244690383,"145":0.013161009236912817,"146":-0.015580111636929149,"147":-0.07528099265329584,"148":-0.038357008356862995,"149":-0.027526015666539637,"150":0.05799076545869334,"151":0.061425237131320774,"152":-0.07633517959671926,"153":-0.07111599779328409,"154":0.09816375611991199,"155":0.07279597629150245,"156":0.10734944280056437,"157":-0.04776863351988996,"158":0.07555964421838551,"159":0.07678140259114619,"160":-0.025188446480267683,"161":-0.05227934587466616,"162":0.09004009419655841,"163":-0.09214962274795586,"164":0.038244569116598154,"165":0.030344829724661678,"166":-0.04567415341939669,"167":-0.024926799229454427,"168":-0.017609927127608394,"169":-0.1757815490298468,"170":0.07526912591917682,"171":0.04873406199079941,"172":-0.01800098593850491,"173":-0.06609917330342968,"174":0.03872635142107948,"175":0.052321498047728836,"176":0.0775777656743564,"177":-0.003050369737921467,"178":-0.014266217340838317,"179":-0.004775482281907402,"180":-0.04818371248574573,"181":-0.017403823976335987,"182":-0.13676858127514277,"183":0.028402563900568816,"184":0.11269413770577995,"185":-0.004627739540519795,"186":-0.09565817902465999,"187":0.004703126228500452,"188":0.02721328385508835,"189":-0.08025284525800103,"190":-0.1443435420762562,"191":0.011787949905159818,"192":-0.03514734298740285,"193":0.027900499614364017,"194":0.06417334604896358,"195":0.028902473688481145,"196":0.09952643354228759,"197":0.05629051126861599,"198":0.06945209532594133,"199":0.17070603627434408}},{"sx":5,"sy":5,"depth":8,"w":{"0":-0.03958356851803112,"1":-0.2548552217843837,"2":0.07954098790827784,"3":-0.1457505404313163,"4":0.07202665957758803,"5":-0.01500027943758921,"6":-0.17986019037015274,"7":-0.07667737635698055,"8":-0.16637737887568368,"9":-0.06260136805958595,"10":0.0697077374729966,"11":-0.14302416001958118,"12":0.010413951045826032,"13":-0.030097534322195557,"14":-0.2507943568836275,"15":-0.0549622208811465,"16":-0.11688889104432734,"17":-0.061751042374757696,"18":0.04707082478043413,"19":0.036031804879305594,"20":-0.11627837445149036,"21":-0.04523087720014871,"22":-0.1941176800908788,"23":0.01548055055956582,"24":-0.06593629294339785,"25":-0.02580577354967642,"26":0.04258443033562705,"27":0.006215379482431734,"28":-0.022808551584677494,"29":-0.009134495195715034,"30":0.0034008320954068386,"31":-0.1133911592060743,"32":-0.04480848136982887,"33":-0.02323283300906387,"34":-0.05724217543337414,"35":0.11199934452433857,"36":-0.0027758287173141475,"37":-0.16745051988828724,"38":-0.1405924807858728,"39":-0.1311370916942655,"40":-0.013908022006596178,"41":0.11790577986265394,"42":0.14154685481530252,"43":-0.07657088874129812,"44":0.05008743634960298,"45":-0.10978268594192557,"46":-0.11401952584678685,"47":0.009332964924317535,"48":-0.0885359247407512,"49":0.08447021164155939,"50":0.16263982868758298,"51":-0.1002208890403431,"52":0.05114167447025999,"53":-0.1929192549704357,"54":0.1552937439510641,"55":0.1769580283193456,"56":-0.014061759572452502,"57":0.21158181928151681,"58":0.15028359844137784,"59":0.0691620662828285,"60":-0.022090444801621693,"61":-0.08271783292382981,"62":0.10915514248176288,"63":0.1986606226462655,"64":0.05645363553208143,"65":0.13572536430646978,"66":0.1963140069917553,"67":0.17070174943704852,"68":-0.1761579996458572,"69":-0.01248525785123625,"70":-0.16476999996839226,"71":0.006425538854119714,"72":0.04474479296886784,"73":0.009366429152567727,"74":-0.20561994870835487,"75":0.032508260002684426,"76":-0.02880360467945164,"77":0.03718897231107544,"78":0.12452174271411516,"79":0.06477571159022477,"80":-0.04348748203857179,"81":0.17901170409972825,"82":0.19643623806101337,"83":0.001154259239159653,"84":-0.1956499081217986,"85":-0.05994112722487865,"86":0.043105611578120755,"87":-0.031728123142476736,"88":0.03549546189624198,"89":0.06473792124745914,"90":0.18536542708286388,"91":0.19268725657994817,"92":-0.15363812893887233,"93":-0.17749323167268063,"94":0.16417084174359134,"95":-0.09116188594974443,"96":0.031358211459067635,"97":0.11882810216891264,"98":-0.03838238877416294,"99":0.013848769176772364,"100":-0.2121721344596183,"101":-0.047251790301669844,"102":0.05656622343098472,"103":-0.035725068853530204,"104":-0.05766067651849321,"105":0.11722690481007958,"106":-0.048566400774430654,"107":0.07759549447303013,"108":-0.1958805781865844,"109":-0.059499570378436846,"110":0.03150684185891616,"111":-0.014831099607320786,"112":-0.06308347198116436,"113":-0.014284702454312698,"114":0.008631359076232971,"115":-0.11129527797008691,"116":-0.17630560734910658,"117":0.06267323487500007,"118":0.008709919011691434,"119":0.13931545004834595,"120":0.1027419522254909,"121":-0.04658533319628755,"122":-0.06620720153686388,"123":-0.0028327764198536032,"124":-0.05436907924541675,"125":0.18039636028649841,"126":0.0047003388393652215,"127":-0.15508374158608892,"128":0.16715635005588514,"129":-0.03309998303398893,"130":0.03189841136414367,"131":0.01622927363026656,"132":0.03341854872317338,"133":0.2193796425660193,"134":-0.09510057007587591,"135":-0.21642358308688894,"136":0.007070049110222014,"137":-0.037839753764072004,"138":-0.16070674816919567,"139":-0.05468907559057725,"140":-0.09105899057751608,"141":0.1414638875825266,"142":-0.01919183417481174,"143":-0.13801636242826587,"144":-0.13017785892077746,"145":-0.115032244897424,"146":-0.16848731716359405,"147":-0.18400940737805663,"148":-0.03806667591553737,"149":0.02972562292714212,"150":-0.03629183883801848,"151":-0.14113127812107415,"152":-0.008752717157744755,"153":0.08014995777169362,"154":-0.23690373302194753,"155":0.06848912164739729,"156":0.06761513358135274,"157":0.016029755013604808,"158":-0.03562612541433649,"159":0.08540167599954288,"160":-0.10061332739893326,"161":0.0018271326913407242,"162":0.1211974733339461,"163":-0.01739124783056262,"164":-0.013718387124151602,"165":0.033246267380788105,"166":-0.07277345660437476,"167":0.1746110067644347,"168":-0.06770699662193042,"169":-0.03452520868229565,"170":-0.06848199101802976,"171":-0.1163060007865721,"172":-0.04864663738798947,"173":-0.02559219695854586,"174":-0.13096044069861074,"175":-0.038895886669050216,"176":-0.1970898794215811,"177":-0.017153869931716203,"178":-0.01264395465982787,"179":-0.026039266904941162,"180":-0.009791202850977314,"181":0.12473103659296694,"182":-0.03945258346073935,"183":-0.1998020744917203,"184":-0.15254290355787734,"185":0.11998368745532538,"186":0.03241474502315295,"187":0.14661348108630312,"188":0.02064155383201676,"189":0.06445009443557592,"190":0.011177263330962472,"191":-0.08438627219651876,"192":0.0679528560716721,"193":0.16105086042434896,"194":-0.1154309039319536,"195":-0.002861395539795313,"196":-0.22828364788768318,"197":-0.11795961204969771,"198":-0.05428129211404732,"199":0.025923075820997888}},{"sx":5,"sy":5,"depth":8,"w":{"0":0.005629752926971654,"1":-0.1089025465308836,"2":0.16253928249386287,"3":-0.14138559656245722,"4":-0.20750554615868047,"5":-0.0715909940905445,"6":0.007252447794551771,"7":0.08176482282077469,"8":-0.042535897209758894,"9":-0.1441355184430634,"10":0.0875687509011765,"11":-0.10959209441629493,"12":-0.07441367418073865,"13":-0.11956226078517654,"14":-0.09557957036126333,"15":-0.03107850197118762,"16":-0.05708292621160689,"17":-0.08377088456250055,"18":0.1385472512224485,"19":-0.03128262927178629,"20":0.09858454353380287,"21":-0.1720150012438364,"22":-0.01479772767065304,"23":-0.14317790783033524,"24":0.09878598266790671,"25":0.02794071468451176,"26":0.051691990980121186,"27":0.024303569030160878,"28":-0.022655058885155774,"29":-0.14140395085609697,"30":0.02878441183144946,"31":-0.24583918384923276,"32":-0.17452518335978576,"33":0.058932882820511824,"34":0.08827406556752636,"35":0.1532473432357479,"36":0.06395235266621781,"37":-0.12540699991907117,"38":0.18282709243167383,"39":0.0048280766055493595,"40":-0.10482622720031222,"41":0.029413289471976578,"42":0.1724559870297315,"43":0.043140153145292216,"44":-0.18805720001500795,"45":-0.09118549175248954,"46":-0.06500118292578463,"47":0.08127238316078765,"48":-0.24807237977795538,"49":0.09020320808592143,"50":0.1704752875544461,"51":0.04692731889062343,"52":-0.10038178394149921,"53":-0.10860640013585601,"54":0.24389746934011855,"55":0.19337801183306938,"56":-0.02170969092880513,"57":-0.04007730085226078,"58":0.1063344525407865,"59":0.015201393393232863,"60":-0.14848927366164413,"61":-0.024946136671907676,"62":0.03371716775132711,"63":-0.06558562728095274,"64":0.009633972533298688,"65":-0.12995488222110887,"66":0.08298772117546593,"67":-0.08224175952248702,"68":-0.10793775515972323,"69":-0.05739214723172525,"70":-0.23899745141826864,"71":-0.14755946532139239,"72":0.031932808756819434,"73":-0.17891578462279908,"74":-0.04811999143222651,"75":-0.00197833261318462,"76":0.02934908632593859,"77":0.06838926212709155,"78":-0.17010208286034298,"79":-0.09917801469392304,"80":-0.02999539740269352,"81":-0.06358901185202159,"82":-0.18430489705561826,"83":0.06281429995588358,"84":-0.11269586392572198,"85":0.06389664649160574,"86":0.10069223214576749,"87":-0.14270074289307472,"88":-0.08218852357561524,"89":0.06555295543348799,"90":-0.20530199519072292,"91":0.09723679515152259,"92":-0.10100934584925092,"93":-0.12891270878409788,"94":0.21817722994552916,"95":0.011748490122077206,"96":-0.08312509575330314,"97":-0.004720986986674496,"98":0.008715409599750321,"99":0.17501196326284701,"100":-0.1944768007097867,"101":0.05774393016039253,"102":0.09172517331198263,"103":0.2001265369198416,"104":-0.08955639854018078,"105":0.031001172574973375,"106":-0.036187957200567576,"107":-0.024143752986334654,"108":-0.2930513694308412,"109":-0.2751606747974316,"110":-0.09768079325089796,"111":0.1788246670214032,"112":-0.1371013777067942,"113":0.10083133790948536,"114":-0.04224987053533001,"115":-0.05211186446055458,"116":-0.022806912287263125,"117":-0.03807734163838232,"118":-0.013766708860314256,"119":-0.1529746483896755,"120":0.0006532897891186698,"121":-0.009243339294495122,"122":-0.13317976709578155,"123":-0.042497091507413855,"124":0.06579598688696217,"125":-0.049050061035693024,"126":-0.22528315816210928,"127":-0.11401604083734634,"128":-0.1404176880608699,"129":-0.03531090757045755,"130":-0.061134413170773116,"131":0.07999183375524062,"132":0.2196739926358379,"133":-0.004457354636224705,"134":0.051872855289446775,"135":-0.20688202662220853,"136":-0.12629226862844745,"137":0.09424984845473877,"138":-0.012517893600616283,"139":-0.004954919729720977,"140":-0.0504886107871938,"141":-0.10434122124072866,"142":0.14715716713953805,"143":-0.06501227980748914,"144":-0.12500647325121314,"145":-0.003050612918788755,"146":0.0552717798536849,"147":0.20558207658798788,"148":-0.19367657913177777,"149":-0.1276567461357645,"150":0.14551238599188585,"151":0.17124737843023963,"152":-0.01786430524205555,"153":0.03847437040394657,"154":0.07852966646006736,"155":-0.017973368544601295,"156":-0.2002915796058815,"157":-0.18065779644644253,"158":0.08462721364503988,"159":0.1534547772458682,"160":0.08643575542552519,"161":-0.13652375484332244,"162":0.03460877640412321,"163":-0.16538574691973054,"164":-0.025250634152254196,"165":-0.03986371687130408,"166":-0.19032276091317046,"167":-0.09449559668175281,"168":0.04881708152343069,"169":-0.10534777610502422,"170":-0.11113824523401392,"171":0.053333214443667815,"172":0.05335808596517597,"173":-0.19792825720104548,"174":-0.14152086259915025,"175":-0.2971466477540018,"176":-0.13551196731567985,"177":-0.11344540210396559,"178":-0.17698172090314246,"179":-0.04786007983605028,"180":0.12392284832718846,"181":-0.05499026402221413,"182":0.0833609099192658,"183":-0.13522711801680537,"184":-0.10813801123709746,"185":0.020111356038855395,"186":-0.006700231944905027,"187":-0.060202225071136074,"188":0.011667437673862559,"189":0.021377508786891538,"190":0.1115139844323492,"191":-0.0016934030655036646,"192":-0.15618899845435752,"193":-0.04290137416789527,"194":0.10611288122520234,"195":-0.06480264313417132,"196":-0.09798168056236671,"197":-0.01357323375045185,"198":0.07506042643596525,"199":-0.051297611524120934}},{"sx":5,"sy":5,"depth":8,"w":{"0":-0.08804320691877864,"1":0.12953187908060848,"2":0.02381202554333847,"3":-0.07399398708409236,"4":-0.04901070923944762,"5":-0.09125437464584345,"6":0.07363668426370212,"7":-0.0517232103206637,"8":-0.03172594235203175,"9":-0.037244484689443955,"10":0.22624334766982085,"11":-0.01502340360474697,"12":-0.07810754212129349,"13":-0.03621337299258154,"14":0.0023896424515905015,"15":-0.04013393553009325,"16":-0.09560260161045664,"17":0.11400517914720913,"18":0.09606534030651934,"19":0.012594010679904743,"20":-0.014930575304450753,"21":-0.10683043561141387,"22":-0.016580777121391336,"23":-0.003613147012804237,"24":0.03582576943993739,"25":-0.11521147446821395,"26":0.016381307206676392,"27":-0.14964331930065633,"28":-0.04306614263636857,"29":-0.08732211004265795,"30":-0.011471953954709097,"31":-0.03265323827438616,"32":-0.20901972055963172,"33":-0.0483494437444174,"34":0.05394714364131845,"35":-0.12674990467894565,"36":0.06895106510190384,"37":-0.15290991129148437,"38":-0.19697556724053347,"39":-0.11003947194183146,"40":0.10784372616183004,"41":0.06547068306180319,"42":-0.11423371545560934,"43":0.02073294401119658,"44":0.04716515002709519,"45":0.10213348324356157,"46":0.06662450466787355,"47":-0.10896345403247752,"48":-0.14498437513632906,"49":0.00892453025993242,"50":0.0328893751857211,"51":0.07869904588598138,"52":-0.004621068099643026,"53":-0.06731435551549021,"54":-0.025142590310046252,"55":-0.06434739844169794,"56":-0.11444056591082206,"57":0.0482943685776188,"58":0.14376340383184485,"59":-0.037163962535949294,"60":-0.10069530546972622,"61":-0.009947690717023953,"62":-0.03138367047777605,"63":0.15789716384514474,"64":-0.1018807385006365,"65":0.0554448925661715,"66":0.16342109018461903,"67":0.12349171137130162,"68":0.05293594486340436,"69":-0.1171787411949432,"70":0.1319019993719943,"71":0.07121844898942924,"72":0.00011313516304927969,"73":0.16163752458199135,"74":0.06714990940117051,"75":-0.07698586402000773,"76":0.13375964411957036,"77":-0.013370073588081377,"78":0.11488718883451221,"79":0.06670760297282052,"80":0.08836010604571957,"81":-0.18291949482635186,"82":0.13388344112555892,"83":-0.19301853228581373,"84":0.1032180999784204,"85":0.10164038541958545,"86":-0.16854152094059946,"87":0.01636166377874967,"88":0.0036019250745332083,"89":0.03033628171663467,"90":-0.07841724773959569,"91":-0.032359353663685496,"92":0.14510336238847615,"93":0.04376063597025336,"94":0.051357811234225885,"95":-0.12212702630111502,"96":0.08412496573983534,"97":0.1030444037037028,"98":0.042532672613748296,"99":0.04716074944397056,"100":0.11179965004851794,"101":-0.007682645681182994,"102":0.14781949731772506,"103":-0.029203888850104297,"104":0.07627453218513393,"105":0.07527880318036516,"106":0.09133047182606877,"107":0.1376408539470442,"108":-0.01352515781372082,"109":-0.07334436895814571,"110":0.2075699528757269,"111":0.03665068242725222,"112":0.009805866198131135,"113":0.0037813362934980754,"114":0.23319292482064347,"115":0.1250828212685768,"116":-0.22119433637626132,"117":-0.11113305490125024,"118":0.05006217583083327,"119":-0.14978497292202994,"120":-0.08500111458645322,"121":-0.08762237286714285,"122":-0.04206212768221976,"123":-0.1376813592391139,"124":-0.15852074339775385,"125":-0.0008230059477727456,"126":-0.021817977446753067,"127":-0.12562665813496238,"128":-0.03573911148026777,"129":-0.016186420277060288,"130":-0.027317373202183252,"131":-0.07319862426670364,"132":-0.017191819688514957,"133":-0.07346830119785623,"134":-0.17250848406058986,"135":-0.0893940012344544,"136":-0.05274445450259957,"137":-0.016090945240200265,"138":-0.06219915425378272,"139":-0.05711460691461602,"140":-0.020455067555386907,"141":0.1548102758519737,"142":-0.2178646152124721,"143":-0.11644419027729407,"144":0.04760508422172765,"145":-0.015000152943743126,"146":-0.15566165195932008,"147":-0.08256422701711866,"148":0.11244659088554382,"149":0.06182055561410966,"150":-0.2699434997106716,"151":-0.09441852306410592,"152":-0.11706125602786231,"153":0.06348085885088257,"154":-0.18603256034673346,"155":-0.11855924558594198,"156":-0.028563490676192595,"157":0.053827905979796906,"158":-0.0858971146362229,"159":-0.21772162582309335,"160":-0.02578221234772813,"161":-0.03846222610941336,"162":0.004524479169507179,"163":0.009401415583970032,"164":-0.07243273624186819,"165":-0.08299942876455012,"166":-0.10720006458745224,"167":-0.11589363062527457,"168":0.002561022021405613,"169":-0.1784076119417642,"170":-0.055378691283276986,"171":-0.07154008385863393,"172":0.08243378683117984,"173":0.04499636801090696,"174":-0.14075055767248223,"175":-0.08424766426762581,"176":0.12737115874077953,"177":-0.1416462928543269,"178":0.10903967850718344,"179":-0.12911724324588694,"180":-0.045155236606953836,"181":0.13708799525371512,"182":-0.2097335053240513,"183":-0.03142071925996969,"184":-0.053651788826828584,"185":-0.01682358616931994,"186":0.12742599944269495,"187":-0.1159230851823868,"188":0.0046587404791491715,"189":-0.06503435950136462,"190":-0.11893680917597867,"191":-0.11339930899222382,"192":-0.2279742813238384,"193":0.10235496245477999,"194":0.06054025771581457,"195":0.022329079722238562,"196":0.07329760054458032,"197":0.0849385539498562,"198":0.01302499824579837,"199":-0.12330961164360305}},{"sx":5,"sy":5,"depth":8,"w":{"0":0.010685801769803384,"1":-0.01896296651960831,"2":0.03638769246287607,"3":0.17286453506228663,"4":-0.026958452678802994,"5":-0.009142574224209724,"6":-0.10083748007169813,"7":0.07845878152145143,"8":-0.1037983441536913,"9":0.0903064669844466,"10":-0.01338744311957278,"11":-0.007786858209366457,"12":0.05979243857390399,"13":-0.01870202795404404,"14":-0.08173384704842103,"15":0.10013710014333402,"16":0.04895505581795387,"17":-0.1157165488786164,"18":0.10924487501885716,"19":-0.18138014077164707,"20":-0.06929386418256424,"21":-0.06639991798634985,"22":0.007218644534939228,"23":0.12182783616570872,"24":-0.03464056292558421,"25":-0.11505134135472106,"26":-0.02934048213863394,"27":-0.2842325918812505,"28":-0.05677999181345165,"29":-0.05735333289852279,"30":-0.08899405446446551,"31":0.04365630934118996,"32":-0.037572766216919753,"33":-0.2851495256049106,"34":0.05996440619772704,"35":-0.3245202076558486,"36":-0.11384449915637353,"37":-0.2251844323848786,"38":-0.07896356185169007,"39":0.07795921573674064,"40":0.008532921901432018,"41":0.032575587648835426,"42":0.03135468346791559,"43":0.15970905361905874,"44":0.05860392849612425,"45":-0.06850423009797972,"46":-0.060130347566068075,"47":-0.09363632262757574,"48":-0.06050573054381398,"49":-0.009982197196423001,"50":-0.05727911515840413,"51":-0.008860051509078204,"52":0.00898840249878341,"53":-0.17632562550430741,"54":0.1567927992542667,"55":0.05691061683660251,"56":0.039023649997098085,"57":-0.12366360184895706,"58":-0.03254975888687552,"59":0.12868843041259398,"60":-0.21241567716977136,"61":0.05286808588438242,"62":-0.019514500144144593,"63":0.016880194850419503,"64":-0.07284803656232355,"65":-0.030688640038095488,"66":-0.07043633989754451,"67":0.027413725690111072,"68":-0.10148779712504426,"69":-0.09907993938025435,"70":-0.07442871906587036,"71":-0.14860918352179717,"72":-0.11304664311094863,"73":0.03565012851424131,"74":0.08428207784143961,"75":-0.017579634920237012,"76":0.07439938735027617,"77":-0.20013475549763604,"78":0.044983618105215735,"79":0.021745715436814486,"80":-0.07344893161274792,"81":0.12193585106972102,"82":-0.0037809594020459534,"83":-0.07288235818555715,"84":-0.034014839292816,"85":0.0181606408016579,"86":0.036646090048008825,"87":0.14139990145180986,"88":-0.11472854981864583,"89":0.031166781349142695,"90":-0.10401613370201564,"91":0.018290437402882286,"92":-0.10625664588067542,"93":0.008080753341276229,"94":-0.00390864597457721,"95":0.00612410232476491,"96":-0.17394016689848493,"97":-0.0012978499026402514,"98":0.02759685561514898,"99":-0.07057577332214968,"100":-0.1172267136228013,"101":-0.03366121630566314,"102":-0.0032807500392322444,"103":-0.05778994665743453,"104":-0.06823554590888699,"105":-0.0718412774944204,"106":0.012506181045761951,"107":0.06600438749587285,"108":-0.005789468187465327,"109":-0.01417917081283224,"110":0.00031816671433981553,"111":-0.05746162594188852,"112":-0.1390919357826603,"113":0.10259899286532724,"114":0.0037563396913664763,"115":0.11384280234874297,"116":0.10584878041316952,"117":0.09403796732604242,"118":0.008073168834635882,"119":-0.13567917663136053,"120":-0.12854546531674618,"121":0.0026632502597658024,"122":-0.012052653356332415,"123":0.057812125103690395,"124":-0.12148376052222752,"125":-0.06072080911909426,"126":0.13978315169504105,"127":0.012390620685757065,"128":-0.2084132183726341,"129":0.04425213961277118,"130":-0.10729181740548292,"131":0.05438260677518687,"132":-0.2796034463226833,"133":0.06559941854501025,"134":0.04253908408832864,"135":-0.13204984692989827,"136":-0.2629517417523053,"137":-0.00705365223855182,"138":-0.20059287465072562,"139":-0.02858140891435825,"140":-0.24136290775994507,"141":-0.06993327254022637,"142":-0.06405574865548538,"143":0.05562592028404805,"144":-0.3047263431696571,"145":0.06534364666094275,"146":-0.08865217924265709,"147":0.10314691349309435,"148":-0.010790451619568452,"149":-0.018358554377555573,"150":-0.08261736928612039,"151":-0.3518185444387794,"152":-0.08176216028819254,"153":0.1269564186625041,"154":-0.36672202659515896,"155":0.22534487140327406,"156":0.14811668770280964,"157":0.11734975593490801,"158":0.16544635048840894,"159":-0.18751043690598596,"160":-0.049836907736476144,"161":0.052712199855967035,"162":-0.11596815335518654,"163":0.08724850814759808,"164":-0.004035645755982774,"165":-0.07015564506251837,"166":-0.042022997208917695,"167":-0.14277035618631898,"168":0.05788122325537441,"169":-0.0442168975088283,"170":-0.042409224781355594,"171":-0.02610380819864427,"172":-0.20769609966021646,"173":0.05958957952730936,"174":0.07306484594947257,"175":-0.1399807703915881,"176":-0.13625619856766363,"177":0.025381590267014302,"178":0.09752880085473244,"179":0.08882508762348765,"180":-0.2502600245610986,"181":-0.11639736361264369,"182":0.04336224634354463,"183":0.05506468618239453,"184":-0.28648396676910437,"185":0.09126241394535045,"186":-0.18755303956963076,"187":0.10901666468328326,"188":0.03297930004732437,"189":0.08233125617662654,"190":-0.034560542132761544,"191":-0.3008174914598798,"192":-0.04982323657472906,"193":0.15355054897139095,"194":-0.15251592045976642,"195":0.1257386796661886,"196":-0.23882799779408537,"197":-0.06746001132161067,"198":0.20306196930442563,"199":0.16444696992561786}},{"sx":5,"sy":5,"depth":8,"w":{"0":-0.1975687901918367,"1":-0.023930562991454272,"2":-0.11952155238220054,"3":0.05489661055233878,"4":0.04126328198466208,"5":-0.016404140583783162,"6":0.03333729979426906,"7":-0.1790690368475238,"8":-0.11558263836625969,"9":-0.07096234914206218,"10":-0.05342554845363632,"11":0.12940646706217415,"12":0.0927774277925265,"13":0.012410028119213585,"14":0.055226600999229755,"15":0.06275373301238525,"16":0.062165955500978094,"17":-0.11059977432504473,"18":-0.09607347093200472,"19":-0.16444682968297686,"20":-0.025708368921381133,"21":-0.0005220703095454064,"22":-0.03158943301568041,"23":0.09884413828905557,"24":-0.01883667508914088,"25":0.008013290132995392,"26":-0.0692390177734466,"27":-0.24302839701666945,"28":0.039130571707924236,"29":-0.025528762649433177,"30":-0.16656113607948414,"31":-0.0280437186103336,"32":0.1262059799804726,"33":0.002641895081612362,"34":0.16075338205131653,"35":-0.08490100971636481,"36":0.018213978596858627,"37":-0.12354742559833383,"38":-0.03692671128471714,"39":0.03210953477984768,"40":0.023707235362321125,"41":0.14573335846333615,"42":-0.12435288653461905,"43":0.10060703272104592,"44":0.0477333032052342,"45":0.05306443782482363,"46":0.10617951834535602,"47":-0.19668060592816475,"48":0.05084050103880451,"49":-0.028307590632782136,"50":-0.11272992616905093,"51":-0.02714097526931801,"52":-0.10236462474737598,"53":-0.04696214786058476,"54":0.12756853186145617,"55":0.11774255992909806,"56":0.09713769530312462,"57":-0.22727998216715975,"58":-0.08449691968126685,"59":-0.29094683072525085,"60":-0.097043175785775,"61":-0.02126497604176891,"62":-0.041909126540130695,"63":-0.02015049168141313,"64":-0.06565198701479616,"65":0.0008625338945535644,"66":-0.09038441172456047,"67":-0.010723662706622518,"68":0.055168878175567315,"69":-0.07600451983378027,"70":-0.16743480465687255,"71":-0.12971811891425536,"72":-0.06376116158380807,"73":0.025923158294871754,"74":0.08349555768270195,"75":0.04627760250188754,"76":-0.10852177593306707,"77":-0.06088819123927947,"78":-0.165841989859198,"79":-0.0484987789288377,"80":-0.07630863409786576,"81":0.1134645760318318,"82":-0.16328547635530952,"83":0.1667537573379052,"84":0.002113404708933128,"85":0.07366318331071711,"86":0.048452646019536486,"87":-0.09985822234734038,"88":0.027117676762355537,"89":-0.015968778979094794,"90":-0.07508086014518763,"91":-0.03848009148514242,"92":-0.19865552847608925,"93":0.11895011465058475,"94":0.032174978815302034,"95":0.10558657096797774,"96":-0.09336881366352856,"97":-0.08536222443093691,"98":-0.04030643613132184,"99":-0.15669314998857772,"100":-0.05625801247842553,"101":-0.06705812045110823,"102":0.05206520673384951,"103":-0.0867807790710587,"104":-0.11650293922966683,"105":0.08735878952895626,"106":-0.036944656556535366,"107":0.02126452881907799,"108":0.07568165250881172,"109":-0.0387312543567814,"110":-0.1201744052054221,"111":-0.22031186623274554,"112":-0.0977849075245254,"113":0.04994418995792749,"114":0.12846613920713695,"115":0.12400306290613806,"116":0.06861569859320497,"117":0.00471732513673415,"118":0.04229575772478759,"119":-0.12177097632621042,"120":-0.1432134910893544,"121":0.07459284026700382,"122":-0.1219022315979352,"123":0.09339849666792213,"124":0.06086767823407862,"125":-0.004007768021868198,"126":0.1503458320833534,"127":-0.04188181498781768,"128":-0.056606762292478574,"129":0.008220648328085957,"130":-0.09380008436490958,"131":-0.16026926249523485,"132":-0.157522272779777,"133":0.033049366993346034,"134":0.02555583556376758,"135":0.022950897702471197,"136":-0.12569579972786493,"137":-0.012560219303830363,"138":-0.049480465357007695,"139":-0.2457565906721512,"140":-0.06682260965642618,"141":-0.05881828845349303,"142":-0.007804791051297929,"143":0.084855649516938,"144":-0.21954697471342904,"145":-0.012633419649407947,"146":-0.09374936147579933,"147":-0.019037550702134958,"148":0.025533963389815905,"149":-0.0980999158319997,"150":-0.05390545225829038,"151":-0.15226453511921995,"152":-0.0028231098550908643,"153":0.03400811180366825,"154":0.03889732978761004,"155":0.11863325752315146,"156":-0.013504196496557609,"157":0.07960918919243828,"158":0.041836986052480755,"159":-0.13872218087497157,"160":-0.056257333733559185,"161":0.008468746131953295,"162":-0.19545272611851566,"163":0.11334821417437378,"164":0.13014075911885037,"165":0.06009919559575568,"166":0.043252544719807065,"167":0.036842003194207835,"168":-0.020915741615406946,"169":-0.04704542536480087,"170":-0.20689910341791162,"171":0.02042385342705003,"172":-0.16606014913736863,"173":-0.08142715114703024,"174":0.06553691919366464,"175":0.17532029028210902,"176":-0.08297932884928125,"177":0.03781889319826765,"178":0.06194759335606863,"179":-0.19840393318289834,"180":-0.06038905704465325,"181":-0.08192765655102108,"182":-0.028677801989361117,"183":-0.1124139946561466,"184":-0.15915556814612392,"185":0.05109626287342425,"186":-0.11833850121440684,"187":0.24303606247622148,"188":0.025127590520311577,"189":-0.058764403985511804,"190":-0.028471221955225407,"191":0.009591018690729104,"192":-0.031714974019012125,"193":0.1602763948937802,"194":0.0018504442209362473,"195":0.12068888740725439,"196":0.046744573526257945,"197":-0.006478761441129787,"198":0.09763865679491318,"199":-0.028895427609573948}},{"sx":5,"sy":5,"depth":8,"w":{"0":0.08992221173361517,"1":-0.08733139492278677,"2":0.17586528426585432,"3":-0.1912355262409684,"4":0.16612284484585665,"5":0.1735225684833299,"6":-0.04480038524280319,"7":0.04863193268581307,"8":0.23853958898303348,"9":-0.07580458607329166,"10":0.06000737250747387,"11":-0.06301827941102006,"12":0.057381009767773404,"13":-0.022788916395762793,"14":0.12702147796164065,"15":0.06325205856873226,"16":0.11592075066208665,"17":-0.02457038217615059,"18":0.07319869071493565,"19":-0.09204745471227534,"20":0.06116600809927872,"21":0.18224681525191502,"22":-0.03418613889299603,"23":0.06980347912604114,"24":0.06030809801707683,"25":-0.019776282278098113,"26":-0.023159924069301244,"27":-0.09277014608625536,"28":-0.12218819237702848,"29":0.0738062555233754,"30":-0.10978268734651428,"31":0.1120080545273499,"32":-0.06056871789356485,"33":-0.0958991358426182,"34":0.06375577276350627,"35":-0.09010590403446074,"36":-0.1418183807647281,"37":0.03589279240276404,"38":-0.06511350685477672,"39":-0.0715504946425452,"40":0.08870097769339037,"41":-0.06866997360391844,"42":0.0818043714387364,"43":0.007911667694693817,"44":0.09352227543855417,"45":-0.15181305405061926,"46":-0.09555616931073883,"47":0.06308736378869628,"48":0.08901737126052242,"49":-0.025220581294443933,"50":0.10113742466638434,"51":0.034501733697308176,"52":0.014460637920545447,"53":0.03289183668217793,"54":-0.1386152521365126,"55":0.0851298013198966,"56":-0.034387690560455667,"57":-0.05947640093175375,"58":0.010367159758299853,"59":-0.107548955398884,"60":-0.019642553518695757,"61":-0.006810233738081279,"62":-0.09228385732889356,"63":-0.010087789091581666,"64":-0.010083554644562353,"65":0.09650403435731632,"66":0.13142003142818184,"67":-0.02195990100365225,"68":0.041728141306957234,"69":-0.03367404303963516,"70":0.03137082489511674,"71":-0.0935931744964164,"72":0.0420396003895045,"73":-0.003393094801980358,"74":0.019249764790390526,"75":0.008952466894713433,"76":0.01685024214174209,"77":0.02554824534809796,"78":-0.026137009740805385,"79":-0.189752287521509,"80":0.08266716182621092,"81":-0.04028626412901728,"82":0.0672440723125277,"83":-0.20910008060611232,"84":0.19591852143967378,"85":0.02081833683735106,"86":-0.12915897841369656,"87":-0.026277203497608217,"88":-0.034339166788552554,"89":-0.016271008290651947,"90":0.024161919802171132,"91":0.029629692484381877,"92":-0.037260969153065336,"93":-0.14439356625627364,"94":-0.05520696748118458,"95":0.0026038331577564874,"96":-0.09557650518493152,"97":-0.042708198822979826,"98":0.03427896824665442,"99":-0.0911494537884822,"100":0.019086291235417233,"101":-0.19530873771654864,"102":0.044806869028151744,"103":0.002817526129549467,"104":-0.099411669034825,"105":0.03636831452862119,"106":0.07748126020944934,"107":-0.16110137315549294,"108":-0.0008529592447857723,"109":0.058117092973609605,"110":0.1126901355912542,"111":-0.10477268800119599,"112":0.07141389774901509,"113":0.03601849813328582,"114":-0.08102432903578645,"115":-0.005625656127036955,"116":0.015164539540304674,"117":0.14067948079127054,"118":-0.13990901799297775,"119":-0.03714070523885112,"120":0.06295817850192056,"121":-0.053118161702956225,"122":-0.1283769220556657,"123":0.050866414136907775,"124":0.06398357051568834,"125":-0.1279392849396613,"126":-0.07559036072100718,"127":0.06729614527535503,"128":-0.08705293393845333,"129":-0.031800520309441756,"130":0.0028176164663222063,"131":-0.07337983618031674,"132":-0.004702101596876075,"133":-0.06410136614212322,"134":-0.1066847776773989,"135":0.004329221157460518,"136":-0.07147415749561714,"137":-0.04146118449881251,"138":-0.030168757148839227,"139":-0.15227788084929397,"140":-0.017561133136284553,"141":0.015339400860322506,"142":-0.09941192370934265,"143":0.014167854976893516,"144":-0.08299406266763612,"145":0.025976129933724997,"146":-0.03346675594790045,"147":0.037437902496544904,"148":0.07209998664224126,"149":0.037942489700434366,"150":0.035335183163594096,"151":-0.007267043013651793,"152":-0.11073261211033776,"153":-0.12134291831212404,"154":-0.07332663733755886,"155":-0.09155252421597994,"156":0.03411404122030054,"157":-0.10044346127861933,"158":-0.08695093169013175,"159":0.019915355011511714,"160":0.08860495481126142,"161":-0.10419003872794375,"162":0.032621783786687064,"163":0.0311525661461302,"164":-0.05669252728825368,"165":0.005243801734593092,"166":-0.02174793117395786,"167":0.06276398070724018,"168":0.06689826491257116,"169":-0.021447050334627585,"170":-0.06559201885293042,"171":0.021818742804716035,"172":0.01943286303387735,"173":-0.047876421207452495,"174":-0.1283441017038882,"175":0.03608371200406045,"176":-0.07891066018855862,"177":-0.14619986182663572,"178":-0.07279504736458096,"179":-0.015848814853996612,"180":-0.045182530346350995,"181":-0.16189653346652788,"182":-0.0005876182037902384,"183":0.057456758584452206,"184":-0.019929454822311447,"185":0.030790787421235494,"186":0.005889563690972725,"187":0.06027746006281349,"188":-0.0696252362839476,"189":-0.09682758157225944,"190":-0.06944668454811402,"191":0.015270633371880334,"192":-0.08696027117758012,"193":-0.1726976045205368,"194":-0.13168443976316374,"195":-0.07204032618160965,"196":-0.03216045174823039,"197":-0.020793202197171665,"198":0.009261453442063751,"199":-0.12227588240155046}},{"sx":5,"sy":5,"depth":8,"w":{"0":-0.014100603290644973,"1":0.007481107633946928,"2":-0.013656099553556903,"3":-0.12378379030258141,"4":-0.06153006070392298,"5":-0.12289238814092793,"6":-0.06981177507015987,"7":-0.027476107368558,"8":-0.3861328179691557,"9":0.02272562154010866,"10":0.0377743358321626,"11":-0.04060016957474385,"12":-0.075100835805762,"13":-0.169143061976599,"14":-0.11059019740821753,"15":-0.2514265147230145,"16":-0.06575216721793514,"17":0.10691979727014589,"18":-0.2642873308975415,"19":-0.015455792150363377,"20":0.05804466436297743,"21":0.18173350546698605,"22":0.13244926687640843,"23":-0.20731003589327776,"24":-0.020473431383877867,"25":-0.12241953175221938,"26":-0.22334853974303098,"27":0.19103298853075573,"28":0.053512703825527676,"29":0.18223700506354631,"30":0.06014906456881974,"31":0.13421043377553732,"32":0.045860768032511184,"33":-0.033333661787638594,"34":-0.1603562255548662,"35":-0.22961920908732458,"36":-0.024688618957174484,"37":0.22059977903517658,"38":-0.07283786735140871,"39":0.0682418160323534,"40":-0.12999793251283073,"41":-0.017246543643389088,"42":0.07977775607545132,"43":-0.18751561029564406,"44":-0.14355832523523437,"45":-0.09743979484735094,"46":-0.026116633332519883,"47":-0.20964869856783755,"48":-0.21264116013652998,"49":-0.008090214788068335,"50":-0.14840500947940966,"51":-0.028084861598103108,"52":-0.02311795908942754,"53":-0.09058695150444974,"54":-0.07640956402717226,"55":-0.15570586606669307,"56":-0.002987290675567883,"57":0.06421486096428755,"58":-0.24655996147148518,"59":0.012715738004015265,"60":0.06982922402203544,"61":0.028641803660036318,"62":0.09404453832620382,"63":-0.09137621821130468,"64":0.06934501513718119,"65":-0.04471926399446538,"66":-0.0989996080253762,"67":-0.022741098574434973,"68":-0.22500134751176407,"69":-0.030192826212622956,"70":0.02090688538300074,"71":0.11226041291441988,"72":0.07696617414354508,"73":-0.13218041130778896,"74":-0.06327434128780281,"75":-0.20402005459334036,"76":-0.003736866226668363,"77":-0.012134781506510811,"78":-0.13240329117500999,"79":0.07611663894209779,"80":-0.16847282017405837,"81":0.04954011388027001,"82":0.1711300209828882,"83":0.08912217575055535,"84":0.03985798277748178,"85":0.09424296172658754,"86":-0.05256763913954647,"87":0.11694036851531318,"88":0.107722813383036,"89":0.042433882525053,"90":-0.0011206996622623996,"91":0.05301208278814811,"92":0.14679537980307888,"93":-0.06632745421488036,"94":0.09837741560724136,"95":0.05602594316749924,"96":0.008262368396181084,"97":0.005642042617417476,"98":0.014334865867303693,"99":0.0575888350112432,"100":0.05402177000396491,"101":-0.10133075614928382,"102":0.05261089207542736,"103":0.035210145014822974,"104":0.06600376108548478,"105":-0.07699703222629492,"106":-0.011938567472624315,"107":-0.11614831125502965,"108":-0.05808701845165615,"109":0.04021121644997027,"110":0.016465564367569407,"111":0.11829004767197952,"112":-0.12680963866244063,"113":-0.13686078450027397,"114":0.03425715598823846,"115":-0.21321957372907416,"116":0.1462457800407955,"117":-0.08471140914346886,"118":-0.043498369778143794,"119":-0.07350095956671189,"120":-0.128760643695066,"121":0.07498060819360712,"122":0.15386229840581456,"123":0.0162599046633097,"124":-0.09232353309115665,"125":-0.07776910535524692,"126":0.21614517323562735,"127":0.07380174581156462,"128":-0.1831519730976615,"129":0.08054035004073737,"130":0.13552045382086286,"131":-0.05523705101871921,"132":-0.023366652145992265,"133":0.020852256503849458,"134":0.058696447158953675,"135":0.07683259961140462,"136":-0.24375541778528076,"137":0.04254020264196341,"138":0.06365424222417329,"139":0.030748453358837045,"140":0.09765185882756021,"141":0.004593294318889645,"142":0.13558051934516635,"143":0.13597633015806349,"144":-0.05036385977858295,"145":0.04240546362954334,"146":-0.1169091395889736,"147":0.07084132108845421,"148":-0.07539745835456688,"149":0.017341002746730453,"150":0.06985592417940104,"151":0.1660873771485933,"152":-0.04598549407437869,"153":-0.13068192871199058,"154":-0.02803428524612995,"155":-0.13844807236485848,"156":-0.06382872072558789,"157":-0.09336635585152497,"158":-0.15904613926289995,"159":0.028115481406957448,"160":0.07492074247032803,"161":0.0287728298402456,"162":0.023908315804867818,"163":0.018299953302157446,"164":-0.17549779397465856,"165":0.034940585312482036,"166":-0.009223609806392308,"167":-0.20689328478501443,"168":0.004403803807702917,"169":0.03393015588552277,"170":-0.01914824064461185,"171":0.024618993909734772,"172":-0.1527648553112073,"173":-0.04739276618714469,"174":-0.037438265442919554,"175":-0.1761641115496234,"176":-0.2248658212956854,"177":0.007826190571686077,"178":-0.07398254473532526,"179":0.03557494426297388,"180":-0.08194491998958531,"181":0.012622205850293814,"182":0.03511423963540815,"183":-0.13643117832175045,"184":-0.0726436642350128,"185":-0.01578777564443079,"186":-0.07688129153189004,"187":0.0887800516884969,"188":0.052010077187906,"189":-0.13029770408551997,"190":0.02518157545281166,"191":-0.04158252872473136,"192":0.027920409363270827,"193":-0.053696528882297555,"194":0.004341552104473923,"195":0.07190435139931631,"196":-0.1368468076653507,"197":-0.0027146925732958347,"198":0.0760809696899601,"199":0.17842852039955406}},{"sx":5,"sy":5,"depth":8,"w":{"0":-0.027416102118377833,"1":-0.06485066260844989,"2":-0.03529692128435801,"3":0.05094734802463103,"4":0.018340945681048187,"5":0.04667600761814546,"6":-0.04058560297341636,"7":0.0039900414379981574,"8":0.03124398896634189,"9":-0.07159824948390686,"10":0.03179931592974833,"11":0.06862940730771049,"12":-0.07003816655932188,"13":-0.05175739622516881,"14":0.06194240182195486,"15":-0.09050657704881857,"16":-0.07722078775608025,"17":0.1271241311526008,"18":-0.04250842851371219,"19":-0.01780239112110772,"20":-0.18164375756644532,"21":-0.04233006421975113,"22":-0.04659537603122373,"23":-0.06850240244864095,"24":0.0648096431776529,"25":0.09996323924953465,"26":0.04840819501634484,"27":0.05636624874225472,"28":-0.0670551185763931,"29":-0.15390025730155985,"30":0.1587049633799489,"31":0.17208114129157534,"32":-0.149597740970411,"33":0.16016624869147983,"34":0.14766628447462604,"35":0.07964284330020983,"36":0.1619264303611889,"37":-0.10310472856266836,"38":0.0554668747893069,"39":0.18328297790467124,"40":0.02079959380228425,"41":-0.1609890783909991,"42":-0.10948654990585435,"43":-0.01629011077499889,"44":0.058448571217344286,"45":-0.06968508827242764,"46":-0.1393839768471933,"47":-0.0346738495802245,"48":0.10881984912891657,"49":-0.04851980796989226,"50":-0.05660372106215953,"51":-0.10268702859898596,"52":0.0658875947213328,"53":0.030028923479969192,"54":0.004269672809317293,"55":-0.050197374964595254,"56":0.09754250863410964,"57":0.10118987425001376,"58":-0.14264311711836317,"59":-0.09246073327588578,"60":0.058132017985221315,"61":-0.09003376976268983,"62":-0.0959996178295649,"63":-0.17261755314455499,"64":0.015906766527286106,"65":-0.01615408120502249,"66":0.02534971128201983,"67":-0.007078460133981201,"68":0.1091980561816416,"69":-0.07152635752900763,"70":0.030355821972393233,"71":-0.06076371761383693,"72":0.016293023831396688,"73":-0.08515777869185936,"74":-0.0332978724556938,"75":0.14907833887361002,"76":-0.01496621703940055,"77":0.05534150424251155,"78":0.011757542027763256,"79":-0.08086175176576016,"80":0.08925699867043889,"81":-0.07661422525212284,"82":-0.003738896319996002,"83":-0.07071014477084724,"84":0.10715370239036762,"85":0.03137415107606887,"86":-0.014702559222109092,"87":-0.03423248519656708,"88":0.06008207284115099,"89":-0.19569540558202225,"90":-0.007300389800614785,"91":-0.22791548422259642,"92":0.16095171713985817,"93":-0.1205309430475181,"94":0.027313459721083868,"95":0.00044382084980541933,"96":-0.008842713779086174,"97":-0.19017811366669357,"98":0.019188448084332295,"99":-0.1057918037037858,"100":-0.10568133807311703,"101":0.1083060770506777,"102":-0.12799321113203777,"103":-0.0689870638522959,"104":-0.14590606635081632,"105":-0.19033894305354807,"106":0.08085952294726173,"107":-0.12046658232132573,"108":0.14913048884985194,"109":-0.014402611600121304,"110":-0.2697608823807816,"111":-0.1531580026019552,"112":-0.08096642473127937,"113":-0.310504817994316,"114":-0.04909528023382818,"115":-0.2953667276080421,"116":0.051265456953506386,"117":0.13267691012235933,"118":-0.3348552943745914,"119":-0.12553295042069845,"120":0.01142478364011894,"121":0.07686152020149498,"122":0.0007018331648262904,"123":-0.06750443684931326,"124":-0.05272246668809426,"125":-0.12022852985725625,"126":0.03976690428346764,"127":-0.02832801585199595,"128":-0.12920219030200725,"129":-0.15059623089506213,"130":0.16247476236798866,"131":-0.18119755301735585,"132":-0.05407114111331441,"133":-0.04392451177346134,"134":-0.0389848656621076,"135":0.017496889528896484,"136":-0.10805789855845246,"137":0.012460203565713488,"138":0.31067104378931015,"139":-0.21890810158503446,"140":-0.17800489876922784,"141":-0.09646791510418336,"142":0.17524636101167212,"143":0.11476348638740172,"144":-0.09844745757418863,"145":0.12309033049426853,"146":0.2514360713276465,"147":-0.09898216949415628,"148":0.015152951991467205,"149":-0.0859963101840917,"150":-0.03732815778258999,"151":0.020951398846457907,"152":-0.11337500223371796,"153":0.012417790947839293,"154":0.25142278294574766,"155":-0.05974746942131297,"156":-0.20672159843299737,"157":-0.10101586243544154,"158":-0.017236622549411346,"159":0.11229698544933095,"160":-0.0046254655776324614,"161":0.05150536639588428,"162":0.032052551973245746,"163":-0.11337276406733397,"164":0.009391667625526543,"165":-0.00487224860869096,"166":-0.03923147752626847,"167":0.0020801464066238368,"168":0.015674814764969135,"169":0.09342672027580044,"170":0.08685697764646513,"171":0.11920903751750611,"172":-0.04291975943301779,"173":0.09574919711503235,"174":0.05758655633387492,"175":-0.05608713139086307,"176":-0.06298649745911512,"177":0.12265499320915212,"178":0.10207767776886482,"179":-0.07158194062969618,"180":-0.25196585559487544,"181":-0.04205434839360396,"182":0.12317442092239501,"183":-0.14999147540941996,"184":0.017557175140605494,"185":0.11830284073542756,"186":0.12433926336087325,"187":0.030429112302488348,"188":-0.13879541036072002,"189":-0.15983247851421448,"190":0.1262933869414477,"191":0.02003596934567645,"192":-0.1462460415858144,"193":0.11114745171112228,"194":0.04717668341303624,"195":0.01449103230276431,"196":-0.19390130907954067,"197":-0.11360314047632113,"198":0.231139915879206,"199":0.1207676013422119}},{"sx":5,"sy":5,"depth":8,"w":{"0":-0.18627157523372725,"1":0.06298630702057716,"2":0.15861436117575045,"3":0.0594040716335833,"4":-0.05662217436363096,"5":-0.21527172535911338,"6":0.07736549713207783,"7":0.06663839430285927,"8":0.028639875657077252,"9":0.0856190217848069,"10":0.09605629156606944,"11":0.054873810544218304,"12":-0.04778428697830724,"13":-0.08713033536837722,"14":0.00722833486309293,"15":-0.028504638882453616,"16":-0.04393457077329392,"17":-0.0625451771198136,"18":0.10346664936058829,"19":0.17157266043247152,"20":0.010701765366186451,"21":-0.022877760978325827,"22":-0.03363199405892173,"23":0.03957603791834522,"24":-0.13996215603042322,"25":-0.022161946862193006,"26":0.05150903054628742,"27":0.1398320832291436,"28":-0.10259063441010602,"29":0.0015492785207793132,"30":-0.014253849956536325,"31":0.11451070380688678,"32":-0.3175412671254787,"33":0.049328683920748524,"34":0.031706261457888005,"35":0.05351587191280349,"36":0.045416005634807924,"37":-0.011943317206517746,"38":0.030406511921131384,"39":-0.020592543532560143,"40":-0.027412055232834714,"41":0.06734035359346335,"42":-0.10365041817241173,"43":0.04507079503019545,"44":-0.09547565569774914,"45":-0.05108540888595489,"46":0.116148615264066,"47":-0.05495761421318503,"48":0.0016305196454343492,"49":0.007512190718353746,"50":-0.04592166068442596,"51":0.08060404532556258,"52":-0.1264703232586908,"53":-0.01182299454977151,"54":0.004272914438098421,"55":-0.05624882193084875,"56":0.07031297743695199,"57":-0.0013696253209425678,"58":0.03494132707584768,"59":0.1275954552123592,"60":-0.16247402826581084,"61":0.037902957678479746,"62":-0.08468697681054936,"63":0.0018597954733564415,"64":-0.024251200877775835,"65":0.008282323008723294,"66":-0.0962240659258387,"67":0.030500763266692158,"68":0.07086633207715536,"69":-0.057866564429398665,"70":-0.03105376984861968,"71":-0.20660085106796647,"72":-0.16924800814853877,"73":-0.002233640012187297,"74":-0.09361199940805105,"75":0.05448161155544818,"76":0.02548450757249396,"77":-0.09316707072886564,"78":-0.0750781977409489,"79":-0.11858426463832226,"80":0.05125013753775779,"81":0.014600296332783575,"82":-0.08306846508985273,"83":-0.016724608041918478,"84":0.09233491167020594,"85":0.1231173293063569,"86":-0.11471466364773376,"87":-0.10457709291360244,"88":-0.0390044207001294,"89":-0.20987476829767196,"90":-0.17693587424534976,"91":-0.011503777052833862,"92":0.017573714665833264,"93":0.1316064810840601,"94":-0.03207794152791282,"95":-0.07780192361569974,"96":0.009111743784739992,"97":-0.005677598663836349,"98":0.07165104827597445,"99":-0.18617385791369964,"100":-0.04555617193455845,"101":-0.12352040870049462,"102":0.05228387725487668,"103":0.013592039757874486,"104":-0.20949529104358203,"105":0.0925077512146455,"106":-0.19796318472445973,"107":-0.053621907058117695,"108":-0.03416879833515187,"109":-0.010892475131146306,"110":0.09324359999370119,"111":-0.19342377632099295,"112":-0.010193144583503719,"113":0.03377914626248397,"114":-0.2137069499202182,"115":0.08169500767549122,"116":0.07020732124486846,"117":0.003496640364663282,"118":0.09482270406353789,"119":-0.05592869129657642,"120":-0.007923100126284655,"121":-0.051457197158311534,"122":-0.032394607928125076,"123":-0.08276885862165578,"124":0.14730251185662457,"125":-0.006214884179137525,"126":-0.04936983969032139,"127":-0.07268894970861788,"128":0.025794320518671233,"129":0.04338614578501353,"130":-0.08968908745427252,"131":-0.15048674494580808,"132":-0.004692358026077509,"133":-0.07691049720913146,"134":0.05766059160110375,"135":-0.03035027193660371,"136":-0.006855493391662692,"137":-0.1398337016166114,"138":-0.11876149976980145,"139":-0.21534392412418885,"140":0.09695326456613128,"141":-0.08844156865335709,"142":-0.21571546234486141,"143":0.038008097884382884,"144":-0.16491650673100644,"145":0.10698267438546841,"146":-0.06763630888338713,"147":0.02984806215719535,"148":-0.002635560033486227,"149":-0.07122902595585584,"150":-0.047996702223898326,"151":-0.35141299564873085,"152":-0.10814812930122214,"153":0.17792401355786083,"154":-0.2970567709781095,"155":0.17999480601540074,"156":0.05598581027677312,"157":0.03462833073448294,"158":0.03747521340740333,"159":-0.046757066081014334,"160":0.08675766019919925,"161":-0.22103277068204655,"162":0.17201353420102353,"163":0.01228967456517173,"164":0.0031549391251176483,"165":-0.1981404880444922,"166":-0.03770575604114325,"167":-0.10596296142499019,"168":-0.19938105332140585,"169":-0.10576147583522642,"170":-0.06427818296256838,"171":-0.18144373457723795,"172":-0.10607437047605624,"173":-0.10399349520225719,"174":0.01674898465132224,"175":0.00959897558162127,"176":0.032452191757539564,"177":0.0660941778276273,"178":0.010595677154092951,"179":-0.1453673477412407,"180":0.05505024978264928,"181":-0.07099895408079969,"182":-0.08575746844542624,"183":-0.2304059609677575,"184":-0.14281999791436312,"185":0.14916214122808222,"186":-0.048514346101124727,"187":-0.0165558870807454,"188":-0.09701195818153,"189":0.052681543958002786,"190":-0.037985095660478536,"191":-0.026592387680098264,"192":-0.05243383128390928,"193":0.038896708628641245,"194":-0.09699397448562705,"195":0.14614962803282566,"196":-0.14734698703678198,"197":-0.05463574907580441,"198":0.09659736133920563,"199":0.2021542751015575}},{"sx":5,"sy":5,"depth":8,"w":{"0":-0.0980214658990391,"1":-0.011711897598737635,"2":0.059560890427422214,"3":-0.0018197001067843995,"4":-0.18284120517876573,"5":-0.04628348535370775,"6":-0.14071426375283566,"7":0.03049496444617649,"8":-0.15857831047254178,"9":0.09641459024569012,"10":-0.07109588724501192,"11":0.16939690206346372,"12":-0.15912950792916133,"13":0.01113281698874306,"14":-0.033516572890082905,"15":-0.05089389118624771,"16":0.000902925476587496,"17":0.008865075968595539,"18":-0.11192853411309363,"19":0.08518998217074851,"20":-0.07456304471065318,"21":0.08984391085501407,"22":0.017384324755890784,"23":-0.0650563115987884,"24":-0.06589610268964052,"25":-0.014168935516669347,"26":-0.09889967105943408,"27":0.007988223651210708,"28":-0.061321756419507344,"29":-0.07185982806746961,"30":-0.021430716107325328,"31":-0.17168476866234075,"32":0.019262994695356875,"33":-0.11732897449669429,"34":-0.14209665219709008,"35":-0.024423090565181847,"36":-0.14491191277832208,"37":-0.04886343452039507,"38":-0.06833576078073547,"39":-0.0289907662982432,"40":-0.09727885798902243,"41":0.01524423393839853,"42":-0.10063605463565703,"43":0.10705784030464487,"44":-0.0014458163693975132,"45":-0.20521377447128988,"46":-0.05435631804112876,"47":-0.307681077080433,"48":-0.21619263166131922,"49":0.018396326968301686,"50":-0.17251961993045353,"51":0.25769120194304534,"52":-0.07762193026755042,"53":0.046176520566877814,"54":0.06987996243454705,"55":-0.08350129660553947,"56":-0.07204675536004183,"57":-0.08227455056472492,"58":-0.181523866206983,"59":0.06658299458731906,"60":-0.20450960723045533,"61":0.026681525567102245,"62":0.1826042036960144,"63":0.02204423525364478,"64":0.10552785193142403,"65":0.010448442362274494,"66":-0.07029016058866805,"67":0.050959553632655585,"68":-0.06129350729842129,"69":0.06099537410529287,"70":-0.01816395070583198,"71":0.17324361465543475,"72":-0.007208168195738306,"73":-0.14618018530447519,"74":-0.03288230946438252,"75":-0.12254251331298456,"76":-0.23693952255117232,"77":0.07905824009313964,"78":-0.21068218207694223,"79":0.038418874304949065,"80":-0.05113186083636792,"81":-0.14958875489963083,"82":-0.3881976371703499,"83":-0.11801435485303667,"84":-0.07909286133650203,"85":-0.06432853174616697,"86":-0.035165694763604496,"87":-0.22942842902570584,"88":-0.18724543753244585,"89":0.0868471283918622,"90":-0.21075795307472905,"91":0.029366080015375374,"92":0.0817397538916013,"93":0.017071050606848884,"94":0.12642732611538773,"95":-0.12867829865546965,"96":-0.2862095492190823,"97":0.036083800693935804,"98":-0.02800240159434569,"99":0.020290231949593007,"100":-0.19900365725813982,"101":-0.07649129854029271,"102":0.3330969426916816,"103":0.19945899125121141,"104":-0.3122340462385847,"105":-0.04761438212706309,"106":0.05593343250671454,"107":0.015368844059744006,"108":-0.28769053283241264,"109":0.06170132412357624,"110":0.015388656771802275,"111":0.32045777915670054,"112":-0.12001236798822196,"113":-0.022428492221917572,"114":0.09688002302926128,"115":0.10849064476752578,"116":-0.09132383801421809,"117":-0.07791987084332806,"118":0.1437060159967221,"119":0.08050020494575999,"120":0.019139682196295034,"121":0.061845381929569565,"122":-0.012991618272800437,"123":-0.06005039515946488,"124":0.09160556836172415,"125":-0.011701887896037173,"126":-0.2498434304982565,"127":-0.07179633112670797,"128":-0.017643395407406524,"129":0.06884376709558453,"130":-0.12539228430236438,"131":0.04564033020796162,"132":0.11603864412212879,"133":0.016023396319713105,"134":-0.055596168243847485,"135":-0.1060478665831061,"136":-0.0990726775100087,"137":-0.06453531964069367,"138":-0.3925801759200073,"139":-0.07905019660872421,"140":0.11441196462936258,"141":-0.06306481444253874,"142":0.02125976775550091,"143":0.016315327900680833,"144":-0.2056794274500316,"145":0.008307469343227264,"146":-0.062912324820904,"147":-0.052376964075336256,"148":-0.049773499293097934,"149":0.08724153551917972,"150":0.2288662911941471,"151":0.06954764091085046,"152":-0.039995878756679454,"153":0.03157870067755037,"154":0.10376924005034888,"155":-0.09740824184938963,"156":-0.14432695390930383,"157":-0.021882173838150484,"158":0.2098470321165936,"159":0.09171470687392207,"160":-0.06494820116375187,"161":-0.002486387499439512,"162":0.07450620816786924,"163":-0.08626163373306305,"164":0.05727905083466586,"165":-0.048796165117174835,"166":-0.07372715216535446,"167":-0.2255455880018274,"168":-0.04989140157820528,"169":-0.0576195775173337,"170":0.15181769100603226,"171":-0.07349358918004692,"172":-0.014854273708177376,"173":-0.1243036290933418,"174":-0.1476241243413548,"175":-0.0849473127730807,"176":0.016817530457848232,"177":0.038690408051044005,"178":0.0029935913564154938,"179":-0.0825425677657693,"180":-0.00329219324264882,"181":0.024340819323069366,"182":-0.02761663771595686,"183":-0.1106845964624449,"184":-0.05307836414646078,"185":0.12153591532429568,"186":-0.2031463872721922,"187":0.06170488321854238,"188":0.06372433039994099,"189":-0.019685308578191882,"190":0.0063573738345588295,"191":-0.14007367892567082,"192":-0.017196120193369597,"193":-0.026256238461380282,"194":-0.047565861693855696,"195":-0.06233090113059289,"196":-0.1049670292952616,"197":0.017534484522819877,"198":0.06682675374680876,"199":0.030034994554307755}}],"biases":{"sx":1,"sy":1,"depth":16,"w":{"0":0.08981991944560078,"1":0.04549398945535901,"2":0.06460375831464407,"3":0.045623662994589156,"4":0.05730766261513458,"5":0.07755361130813924,"6":0.07014257254075412,"7":0.005626332314659101,"8":0.015088893352309512,"9":0.06890130804723058,"10":0.08298206376577177,"11":0.13046805549870313,"12":0.06387429987123287,"13":-0.013471077323056135,"14":0.05417123593615577,"15":-0.040963740319179265}}},{"out_depth":16,"out_sx":12,"out_sy":12,"layer_type":"relu"},{"sx":3,"sy":3,"stride":3,"in_depth":16,"out_depth":16,"out_sx":4,"out_sy":4,"layer_type":"pool","pad":0},{"out_depth":10,"out_sx":1,"out_sy":1,"layer_type":"fc","num_inputs":256,"l1_decay_mul":0,"l2_decay_mul":1,"filters":[{"sx":1,"sy":1,"depth":256,"w":{"0":-0.040481458751905994,"1":-0.12049440489870504,"2":0.05083691201274864,"3":-0.0005805248879582154,"4":0.04899289271034576,"5":0.07877725765711237,"6":0.012387142512498317,"7":-0.05454323077439806,"8":-0.006449913172562031,"9":-0.04812572991307837,"10":0.0894168924637526,"11":-0.06375748971260978,"12":0.025969669077448982,"13":0.14710355734862499,"14":-0.02937118870456497,"15":-0.030166757072658472,"16":0.016225626883222755,"17":0.0644684996271146,"18":0.02920673030197501,"19":-0.1468460154118236,"20":-0.0682659661641502,"21":-0.08283450342959149,"22":-0.15790299457207108,"23":-0.015457359535941545,"24":-0.1263517530119225,"25":0.025703893359480128,"26":0.00018404831837782082,"27":-0.01860050161761,"28":-0.1283513549761683,"29":-0.0313434056543846,"30":0.05389785597882459,"31":-0.07854572323603293,"32":0.06617508374204926,"33":-0.06281061334476765,"34":0.06788343009126363,"35":0.055084222542499124,"36":-0.024230813270764782,"37":-0.12431372986031805,"38":0.05717568012877747,"39":0.040470258525456625,"40":0.022671849687458712,"41":0.07521147249130633,"42":-0.13839108005486286,"43":0.06951498501680714,"44":0.042100804947134286,"45":0.039000898238397266,"46":0.034084441605637554,"47":0.10547819358330737,"48":-0.036992943427747005,"49":0.16466632537514517,"50":-0.04519791453271013,"51":-0.020202145425911727,"52":-0.15979219635034264,"53":-0.2446358235972207,"54":-0.03496396882086499,"55":0.2526412391202791,"56":-0.012125823764156227,"57":0.08570351766008735,"58":-0.017182951286404465,"59":0.05733417732545088,"60":-0.027447378934769086,"61":-0.01875709417943375,"62":-0.03417543962094234,"63":0.11016570003809142,"64":-0.07652160351278493,"65":-0.08248532159020634,"66":0.11811730415996084,"67":0.07372559566738351,"68":-0.11634857957461484,"69":-0.13927607165766984,"70":0.12149755200364391,"71":-0.007343926938656471,"72":0.023252501018037483,"73":0.09733524732580737,"74":0.041364051204955926,"75":-0.06906574811773086,"76":-0.0894677495886808,"77":-0.01563041243630665,"78":0.05636400993201691,"79":-0.010299718932966493,"80":-0.13726234178786575,"81":-0.026503428480155026,"82":-0.128274820568593,"83":-0.03332528972127525,"84":0.022777544298914067,"85":0.0560941649731591,"86":0.09288906518560475,"87":-0.19238527582323822,"88":-0.2172041592177561,"89":-0.06954854441362354,"90":-0.014577368743858987,"91":0.07146833101727418,"92":0.07631043669130282,"93":-0.1551779296307425,"94":-0.1885223516099947,"95":-0.2709602520430316,"96":0.06495704837865793,"97":-0.08095985498342632,"98":-0.15798074983433869,"99":-0.13226995065586936,"100":0.11705538935168311,"101":0.04100061210271772,"102":-0.013586261751530953,"103":0.040106874823710136,"104":0.08821528778882325,"105":-0.07378769520010768,"106":-0.10736958822551354,"107":0.05315793483280954,"108":-0.10666054568769195,"109":-0.14511142335375182,"110":0.12159627637720541,"111":0.0032787518491568944,"112":-0.016423719144636324,"113":-0.08525689493213329,"114":-0.04969843102282924,"115":-0.1460305129498369,"116":-0.19147766594568214,"117":-0.19545396701449358,"118":-0.004338670411930909,"119":0.03478469969638093,"120":0.07919231609592155,"121":0.01956954977802388,"122":-0.019879828254527297,"123":-0.03366345793456466,"124":-0.052637673556085805,"125":-0.009075260911622075,"126":-0.011421913021926045,"127":-0.029049352262379275,"128":0.10082838251029022,"129":-0.15730184510182182,"130":-0.1740645893949403,"131":0.15739529214129086,"132":-0.043539587856763824,"133":-0.23480030478778305,"134":0.11958273328582145,"135":0.06771575468548648,"136":-0.15835252735727498,"137":0.04573901892437208,"138":-0.0773730445456593,"139":-0.03708832948878963,"140":0.10527043093484496,"141":-0.16806800781814066,"142":0.16097911892597105,"143":0.023621104807735757,"144":-0.06978548666678325,"145":-0.006805321506538735,"146":-0.051409779174974746,"147":0.053579191728127785,"148":-0.03788673366241761,"149":-0.015469777658050401,"150":-0.06925595141192897,"151":-0.008042761683079769,"152":-0.15854896693820092,"153":0.03877837114944868,"154":0.1911875507264124,"155":0.007659104936629681,"156":0.09513766192389002,"157":-0.030555311999705896,"158":-0.006548331980537998,"159":0.15437749904646159,"160":-0.07952946207264922,"161":-0.0213514060677672,"162":0.09871463208444069,"163":0.10837200921266857,"164":0.06217416946444337,"165":0.021736901718920506,"166":0.007028969795493939,"167":-0.2104387763887129,"168":-0.22794707277608622,"169":-0.002456484271524473,"170":-0.00462143333034038,"171":-0.01778865900300485,"172":-0.003088291925666246,"173":-0.07835708040852467,"174":-0.02906519503091893,"175":-0.10933150033001714,"176":-0.03902346915933919,"177":-0.03555225161095335,"178":0.02043502805743026,"179":-0.18682101086374367,"180":-0.11873535440218272,"181":0.010581816624750369,"182":0.08505235003179533,"183":-0.13184509951222503,"184":-0.034530822632772205,"185":0.002078404756730006,"186":-0.08161328708982633,"187":-0.10902346070812335,"188":0.08535380789296705,"189":-0.07402813262909795,"190":0.01879347944672669,"191":0.06459032736974957,"192":-0.04313139382621594,"193":-0.014030870499108509,"194":-0.02250746321890953,"195":-0.027733572149549354,"196":-0.058085711070350945,"197":-0.03831981803866658,"198":-0.028686252393249935,"199":0.015334898458555162,"200":0.04559715484135298,"201":-0.05218861581132516,"202":-0.025141987605539602,"203":-0.11028685137590853,"204":-0.0663872346171401,"205":0.08649506976996282,"206":0.029033150557477808,"207":0.16132201632797183,"208":-0.07269557654521829,"209":0.05477477784994653,"210":-0.010827648851428619,"211":-0.1785646293738417,"212":0.07150355851402566,"213":-0.04354865906399292,"214":-0.12073630488359156,"215":-0.008392464547786404,"216":0.23861609518205992,"217":0.07715121961652133,"218":0.04496481926260301,"219":-0.1341222128484077,"220":-0.11909657484838364,"221":0.08367675348394168,"222":-0.017532582682754073,"223":0.03328734317897853,"224":0.07140118271516216,"225":0.08282563553240577,"226":-0.0005019144151938201,"227":0.09184900310803282,"228":-0.06869057812371779,"229":-0.007269236196076454,"230":0.12398371691827179,"231":0.06619442672851114,"232":0.018818054753902583,"233":-0.12058240631112642,"234":-0.12734717751124713,"235":0.001549870600569749,"236":-0.13107516945840203,"237":0.0077552553857474695,"238":-0.08269350161512441,"239":-0.1383337749291141,"240":0.09785912466054993,"241":-0.045537299646916475,"242":-0.06533176453655438,"243":-0.038522018415600746,"244":0.06923564972032831,"245":0.1113471860355989,"246":0.10635137480565643,"247":0.08115436278226842,"248":-0.07383125315922166,"249":-0.12134772689043387,"250":0.0017822392350342975,"251":0.07539982014495311,"252":0.00830410296950698,"253":-0.06369910595279576,"254":0.0880648782214762,"255":0.03479502726667343}},{"sx":1,"sy":1,"depth":256,"w":{"0":-0.04753890633048013,"1":0.09608082342995597,"2":-0.14581523122931117,"3":-0.208044113510461,"4":-0.00320874496235059,"5":0.07520826443374347,"6":-0.1305419046792102,"7":-0.0861778526134304,"8":-0.00008215016049655085,"9":-0.1182513704821926,"10":-0.02259042907498616,"11":0.17752957140448947,"12":-0.024157282798664477,"13":-0.16825827280765782,"14":-0.09582713720577095,"15":-0.23693382347033878,"16":-0.005764186608689379,"17":-0.1601585420072053,"18":0.03100759939570664,"19":-0.08280188502199173,"20":-0.09864211838427851,"21":0.09531648133844679,"22":-0.08001206194763778,"23":-0.015144466080230701,"24":-0.08001843170493103,"25":0.14951338126309838,"26":0.0782527981622936,"27":0.06641556289205458,"28":0.0591030222052014,"29":-0.27203791500854446,"30":0.20370206504992708,"31":0.04623547782782898,"32":-0.09714033252788554,"33":0.0022785898002876297,"34":0.07970440020758549,"35":-0.009344114252979185,"36":0.049910558162415096,"37":0.08284181320362936,"38":-0.1629384084654884,"39":-0.0037022672518345627,"40":-0.0036456401493382487,"41":0.18614003932043044,"42":0.1732546460012801,"43":-0.07875939047699441,"44":-0.12248265713065769,"45":0.0620501717179686,"46":0.26747876956279276,"47":0.015026548254070604,"48":0.007017567192171801,"49":0.025871215649188033,"50":0.08619148726571994,"51":-0.12779801853723163,"52":-0.06515875274510834,"53":0.10175082569037874,"54":-0.06005390951294229,"55":-0.084931538284501,"56":-0.02388304242826199,"57":-0.07352937090523823,"58":-0.006645110477280579,"59":0.027791149959717557,"60":-0.06481195029981585,"61":-0.06704959238970062,"62":-0.16220258805135798,"63":0.008163553562784979,"64":0.02896753632658494,"65":0.06102641433175582,"66":-0.047104026949957384,"67":-0.10138125930106436,"68":-0.045841745023169005,"69":-0.051852431809409114,"70":-0.07543089716106702,"71":-0.19140327868326668,"72":-0.0032858838881658424,"73":-0.25271347206508593,"74":-0.12104054921418363,"75":0.10934266954780418,"76":-0.03190212085611407,"77":-0.1199764831002126,"78":-0.21517414088047454,"79":-0.0036023151883842865,"80":-0.05354610954643812,"81":-0.0741939468756822,"82":-0.11182332565682576,"83":-0.007396237891490416,"84":-0.08562706738855352,"85":-0.0032992908197193313,"86":-0.002332987337792395,