{"layers": [{"out_sx": 28, "out_sy": 28, "out_depth": 1, "layer_type": "input"}, {"sx": 5, "sy": 5, "pad": 2, "biases": {"w": {"0": 0.10253274206775996, "1": 0.048209314059620235, "2": 0.0471011666406758, "3": 0.10962099465712156, "4": 0.11693608469453376, "5": 0.022375486991355355, "6": 0.06641222329236156, "7": 0.11088594701935332}, "sx": 1, "sy": 1, "depth": 8}, "out_sx": 28, "out_sy": 28, "stride": 1, "filters": [{"w": {"0": 0.2945620879648125, "1": 0.06080170006617736, "2": -0.28314039615994585, "3": -0.11685340295192603, "4": 0.22459478201618058, "5": 0.23072887602059125, "6": 0.11890724825711611, "7": -0.027773528752366664, "8": 0.062015133796682664, "9": -0.02263481708008454, "10": 0.5037912667599121, "11": 0.14217820059413616, "12": -0.28801311676381797, "13": 0.011041172328521266, "14": -0.05969163012190738, "15": 0.23640089540913545, "16": 0.3267267603263816, "17": -0.2261915604947268, "18": 0.33170571918855735, "19": -0.14394250232318404, "20": 0.1513419775034906, "21": -0.15137760619969487, "22": -0.06029646668550107, "23": 0.01714447838436046, "24": -0.23739826459722346}, "sx": 5, "sy": 5, "depth": 1}, {"w": {"0": -0.1384398236798012, "1": -0.3974290252945077, "2": 0.11973068461870222, "3": 0.4537839530726631, "4": -0.12845904664879418, "5": 0.25804366847249066, "6": 0.3484768881665062, "7": 0.1935720477864359, "8": 0.41932280805760774, "9": 0.3186544791787309, "10": 0.24288818585137104, "11": 0.43308345571306767, "12": 0.28927644333886343, "13": -0.08989277861307604, "14": -0.10809079218724589, "15": 0.1863208000173098, "16": -0.22818638097054245, "17": 0.23494842270169478, "18": 0.036182905621810424, "19": -0.22975639558843403, "20": -0.2217953101174094, "21": 0.6044871411255128, "22": 0.08757361411489924, "23": 0.2335237427985472, "24": 0.391506123060852}, "sx": 5, "sy": 5, "depth": 1}, {"w": {"0": 0.2471999828114547, "1": 0.31990706003069547, "2": 0.11055345428964305, "3": 0.06070375492344543, "4": -0.1709722228071004, "5": 0.4892083713908939, "6": -0.11647236832250547, "7": -0.05462953187976897, "8": 0.007819833063511458, "9": -0.021152145203151475, "10": -0.05292785406169813, "11": 0.12893546107292692, "12": 0.3605103943220911, "13": 0.14577212925129215, "14": 0.07254393384496724, "15": 0.1108702908400941, "16": 0.46727469328975246, "17": 0.37302240175773754, "18": 0.026671585174172806, "19": 0.06488372921930945, "20": 0.06969818335353731, "21": 0.08445323504910615, "22": 0.5257044300140147, "23": 0.09091334035048476, "24": -0.15875508678313838}, "sx": 5, "sy": 5, "depth": 1}, {"w": {"0": 0.21732672519298715, "1": 0.1453038614979346, "2": 0.14529334694799909, "3": 0.06569714956750108, "4": 0.37577324705270454, "5": -0.04512641675686807, "6": 0.09557235923210287, "7": -0.22332398752212448, "8": -0.036617094003432195, "9": -0.30183897818570066, "10": 0.18254571547897983, "11": -0.12231161924171263, "12": -0.07231769175183593, "13": 0.0318252456208111, "14": 0.2860989907896972, "15": -0.0969386126509824, "16": 0.14910272065494506, "17": 0.2885696026362623, "18": -0.210563052966321, "19": 0.35256452403679633, "20": -0.21457881039277707, "21": -0.1071671907942618, "22": -0.1976224050146388, "23": 0.1006839457404712, "24": -0.48803580328833335}, "sx": 5, "sy": 5, "depth": 1}, {"w": {"0": -0.10320605681425124, "1": 0.18838911682740528, "2": 0.10280868298116501, "3": -0.07526697739624053, "4": 0.1872582529527009, "5": 0.06328015631780397, "6": -0.3898236477431825, "7": -0.11186598900340008, "8": -0.06031466612285095, "9": -0.13182413060128026, "10": -0.10845273691151565, "11": 0.11388201218171956, "12": 0.0003072728371587776, "13": 0.5669647588316268, "14": 0.0975879607735595, "15": 0.12894705057800582, "16": -0.07675696262870886, "17": 0.4362809587365301, "18": 0.02595008256481222, "19": -0.08538181012406684, "20": 0.470541363653226, "21": -0.5634377133081414, "22": -0.10156330283686686, "23": -0.0021669617270151037, "24": -0.10147894760623209}, "sx": 5, "sy": 5, "depth": 1}, {"w": {"0": 0.26787430871888257, "1": 0.06029292055599796, "2": -0.0005020859155957957, "3": 0.008190406352570383, "4": -0.09707602210125472, "5": 0.2532202632070248, "6": 0.02539831448189773, "7": -0.02069256862220995, "8": 0.07773975429634497, "9": 0.08075939271071661, "10": 0.4716803948135471, "11": 0.2592547888811531, "12": 0.061532903326353576, "13": 0.19057333256816528, "14": 0.49836882008270583, "15": 0.06526801732500732, "16": -0.12290757018693724, "17": 0.42125241630082616, "18": 0.12376204904140035, "19": 0.4876184110294175, "20": 0.2875077654515278, "21": -0.030048128645164537, "22": 0.19440741958475322, "23": 0.2996426118055525, "24": 0.2057147901449836}, "sx": 5, "sy": 5, "depth": 1}, {"w": {"0": 0.09208322997935763, "1": 0.1153890220240504, "2": 0.3230995590513033, "3": -0.03650004286511078, "4": -0.05131499029599039, "5": -0.012151954494514313, "6": 0.17224746004520558, "7": 0.04483168785555992, "8": 0.38044809271310104, "9": -0.11287366436412706, "10": 0.09775462994256358, "11": 0.10068680347276121, "12": 0.2884232939819169, "13": -0.03718144692804955, "14": -0.0687610371594651, "15": -0.01131133205071326, "16": -0.21855736459415726, "17": -0.004983352019441676, "18": 0.41061268134750584, "19": -0.2842783056358957, "20": 0.03146601704632965, "21": -0.23789419061278377, "22": -0.16608966625619564, "23": -0.22997021805410256, "24": -0.05355315289481417}, "sx": 5, "sy": 5, "depth": 1}, {"w": {"0": 0.3685197858411514, "1": -0.11827350315770031, "2": 0.2936653933551173, "3": 0.0375951042411954, "4": -0.33081992569832724, "5": 0.09710727233509563, "6": 0.27941788949372104, "7": 0.01380095543130541, "8": 0.13624520780445934, "9": 0.6192986518646656, "10": 0.007835554016088273, "11": -0.07430534305629259, "12": -0.03893063939825269, "13": 0.3719089191788557, "14": 0.7033341138864088, "15": -0.05231833665717399, "16": -0.11796930391117603, "17": 0.15478080686940834, "18": -0.05150073246146281, "19": 0.6441563432409545, "20": -0.1567247874706762, "21": 0.11092880342688775, "22": 0.23089559386875547, "23": 0.57146431756667, "24": 0.24894830723069278}, "sx": 5, "sy": 5, "depth": 1}], "in_depth": 1, "out_depth": 8, "layer_type": "conv", "l1_decay_mul": 0, "l2_decay_mul": 1}, {"out_sx": 28, "out_sy": 28, "out_depth": 8, "layer_type": "relu"}, {"sx": 2, "sy": 2, "pad": 0, "out_sx": 14, "out_sy": 14, "stride": 2, "in_depth": 8, "out_depth": 8, "layer_type": "pool"}, {"sx": 5, "sy": 5, "pad": 2, "biases": {"w": {"0": 0.07889518270928189, "1": 0.13807332282858426, "2": 0.08587237810524492, "3": 0.08982279918735532, "4": 0.13415592213919483, "5": 0.09613796187689268, "6": 0.10681594320615705, "7": 0.11930793925022616, "8": 0.10432854270848853, "9": 0.12841530224162964, "10": 0.12540844918930022, "11": 0.1157491143656715, "12": 0.12356579906331404, "13": 0.10220740039131984, "14": 0.08011861179443631, "15": 0.10519516896273194}, "sx": 1, "sy": 1, "depth": 16}, "out_sx": 14, "out_sy": 14, "stride": 1, "filters": [{"w": {"0": -0.0840318153657734, "1": -0.07379418137990343, "2": -0.039763806710815364, "3": 0.03897587310585413, "4": -0.012202581523485818, "5": -0.10105668016612085, "6": -0.06894195762840731, "7": 0.03102863230516335, "8": 0.02970674151497876, "9": -0.02504593662577135, "10": -0.002862940418834868, "11": -0.015376470125665708, "12": -0.01651697350890561, "13": -0.02688692301215838, "14": 0.07239801969913741, "15": -0.13421772190948522, "16": -0.0742201887256393, "17": 0.07780432580602119, "18": -0.04844028954966334, "19": 0.07373896841175419, "20": -0.026397680216607287, "21": -0.10163155426631999, "22": -0.0690251338443546, "23": -0.0013811688922716787, "24": -0.08900623468151561, "25": 0.05241784290676519, "26": 0.06576899047968827, "27": -0.0119926390343144, "28": -0.04196895607636589, "29": 0.044316155394536184, "30": 0.004939813835315541, "31": 0.011886411863228625, "32": 0.022151473054741074, "33": 0.08849538388771036, "34": -0.0003288570184073715, "35": -0.15936695718653104, "36": 0.057937696537418364, "37": 0.015425105480457352, "38": -0.015067938850840602, "39": 0.10060316541361193, "40": 0.10105452324114661, "41": -0.04042216016293338, "42": -0.020838482484942248, "43": 0.009778476335481338, "44": -0.03424858885161715, "45": 0.049874315386091994, "46": -0.08743256142593063, "47": 0.00295703460769823, "48": -0.04178483284212593, "49": 0.03351465869111182, "50": 0.0630157440370712, "51": -0.026545602407501336, "52": 0.022267363541252586, "53": -0.04548067513184151, "54": 0.004946637054522152, "55": -0.1265748360212565, "56": -0.012846055251231765, "57": -0.02606345493946512, "58": -0.014267952074011072, "59": 0.031707996267028804, "60": -0.051945967280540586, "61": -0.006746462302613836, "62": 0.030545884172610966, "63": 0.038848960312309604, "64": -0.07189137434822546, "65": 0.020945398141736456, "66": 0.035332856996422045, "67": -0.035523774177847335, "68": -0.027434351915030842, "69": 0.07488364872005922, "70": 0.16633926975738075, "71": 0.13106320923697923, "72": -0.018345105095213098, "73": 0.18799013598685316, "74": 0.1687857112002326, "75": 0.05785794335501492, "76": -0.010710495885830385, "77": 0.01937445641138992, "78": -0.021151528429254135, "79": 0.11395009660259368, "80": 0.06901822544638997, "81": 0.0002704717469081807, "82": 0.04494478634777118, "83": 0.021002239691979008, "84": 0.002721620176133702, "85": 0.02894515628792054, "86": 0.05503781498085835, "87": 0.05917227836718957, "88": -0.014927234756070999, "89": -0.012997195107588835, "90": -0.01709995819787762, "91": 0.06643561035089074, "92": 0.11417532627429257, "93": -0.08593302164681613, "94": 0.03879027510952866, "95": -0.0983450874435331, "96": 0.03434665819079959, "97": -0.12832885275372802, "98": -0.09830877044697893, "99": 0.0020109812747566356, "100": 0.056932898561023286, "101": -0.060825749429683613, "102": 0.03982898251399975, "103": -0.0025677094429886003, "104": 0.047506224577931355, "105": 0.014633411755795151, "106": -0.1645029105275129, "107": -0.006565372014015714, "108": -0.04638880535102159, "109": 0.13966147479266594, "110": 0.0816908029725813, "111": 0.276013977951503, "112": -0.025461796615162693, "113": 0.2603166566540114, "114": 0.06838567844527692, "115": -0.1202937714369627, "116": 0.07859425845686213, "117": 0.16285430152005503, "118": 0.05481054899196093, "119": -0.016673069142274476, "120": 0.0819442139558675, "121": 0.03207738105547717, "122": 0.02931869988308034, "123": 0.019534082555717265, "124": 0.1020168497712249, "125": -0.02135582632958854, "126": -0.12827214694657774, "127": -0.038680968702642475, "128": 0.039269470428529095, "129": 0.1852102159377362, "130": -0.03099312837645864, "131": 0.052344359814586267, "132": 0.10907840618064639, "133": 0.011765072304674147, "134": 0.018168717860728368, "135": 0.04574386038229249, "136": -0.08880745215710453, "137": -0.07691715334190231, "138": -0.24527596303966318, "139": 0.039736107484900786, "140": 0.07630875630769023, "141": -0.08529260714477557, "142": 0.11931239743941427, "143": -0.08752726933087779, "144": -0.02090524114252806, "145": 0.08367471838098296, "146": -0.07856938865593448, "147": 0.13996780208191426, "148": -0.0031553496819092244, "149": 0.1621727537415737, "150": -0.036372264237818155, "151": 0.09054924238220015, "152": -0.03777352956463374, "153": 0.09977034072859252, "154": 0.10233467579278925, "155": -0.06029403300887431, "156": 0.05672650417714605, "157": 0.036752939980381844, "158": 0.1136917060736347, "159": 0.08136221072410556, "160": -0.04970957876325694, "161": 0.07055716042073801, "162": 0.12240668070959829, "163": 0.06877593900078569, "164": -0.0586775760799019, "165": 0.06984920550425504, "166": 0.0397372996128603, "167": 0.06821541464564972, "168": -0.029289843915437184, "169": 0.06185237191719515, "170": -0.02661526651871901, "171": 0.05548413388233063, "172": -0.08975730411865651, "173": -0.019301970304031607, "174": -0.0719206341630763, "175": -0.031867625840945414, "176": -0.010885607817626432, "177": 0.0632491148103904, "178": -0.005900714566875515, "179": 0.11415209759969115, "180": -0.03642982972070904, "181": -0.1473703801540247, "182": 0.09045639921660453, "183": 0.019740598544986592, "184": 0.09660999357799095, "185": 0.025950467550175205, "186": 0.0018475301047772158, "187": 0.08054096877004839, "188": -0.024053306883066148, "189": 0.1716127854458204, "190": -0.03114847253856003, "191": 0.20120680576694977, "192": 0.02081950779298669, "193": 0.1462967459200967, "194": 0.11241906166434233, "195": -0.06380826355144252, "196": 0.10937813824079438, "197": 0.15965001885201022, "198": -0.029784483310343824, "199": -0.013065422032398417}, "sx": 5, "sy": 5, "depth": 8}, {"w": {"0": -0.08489819651399083, "1": -0.03955117438255852, "2": -0.25912836568150177, "3": -0.06914760625789086, "4": -0.02451750993468486, "5": -0.04532044249509356, "6": -0.1312694961888431, "7": -0.0063186166488821156, "8": -0.06876716452719465, "9": -0.048683031717021624, "10": -0.046106720631687734, "11": -0.03359019978296757, "12": 0.05879297260381981, "13": 0.048398528348178996, "14": 0.06571800831165608, "15": -0.0985705216356731, "16": -0.07583383764519966, "17": 0.017410564276535857, "18": -0.05658229697879621, "19": 0.09127437391584053, "20": 0.1161357613658369, "21": -0.057644723488720226, "22": -0.025564218668499852, "23": 0.02638436929294703, "24": 0.058996944953550415, "25": 0.12605274521001836, "26": 0.05201442494204964, "27": 0.036184682214573924, "28": 0.05752027062695023, "29": -0.01410296084158144, "30": 0.07571294731885819, "31": 0.1523746733502487, "32": 0.06424472596349878, "33": 0.09932433859288828, "34": 0.07518174694537556, "35": 0.059784343378830596, "36": -0.004035661741201439, "37": -0.005982075373388831, "38": -0.12756917046429414, "39": 0.1254434475624621, "40": -0.17845606628887478, "41": -0.08542508043451409, "42": 0.04015377821291351, "43": -0.060606726158371274, "44": -0.13083858360324344, "45": -0.0034689772433911504, "46": -0.05757393336499589, "47": 0.018771563585964476, "48": 0.014014737675500715, "49": 0.00034035361939244776, "50": -0.060228216725175004, "51": 0.018248561539872477, "52": -0.03950322822923939, "53": -0.07211474730338314, "54": -0.16058937964132133, "55": -0.07826184739832408, "56": 0.12612945802409783, "57": -0.08850539305156636, "58": -0.024328516082164627, "59": 0.037060845980532775, "60": -0.08722734054376298, "61": 0.022373023184671763, "62": -0.014665899587146126, "63": -0.049709748430852685, "64": -0.0241742316333189, "65": 0.1158322019243938, "66": 0.10202203936233319, "67": 0.034982598423701355, "68": 0.054977676744246765, "69": 0.1340211153851099, "70": -0.038822871391302145, "71": 0.09941420753585153, "72": 0.016061894978234355, "73": -0.11215456722322749, "74": 0.13888543598421108, "75": 0.07931294785229721, "76": -0.007822724258977417, "77": 0.1820487603366788, "78": -0.014191758499088523, "79": 0.20469288534752686, "80": -0.0866475249832945, "81": -0.06452748628153501, "82": -0.036720235022634766, "83": -0.0276461974964578, "84": -0.13331655211361862, "85": -0.23947716684449774, "86": -0.1835160175674347, "87": -0.035559102072732954, "88": -0.014588039347540613, "89": -0.07877088178714566, "90": -0.05989153750713271, "91": -0.05444849833715465, "92": 0.0808054493538792, "93": -0.06799806658318791, "94": 0.006298554897089476, "95": -0.16097667153613673, "96": 0.06413538980885614, "97": 0.023062157255191187, "98": -0.0863610689044701, "99": -0.05559061200349121, "100": 0.09934120593285073, "101": 0.08923404032786558, "102": -0.13445450595510294, "103": 0.0020883580646800454, "104": -0.16062770951576108, "105": -0.15715300528968226, "106": 0.1482624725531573, "107": -0.08600046727966056, "108": 0.1385617904535796, "109": 0.12274843277693945, "110": 0.057160061231965764, "111": 0.2808940208839847, "112": -0.07525478979193684, "113": 0.08554523399447864, "114": 0.14741902702103188, "115": -0.07970817527880512, "116": -0.02883002483745524, "117": 0.13794738497818726, "118": 0.024353179594736013, "119": 0.18973831135889818, "120": -0.03306271687692629, "121": -0.05126140113039035, "122": -0.09489813697451714, "123": 0.013436195901292186, "124": -0.106675129639429, "125": -0.07293535203113873, "126": -0.15404109205772148, "127": -0.0882445314137139, "128": -0.1094851272395616, "129": 0.06851011253410308, "130": -0.0486707558445717, "131": -0.014848896726920408, "132": -0.02507186669524944, "133": 0.018347618228872806, "134": 0.03887954659886295, "135": -0.010402021635460298, "136": -0.10536247594033996, "137": -0.04218731228807064, "138": -0.022130305240111385, "139": 0.08035884016885111, "140": -0.07454296072625455, "141": 0.009925762417994723, "142": -0.06451628495246027, "143": 0.07096338409267734, "144": -0.048107688517757825, "145": 0.04902058512513664, "146": 0.09506974508702216, "147": 0.04051828467995266, "148": 0.07307062335686437, "149": 0.10051776662624952, "150": 0.010497687492343446, "151": 0.25977621307009413, "152": 0.14177791126559947, "153": 0.20524445399318517, "154": 0.10205997640231297, "155": 0.0744102296741952, "156": 0.1080286767640002, "157": 0.046424486620451455, "158": 0.004180700401718268, "159": -0.004662373237485034, "160": -0.13669024559026763, "161": -0.030619841871089258, "162": -0.0869568661227065, "163": -0.10160637832408063, "164": -0.06776630173754751, "165": -0.1590462016543828, "166": -0.08682346650113966, "167": -0.0910705871762276, "168": 0.020075959631808953, "169": -0.09267061892572864, "170": -0.04190078654004529, "171": -0.13511012105450051, "172": -0.018570836271786455, "173": 0.0776949402538039, "174": -0.09639859395192775, "175": 0.10973190177681462, "176": 0.02742296780721476, "177": -0.04325999098222181, "178": 0.11996448335398424, "179": 0.025082464005068132, "180": 0.009451442739551402, "181": 0.010530944243480906, "182": -0.08845699052587137, "183": 0.1218318368271814, "184": -0.023729692615204162, "185": 0.18760065129196163, "186": 0.018592897153968453, "187": 0.046251302352066745, "188": -0.03693575712069516, "189": 0.06481813807400169, "190": -0.005747562342058258, "191": -0.025367854114876017, "192": 0.150705076841418, "193": 0.1713584442334773, "194": 0.08634091267349073, "195": 0.029588633593887467, "196": -0.0018089901098927979, "197": 0.03944785083928877, "198": 0.01435554718862449, "199": 0.04342406394561285}, "sx": 5, "sy": 5, "depth": 8}, {"w": {"0": 0.11143730382745268, "1": 0.05604209580646317, "2": -0.116150286262328, "3": 0.01390583847834645, "4": 0.0872626783174575, "5": 0.09399479280293901, "6": 0.09231605265090903, "7": 0.018180341527785273, "8": -0.0016071533597558192, "9": 0.08123536090492317, "10": 0.1285573313009589, "11": -0.019666033689873214, "12": 0.031027856181615326, "13": -0.08313177418666566, "14": -0.09030104041714677, "15": -0.029901858979002736, "16": -0.023971299283118166, "17": 0.051632507246412045, "18": 0.06737720559252697, "19": -0.09580349867492956, "20": 0.035473169287378134, "21": 0.06270348946396673, "22": 0.024193812839405922, "23": 0.12188709025245201, "24": 0.041122002239655446, "25": 0.036432928150071056, "26": 0.11214659505609169, "27": 0.0011500808999429363, "28": 0.1524447984710844, "29": 0.011753906929633618, "30": 0.005427199668784956, "31": -0.0009486120390735691, "32": 0.06613012350425448, "33": 0.1410989299039258, "34": 0.03507299112017527, "35": -0.011691903387154711, "36": 0.046179484628673044, "37": 0.15369488934671127, "38": 0.0062090396281989195, "39": 0.05275476725769841, "40": -0.006339863130268184, "41": 0.04598734197129563, "42": 0.12998430739844194, "43": -0.036108731550952476, "44": 0.02429770373230498, "45": 0.024069796073831716, "46": 0.01511656897218669, "47": 0.013556054328240067, "48": -0.06496296213199144, "49": 0.1143182172672336, "50": 0.08521364495545111, "51": -0.13950817533819534, "52": 0.03499253409227801, "53": -0.003597149357204338, "54": 0.061082432678550014, "55": 0.037604955314259114, "56": -0.061892240445982516, "57": 0.04426632140795067, "58": 0.01541839748163732, "59": 0.07756842784598575, "60": -0.10493444107463945, "61": -0.16540383425484378, "62": 0.11857360036077083, "63": -0.05421939542820912, "64": -0.1117201529431095, "65": 0.08715524011375635, "66": -0.1489580062824931, "67": -0.019921597702177003, "68": -0.16443408062229423, "69": 0.032451149648023356, "70": 0.03962905359670921, "71": 0.01852374428004493, "72": 0.0017711729712284819, "73": 0.009254592240185745, "74": 0.12066302015513736, "75": -0.04978807548826823, "76": -0.08836149459006701, "77": 0.13925068692991152, "78": 0.10499629992165002, "79": 0.09673085565043413, "80": 0.031271347218049146, "81": -0.042062624578031144, "82": 0.10462029137078736, "83": 0.019735964333434972, "84": -0.01819766625519964, "85": -0.02863664694397444, "86": -0.03309118887363344, "87": -0.013015375616768684, "88": -0.007423926582912922, "89": 0.11472103785554259, "90": -0.08637168526864752, "91": -0.03921417028139168, "92": 0.042927780281936334, "93": -0.005267563081505772, "94": -0.0276321017685585, "95": 0.11391314673145317, "96": 0.0031954329291250393, "97": -0.020898086785167042, "98": 0.12776675585862174, "99": -0.09184998090240445, "100": 0.07395205931869622, "101": 0.0749968380071679, "102": -0.000787564898861508, "103": -0.004610860926989182, "104": -0.01526140822272512, "105": 0.0030615980391225446, "106": 0.06489353652212819, "107": -0.030485623767815308, "108": -0.10827617144566898, "109": 0.0046185653126074346, "110": -0.03892191951206342, "111": -0.057192662614898665, "112": 0.14513114656949327, "113": 0.19776010128010255, "114": 0.03234396224172209, "115": -0.05558328068190502, "116": 0.0069319806358228864, "117": 0.02580475658006209, "118": 0.010732232335935992, "119": 0.03479997447519601, "120": -0.019605535403009598, "121": 0.07722673697075859, "122": 0.10021172483441589, "123": -0.001132639535517072, "124": -0.016513717996447824, "125": -0.015481661636563471, "126": -0.04261532319010775, "127": 0.00430030264686137, "128": -0.0372560587840351, "129": 0.057480382643934944, "130": 0.1107921302231166, "131": -0.0336852298903364, "132": -0.1789737071859081, "133": 0.0844447291314993, "134": -0.019302642408559608, "135": -0.012794927782649883, "136": -0.07559416775184136, "137": 0.08285822438093848, "138": 0.08484511091169848, "139": 0.09774041573075583, "140": 0.11099895203557206, "141": 0.06154431051359774, "142": -0.05636613495783189, "143": -0.038576862084131885, "144": -0.16639024638622976, "145": 0.031231915887646445, "146": -0.10554032817902813, "147": 0.15896337488999143, "148": -0.004298295481212519, "149": 0.03991763313226463, "150": 0.008823511566155729, "151": 0.06106033675444531, "152": 0.07359593580896588, "153": -0.07764723085971563, "154": 0.013699005338482045, "155": -0.12204882995114398, "156": 0.011962693311738791, "157": 0.07742325033541739, "158": 0.05679860723730177, "159": 0.13420856318079116, "160": 0.08630930183948311, "161": 0.10987413015812743, "162": 0.034384513751032464, "163": -0.06071642692710545, "164": -0.03771970137742808, "165": -0.025434157350860687, "166": 0.02251012636303103, "167": 0.0570234259396247, "168": -0.19725767132316838, "169": 0.10374447525471886, "170": 0.1089345167577698, "171": -0.03307249605554704, "172": -0.01113379641808068, "173": -0.022554224420288708, "174": 0.06540113679909994, "175": 0.07842535788753623, "176": 0.06232257698983705, "177": 0.10296264983910525, "178": 0.03429392452337433, "179": 0.014243961469214967, "180": -0.07435563812150446, "181": 0.20227353855569838, "182": -0.023968573670693022, "183": 0.1399438456793553, "184": 0.001926317912802848, "185": 0.04507007997867453, "186": -0.04955222159773673, "187": -0.0008714584741865326, "188": -0.01924207048773358, "189": 0.15760650847389512, "190": -0.021663383020531918, "191": 0.07086715271671286, "192": -0.05759060066573807, "193": 0.05381112550209092, "194": 0.0403446500956803, "195": 0.011740218424376508, "196": 0.014251218444224473, "197": 0.06220144888530018, "198": 0.0779036358784252, "199": -0.007163056116842855}, "sx": 5, "sy": 5, "depth": 8}, {"w": {"0": 0.07099681075305937, "1": 0.14265343218370785, "2": 0.07755269462575563, "3": -0.0514629747462001, "4": 0.05008190556442781, "5": 0.0287959354855976, "6": 0.06549727515102484, "7": -0.04731621922111318, "8": -0.16691387450625636, "9": 0.17856782138826538, "10": -0.04614509475424499, "11": -0.022962930386474872, "12": -0.012865345923087166, "13": -0.05106241715351627, "14": -0.0371970962098784, "15": 0.033726869887378955, "16": -0.0022743173412082037, "17": 0.06618076449444717, "18": 0.07875731011780122, "19": 0.05916313056394796, "20": -0.06506624681202967, "21": -0.13027402675497435, "22": 0.10841791858564023, "23": -0.1429623828951381, "24": -0.031950936275228804, "25": -0.031438786462967994, "26": -0.02078643931494575, "27": -0.033073691344952846, "28": -0.034344151073432014, "29": 0.10588850432358207, "30": 0.04205938252145351, "31": 0.1923567008601462, "32": -0.0018986449899385512, "33": -0.00766182673050169, "34": -0.08008650434807708, "35": 0.11303369391579092, "36": 0.030642793827593433, "37": -0.0420147645364786, "38": -0.018467171838458064, "39": -0.020686233750809295, "40": 0.10534502335548825, "41": -0.0031069646359971827, "42": -0.03301205393543025, "43": -0.006703171381978495, "44": -0.021698825662205722, "45": -0.11220037708287556, "46": -0.09055527409980799, "47": -0.08847565589965127, "48": 0.039454375631848185, "49": -0.09296402713560624, "50": -0.09949390507705057, "51": 0.007723735582612482, "52": -0.0093024009398171, "53": -0.06358863083828825, "54": -0.0026701452704782362, "55": 0.1258199649809967, "56": -0.011706897905617282, "57": -0.03104188348659546, "58": 0.018294676110190894, "59": 0.08977016274669465, "60": -0.09529231104190343, "61": -0.011171641600006598, "62": -0.03616355180126202, "63": 0.15316088744089634, "64": -0.051504773984123564, "65": 0.02530651806797768, "66": -0.06880158451089556, "67": 0.06168883218995176, "68": -0.12479602418073425, "69": 0.06370630088527222, "70": 0.013186789959866935, "71": 0.0287342794789752, "72": 0.009306747703106555, "73": -0.05087733729842768, "74": 0.003780386525666386, "75": 0.043003357844862665, "76": 0.009822501641501067, "77": -0.07863188790857865, "78": -0.0064911566131471456, "79": 0.09878691163395352, "80": -0.013332815741731847, "81": 0.10316164205440886, "82": -0.07062869758812847, "83": -0.1051990331930269, "84": -0.011103776883287822, "85": 0.008186090942046961, "86": -0.013356955382177137, "87": 0.030242049093566287, "88": 0.004454013875217356, "89": 0.012469270785505585, "90": -0.007302432179421863, "91": 0.0075923675863678606, "92": 0.02134279759412501, "93": -0.03826364915070979, "94": -0.005745114888020955, "95": -0.018640404395742403, "96": -0.10895019201386745, "97": -0.08777500058711518, "98": -0.08941774715154913, "99": -0.004428052329775123, "100": 0.04948787804061496, "101": 0.06789801703696728, "102": -0.036017221528756214, "103": -0.03921924839326595, "104": 0.002450277859643409, "105": 0.05223657330426972, "106": 0.034614398168790986, "107": -0.15169609636280507, "108": 0.1502907133751589, "109": -0.03233289624881832, "110": 0.1049607872221505, "111": 0.07140379720692903, "112": 0.04963495810438306, "113": -0.18186174541829597, "114": -0.07837726440726164, "115": -0.0402551451571269, "116": 0.042515908473185204, "117": 0.01043319531858973, "118": 0.09332933565117935, "119": 0.05382012383990843, "120": 0.04611510701092364, "121": 0.034518691458046355, "122": 0.19001388403085023, "123": 0.007918544207778707, "124": 0.016991575127079262, "125": -0.02878081555108058, "126": -0.05411673192724729, "127": 0.11792788455770443, "128": 0.028289562974344668, "129": 0.023135583114611124, "130": -0.039770115850906965, "131": -0.03976906622757531, "132": -0.0371320160491498, "133": 0.041363597863947936, "134": -0.030211906908541867, "135": 0.020372121866626205, "136": 0.0348759753627572, "137": 0.05929309503931249, "138": -0.04268267565883633, "139": 0.03813318028773831, "140": -0.20892252079817145, "141": 0.003842995031520182, "142": -0.1348901912290829, "143": -0.0266379753122922, "144": 0.05676712265436532, "145": 0.05463396216221232, "146": 0.07379005701808536, "147": -0.06422125824555262, "148": 0.014269022573503473, "149": 0.02777217522988306, "150": 0.020258009700779966, "151": -0.15232791856036365, "152": 0.04834695414644991, "153": -0.20037877935932627, "154": 0.04276641800668855, "155": 0.1392050903358117, "156": 0.03569000317447577, "157": -0.012510587978643023, "158": -0.06904983874766449, "159": -0.04531585337080575, "160": 0.032245203607008936, "161": 0.02277295304854263, "162": -0.026943902473183283, "163": 0.11870177711997695, "164": 0.028504314400188233, "165": -0.15365041432982518, "166": -0.0342847839434347, "167": -0.025761671146259695, "168": 0.02762039225871942, "169": -0.03717117692649405, "170": 0.060089240027423586, "171": 0.10473352354537624, "172": -0.025546936263168174, "173": 0.10117196229708357, "174": 0.0172703844527049, "175": 0.06433836935796851, "176": 0.0014262108931568495, "177": -0.045171466136855076, "178": 0.0021907185465716576, "179": -0.003341532464558441, "180": 0.044764165758087796, "181": -0.09088276446332688, "182": -0.025286777785221863, "183": -0.0992260930663083, "184": -0.060045039699088615, "185": -0.0968910194764539, "186": 0.012406148563772463, "187": 0.02732473290626088, "188": -0.05042779934052479, "189": -0.1149411072432847, "190": -0.047511844734388214, "191": 0.10231830358348007, "192": 0.07025430877586937, "193": -0.03484472290336376, "194": 0.05976250275338193, "195": 0.05229885759858418, "196": -0.010820403533979586, "197": 0.11141293496918742, "198": 0.05161041107939315, "199": -0.06815356151676415}, "sx": 5, "sy": 5, "depth": 8}, {"w": {"0": -0.06937320619356499, "1": -0.124057616443249, "2": -0.08284076803105683, "3": 0.004500793121325806, "4": -0.13016897190374777, "5": -0.030382650037618593, "6": -0.01595167150665874, "7": -0.038045835073212776, "8": -0.024227107974219127, "9": -0.17516822490859832, "10": -0.07245172466249222, "11": 0.040681446967162874, "12": -0.011524160344787164, "13": -0.008731782549350036, "14": -0.06683584329356983, "15": 0.029686422175469154, "16": 0.08256216567153966, "17": -0.07139271593083994, "18": -0.10865048747029549, "19": -0.04412467692260263, "20": 0.008565078030356693, "21": -0.07968803641492736, "22": 0.09723564116375749, "23": -0.10379422448845776, "24": 0.015362294381987066, "25": -0.007344434809368647, "26": -0.05002791746321297, "27": -0.030663159631107988, "28": 0.013068959821905942, "29": 0.08694605171431313, "30": -0.022654164505044254, "31": -0.04623177160146683, "32": 0.11460484622002753, "33": 0.09506633882308455, "34": -0.040034151715287736, "35": 0.035974615056183656, "36": 0.04816310123794028, "37": 0.021673081033627476, "38": 0.06356731351288136, "39": 0.14405789803410882, "40": 0.1263833902994151, "41": 0.04335551632758599, "42": -0.04723977817349658, "43": 0.01234509406944362, "44": -0.05463634755673309, "45": 0.015101078739285461, "46": 0.036501800887987414, "47": -0.07837464078864055, "48": 0.10263898144670679, "49": 0.061294997101334577, "50": 0.07284081200667625, "51": -0.06265913432247809, "52": -0.060664626296270945, "53": 0.019173988742295894, "54": -0.0401298738153026, "55": -0.04866511373815187, "56": 0.01621360494284284, "57": 0.0014086420480941295, "58": 0.012519751933721918, "59": 0.059273485674605594, "60": 0.008362851979626112, "61": 0.06426162772189807, "62": -0.00048717875231176237, "63": 0.11862599823058222, "64": 0.029641872779463792, "65": -0.03815238055572501, "66": 0.04886042580271727, "67": -0.05176332943314614, "68": -0.0350299244348354, "69": 0.12207948571597582, "70": -0.07814204919802266, "71": -0.046477249835496545, "72": -0.028960011810407152, "73": 0.020428376626775376, "74": -0.0015755326048473544, "75": 0.11747818048407933, "76": 0.11481068014153269, "77": -0.06939430954586329, "78": 0.09574758447695995, "79": -0.013298974060441423, "80": 0.10895711438605707, "81": 0.049360327960736715, "82": -0.04013524999380045, "83": -0.015186040400890487, "84": -0.01637616344226144, "85": -0.018135965951644104, "86": 0.072476804760964, "87": 0.004192784400974367, "88": -0.003494877116813948, "89": 0.08941663138451067, "90": -0.09646859519410945, "91": 0.061920086822052176, "92": 0.019754177809902455, "93": -0.015411279206816009, "94": -0.005621081435654823, "95": -0.06345293389981049, "96": 0.04140736256104772, "97": 0.006381061188844673, "98": 0.13418526056249916, "99": 0.05368457018749216, "100": -0.08250987604611278, "101": -0.17387202517318054, "102": 0.027142339339650757, "103": 0.010657793006047224, "104": 0.003696608665555214, "105": -0.021128943103934216, "106": 0.0004007538422374345, "107": 0.03214503333488689, "108": 0.009824129378614465, "109": -0.13185339869917756, "110": -0.009715545281034915, "111": 0.08783012143658529, "112": 0.047751293376183654, "113": -0.04771110542854182, "114": -0.06170154853604474, "115": 0.016628708852082202, "116": -0.029226844324510694, "117": -0.007934166576176693, "118": 0.0036814877749170565, "119": 0.00909469711343494, "120": -0.050935224703368386, "121": 0.01735286297585252, "122": 0.02464562679190879, "123": 0.049318672705506425, "124": 0.12421645023149773, "125": -0.0264661076720832, "126": -0.0029617480653358905, "127": 0.046334503268654265, "128": -0.07759520102020867, "129": -0.036887998818220316, "130": -0.036714221699266025, "131": -0.17234700136062817, "132": 0.05199468422891919, "133": -0.014757465629412186, "134": -0.07357919938946698, "135": -0.16035943311445397, "136": -0.001171042130433918, "137": -0.0351862447328423, "138": 0.09388045421229618, "139": 0.02106233865093744, "140": -0.10805724113216651, "141": 0.007189435925482531, "142": -0.01931320889576653, "143": -0.001918511384642349, "144": -0.07749311799779635, "145": 0.00828909488487923, "146": -0.18294574400030506, "147": -0.0017339779343537554, "148": -0.049790402024716136, "149": -0.028487021920457253, "150": -0.017674258329198316, "151": 0.020713030489338518, "152": 0.035057450391766456, "153": -0.10088567764578221, "154": 0.02186443080819788, "155": -0.013879093562626848, "156": 0.0358444508107712, "157": -0.09728705688102542, "158": -0.03540810300420448, "159": 0.006555204053649247, "160": 0.13656739623153505, "161": -0.0626312321642589, "162": -0.1214126327679951, "163": -0.12326236208577192, "164": -0.05122739142095562, "165": 0.011950424624317127, "166": 0.006898790863834295, "167": 0.0007529805598083328, "168": -0.13655572194619298, "169": -0.018514587169224703, "170": -0.016282960718770827, "171": 0.02574506642137583, "172": -0.06590020140434967, "173": -0.07294258329333021, "174": 0.04430591697271407, "175": 0.08834639830647263, "176": -0.07138888815889886, "177": -0.04951441008388348, "178": 0.07164159406636611, "179": -0.029078183953310865, "180": 0.03521638108363138, "181": 0.02442929870510938, "182": -0.06801968472748882, "183": 0.03457757507681239, "184": -0.02828004464123751, "185": -0.1294830416127744, "186": 0.018555783642337162, "187": 0.08778895790438107, "188": -0.006100712050427361, "189": -0.11739819608925446, "190": 0.15360171994248226, "191": -0.04016754590261172, "192": 0.12901414630098249, "193": -0.03221029898010609, "194": -0.03937892561537266, "195": -0.06445295076841996, "196": 0.0754964204697492, "197": -0.037782437791846354, "198": 0.03901450362628409, "199": -0.016880486926939536}, "sx": 5, "sy": 5, "depth": 8}, {"w": {"0": -0.0949485349909539, "1": -0.14830533457664613, "2": 0.020577278080810335, "3": 0.08860704691990634, "4": -0.03352032516669305, "5": -0.025609970746583773, "6": -0.08642018484003891, "7": 0.07469557175230129, "8": -0.03732106608363284, "9": -0.058637679275227915, "10": 0.020758956110002502, "11": -0.0646867922025137, "12": -0.02239560092448561, "13": 0.0234394667085032, "14": 0.19182224028951772, "15": -0.029137673043891452, "16": 0.08433050869981924, "17": -0.13597266535024066, "18": -0.05646555538347745, "19": 0.05802420666976948, "20": -0.10334245108751496, "21": -0.007543558035535259, "22": -0.12048600529824018, "23": 0.07930979894997482, "24": -0.04117518556711086, "25": 0.1420060705049898, "26": 0.1391402944110597, "27": -0.10400184499537107, "28": 0.014614778166238152, "29": 0.010242658299180979, "30": -0.027534818497604648, "31": 0.00044274151002567986, "32": 0.0422589619055802, "33": -0.01372276808779312, "34": 0.07548354580321524, "35": -0.033476630977702905, "36": -0.1373406158680956, "37": 0.10743568759140706, "38": -0.03308340907180016, "39": 0.0005125627662108952, "40": -0.06832169998948992, "41": -0.08326141976240364, "42": -0.0042412726892180185, "43": -0.018214024504512934, "44": 0.052634527993855755, "45": -0.03767746941622426, "46": -0.11185610968296712, "47": -0.05762323074267813, "48": -0.10232380874206264, "49": 0.016043807195614716, "50": -0.1066758472883129, "51": 0.029600202358282604, "52": 0.007649269494902021, "53": -0.1717386188105056, "54": -0.04233801519196703, "55": 0.05608049636399352, "56": -0.11688594896076665, "57": -0.17300896302847246, "58": -0.1642202637425185, "59": -0.03607286455996884, "60": 0.01656191415917594, "61": 0.10493656238796502, "62": -0.12141819797126092, "63": 0.0462800562022386, "64": 0.0041226451641927855, "65": -0.0005850548192126012, "66": 0.03778410795092899, "67": -0.008653421712841067, "68": -0.029481695686538252, "69": 0.06885858486543424, "70": 0.0753737481972419, "71": 0.13734603962338576, "72": 0.07660764924189425, "73": 0.08605457337418657, "74": 0.16960388183449962, "75": -0.08017014205523784, "76": -0.1266124767862756, "77": 0.06876137426585262, "78": 0.018637183024107332, "79": 0.089595021889235, "80": -0.06384894888427642, "81": -0.006357356553359837, "82": 0.0740045944970089, "83": -0.015458000422731408, "84": -0.0339481629585874, "85": -0.03867255613934688, "86": -0.057918277138800725, "87": -0.06950799746826916, "88": 0.020919130287159363, "89": 0.00686132285525671, "90": 0.04591935292712968, "91": 0.02674380104226394, "92": -0.04610441387901676, "93": -0.14779033535303862, "94": 0.038304994265722585, "95": 0.010490640603289372, "96": 0.011484513675905101, "97": -0.04315576281306336, "98": 0.053923728197318374, "99": -0.009920997077131278, "100": 0.0030293604599365563, "101": 0.08172699742585655, "102": -0.017573974198659036, "103": 0.18675443711876577, "104": 0.032437217204156474, "105": 0.21786198845944604, "106": 0.16763408116862566, "107": 0.021822104995311967, "108": 0.03639202487433904, "109": 0.06185083228592574, "110": -0.03576396684943794, "111": -0.006458768241812132, "112": 0.0889248339224668, "113": 0.058775401312721735, "114": -0.003006360887897995, "115": 0.08565730473247536, "116": 0.025947609595766027, "117": 0.011824861166565469, "118": 0.11724055793557271, "119": -0.060823618005553484, "120": -0.039906095159908374, "121": -0.10637817305798833, "122": 0.06286721358515888, "123": -0.0876907147079139, "124": -0.078629279721779, "125": -0.04763779967863185, "126": -0.07836758712390354, "127": -0.19362861290432667, "128": -0.1171493463075077, "129": -0.06179378523041055, "130": 0.10424269862127888, "131": -0.030057161005739262, "132": 0.015437505861026313, "133": 0.050015346957300935, "134": -0.012971586085301903, "135": 0.03910705369926844, "136": -0.05642459472033901, "137": 0.027299262699355353, "138": 0.052677596436435443, "139": 0.13105374824238444, "140": 0.09393991629044011, "141": -0.023063770166718418, "142": 0.0035238707774287808, "143": 0.010912903062835135, "144": 0.05275047395945632, "145": 0.1803246847102142, "146": -0.03534739869844592, "147": -0.01086104318467907, "148": 0.03423619120830838, "149": 0.08018556977270846, "150": 0.04190760279592148, "151": 0.09360816357131006, "152": 0.1565860387556533, "153": 0.14030379885638494, "154": 0.02265598485930288, "155": 0.010502446481055822, "156": -0.09809390061365811, "157": 0.13436142246960478, "158": 0.11465416195148033, "159": -0.013204907654765152, "160": -0.09168419226787455, "161": -0.06281853720660248, "162": -0.03810607978805495, "163": -0.06618205927096453, "164": -0.09678420311363763, "165": -0.05268557829766671, "166": -0.04440058349359561, "167": 0.030041315732723017, "168": -0.049406556005948704, "169": -0.1012371299495749, "170": 0.03195733689103161, "171": -0.07999542198921779, "172": -0.08046008129690094, "173": -0.04120360525955776, "174": 0.08026749433673888, "175": -0.14844318710295804, "176": 0.08980869244858415, "177": 0.02779378465942035, "178": -0.0032321727362756704, "179": -0.03084842641716409, "180": 0.06597988790182162, "181": 0.08439664971400447, "182": 0.011660631999437154, "183": 0.04441959181174894, "184": -0.04844880249394832, "185": 0.13782524501602592, "186": -0.01786338184809998, "187": -0.02213276821197347, "188": 0.06949720202691288, "189": -0.01167516351208685, "190": -0.15706118284810247, "191": 0.1550446897828344, "192": 0.03225641120873281, "193": 0.014789443928152084, "194": 0.15734823646489746, "195": 0.0163872697665919, "196": -0.028280545621424527, "197": 0.12752964286766455, "198": 0.011703653382474137, "199": -0.022857633009489123}, "sx": 5, "sy": 5, "depth": 8}, {"w": {"0": 0.05174367788466762, "1": -0.0375448664389035, "2": -0.08247257543131896, "3": 0.1118720771840627, "4": -0.03739923441166542, "5": -0.03846925102337838, "6": 0.022683041504855162, "7": -0.058970626024231934, "8": 0.036575963288169686, "9": -0.09054670577669036, "10": -0.061640955791499016, "11": -0.00785988700669153, "12": 0.08571552221062126, "13": -0.013829500234340791, "14": -0.04561705328781605, "15": 0.06624618655558208, "16": -0.04136518072779199, "17": -0.02345497554957399, "18": -0.10659238561250375, "19": -0.13835483817924377, "20": 0.1155429227571427, "21": 0.03602361449033372, "22": -0.034913933919762184, "23": -0.14978171234568732, "24": -0.05175958671277008, "25": -0.05344817474492312, "26": -0.024317800080377597, "27": -0.000013220935052996514, "28": 0.026791812963340968, "29": -0.17909321343517576, "30": -0.08426064402705427, "31": 0.08428064924044204, "32": -0.07043182146554669, "33": 0.02501025088097728, "34": -0.010097658068471202, "35": 0.06273468353363933, "36": 0.06635449046557117, "37": 0.03003559060106369, "38": -0.14447735889963972, "39": 0.03332088246687682, "40": -0.09686474000812886, "41": 0.058645546995015306, "42": 0.0018208753147629592, "43": -0.0709969972048953, "44": 0.07681130337127778, "45": -0.08861616901911992, "46": -0.049534356538340506, "47": 0.050131988418068936, "48": -0.032665683039275556, "49": -0.08493182454128205, "50": -0.0322997726356797, "51": 0.08875091278858678, "52": -0.013359721082570854, "53": -0.03942384185816037, "54": 0.016254468562485563, "55": -0.0535118692094783, "56": -0.08689454991755934, "57": 0.03781477204990627, "58": -0.012655613299248534, "59": 0.08655969365494343, "60": 0.07004493764138293, "61": 0.013209610710380001, "62": 0.17006577543777954, "63": 0.0938873650517196, "64": 0.06139992940179505, "65": -0.039773929592587666, "66": 0.01933192894379891, "67": 0.020237842138342677, "68": 0.07053327254031745, "69": -0.06505809459639122, "70": -0.01633669429410985, "71": -0.024508021733565335, "72": -0.0904035699105174, "73": -0.11174772336466164, "74": -0.05381110410163007, "75": 0.0930519826310764, "76": 0.03765341927629312, "77": 0.10336196552845976, "78": -0.011593409963540451, "79": 0.06369999128568653, "80": -0.08747538439592717, "81": -0.03515907796647962, "82": -0.007846089962962719, "83": 0.08920535787836018, "84": 0.041279309736043664, "85": 0.13405256512430375, "86": -0.08365451259088146, "87": 0.09449896527822076, "88": 0.06694179651376962, "89": -0.012046630724430794, "90": -0.06202711431498249, "91": 0.03215713763686632, "92": -0.04579844908454169, "93": 0.02315087849764532, "94": -0.04417057532963436, "95": 0.14411030418260856, "96": -0.0010698902027329045, "97": 0.0018680843008847337, "98": 0.0016428484391011692, "99": -0.003922146519975748, "100": 0.15489426841027135, "101": 0.03018617522722035, "102": 0.0581186563293411, "103": -0.08586992809726526, "104": 0.04421706314691041, "105": 0.09499110925776069, "106": 0.04635710473915795, "107": 0.053798541222259334, "108": -0.021868846126954597, "109": -0.04592007460254506, "110": -0.0010647400163409358, "111": 0.013316587832991368, "112": 0.0037914504676752306, "113": -0.08569817085472628, "114": 0.11147219731741022, "115": 0.07924923742767667, "116": -0.08458678207551308, "117": -0.06074505524855966, "118": -0.028126018217689525, "119": 0.0920959065621293, "120": -0.08461629578564449, "121": 0.043014429433211314, "122": -0.0760835263098492, "123": -0.04788409638559107, "124": -0.01904397079857648, "125": -0.077067410736815, "126": -0.006129429825004253, "127": -0.1457252980030088, "128": 0.14411469771563817, "129": -0.041672992598754635, "130": -0.04788657822233385, "131": -0.07497912506971623, "132": -0.03879798030230302, "133": 0.12293055627980412, "134": 0.02586869883141353, "135": 0.02527731826453146, "136": 0.05288536832003818, "137": 0.026880194432251387, "138": -0.025281241186119352, "139": 0.04735705666651802, "140": -0.07571798822028533, "141": -0.038674316648829206, "142": 0.005594376164973925, "143": -0.04280916626347769, "144": 0.0426020894869116, "145": 0.01473857956144503, "146": 0.1269875271247783, "147": -0.0508187237391202, "148": 0.1374748841127403, "149": 0.07004764969845519, "150": -0.12831908046675106, "151": -0.1353367345505015, "152": 0.1050433929608727, "153": -0.1113914191731099, "154": 0.01707259030634551, "155": 0.09063552788724956, "156": -0.050777649637916734, "157": 0.013220190529207936, "158": -0.02339288885126834, "159": -0.0638105000356136, "160": -0.06999888791816562, "161": -0.045383336114525205, "162": -0.010849521081224651, "163": -0.07790019100970741, "164": 0.033582797197661406, "165": 0.006138051913446583, "166": 0.01459568696985941, "167": 0.02775484274084249, "168": -0.08136971465489633, "169": 0.07044303728600934, "170": -0.023160395127315797, "171": 0.09259163612922526, "172": -0.011421873963146143, "173": -0.09241578543517, "174": -0.05356191084606909, "175": -0.012404259745819391, "176": -0.06641679767992127, "177": 0.010317240485207347, "178": 0.09083467026271497, "179": -0.025424854005679027, "180": -0.04592334684780891, "181": 0.09118231916459285, "182": -0.029015219848214733, "183": -0.13037082240310133, "184": -0.015367058089109114, "185": 0.04316707047398726, "186": -0.03739561885609018, "187": -0.03373602015071148, "188": 0.0006954927680515462, "189": -0.018767158851321113, "190": 0.12329407257792403, "191": -0.03241153901481347, "192": -0.0618669186094047, "193": -0.19608914166467584, "194": -0.10438367001494483, "195": -0.07693532269224616, "196": -0.021596020044678234, "197": 0.0332860010972501, "198": -0.10105302310292125, "199": -0.008008356478629686}, "sx": 5, "sy": 5, "depth": 8}, {"w": {"0": -0.18088837980259306, "1": 0.1753263140246798, "2": -0.1416457803297162, "3": -0.06976518070999474, "4": 0.01291217557490728, "5": 0.07920773411335429, "6": -0.0417937924049215, "7": -0.004005641784051336, "8": -0.045003931490476365, "9": -0.11300459703968961, "10": 0.008269675379537971, "11": -0.10798144708106557, "12": 0.10738356206340115, "13": -0.004507144533012807, "14": 0.02722133936860985, "15": -0.014581627062270997, "16": 0.056611837400016206, "17": 0.10959843906712478, "18": -0.03697347412756154, "19": -0.10953656201820769, "20": -0.04490666539993179, "21": -0.03828175479878753, "22": 0.05800703627748331, "23": -0.07088932239278115, "24": -0.10193783098758398, "25": 0.0988867539757787, "26": -0.02930657524531093, "27": 0.025078041297301335, "28": -0.1419703137998292, "29": 0.005541636928638396, "30": -0.02459566721387511, "31": -0.09575936096492665, "32": 0.14113679742834245, "33": -0.09326932188292958, "34": 0.05071970598964548, "35": 0.10598463877914625, "36": 0.05063884569494785, "37": 0.011453716827287252, "38": 0.15739737786422434, "39": -0.03941931444064189, "40": -0.06541092939338747, "41": 0.04907292771986909, "42": 0.031721830919692794, "43": 0.18581943874304527, "44": -0.06347887985760024, "45": 0.02997884305551866, "46": 0.06973503010653004, "47": -0.14516615233484884, "48": -0.043201709833237616, "49": -0.058072738169068404, "50": -0.08461702004054313, "51": 0.023380689868589065, "52": -0.02514788827681756, "53": -0.07212630346153949, "54": -0.0006281864141646446, "55": 0.0685697604361315, "56": 0.05088014251879431, "57": -0.06667752189173133, "58": -0.07970193334061929, "59": 0.09653377975540764, "60": 0.015310731222003082, "61": 0.03313556676630002, "62": -0.024836987210704875, "63": 0.08005897230541198, "64": -0.09469416338068598, "65": -0.019136132712833504, "66": 0.06492094472369035, "67": -0.09257296145946219, "68": -0.008715566342372538, "69": -0.0003142586624154897, "70": -0.018284973846199013, "71": 0.07348853186146334, "72": -0.06621275551090322, "73": 0.011789160419830113, "74": 0.04151443132923967, "75": 0.009186215893294717, "76": -0.06933303737896554, "77": 0.013369076435695204, "78": -0.1525223551737975, "79": 0.07446812918013603, "80": 0.01885798590180098, "81": -0.07365594528401481, "82": 0.05166713525412598, "83": 0.019189915096171028, "84": 0.07216528086806467, "85": -0.11595393971063761, "86": -0.0633260027849835, "87": 0.058855767148650116, "88": 0.09343674459263256, "89": -0.013417028807553607, "90": 0.03175912669997522, "91": 0.0204664141203238, "92": 0.021810734445152743, "93": -0.040357235694751525, "94": 0.024961393379811125, "95": -0.01668045205812332, "96": 0.1504665671775928, "97": 0.08260665271451173, "98": 0.02128911945814883, "99": -0.090906518988533, "100": 0.0718045770561829, "101": 0.09194942387081666, "102": 0.008694055972425674, "103": -0.05158127208070717, "104": 0.011118423596680006, "105": -0.06856324976117172, "106": -0.06273116526000852, "107": -0.024334510256152894, "108": 0.03571103848923336, "109": -0.07588287440720982, "110": -0.08633383557126313, "111": 0.03611392687080749, "112": -0.005396202880634343, "113": 0.004467477375163395, "114": -0.07389134016616127, "115": 0.013568136306257913, "116": 0.002350564615171208, "117": -0.05427832391541042, "118": -0.02896569108304553, "119": -0.03928763631803842, "120": -0.14379912790926083, "121": 0.056867498870231, "122": 0.09877871479608209, "123": 0.050659697611228786, "124": 0.028899943415067176, "125": -0.04408123083711196, "126": -0.018392744869827598, "127": -0.00655973621331902, "128": 0.11234235072949285, "129": -0.10333258268852567, "130": -0.03703686298402783, "131": -0.005495472974171621, "132": 0.07461428866223825, "133": -0.028002657412946774, "134": 0.04389337013804195, "135": -0.050808523694184204, "136": 0.13190258101227612, "137": 0.022813746710825925, "138": -0.0539621558177216, "139": -0.08347868453659912, "140": 0.11452060149534762, "141": -0.018177852304184436, "142": -0.0077397161295392515, "143": 0.06360676653832036, "144": -0.04484369404415449, "145": 0.0343666504697682, "146": 0.07639854104210811, "147": -0.030619871400108446, "148": -0.06282168582468443, "149": -0.08881438634810264, "150": -0.09908466715301847, "151": -0.0945692766045678, "152": -0.07252832668507045, "153": -0.18697484368670134, "154": 0.03405601877651136, "155": 0.012382633602178953, "156": -0.03533421764590431, "157": -0.11594380231421197, "158": -0.016065692526577004, "159": 0.046976570720045886, "160": 0.03312723302427901, "161": 0.0773989347935504, "162": 0.07960272200193624, "163": -0.033962960020878244, "164": 0.11246764622141472, "165": -0.10051784976694896, "166": -0.05903903502234867, "167": 0.07602699061232362, "168": -0.057340140038159675, "169": -0.021566927180047355, "170": 0.099270483919567, "171": 0.05026364973711991, "172": 0.020278608429580926, "173": -0.015879855397944148, "174": -0.11398601555480134, "175": 0.029279837240891834, "176": 0.029896610930831843, "177": 0.09114460503901621, "178": -0.062072540455295214, "179": -0.011213521890197895, "180": -0.06082163866229018, "181": -0.033481588417467845, "182": -0.040010379910965954, "183": 0.05058043688935331, "184": 0.02218199773998192, "185": 0.09657670225387276, "186": -0.07004049337873196, "187": 0.0078958909220664, "188": -0.11774864529811263, "189": -0.0987467115590538, "190": 0.04516347454558523, "191": -0.002786841930461221, "192": 0.0127229980742968, "193": 0.06248470436169514, "194": -0.21473012810245318, "195": -0.11337064832780104, "196": 0.005722224086686341, "197": -0.020624691694612285, "198": 0.020395173825423944, "199": -0.08594245576208971}, "sx": 5, "sy": 5, "depth": 8}, {"w": {"0": -0.017074270214666114, "1": -0.09692884084504441, "2": -0.05213691632259061, "3": -0.02505201786869801, "4": 0.01018365986331096, "5": 0.1080038377688673, "6": -0.030581976072404427, "7": 0.158100327489265, "8": 0.09506031542198176, "9": 0.06666207746248647, "10": 0.15607789422810114, "11": 0.09364638571418887, "12": 0.07762575886004383, "13": 0.07264893260898336, "14": 0.012906575162283737, "15": -0.008468108141262786, "16": 0.06150511161360203, "17": -0.021630448142969515, "18": 0.12459973722186561, "19": -0.021627253487941426, "20": 0.05986467494092892, "21": 0.004166605952709473, "22": 0.03443776219306776, "23": -0.034234596625878966, "24": -0.12142962402153104, "25": -0.05056673790325247, "26": -0.06306667078766756, "27": -0.0014391983949601662, "28": -0.21904292888607485, "29": -0.14146371145652772, "30": 0.16847755390232205, "31": -0.01706600570475408, "32": -0.08947551017584474, "33": -0.09811514084238175, "34": -0.02711864938101361, "35": 0.034389227040486, "36": -0.029001378361894096, "37": -0.04577923851907903, "38": -0.07783347373183247, "39": 0.03258039739355202, "40": 0.11834826390750813, "41": 0.03995819957235671, "42": 0.0009252357697664425, "43": 0.014849114499650679, "44": 0.011074984714984231, "45": 0.04234044345686081, "46": -0.08780973399870012, "47": 0.06448214744230019, "48": -0.004436122474402746, "49": 0.11587076131500215, "50": 0.019797513028403563, "51": 0.029039923967282614, "52": -0.13686457970208096, "53": 0.11589787606383385, "54": 0.049342168695321806, "55": -0.06254178298969265, "56": 0.20011020100035282, "57": -0.03741390532493188, "58": -0.06343920862526001, "59": -0.03320777092083067, "60": -0.07632087556261774, "61": 0.058774306119489805, "62": 0.07640729247248705, "63": 0.007840529882283766, "64": -0.04374873656339192, "65": -0.01676805177152842, "66": -0.07180396947825489, "67": -0.1484045238018855, "68": 0.009923422426942715, "69": -0.06389778785436638, "70": -0.045947010452435294, "71": -0.059687642175150116, "72": -0.05617824871188331, "73": -0.06405795541654942, "74": 0.13613570971375563, "75": 0.03799993219711917, "76": -0.0764836886314142, "77": 0.021193099518310495, "78": 0.13114305605900237, "79": 0.02186150077724067, "80": -0.08769591149594778, "81": 0.12911176063909785, "82": 0.010378421313699987, "83": 0.11668171924604649, "84": -0.06070338347981448, "85": 0.14548458401180758, "86": -0.02122702354895894, "87": 0.13445911104300837, "88": 0.03085309116298837, "89": -0.006157737910792986, "90": -0.005058520248775002, "91": -0.08116945435608304, "92": -0.06990867565999773, "93": 0.10860606027321999, "94": -0.04825827615526532, "95": 0.11485565272733377, "96": -0.011960849047174803, "97": 0.09774473490885309, "98": 0.11527735561894313, "99": -0.030253582443245428, "100": -0.03563105316183561, "101": -0.003994329538210689, "102": 0.013598969312631062, "103": 0.15000588311885454, "104": 0.011237249954789185, "105": 0.08336156462044873, "106": -0.06038161270811307, "107": -0.07496264051600533, "108": 0.0317858323028342, "109": 0.011817217021732298, "110": -0.09275161307419486, "111": -0.055148195338217444, "112": -0.00241624574053679, "113": -0.12623977725668808, "114": 0.20264110984828554, "115": -0.07073312862377476, "116": -0.05759346462421572, "117": 0.15377215137846487, "118": 0.012076618662809626, "119": -0.03516364701030879, "120": 0.020733964377494914, "121": 0.015329267242772981, "122": 0.03615610374660211, "123": 0.055908341235225936, "124": 0.0006181504051773185, "125": 0.07475867820749195, "126": -0.12168519157769779, "127": -0.03331363168985562, "128": 0.0402814968910884, "129": 0.13140845698822853, "130": 0.06599654096205451, "131": -0.12325265332203647, "132": 0.09355771765126449, "133": 0.020851897255008814, "134": 0.0033467431824011572, "135": 0.028006607084073154, "136": -0.03143762387694984, "137": 0.09127460632905907, "138": 0.08976707489263407, "139": -0.008485816127651275, "140": 0.006319977220189817, "141": 0.17376012661495224, "142": -0.047101405760873453, "143": 0.11714873413887109, "144": -0.01357114304932358, "145": 0.010031192448089265, "146": -0.050972776739312615, "147": -0.0011467064491406534, "148": 0.03752294424912884, "149": 0.05707410704469353, "150": -0.022093176306576836, "151": 0.025257871720025624, "152": 0.09040419312195123, "153": -0.025515465359133665, "154": -0.0936768454090408, "155": -0.09715360476337251, "156": 0.10170500560468403, "157": 0.028806969825945605, "158": 0.01822524329195047, "159": -0.041419770397020064, "160": -0.006143423717485812, "161": 0.057031011906078836, "162": -0.07795093070496102, "163": -0.09882728905966418, "164": 0.007745650566000273, "165": -0.0888011559948811, "166": 0.024859041305198448, "167": -0.08638562123107152, "168": -0.020805920045658642, "169": -0.10913679068323287, "170": 0.043350885682312275, "171": 0.04063757242485716, "172": -0.013989663405725055, "173": -0.13534362780750012, "174": 0.0793124404589128, "175": 0.03404336762265718, "176": -0.06669136863513368, "177": -0.06660288029374453, "178": -0.08472906691634696, "179": 0.04802770002805632, "180": 0.08964716505131608, "181": -0.2255740295065347, "182": 0.02526571113234887, "183": 0.024554338366424344, "184": 0.11691765971872303, "185": -0.05626622698212146, "186": -0.002128724920136645, "187": -0.054678551169013184, "188": 0.029754954295422274, "189": -0.04473226641025335, "190": 0.11197057218679556, "191": -0.03822758992759422, "192": 0.003837801005088852, "193": 0.12299139573349839, "194": 0.044876533550521146, "195": -0.036409866843973064, "196": -0.079700534183101, "197": -0.19353143475172152, "198": 0.03814995609952781, "199": 0.044926594825480545}, "sx": 5, "sy": 5, "depth": 8}, {"w": {"0": 0.015978272752626546, "1": -0.08331665658292044, "2": -0.019317975003280995, "3": 0.1360119794511047, "4": 0.06395086555026613, "5": 0.06452759403078605, "6": 0.0733082828483484, "7": 0.03820854868659304, "8": 0.022205323756492496, "9": -0.052160231037172634, "10": -0.06796037297742152, "11": -0.04659064808009552, "12": 0.06744421949596978, "13": 0.005495851859803698, "14": -0.08230724557786856, "15": 0.002111363451439369, "16": -0.04320825073918155, "17": -0.10025560893538353, "18": 0.006898090770200737, "19": 0.09275437036169437, "20": -0.1154747132529779, "21": 0.04652267254325274, "22": -0.015512968492285494, "23": -0.13893608098906718, "24": 0.0657205480646522, "25": -0.049881625963946574, "26": 0.02685118589250528, "27": 0.05099088146282996, "28": 0.03098861157591831, "29": -0.02533895744907009, "30": 0.005946055280764104, "31": 0.11188328828095853, "32": 0.014716111766843966, "33": -0.0037955515186588406, "34": 0.08642849312615286, "35": -0.14231118166799409, "36": -0.059145236249716765, "37": -0.07297144920161625, "38": -0.0055931618886349375, "39": 0.049451503882335386, "40": 0.06559837383029, "41": -0.0005017807214662759, "42": 0.06280088325853005, "43": 0.010943301253088246, "44": -0.025078002570185567, "45": -0.13247412001387066, "46": -0.0047597298460193265, "47": 0.0599532463465347, "48": 0.04294908954365836, "49": -0.008467591257179788, "50": -0.11356194023952458, "51": -0.1436783590679901, "52": 0.02779578214831137, "53": 0.03991871834329592, "54": 0.16399152410508097, "55": 0.17526620695700174, "56": -0.057446666596532116, "57": -0.016528901059037857, "58": 0.016246789735345903, "59": 0.07871815373594508, "60": -0.10163190791796477, "61": -0.048081055882275806, "62": -0.06856829208628255, "63": -0.056238908126246205, "64": -0.035739481702672264, "65": -0.0839602865911228, "66": 0.05639702498367602, "67": 0.0510408345740231, "68": -0.027274384893163334, "69": 0.09652453820978196, "70": -0.07917439271925904, "71": 0.07238211920617614, "72": 0.1448366212894484, "73": 0.18187726978335036, "74": 0.07673012037236263, "75": 0.11230825763319323, "76": 0.13529818334825539, "77": 0.042802417163245, "78": -0.04936651905805803, "79": 0.14886740228383977, "80": -0.0418504447597912, "81": -0.06329181466771236, "82": 0.003395924949323739, "83": 0.08066421488800929, "84": -0.06406551380824399, "85": -0.014318246293587808, "86": 0.00719642527228718, "87": 0.023932302845491374, "88": -0.06151691446637503, "89": -0.15042178082375848, "90": 0.09389653886843202, "91": 0.04475760142549253, "92": 0.03195100866672069, "93": -0.015741948991943575, "94": 0.06665921363430652, "95": -0.011883023961587079, "96": -0.027678565906878633, "97": 0.026750911062567582, "98": -0.038940540801031986, "99": 0.10827709969924477, "100": 0.02442491700808377, "101": -0.022883319595746354, "102": 0.07890651228311456, "103": -0.10397438208961071, "104": -0.031900697749935744, "105": 0.012175233102678781, "106": 0.025535809002768393, "107": -0.07361465303155793, "108": -0.22624059958184506, "109": -0.04857330010882066, "110": 0.02716269062404903, "111": 0.2276849244052966, "112": -0.07382933553758177, "113": 0.1310991786586469, "114": -0.06569930912609658, "115": 0.10570630624018151, "116": 0.06181108056318609, "117": 0.07336909246472861, "118": 0.005769170962351425, "119": 0.07577814533466172, "120": 0.07845299733195114, "121": -0.03270992942460834, "122": 0.028997643369784228, "123": -0.06951384450324107, "124": 0.040045537499020074, "125": -0.062362268718579764, "126": -0.0696882421105043, "127": -0.035096017556197664, "128": 0.1605037654836873, "129": -0.10504599913521123, "130": -0.07941438509958895, "131": 0.00292238995759199, "132": -0.0669123587982398, "133": -0.041326050932020665, "134": 0.02803771035167056, "135": 0.023792038002676423, "136": -0.09800580266341162, "137": 0.042360267134209706, "138": -0.08913985310859375, "139": -0.033496326386956855, "140": -0.0411841560065431, "141": 0.019269454983366508, "142": -0.05715943178160249, "143": -0.07470014398178722, "144": 0.03297722013337843, "145": 0.012874534366088732, "146": -0.08459416727439535, "147": -0.0012999453814492889, "148": -0.0565761444515492, "149": 0.01991794061928657, "150": 0.04667222443466024, "151": 0.013361021401917781, "152": -0.11819231369889728, "153": 0.056327307848293616, "154": 0.052185962660791445, "155": -0.010275693939819103, "156": 0.08228374213634726, "157": -0.15733561800428475, "158": -0.10638782543686354, "159": -0.17111054429640185, "160": -0.03918714725327978, "161": -0.12530377266841577, "162": 0.06135320091426046, "163": -0.10451891023128107, "164": -0.04967258404893861, "165": 0.06617942589250768, "166": -0.045792007099601066, "167": -0.03528389826617575, "168": 0.00393316800021233, "169": -0.013494941130671656, "170": 0.0891157213169554, "171": -0.07572600345184775, "172": -0.00007181481555074197, "173": -0.03921447428344951, "174": -0.05544332818077474, "175": -0.14344289493097884, "176": -0.006837444487142854, "177": -0.06650466140463691, "178": -0.10364880098855125, "179": 0.00289740992747699, "180": -0.033802084041171215, "181": -0.12757606438004387, "182": 0.06756030121536202, "183": -0.06635308563783836, "184": -0.039900748195572835, "185": -0.0011902147364169153, "186": -0.1397548331207915, "187": -0.02347473771381377, "188": 0.06658550853881363, "189": 0.021647755821317012, "190": 0.042662181808264386, "191": -0.026067579950082166, "192": -0.0821805857022954, "193": 0.2256927449760778, "194": 0.14777028891629673, "195": -0.12582312288942094, "196": 0.0897913401390858, "197": 0.025828630036887096, "198": 0.003589786139701121, "199": 0.03222436225745609}, "sx": 5, "sy": 5, "depth": 8}, {"w": {"0": -0.03843338768799004, "1": 0.12377702700094446, "2": 0.02865984232030673, "3": 0.07948384542899462, "4": 0.03272686829246987, "5": -0.015474458246489398, "6": 0.17478757771323195, "7": 0.03526928999320841, "8": -0.0008716097963610604, "9": -0.00023675797948307785, "10": 0.01796612624014577, "11": 0.012016821973108934, "12": 0.027391250207546517, "13": -0.039235147781957566, "14": 0.04701915940656218, "15": 0.08079376300046424, "16": -0.03893583375693975, "17": 0.00034130905271586247, "18": -0.0645775380988917, "19": -0.00036181839905536587, "20": 0.0211904528699786, "21": -0.00858826861491636, "22": -0.07319768940888874, "23": -0.11986844871692288, "24": 0.19455370805586195, "25": 0.0724551850159468, "26": 0.10081317642572694, "27": 0.16197861185063198, "28": -0.07890980015385655, "29": -0.01929416768878179, "30": 0.016601409888828127, "31": 0.004404545748263174, "32": -0.08821917480525619, "33": 0.010767806156606202, "34": -0.0925737659467979, "35": 0.024368949595086772, "36": 0.022748169591954585, "37": 0.014007723314499019, "38": 0.021197973661059324, "39": -0.05009159525728639, "40": 0.047052788599696076, "41": 0.09690077811898898, "42": 0.1016155371213163, "43": 0.03312085139433927, "44": 0.06403213430435703, "45": -0.02667909096209757, "46": 0.09532786725938971, "47": -0.13432931002982632, "48": -0.06875261791029592, "49": -0.020528120112310297, "50": -0.0215853932343466, "51": 0.04826501006387932, "52": 0.09246049664162383, "53": -0.11396182467507537, "54": 0.03442321795270274, "55": 0.014142468775753396, "56": 0.051385455243656286, "57": -0.07410162054232976, "58": -0.05870407084918996, "59": 0.09470460203978422, "60": 0.0384900833025619, "61": -0.02878300498716132, "62": 0.007652341544388229, "63": -0.06502138012790339, "64": 0.028924166553607092, "65": 0.0029102886571988427, "66": -0.04828467803905919, "67": -0.058493290801249744, "68": 0.04094578412408374, "69": -0.0833034253758736, "70": -0.11160728652280137, "71": 0.039421013574487324, "72": -0.041897137317085636, "73": -0.04590830685538857, "74": -0.08145767008782025, "75": -0.028033209836505826, "76": -0.017896904562400114, "77": -0.027709208279181063, "78": -0.08198667239164201, "79": -0.10228069417372623, "80": 0.0070962772407923555, "81": -0.017026673980541692, "82": 0.00737583770064715, "83": -0.03948060858558916, "84": -0.01232776443195036, "85": -0.1519399979503532, "86": 0.003692058677056723, "87": -0.10416648474066566, "88": 0.015562301690882014, "89": 0.015493177619336771, "90": -0.0639905080660524, "91": 0.1355195539905542, "92": 0.1271773413102246, "93": 0.02892650129537561, "94": -0.01939779547731847, "95": 0.05818907590038144, "96": -0.02426685457827117, "97": -0.08602792248491117, "98": -0.03622521773866758, "99": 0.052661826463924435, "100": -0.04491685622459065, "101": 0.018567086114796173, "102": 0.05198684389576153, "103": 0.08454465002749917, "104": -0.14406481273354388, "105": 0.02241611863755251, "106": 0.0033173008921989315, "107": -0.00642269238157606, "108": 0.06218369318564717, "109": -0.059447151204633356, "110": -0.004277523459562916, "111": -0.08906615815598086, "112": 0.04334828102720333, "113": -0.059683332502870196, "114": 0.04574382422091553, "115": 0.009082902011661915, "116": -0.11708078659169911, "117": -0.09748015249115692, "118": 0.008218648855256406, "119": 0.171486033516657, "120": -0.02200941456477532, "121": -0.09140789537837979, "122": -0.08776678010872209, "123": -0.04714997332923681, "124": -0.10813551619397573, "125": 0.01478865466828476, "126": 0.0408100810313297, "127": -0.05391221649712673, "128": -0.03618248670393859, "129": 0.12845174328062267, "130": -0.1306493595101855, "131": 0.04103666712291506, "132": -0.01618144274439385, "133": 0.022882081063353488, "134": -0.025073130461186213, "135": 0.039065790946380075, "136": 0.04814481650961856, "137": -0.057909793707598765, "138": 0.053124428602084335, "139": -0.03630371657717516, "140": 0.051581025657147866, "141": -0.014025452429873058, "142": -0.019583576396404602, "143": -0.09080918513568728, "144": -0.023692464067384723, "145": 0.06766991055929071, "146": -0.09332899584035716, "147": 0.008695818967728254, "148": 0.0057005700623652174, "149": 0.017577687803159728, "150": 0.04425647356009187, "151": 0.11970270255224735, "152": -0.024007049591050163, "153": 0.017586086440206285, "154": -0.057280362774945144, "155": 0.13572386928157362, "156": 0.023819347313714063, "157": -0.00874860013896157, "158": -0.02000772583058828, "159": -0.16983298868570093, "160": 0.0027123261612873486, "161": 0.0317053043207299, "162": -0.005862103725567211, "163": 0.006215155936167399, "164": -0.14087163883475345, "165": 0.12109359932423848, "166": 0.08084788008490541, "167": 0.04675053475327889, "168": -0.07278130885418826, "169": -0.012737193887670906, "170": -0.14771166611009617, "171": 0.0033275112377533188, "172": 0.008830732983305797, "173": 0.1578381705257827, "174": 0.12214021427685602, "175": 0.23220703262680256, "176": 0.09695351281331292, "177": 0.008155716696890919, "178": -0.06830304083219722, "179": 0.07953221705586637, "180": 0.004699684708574042, "181": -0.09909707776801148, "182": 0.047761244117318316, "183": 0.014066702142930952, "184": 0.09341535961957731, "185": 0.12421973187155808, "186": 0.02067083600761347, "187": -0.07334827696670673, "188": 0.1226869514332803, "189": -0.16296798643781185, "190": 0.14962482781176667, "191": 0.0380358687707805, "192": 0.011660807041402913, "193": 0.0330982536230246, "194": -0.1208704389110315, "195": -0.02763198600487143, "196": -0.05991317378089738, "197": 0.19358854622578414, "198": 0.024618184946119854, "199": -0.009525523657006475}, "sx": 5, "sy": 5, "depth": 8}, {"w": {"0": 0.0015820862979546446, "1": -0.05527875307076579, "2": 0.04052877461158917, "3": 0.07540276340635779, "4": -0.039753340072420894, "5": -0.08637309094428543, "6": -0.028422738709810495, "7": -0.00587057290945186, "8": 0.017056082853884297, "9": -0.0505657198855291, "10": -0.05587761566851262, "11": -0.03659507121037504, "12": 0.03044630073823516, "13": 0.04081970260983811, "14": 0.00015512534437867853, "15": 0.1510901372702035, "16": 0.03283127728741127, "17": 0.008980536741933439, "18": -0.044218941256038896, "19": -0.04171570379421508, "20": 0.04274446697049737, "21": -0.07143754496964022, "22": -0.07583805255260763, "23": -0.02319947665823771, "24": -0.014162939843405565, "25": -0.057229221023345746, "26": -0.05481573423006299, "27": -0.02457101499422363, "28": -0.06240624775587745, "29": -0.006102333648798551, "30": 0.07067392925310098, "31": -0.0021206120775848726, "32": -0.08394259160171991, "33": -0.00674246424633816, "34": -0.03771305575167121, "35": 0.14134076595007053, "36": -0.040822870420671856, "37": -0.03553195789601843, "38": -0.08027417572093448, "39": 0.090796164937455, "40": 0.06412480951087031, "41": 0.01176024396717899, "42": -0.03984941769235488, "43": 0.05674190644081129, "44": 0.023774180449204353, "45": 0.06779568045821714, "46": 0.17159078460279917, "47": -0.02674189616732136, "48": -0.08126998753252822, "49": -0.024917586198911035, "50": -0.032891590868629, "51": -0.04754558077703979, "52": 0.09632636882022516, "53": -0.07758809518675609, "54": -0.018797563569068004, "55": -0.08528149311559685, "56": -0.03655985749033807, "57": 0.04376195288866903, "58": -0.002366542263571504, "59": 0.01724438363323304, "60": 0.04740305652799635, "61": -0.019901982809282515, "62": -0.012659140826808237, "63": 0.029361196767889113, "64": 0.016575084618727035, "65": 0.12671960439177266, "66": 0.066135410245896, "67": -0.0035964432837446974, "68": 0.008167493612191276, "69": 0.02958080742678623, "70": -0.011612118862395316, "71": 0.01810228397205052, "72": 0.08618007535505857, "73": 0.30628512976561567, "74": -0.0820070065925635, "75": 0.03035759281547566, "76": 0.013436879057850895, "77": -0.037783786085096735, "78": 0.052211777208409006, "79": 0.07280719446252545, "80": 0.11764362439906587, "81": 0.05836520976457246, "82": -0.02585757787853385, "83": -0.10234669985929645, "84": -0.02357267423719564, "85": -0.03331143816661715, "86": 0.004413813886379774, "87": 0.04938493739215907, "88": -0.08323632045750398, "89": 0.14845133966148072, "90": -0.15801854399847082, "91": 0.030238671468260234, "92": 0.01125364176529353, "93": -0.24945969247609964, "94": 0.016125789453222628, "95": -0.14697391788204095, "96": -0.07425270651374276, "97": 0.06876643145608159, "98": -0.07393495004169855, "99": 0.0025034360792669384, "100": 0.03445897260642496, "101": -0.0069201757294077015, "102": 0.1181699444942625, "103": 0.11112249525505591, "104": 0.034067754808139, "105": -0.04885581417878012, "106": 0.01041587636300677, "107": -0.08615382039537256, "108": -0.035029190935711406, "109": -0.02695901825451795, "110": -0.004490446025853346, "111": 0.04968285147568361, "112": 0.07536970829785765, "113": 0.046654825787445904, "114": 0.18090382356773174, "115": -0.10603750715043969, "116": -0.04619092133098859, "117": 0.09012599575795084, "118": 0.09445901424798847, "119": 0.019585582909019055, "120": -0.04931586179052551, "121": 0.08904077308284779, "122": 0.09819395352040929, "123": -0.08873628466587903, "124": 0.2151286561078979, "125": -0.04561026168098139, "126": -0.06284013277965657, "127": -0.17430884819791373, "128": 0.10292881366498122, "129": 0.03617252388694446, "130": -0.07237046830560818, "131": -0.043491723916421, "132": 0.04927278558206714, "133": -0.03713428428488615, "134": 0.1987364411603567, "135": 0.043110476402694435, "136": -0.028560968509294692, "137": 0.08166080023240109, "138": -0.014945752949665525, "139": -0.14747675201898144, "140": 0.03401216276730745, "141": 0.05853597934259223, "142": 0.05077272999419557, "143": -0.08090223695474788, "144": 0.16495248916958705, "145": -0.2259846514744277, "146": -0.028113166528962785, "147": 0.030880189050821332, "148": 0.07492042675556254, "149": -0.07833187514097681, "150": -0.04329395647334686, "151": 0.02036716921993844, "152": -0.002722945450531017, "153": -0.03686439667160603, "154": -0.05039094884847186, "155": 0.05430683476395891, "156": -0.0010327002063878527, "157": 0.07782450444906856, "158": 0.05346284733193016, "159": 0.10379271085712177, "160": -0.016563451496618236, "161": -0.025350363299186312, "162": 0.035621351806784204, "163": 0.05928835113110423, "164": -0.020860466896014767, "165": -0.20997194479277279, "166": 0.17235805994355435, "167": -0.10825934251874252, "168": 0.009191217618951477, "169": -0.023324192357933215, "170": 0.049928046302822084, "171": 0.08149946448829308, "172": 0.12769934208688785, "173": -0.11118135856068082, "174": 0.10313854580123212, "175": -0.09777271815214013, "176": -0.08653606410286446, "177": -0.06939052069777882, "178": 0.008841117611853999, "179": 0.0400507216485525, "180": 0.08357183439656572, "181": 0.0740752293715383, "182": 0.017946669282626657, "183": 0.008193721255383613, "184": 0.050254840666585913, "185": -0.11254533498055135, "186": 0.008732887848472553, "187": 0.14161371409722157, "188": 0.04331083768647829, "189": -0.05676997943675263, "190": 0.10709791051429829, "191": 0.07561279083033015, "192": 0.024210517719012538, "193": -0.008327598626942127, "194": 0.032567688234441054, "195": -0.07136194743927511, "196": -0.038272560870506296, "197": 0.02605159038372968, "198": 0.02204841132749568, "199": 0.0485633157821821}, "sx": 5, "sy": 5, "depth": 8}, {"w": {"0": -0.028837589556003254, "1": 0.009220311296841865, "2": 0.15370505858705616, "3": -0.08919476349705961, "4": -0.025648544205339144, "5": -0.02828920383062664, "6": 0.13731180196074574, "7": -0.07947917070706512, "8": -0.13004270139533136, "9": -0.026274923251821423, "10": 0.053950512369904675, "11": 0.03934990787473367, "12": -0.11228651122256204, "13": -0.04967949963834955, "14": 0.021974092399104445, "15": 0.0353471038313012, "16": -0.02102826099903914, "17": 0.02162537854059205, "18": -0.12466970603816716, "19": -0.05331263357106225, "20": -0.046403296025741794, "21": -0.01782360536202337, "22": -0.04545044734017639, "23": -0.014465744579580985, "24": 0.011312228960498025, "25": -0.0016965540015885352, "26": 0.05394124355217093, "27": -0.07550540013705538, "28": 0.037426277384551725, "29": -0.018210113773483024, "30": -0.05024619892247638, "31": 0.1800910365881899, "32": 0.023070273411231527, "33": -0.02072806317302106, "34": 0.009576160148733156, "35": 0.054869245816200396, "36": 0.034755255503337065, "37": 0.1797153099574109, "38": -0.11952358247411182, "39": -0.14221529238692374, "40": 0.00850643814014026, "41": -0.04507028791009973, "42": 0.028138441304459968, "43": 0.007343189515810067, "44": 0.040454393140503433, "45": 0.05044370973380077, "46": 0.038082721116398564, "47": 0.019210596982533603, "48": 0.06866464549905581, "49": 0.03305794610782967, "50": 0.052713107677083045, "51": 0.010565143432847496, "52": -0.004848359415191024, "53": 0.07657001282971398, "54": -0.007684603169660817, "55": 0.09959762367653725, "56": 0.058823085753014405, "57": -0.06714549437706839, "58": -0.05119936639315731, "59": 0.06536841621424837, "60": 0.10183099589701072, "61": -0.09233070460273887, "62": -0.02502598051600217, "63": 0.005613485952393008, "64": -0.07312972498932357, "65": 0.01735583140126385, "66": 0.004159501552382701, "67": -0.10043968855491477, "68": -0.04594743388109076, "69": -0.04169047598567992, "70": -0.07756402688349197, "71": 0.14610515771464486, "72": -0.05281656493237992, "73": 0.18241461995807398, "74": -0.0026526128780066543, "75": 0.07306978651084509, "76": 0.04792393016047289, "77": -0.015354074533569037, "78": 0.0026783096004059015, "79": 0.06631568792061784, "80": -0.1291507821768412, "81": -0.01849637613187713, "82": -0.01974658637167215, "83": 0.013347345581660409, "84": -0.0667812726849359, "85": -0.02037833528183864, "86": -0.10534133381597874, "87": 0.09457997649630188, "88": -0.012089883265060655, "89": -0.023501909708507688, "90": -0.07183547977093535, "91": 0.06534254166872065, "92": -0.04065098299879172, "93": 0.026875769506480823, "94": 0.05071052402630767, "95": 0.10302946095621407, "96": 0.011061228223427144, "97": 0.07151900963679056, "98": 0.12551859301412366, "99": -0.04864008935480235, "100": -0.031173133307852055, "101": -0.17427231756338832, "102": -0.062002414052882315, "103": -0.08052557303539952, "104": 0.07491714470714124, "105": 0.022196976936944196, "106": -0.14156812343292804, "107": 0.0084423965711045, "108": -0.04216107035075365, "109": -0.02790374580822088, "110": 0.02137473412401596, "111": 0.06059629635757573, "112": -0.01379368777467358, "113": 0.02922183073039567, "114": 0.11207834839348195, "115": -0.05089721590529388, "116": 0.03609821705607562, "117": -0.03612544829705238, "118": 0.1327740240891904, "119": -0.055712101491521344, "120": -0.04281471693157296, "121": -0.03117741335319716, "122": -0.006610876924221594, "123": 0.08596434644327951, "124": 0.00021474619241941724, "125": 0.07703903679686343, "126": -0.09058155421474257, "127": -0.07758935988328296, "128": 0.0042515428049003275, "129": 0.04165492523043572, "130": -0.027688596181622168, "131": -0.003591284806008842, "132": 0.031674247873865614, "133": -0.058400802368421045, "134": -0.024015581263918607, "135": -0.03603821552838012, "136": -0.03562952439992553, "137": -0.17979150696643173, "138": 0.046872109481804106, "139": -0.018477906598789215, "140": 0.023733342635493582, "141": -0.0827218153305915, "142": 0.01390336558549222, "143": -0.08790100054422123, "144": 0.10331981929925244, "145": 0.12067124856316641, "146": -0.03645080335472404, "147": -0.023999436436911475, "148": 0.0998935848178474, "149": 0.06736434874098185, "150": -0.06677926431284321, "151": 0.14295700529361677, "152": -0.05917995816891822, "153": -0.04928578454611055, "154": -0.011700297701206876, "155": 0.05436261910695434, "156": -0.05897265036292072, "157": -0.07027739920295895, "158": -0.031247011729510495, "159": 0.12913462380414575, "160": -0.0207873757564835, "161": 0.10188793251987038, "162": -0.07979512589316612, "163": -0.05556876770171712, "164": 0.0851106425031598, "165": -0.032425680144842504, "166": -0.09566025298140675, "167": 0.04723542920137037, "168": 0.06986493026961292, "169": -0.0654540790963785, "170": -0.09792161778706951, "171": 0.08209630434153833, "172": -0.08365283482626908, "173": 0.004350467785504363, "174": 0.04449863606843491, "175": -0.05835724839434966, "176": 0.12489364004476115, "177": 0.08574869383881518, "178": -0.014000774372415072, "179": 0.04405688386957181, "180": -0.11336005081114336, "181": 0.038956570186820506, "182": -0.06990802035697478, "183": 0.015380835648350785, "184": 0.05431743253973561, "185": -0.012191557328207953, "186": -0.12821926701313488, "187": -0.1611433372122918, "188": 0.0220313707336942, "189": 0.033949447959737096, "190": -0.06089040594332438, "191": -0.10547611733311403, "192": -0.12564542267015502, "193": -0.06565239123190408, "194": 0.05892133707968405, "195": -0.014500356893787652, "196": 0.06502137236429735, "197": 0.05995847433392133, "198": 0.11234569108213234, "199": 0.031046499317363828}, "sx": 5, "sy": 5, "depth": 8}, {"w": {"0": 0.01787972344860974, "1": 0.0232635781734108, "2": 0.09400064604554124, "3": 0.03470582787560172, "4": 0.08787944403557613, "5": 0.10756015210354825, "6": -0.09239245936983971, "7": 0.06759460823698442, "8": 0.08603230896723134, "9": 0.12299611326236709, "10": 0.003995932540997735, "11": 0.12356446764780406, "12": 0.05254118948409024, "13": 0.06393447373337457, "14": 0.12836642547821894, "15": -0.026327096983896868, "16": 0.06406376467010444, "17": -0.04632086665159694, "18": 0.10164376212360224, "19": -0.13729084502927943, "20": 0.08350227988750064, "21": 0.05193630281120909, "22": -0.04162848191420673, "23": 0.0023417310219340363, "24": -0.07040504664707233, "25": 0.11946826818914114, "26": -0.14656879440578155, "27": 0.000023799939675203785, "28": -0.071298055501209, "29": -0.0695307601163508, "30": 0.13385954057864038, "31": -0.11324481808316433, "32": -0.04353028156814145, "33": 0.030453205769054793, "34": 0.03412967870625893, "35": 0.035604496370933124, "36": -0.027887355383329836, "37": -0.14464057179365383, "38": -0.031132264973040585, "39": -0.07485844275088059, "40": 0.04713581533081816, "41": -0.22419230027820886, "42": -0.043288712961444584, "43": 0.032163763557237546, "44": -0.05516459551005845, "45": 0.005886936400962706, "46": -0.0734380158293773, "47": 0.015725268149844863, "48": -0.01831679900595671, "49": -0.15361074309302958, "50": -0.1900033937548464, "51": 0.050712160429794234, "52": -0.14130879489384693, "53": -0.07268125304720208, "54": 0.04176996476057867, "55": -0.09176272524591632, "56": 0.0810619397994733, "57": 0.009753022949066284, "58": -0.03533856924892476, "59": -0.01561329069568247, "60": 0.028571048006881466, "61": 0.04065478241642949, "62": 0.04001315571344464, "63": 0.20231329678707843, "64": -0.06925498987512224, "65": 0.12973026406128457, "66": 0.16943952213309382, "67": 0.08339989159170262, "68": -0.017198673857627078, "69": 0.14558655306455515, "70": 0.02731201413502666, "71": 0.1394893524497132, "72": 0.004979928642467572, "73": 0.08858627868937742, "74": -0.007261390028715954, "75": 0.12495236336401518, "76": 0.05033468484742058, "77": 0.01744766601261172, "78": -0.09486614955178531, "79": -0.009597981623779924, "80": -0.029837175800765954, "81": -0.0626272250712033, "82": -0.12380445351294005, "83": -0.00713608343446873, "84": 0.07323861194362455, "85": -0.18745223503682112, "86": 0.02912388068162278, "87": -0.048890723798426745, "88": 0.028211922549791237, "89": -0.12679639655024982, "90": -0.02575739249396763, "91": -0.03620369756669982, "92": -0.13217058819556785, "93": -0.1283852603003714, "94": -0.07644231850108378, "95": -0.10904542165575885, "96": 0.00910369942421756, "97": 0.11405285610560358, "98": -0.021274723728402535, "99": 0.017169264800656354, "100": 0.024569559402266464, "101": 0.05971261661691924, "102": -0.11338662461558865, "103": 0.02314970728197419, "104": -0.03243765706852388, "105": -0.04073766969623471, "106": -0.09629833018294306, "107": -0.08316452839495982, "108": -0.06229382200408555, "109": 0.03138168757688074, "110": 0.00002161976732900965, "111": 0.02022167351759237, "112": 0.1386719979483945, "113": -0.0893236292046275, "114": -0.01305563575413296, "115": -0.08520975899869579, "116": 0.029379960134823177, "117": 0.10465950078340755, "118": 0.13835362832586975, "119": 0.09427682328836298, "120": -0.004810040034464973, "121": -0.22287191980028487, "122": -0.07658679583627752, "123": -0.05599711004816253, "124": -0.027255980000741822, "125": -0.00721368717188892, "126": -0.019557305000286292, "127": -0.13059407378744523, "128": 0.003937987138615098, "129": -0.022315539703639937, "130": -0.19769717105374543, "131": -0.027432027776181332, "132": -0.06893052022317676, "133": -0.00999137016682791, "134": -0.054663081208069474, "135": -0.04581316280514505, "136": -0.031078507449740445, "137": 0.07614739150409408, "138": -0.14210220492513895, "139": 0.07417067595885339, "140": -0.02284272761553777, "141": 0.130600988651726, "142": 0.03336891925424776, "143": -0.13918231149337146, "144": -0.1295510552277115, "145": 0.1813427565861204, "146": -0.08469609762349183, "147": -0.026999270799355657, "148": -0.0007631973967952901, "149": -0.030887570842062676, "150": -0.020412048021973994, "151": 0.1280351733299725, "152": -0.09857626737164903, "153": 0.15561714058965645, "154": 0.1872808563283252, "155": 0.029094393227515232, "156": -0.06074051415633132, "157": 0.1644642539843376, "158": -0.08879231610911567, "159": 0.10764307269595605, "160": 0.029984652215982423, "161": 0.002120936083144496, "162": -0.19983467620897202, "163": 0.017871240458490208, "164": -0.008826384165845648, "165": -0.022586374759858203, "166": -0.06830082660951765, "167": -0.041586643819373534, "168": -0.04155655415453357, "169": -0.0474902493405299, "170": -0.01476001337330891, "171": 0.03750876427938922, "172": -0.13602881355543797, "173": 0.0455926350195925, "174": -0.026062820157057017, "175": -0.11292102816686202, "176": 0.053789513879444945, "177": 0.04905678992505759, "178": -0.06322979357104215, "179": 0.03935080591930735, "180": -0.0014803672848797598, "181": 0.13206756615623372, "182": 0.011799810038793337, "183": 0.06562924368181754, "184": 0.029604710292609877, "185": 0.11233974228189816, "186": 0.101951111077701, "187": 0.04473927433267493, "188": -0.08260490297422096, "189": 0.13382564029390923, "190": -0.045099541550769666, "191": 0.11307892220890406, "192": 0.03829809836961637, "193": 0.06763151025970303, "194": 0.2335034604791416, "195": 0.039995944606864516, "196": 0.08511967499669784, "197": 0.21451107721535514, "198": -0.042990026597425374, "199": 0.06304784343738554}, "sx": 5, "sy": 5, "depth": 8}, {"w": {"0": -0.1456470161243068, "1": 0.09557268230847892, "2": 0.09755467587954988, "3": -0.0626295708509578, "4": 0.04094264210148283, "5": 0.09032948341758631, "6": -0.033471612919867944, "7": 0.24196178060214907, "8": 0.09189175449096117, "9": 0.10983273408294916, "10": 0.10053133073727324, "11": -0.03648090304550069, "12": 0.10647190807539993, "13": 0.05904837752206994, "14": 0.07784167243268138, "15": 0.17735694793535056, "16": 0.09907473292298942, "17": 0.09578705421576038, "18": 0.17579390729126707, "19": -0.17451736815242466, "20": -0.005356740652661009, "21": -0.028158598863516165, "22": 0.0034176951081710378, "23": -0.03471473389001132, "24": 0.13231684737491992, "25": -0.05376357244766333, "26": 0.12085067749862244, "27": 0.047088895887785275, "28": 0.07787441287321331, "29": 0.08752502277631767, "30": 0.053475828827779175, "31": -0.11424607504845177, "32": 0.022224675034896047, "33": -0.0011410940262291487, "34": -0.021879921862942183, "35": 0.08361406641049218, "36": 0.034616124509009576, "37": -0.05452518356852556, "38": -0.08191482798798919, "39": -0.07740083163862617, "40": -0.0514352872517286, "41": 0.05299717146729181, "42": -0.09556706601258852, "43": -0.04830460990768478, "44": 0.011683973574122961, "45": 0.11763141927764244, "46": -0.022501508071413205, "47": 0.01428672714034176, "48": 0.005614240468102355, "49": 0.029131150885470268, "50": 0.0819698983993934, "51": 0.032689887007438315, "52": 0.1192150246019658, "53": 0.05258720129357437, "54": 0.08729938977797347, "55": 0.10911753610726742, "56": 0.16643523316186196, "57": 0.1474346230137777, "58": 0.19430520455756345, "59": 0.0017325621151884005, "60": 0.15494627783728943, "61": 0.07219102208198984, "62": -0.03139728240376572, "63": 0.0474275429541186, "64": 0.004547314442340285, "65": -0.0266504935999093, "66": 0.014909676380914436, "67": -0.09903931427760496, "68": -0.016849417298913125, "69": -0.019389392249376036, "70": 0.04123616335468065, "71": -0.010148928913512921, "72": 0.03270571617501144, "73": -0.09449317810034544, "74": -0.19370947381317302, "75": -0.05142113819960142, "76": 0.010623788224008078, "77": -0.01855413672747045, "78": 0.01188202351958766, "79": -0.11982020461415965, "80": 0.087424587724534, "81": 0.1032388511678374, "82": 0.14652647567414348, "83": 0.10557721516315124, "84": -0.005975447045333023, "85": 0.17896428418816515, "86": -0.0830025369944167, "87": 0.20899705448235545, "88": 0.12298844233420696, "89": 0.0611830288522237, "90": 0.10246198623136185, "91": -0.04396631754954553, "92": -0.07591261279561491, "93": 0.19492553655311595, "94": 0.1379283159861737, "95": 0.06986125886085455, "96": -0.04812321565114785, "97": 0.07113397887164657, "98": 0.12901921887773454, "99": -0.088490030434564, "100": -0.007112646985247447, "101": 0.098570078320473, "102": -0.06390751134104235, "103": 0.11740114133066268, "104": 0.002949917126181351, "105": 0.06976665362530382, "106": 0.13579839474111588, "107": -0.04273465833688676, "108": -0.02782582479002562, "109": -0.07609740464064987, "110": -0.04847354274526445, "111": -0.2336438775193739, "112": 0.07580224446993762, "113": -0.017442386322152344, "114": -0.049741534629251176, "115": -0.02342354491560052, "116": 0.017332056634541352, "117": 0.02466035874932083, "118": 0.041713849751001286, "119": -0.08085470910760235, "120": 0.11102117734055543, "121": 0.0006192840878466211, "122": 0.1477967963062102, "123": 0.03630919048838948, "124": -0.053387318377523314, "125": -0.031036122096977443, "126": -0.014051346761213222, "127": 0.11439903121268868, "128": -0.05381449298014203, "129": 0.08468511491054899, "130": -0.01420680153640012, "131": 0.09030938852076166, "132": 0.08442294323785633, "133": 0.10761186864453916, "134": 0.07610193825652609, "135": 0.06929073953342574, "136": 0.08872871080740886, "137": 0.06545702812157264, "138": 0.1078266543155569, "139": 0.00746247149854859, "140": -0.009465516620007063, "141": 0.05986176294125545, "142": 0.047812193214967054, "143": -0.020114083126461606, "144": 0.10594724377919365, "145": -0.10582517496984868, "146": 0.05685708498705107, "147": 0.008669798403931348, "148": 0.1154612539572524, "149": -0.037414408966394024, "150": -0.048021009296612245, "151": -0.09829265781589025, "152": 0.03731337013270416, "153": -0.11875009101746319, "154": -0.11850430371357973, "155": 0.04389508325010018, "156": -0.019627684523010128, "157": -0.1339078144780643, "158": 0.013946328042604076, "159": -0.07024875226526946, "160": -0.0684875072432402, "161": -0.01512987251727453, "162": 0.05894507402852598, "163": 0.03203147811379547, "164": 0.023995983765616277, "165": 0.054822425787811976, "166": 0.01674504366987867, "167": 0.01712725695680225, "168": -0.005089959501463212, "169": 0.13448006488918376, "170": 0.08675539070646357, "171": 0.059257369348338466, "172": 0.09481203855217922, "173": 0.1948004710454957, "174": -0.04503357493559334, "175": 0.2711891541446864, "176": 0.10260454564956077, "177": 0.08285326031731446, "178": 0.049080738332850996, "179": -0.03695037578417671, "180": 0.09865398867021825, "181": 0.07940826014950583, "182": -0.05578502546987456, "183": 0.22109710114485143, "184": 0.0410914018496102, "185": -0.07366199144092389, "186": 0.061356390408172035, "187": 0.013939968745863725, "188": -0.10084306710707648, "189": 0.11515006703586708, "190": 0.011144044358363322, "191": -0.09291797131302695, "192": 0.01719548416668773, "193": -0.031367558066258884, "194": -0.04367133888714292, "195": 0.06308724190735408, "196": 0.2161779099166109, "197": -0.1107961941046638, "198": 0.09159464104704614, "199": -0.03176782963501726}, "sx": 5, "sy": 5, "depth": 8}, {"w": {"0": 0.0319559200544248, "1": 0.12109449445330503, "2": 0.13859745707337898, "3": 0.11341833241541031, "4": -0.17881058334659566, "5": 0.049143729969688695, "6": -0.005755310313894556, "7": -0.22010657030527003, "8": -0.04850301418388519, "9": -0.04298243375214974, "10": 0.03329777028715523, "11": 0.00957596764014109, "12": -0.009508562630251216, "13": -0.03694058714420412, "14": 0.05501256254666431, "15": -0.03434712746878561, "16": -0.11631742863545874, "17": 0.07114364190509104, "18": 0.02633991225952255, "19": 0.08624164872436814, "20": 0.022645817887600346, "21": -0.10479784987855377, "22": 0.15539925439910837, "23": -0.11406818315559242, "24": -0.05564110097306849, "25": -0.07620255759131304, "26": -0.012039595898261977, "27": 0.08230608638462096, "28": 0.04681156636442637, "29": -0.09917296571631694, "30": 0.06144689454923349, "31": -0.053688827480153765, "32": -0.021046349144920685, "33": -0.09257626987019064, "34": 0.03984942137633165, "35": 0.1700152782170876, "36": 0.0001252078462861561, "37": 0.06256309906097438, "38": 0.06150011314240889, "39": -0.02216080183311521, "40": -0.06450554458477965, "41": 0.03727385842878221, "42": -0.05643972963849884, "43": -0.003011594330188318, "44": -0.029910156234080824, "45": -0.18820480365793935, "46": 0.1423826665203467, "47": -0.07349020086878288, "48": -0.1258312145121066, "49": -0.05991926673377569, "50": -0.005868395317366428, "51": 0.03294028773965707, "52": 0.12000686510833816, "53": -0.14829971474588144, "54": 0.08841574493942286, "55": -0.15895101032717843, "56": -0.07667427791558037, "57": -0.07162013984374523, "58": 0.09765714847180203, "59": 0.11790786794899503, "60": 0.006872773969026284, "61": -0.02700801628855669, "62": -0.11158137146244246, "63": 0.055893867134797416, "64": -0.07268804056411311, "65": 0.12012476901135534, "66": -0.04785407818270223, "67": 0.061751089489435515, "68": -0.03890811873175895, "69": 0.01690070334239188, "70": -0.06772032649589228, "71": 0.05405510710490705, "72": -0.24684851629307422, "73": 0.0014469357524273016, "74": -0.016512075257513803, "75": 0.05307139369808065, "76": 0.005394891483805715, "77": 0.007596032873770914, "78": 0.13152838435051986, "79": 0.09666922514399218, "80": -0.11744367003103554, "81": 0.005306452368688412, "82": -0.03781910669203306, "83": -0.0056063645830158465, "84": -0.12004802930747584, "85": 0.0607882753498423, "86": 0.1466883196635197, "87": 0.11965351820766183, "88": -0.041730336863930934, "89": 0.06754663871337976, "90": -0.055453957641349395, "91": -0.08340581853673015, "92": -0.005938146652049435, "93": 0.05537297855038028, "94": 0.002843643001958417, "95": 0.07861474938409334, "96": -0.023082695235379844, "97": 0.08511993824403574, "98": 0.06154660488077201, "99": -0.004158010325074061, "100": -0.03065159517110138, "101": 0.0791989451472055, "102": 0.011918642967343152, "103": 0.051563401480840515, "104": -0.07665565912528577, "105": -0.08273394803414094, "106": 0.08129260385561192, "107": -0.15918670279454514, "108": -0.048565412499025816, "109": -0.018497834493048412, "110": 0.007179343601374718, "111": -0.07475742711214678, "112": 0.06769497381403841, "113": -0.010721324437903976, "114": -0.0526378163099843, "115": -0.005628779505572425, "116": 0.07967532953359427, "117": 0.04593035739947745, "118": 0.07635502748426153, "119": -0.04288411602073645, "120": -0.012640400880289886, "121": 0.144508983864957, "122": 0.005914078406683753, "123": 0.07024543931275713, "124": 0.010711031857698696, "125": 0.08643317584109285, "126": 0.07418753677622285, "127": -0.046157701496238136, "128": -0.029896684872465242, "129": -0.13145524059028507, "130": 0.016164509897714476, "131": 0.13058440221577483, "132": 0.0111479301666363, "133": 0.0691815692131707, "134": 0.1412882285347388, "135": -0.04431008009680002, "136": 0.11874262882921961, "137": -0.019690923857912074, "138": 0.10403806880367461, "139": 0.07189965759614148, "140": 0.08325263705796286, "141": 0.05247098551236401, "142": 0.10319968581608456, "143": 0.05560357571461436, "144": -0.09673621586608849, "145": 0.0583655215159055, "146": 0.0371793122469015, "147": -0.023217143055300947, "148": -0.003737019280807535, "149": 0.014612856465863694, "150": 0.10668380494714305, "151": -0.11791822319395313, "152": -0.026653932052030326, "153": 0.04297759131156039, "154": -0.10034688550226034, "155": 0.1078947126337285, "156": -0.08756271379264076, "157": 0.1079066550929662, "158": 0.097056815475056, "159": 0.04450114338150879, "160": -0.02825457133203589, "161": -0.053490809731366815, "162": 0.019482152216437794, "163": 0.050154647718772066, "164": -0.010555931963005836, "165": -0.05524050416618327, "166": 0.10701032604139744, "167": -0.023774846409053096, "168": 0.16898439197228224, "169": 0.07794139941647758, "170": 0.012999784948717443, "171": -0.09240967932004719, "172": 0.06145169956232818, "173": -0.08324886816642582, "174": -0.03446280526686961, "175": -0.10961178190086522, "176": 0.01330705603194605, "177": 0.08918755013828088, "178": -0.019614739676915575, "179": -0.004210009502063771, "180": -0.010636601189379613, "181": 0.03567241925315075, "182": 0.05667396884725538, "183": -0.07203207048905806, "184": -0.06303235989107986, "185": -0.03780841991449442, "186": -0.05338991922676777, "187": 0.02668870934263819, "188": -0.02211954905787795, "189": 0.01496390053565435, "190": 0.018820869384926962, "191": 0.00211843517815565, "192": 0.1745645427738863, "193": 0.15010754674682436, "194": 0.013043613361026269, "195": 0.0012218801760571563, "196": -0.06721419155464972, "197": 0.0786988697717873, "198": 0.053402818453732855, "199": -0.13127654257957144}, "sx": 5, "sy": 5, "depth": 8}], "in_depth": 8, "out_depth": 16, "layer_type": "conv", "l1_decay_mul": 0, "l2_decay_mul": 1}, {"out_sx": 14, "out_sy": 14, "out_depth": 16, "layer_type": "relu"}, {"sx": 3, "sy": 3, "pad": 0, "out_sx": 4, "out_sy": 4, "stride": 3, "in_depth": 16, "out_depth": 16, "layer_type": "pool"}, {"biases": {"w": {"0": -0.006977016897815004, "1": 0.03396939507031597, "2": 0.00484709539624337, "3": -0.00281711578714019, "4": 0.0042311633554108045, "5": 0.010153771729609433, "6": -0.023367253078965554, "7": 0.006399101380218821, "8": -0.013475849464735182, "9": -0.012963291703142503}, "sx": 1, "sy": 1, "depth": 10}, "out_sx": 1, "out_sy": 1, "filters": [{"w": {"0": -0.024969913068168936, "1": 0.0663880763335474, "2": -0.014544284128343191, "3": 0.0734007853290602, "4": -0.07537420339293531, "5": 0.11645038752902548, "6": 0.16575812640233656, "7": 0.017778143142480718, "8": -0.02636741593646165, "9": -0.12874671054680786, "10": -0.038837845121207505, "11": 0.00232596610543439, "12": -0.014628372160592136, "13": 0.07978505794486207, "14": 0.10102398879896715, "15": 0.005528803140180709, "16": 0.03747327911228553, "17": -0.08387774720183606, "18": -0.10712962435312214, "19": -0.0376468845252354, "20": 0.12648156867205285, "21": -0.03577569658886978, "22": 0.02510774327214742, "23": 0.030887892478041717, "24": -0.06889521067305054, "25": 0.0017194426262249177, "26": 0.07184752558464906, "27": 0.005924664093582247, "28": 0.016277790915791766, "29": 0.01284559480010646, "30": 0.002353909508907389, "31": 0.09883115949413296, "32": 0.01961454679711227, "33": 0.0516347369399615, "34": 0.06055958949929529, "35": 0.00874066894625786, "36": 0.09617860631034526, "37": -0.05750613684976435, "38": 0.07828803878840687, "39": 0.013384520244762273, "40": -0.004406645045074169, "41": 0.15236127542488295, "42": 0.03745546354631123, "43": 0.060798031171085634, "44": 0.08856401509494947, "45": 0.029897090933117678, "46": -0.09102603872626441, "47": -0.02780500513449495, "48": -0.019535774992200983, "49": 0.183397241756641, "50": -0.009883192979649924, "51": -0.029445210150449656, "52": 0.05489514466800607, "53": 0.10689371945444584, "54": -0.053037717137995606, "55": -0.020600780153895604, "56": 0.04823861712016098, "57": 0.0654897456708706, "58": -0.035448102535586085, 