{
  "layers": [
    {
      "out_sx": 28,
      "out_sy": 28,
      "out_depth": 1,
      "layer_type": "input"
    },
    {
      "sx": 3,
      "sy": 3,
      "pad": 1,
      "biases": {
        "w": {
          "0": 0.0004258715094466377,
          "1": 0.1436432009518075,
          "2": 0.025726214299267375,
          "3": 0.11101686725515461,
          "4": 0.1383853625183742,
          "5": 0.15667316757851593,
          "6": 0.12527345150256558,
          "7": 0.14492832861005397
        },
        "sx": 1,
        "sy": 1,
        "depth": 8
      },
      "out_sx": 28,
      "out_sy": 28,
      "stride": 1,
      "filters": [
        {
          "w": {
            "0": -0.04009814292220424,
            "1": 0.6300901113492605,
            "2": 0.4699039065206284,
            "3": 0.3683037465361453,
            "4": 0.6391194868000443,
            "5": 0.39978551493220765,
            "6": 0.8374531103721278,
            "7": 0.21667710779591923,
            "8": -0.38756828412926275
          },
          "sx": 3,
          "sy": 3,
          "depth": 1
        },
        {
          "w": {
            "0": -0.021274092245847313,
            "1": 0.043495734618440654,
            "2": -0.18466276130226558,
            "3": -0.06174559506896516,
            "4": 0.15427041551891027,
            "5": -0.4397933100081854,
            "6": 0.07506026097955944,
            "7": 0.23000852296383678,
            "8": 0.27380975692999426
          },
          "sx": 3,
          "sy": 3,
          "depth": 1
        },
        {
          "w": {
            "0": 0.8046777905816266,
            "1": 0.8752055842250026,
            "2": 0.3015893770259534,
            "3": 0.35248757512233314,
            "4": 0.4585785097506237,
            "5": -0.22077688973137224,
            "6": 0.15933587257640835,
            "7": -0.5502679789709577,
            "8": 0.12898261890013793
          },
          "sx": 3,
          "sy": 3,
          "depth": 1
        },
        {
          "w": {
            "0": -0.6499999744630451,
            "1": -0.236552509119014,
            "2": -0.023717194026774795,
            "3": -0.5391390950953144,
            "4": -0.3343163781761186,
            "5": -0.3223143146949738,
            "6": 0.5614399126796997,
            "7": 0.12905531753511215,
            "8": -0.2138632647521391
          },
          "sx": 3,
          "sy": 3,
          "depth": 1
        },
        {
          "w": {
            "0": 0.3125611410604437,
            "1": 0.37223102734264746,
            "2": 0.11848239256711655,
            "3": 0.016610505855580365,
            "4": 0.2264862891195921,
            "5": 0.3970283191286456,
            "6": -0.3196146239636175,
            "7": -0.17473726589161984,
            "8": 0.013998326358397102
          },
          "sx": 3,
          "sy": 3,
          "depth": 1
        },
        {
          "w": {
            "0": 0.14810355353506338,
            "1": 0.2630162320540204,
            "2": 0.002756561582461064,
            "3": 0.007203156315657622,
            "4": -0.22891734333182115,
            "5": 0.07548227842463413,
            "6": 0.26814479094314153,
            "7": 0.1003808961405708,
            "8": -0.41929922005264364
          },
          "sx": 3,
          "sy": 3,
          "depth": 1
        },
        {
          "w": {
            "0": 0.10482295956604382,
            "1": 0.20358258034345164,
            "2": 0.1387071525436499,
            "3": -0.30809467978049043,
            "4": 0.1624675988223941,
            "5": -0.4571749709991082,
            "6": -0.5545701674270763,
            "7": -0.13341258896127958,
            "8": -0.31310699963768973
          },
          "sx": 3,
          "sy": 3,
          "depth": 1
        },
        {
          "w": {
            "0": 0.16037857333831854,
            "1": 0.3259884967274444,
            "2": 0.07837594757828802,
            "3": -0.2331617499908178,
            "4": -0.3074735397234658,
            "5": 0.02214878157421555,
            "6": -0.4890032422663294,
            "7": 0.3686521839044457,
            "8": -0.1799053237974111
          },
          "sx": 3,
          "sy": 3,
          "depth": 1
        }
      ],
      "in_depth": 1,
      "out_depth": 8,
      "layer_type": "conv",
      "l1_decay_mul": 0,
      "l2_decay_mul": 1
    },
    {
      "out_sx": 28,
      "out_sy": 28,
      "out_depth": 8,
      "layer_type": "relu"
    },
    {
      "sx": 2,
      "sy": 2,
      "pad": 0,
      "out_sx": 14,
      "out_sy": 14,
      "stride": 2,
      "in_depth": 8,
      "out_depth": 8,
      "layer_type": "pool"
    },
    {
      "sx": 4,
      "sy": 4,
      "pad": 1,
      "biases": {
        "w": {
          "0": 0.09258958292533286,
          "1": 0.1086718480375364,
          "2": 0.13109939985374383,
          "3": 0.10602195899434828,
          "4": 0.13253880662634795,
          "5": 0.11179852085328207,
          "6": 0.10046748415879718,
          "7": 0.1304092786620323,
          "8": 0.0765559401989406,
          "9": 0.07135681326986879,
          "10": 0.09649356438125362,
          "11": 0.10020823552220401,
          "12": 0.05031852537476168,
          "13": 0.10199828884988364,
          "14": 0.05954376837027066,
          "15": 0.11772936032663903
        },
        "sx": 1,
        "sy": 1,
        "depth": 16
      },
      "out_sx": 13,
      "out_sy": 13,
      "stride": 1,
      "filters": [
        {
          "w": {
            "0": -0.08158094868967894,
            "1": 0.049770881503769196,
            "2": 0.04173914054851601,
            "3": -0.1070766794284027,
            "4": -0.10920901111585546,
            "5": -0.025669488434240724,
            "6": -0.21877851459772085,
            "7": 0.11252784392397507,
            "8": -0.029027184676803784,
            "9": -0.10140828527142047,
            "10": -0.07184257509982984,
            "11": 0.19850954201915869,
            "12": -0.06861070405214932,
            "13": 0.058655208159228686,
            "14": 0.08195339072407463,
            "15": 0.12811666328454668,
            "16": -0.19518065356276765,
            "17": -0.027438893106722782,
            "18": -0.1350956413037715,
            "19": -0.025162503371592933,
            "20": -0.05461121693114542,
            "21": 0.04739642271291585,
            "22": -0.01576382229919723,
            "23": -0.02092325021401455,
            "24": -0.01733939317001236,
            "25": -0.1499293920414107,
            "26": -0.09026661198331486,
            "27": 0.024141993943894973,
            "28": 0.0671129929000632,
            "29": -0.034607540315961145,
            "30": 0.07937297699340777,
            "31": 0.2013534838092379,
            "32": -0.04513918578564595,
            "33": 0.10619301224699138,
            "34": 0.0830429877217325,
            "35": 0.0024893169465344182,
            "36": -0.08939478767338634,
            "37": -0.06093250701223005,
            "38": -0.06404548711797177,
            "39": -0.008927551888183786,
            "40": 0.09731155975568782,
            "41": 0.05402431697481048,
            "42": -0.023523335996359623,
            "43": 0.12659629087089586,
            "44": 0.009889588223846262,
            "45": -0.06766475075677422,
            "46": 0.03705843416550393,
            "47": 0.03806840835903075,
            "48": -0.012399705585489267,
            "49": 0.03977694059831144,
            "50": 0.025194293382067655,
            "51": 0.008598264971737893,
            "52": -0.08918251704811377,
            "53": -0.06743899957936075,
            "54": -0.04135305960973458,
            "55": 0.006912788671626101,
            "56": -0.05824849888069454,
            "57": 0.05795884879977537,
            "58": 0.1113664002877412,
            "59": -0.18723694245159087,
            "60": 0.033355679297598584,
            "61": -0.09840613794083601,
            "62": -0.07752612657473533,
            "63": -0.18443935777714732,
            "64": -0.001461227250225321,
            "65": -0.10574855103914431,
            "66": 0.058278182021024756,
            "67": -0.010362474273250962,
            "68": -0.2666256202998862,
            "69": -0.16218592617367492,
            "70": 0.07720975799138777,
            "71": -0.054158861341929494,
            "72": 0.11097535217257708,
            "73": 0.15965812754463882,
            "74": 0.08191290594059407,
            "75": 0.10347721984154984,
            "76": -0.12336105935175652,
            "77": 0.07237535411608077,
            "78": 0.050480870381286534,
            "79": 0.012398625130633762,
            "80": 0.1429234182194857,
            "81": -0.020401948976929,
            "82": -0.032557641825971005,
            "83": 0.09514924765763585,
            "84": -0.06279202287365274,
            "85": 0.03168894535724561,
            "86": -0.07628378987379099,
            "87": -0.0517619174121232,
            "88": 0.0716104091657866,
            "89": -0.06026597133604189,
            "90": -0.03109970687176276,
            "91": -0.17422821387053924,
            "92": -0.11800728271765965,
            "93": -0.004043054101397108,
            "94": -0.02899503444284424,
            "95": 0.01469626129491029,
            "96": -0.1860259537097391,
            "97": 0.23616638494549255,
            "98": -0.19000715769297763,
            "99": -0.04819099995037956,
            "100": -0.04514335842076987,
            "101": 0.10101607826152358,
            "102": -0.14999657933016136,
            "103": -0.2840418198109389,
            "104": -0.015363135051418002,
            "105": 0.08597241977390549,
            "106": -0.10424957797726134,
            "107": -0.0407361846990292,
            "108": 0.08790715094340557,
            "109": 0.13863090674569797,
            "110": -0.007342437289588642,
            "111": 0.10345350570347096,
            "112": 0.011156537361327212,
            "113": -0.14292814905070758,
            "114": -0.17025957203285502,
            "115": 0.10508160645691514,
            "116": -0.031040415541586475,
            "117": 0.021985969045461635,
            "118": -0.05781218595821285,
            "119": -0.05999325199268976,
            "120": 0.036462050963682296,
            "121": -0.03306423479878928,
            "122": 0.08156735954335258,
            "123": 0.00892467059660388,
            "124": 0.09396285259632674,
            "125": -0.10530421365553211,
            "126": -0.056293127400050665,
            "127": 0.026839656217046755
          },
          "sx": 4,
          "sy": 4,
          "depth": 8
        },
        {
          "w": {
            "0": 0.06583378046769758,
            "1": -0.05099588246296862,
            "2": 0.14075423081008628,
            "3": -0.0031226391320606484,
            "4": 0.1440758746322366,
            "5": -0.03701408238447803,
            "6": -0.051554581564014004,
            "7": -0.011415778426449101,
            "8": 0.04445918705308883,
            "9": 0.1283951176608497,
            "10": 0.1411620607193758,
            "11": 0.13463417639368624,
            "12": -0.019318643621347015,
            "13": -0.06776421197387977,
            "14": -0.028520761474638095,
            "15": -0.013075815571875538,
            "16": -0.0763704857245343,
            "17": -0.10738104795112498,
            "18": 0.0035342267447463498,
            "19": -0.06870552786658975,
            "20": -0.09435815464170962,
            "21": 0.0889544073669572,
            "22": -0.1641231303186228,
            "23": -0.08406688817521836,
            "24": -0.151535529643031,
            "25": -0.008864441980893267,
            "26": -0.07200920222503077,
            "27": 0.021651086563322097,
            "28": 0.10056785470796051,
            "29": 0.19928440680252557,
            "30": -0.1799378086967793,
            "31": -0.010810331238730117,
            "32": 0.19329988548970348,
            "33": 0.08431092988781892,
            "34": 0.08608932915630944,
            "35": -0.18643114834607125,
            "36": 0.09412361891347154,
            "37": 0.049180224615223,
            "38": 0.02240249012581362,
            "39": -0.0023444812461130473,
            "40": 0.01145444310630968,
            "41": -0.07876629788514031,
            "42": -0.08702872311025102,
            "43": 0.09831258734190197,
            "44": 0.07744688026042781,
            "45": -0.024563449536904758,
            "46": -0.010508243879098496,
            "47": 0.03556446613832096,
            "48": -0.10029839640409684,
            "49": -0.12338231421104263,
            "50": 0.09206437967463552,
            "51": 0.129796645937143,
            "52": 0.038093907549065394,
            "53": -0.18904414014676268,
            "54": 0.08796207558046859,
            "55": 0.09610554213455945,
            "56": 0.15346136652107362,
            "57": -0.03119120631858205,
            "58": 0.03200310541787749,
            "59": -0.051654583839822514,
            "60": -0.010369146100617288,
            "61": 0.07747789629430187,
            "62": -0.01644505866995769,
            "63": -0.16590769346804937,
            "64": 0.12969095596888383,
            "65": 0.0672609552059511,
            "66": 0.13719315630213233,
            "67": -0.013008984852786298,
            "68": -0.001159603931944069,
            "69": -0.0313565658025547,
            "70": 0.24694863562041372,
            "71": 0.030448574701665992,
            "72": -0.11027202141051433,
            "73": 0.10168139007619396,
            "74": 0.1103160707200881,
            "75": -0.03851872344925342,
            "76": -0.03472138861714268,
            "77": -0.059274959697444306,
            "78": -0.12198741361130155,
            "79": 0.09472985377130017,
            "80": 0.03808398719275203,
            "81": -0.16534345995051278,
            "82": 0.02730721640772057,
            "83": -0.009169380669246038,
            "84": -0.01724568728901316,
            "85": 0.005063531755288772,
            "86": -0.06752996226372969,
            "87": 0.06974772894029696,
            "88": 0.011004544655338058,
            "89": 0.005540979883006825,
            "90": 0.0968649935551976,
            "91": 0.008038895655749034,
            "92": 0.12433645700750134,
            "93": -0.03144718147614434,
            "94": -0.0676252700993571,
            "95": 0.177033362299979,
            "96": 0.13582990314484064,
            "97": 0.16373388047989218,
            "98": -0.015892402302762853,
            "99": -0.012161927618911552,
            "100": -0.07617395400124248,
            "101": 0.20863558436703863,
            "102": 0.026901725211342126,
            "103": 0.050903857770055815,
            "104": 0.044736582110367205,
            "105": -0.027499350925658382,
            "106": 0.013105848857444096,
            "107": 0.07330209279585445,
            "108": 0.011681072099942355,
            "109": 0.028283028887193085,
            "110": 0.05589898462642533,
            "111": -0.14740730081281334,
            "112": -0.010357006610197545,
            "113": 0.11857761259904923,
            "114": -0.026584600865021173,
            "115": 0.08022705733879577,
            "116": 0.018361891303896406,
            "117": -0.04395691954966716,
            "118": -0.017251384878069057,
            "119": 0.15311945394506649,
            "120": 0.06303168442127247,
            "121": 0.07906222947482258,
            "122": 0.020868086048479922,
            "123": 0.062126274531327054,
            "124": -0.029731293996032332,
            "125": 0.0017101229928227885,
            "126": -0.011502355909412806,
            "127": 0.031158433600247733
          },
          "sx": 4,
          "sy": 4,
          "depth": 8
        },
        {
          "w": {
            "0": 0.18236610932271732,
            "1": -0.06033569197674111,
            "2": -0.06624284311091333,
            "3": -0.04926768341726708,
            "4": 0.002855989276852601,
            "5": 0.13601387365647094,
            "6": 0.13587030436036462,
            "7": 0.019917644133036108,
            "8": 0.07939141688004972,
            "9": -0.05956705021488206,
            "10": 0.03204824165975678,
            "11": -0.10390488070034842,
            "12": -0.004092599849193414,
            "13": 0.054692913195510014,
            "14": 0.09200149744752566,
            "15": 0.08374193800343134,
            "16": -0.09899075259938689,
            "17": -0.03502693864173107,
            "18": 0.06626683956786654,
            "19": 0.011600263870017868,
            "20": 0.07524555227984953,
            "21": 0.006750894234681693,
            "22": -0.00599540869986835,
            "23": 0.1839640471402912,
            "24": 0.0822473200941751,
            "25": 0.02121412181654456,
            "26": -0.04938014525495629,
            "27": 0.03031879461209821,
            "28": -0.026276251787208615,
            "29": 0.17933356324953106,
            "30": 0.060363047520299355,
            "31": -0.04713068274020323,
            "32": -0.1132408463978721,
            "33": 0.012046911345930153,
            "34": 0.006237677755253553,
            "35": 0.09347924075750476,
            "36": 0.16728680883817182,
            "37": 0.01507492933136208,
            "38": 0.17172608070112994,
            "39": 0.08736590840640594,
            "40": 0.1030746759912605,
            "41": 0.12621442089123439,
            "42": -0.0015820900963727925,
            "43": 0.012903665225882158,
            "44": 0.013902815541142515,
            "45": -0.07448958808083603,
            "46": 0.08579779629498921,
            "47": -0.10097950473832067,
            "48": 0.20312656427603917,
            "49": -0.09023881857411979,
            "50": -0.024882078644308688,
            "51": 0.15447711866754932,
            "52": 0.030498234748013615,
            "53": -0.0420769316159963,
            "54": -0.023827794323647664,
            "55": 0.013772386261885107,
            "56": 0.07525884960427254,
            "57": -0.11386454985655065,
            "58": 0.0070336589620167995,
            "59": -0.02610787357361558,
            "60": -0.03176574634192207,
            "61": -0.0182738675182474,
            "62": -0.05487585946514374,
            "63": -0.04341786655599129,
            "64": -0.2284350976395427,
            "65": 0.12491922732687277,
            "66": -0.14766982006637794,
            "67": -0.2177245392158953,
            "68": -0.029921219762807094,
            "69": -0.08068701214747889,
            "70": -0.019325361811371313,
            "71": -0.004858758901079838,
            "72": -0.08199243085906939,
            "73": 0.04041363978130572,
            "74": 0.11269955634113639,
            "75": -0.022366161951158408,
            "76": 0.08716330097346286,
            "77": -0.013320950025345855,
            "78": -0.03660885975493797,
            "79": -0.009251534090022285,
            "80": -0.16860936583060054,
            "81": 0.028447216573155517,
            "82": -0.05763892078556432,
            "83": -0.22540515257089078,
            "84": 0.015656469449300908,
            "85": 0.04287889032227533,
            "86": -0.012724213513309924,
            "87": 0.08702847035914962,
            "88": -0.1322314398274787,
            "89": 0.02828520123401543,
            "90": 0.04832682205411514,
            "91": -0.03345841326321765,
            "92": -0.011392046182809343,
            "93": -0.10687863375490578,
            "94": -0.13811386910457454,
            "95": 0.1557321699849756,
            "96": 0.06825740254209538,
            "97": 0.07868749410432499,
            "98": 0.04676363207684882,
            "99": -0.09912539835463603,
            "100": 0.04284748227657446,
            "101": -0.11863046663410451,
            "102": -0.0010341432760126589,
            "103": 0.015603937114097988,
            "104": 0.07726043305888075,
            "105": 0.0390639934367731,
            "106": -0.10444289392855143,
            "107": 0.11454647446973273,
            "108": 0.16440516517542958,
            "109": 0.059017806008401265,
            "110": 0.18361708553382175,
            "111": 0.013266905539558203,
            "112": -0.008551185926271495,
            "113": -0.17620579336714057,
            "114": -0.17195369196207558,
            "115": -0.018704659496814817,
            "116": -0.09877682265041994,
            "117": 0.031923301390042055,
            "118": -0.09507407053442338,
            "119": 0.008738073522331094,
            "120": -0.05638828699717146,
            "121": -0.12856468283786276,
            "122": -0.09767844882737267,
            "123": 0.08362739440134345,
            "124": 0.03573321321000114,
            "125": 0.10166181612763948,
            "126": -0.007349542478918135,
            "127": 0.0998845265794962
          },
          "sx": 4,
          "sy": 4,
          "depth": 8
        },
        {
          "w": {
            "0": -0.1305304817882128,
            "1": -0.1278959672614834,
            "2": -0.10620042894875222,
            "3": -0.05280756917083059,
            "4": -0.04971804418520889,
            "5": 0.006342454235650346,
            "6": 0.02710564319364911,
            "7": 0.035736556331810373,
            "8": 0.10972984221320906,
            "9": -0.10572069908982082,
            "10": 0.08951850740612081,
            "11": -0.00824613006557251,
            "12": 0.17416333122377445,
            "13": 0.2350105848198633,
            "14": -0.0010877930912393569,
            "15": 0.09265202186410246,
            "16": 0.0531614928655545,
            "17": -0.05580782472322658,
            "18": 0.18775888791190962,
            "19": 0.06966896558374279,
            "20": 0.13577891614301163,
            "21": 0.04326016468684821,
            "22": -0.07320116770807353,
            "23": 0.038270954994894954,
            "24": -0.13770195064366003,
            "25": -0.008920999082755338,
            "26": 0.06813916067632148,
            "27": 0.15117972908095922,
            "28": -0.06971704258310057,
            "29": -0.10390566758751757,
            "30": -0.039568033435330274,
            "31": -0.06639522556850823,
            "32": 0.033760214191813985,
            "33": 0.05740713532452467,
            "34": -0.1584900767973524,
            "35": -0.03919068241188895,
            "36": -0.09765486009463073,
            "37": -0.1636224750562813,
            "38": -0.1258094385875962,
            "39": -0.12667829377136827,
            "40": 0.06202236676203565,
            "41": 0.2698969932165868,
            "42": 0.03754361718853414,
            "43": -0.13804472864567438,
            "44": 0.11667406068340411,
            "45": -0.043889977176673825,
            "46": -0.043693814241368395,
            "47": -0.11181253051650239,
            "48": -0.02659115275654894,
            "49": -0.1190824001549537,
            "50": 0.22984288397901909,
            "51": -0.021897981182022852,
            "52": -0.1659438873603825,
            "53": 0.06620373324057818,
            "54": -0.056005825562936366,
            "55": -0.10868560748626302,
            "56": 0.03056936837018756,
            "57": 0.12571599201169467,
            "58": 0.03691722141907585,
            "59": -0.00011251833947995156,
            "60": 0.14337512140946015,
            "61": -0.059444166475997345,
            "62": -0.14864869813906278,
            "63": 0.2449775613283898,
            "64": 0.30673498740800154,
            "65": 0.08346593790666783,
            "66": 0.07173259291532963,
            "67": 0.06896689045896764,
            "68": 0.04504874471274902,
            "69": -0.003830794608998274,
            "70": -0.061672740264131276,
            "71": -0.17155244125191937,
            "72": 0.11506201897982331,
            "73": -0.09786653156054183,
            "74": 0.0840019180761535,
            "75": -0.04856502369837224,
            "76": 0.12111030584531093,
            "77": -0.04636373238604628,
            "78": -0.03950444099210494,
            "79": 0.0960129095127697,
            "80": 0.09654178237102769,
            "81": 0.17566197522691945,
            "82": 0.07714245480927627,
            "83": -0.021716781960120373,
            "84": 0.15322417136290784,
            "85": 0.12270390947085191,
            "86": -0.20568488516428193,
            "87": -0.07172596802377694,
            "88": 0.026789380575738694,
            "89": 0.1622993329855588,
            "90": 0.13646005772885103,
            "91": 0.07871291131443298,
            "92": -0.15212479470827003,
            "93": -0.09989272461627492,
            "94": -0.034817206830030624,
            "95": 0.06560314008151444,
            "96": -0.05738676255739403,
            "97": 0.00274197656687066,
            "98": 0.05714427907313629,
            "99": 0.060061077073568656,
            "100": 0.09544730907821947,
            "101": 0.05522114499405464,
            "102": -0.002971674245724764,
            "103": -0.008189604958694082,
            "104": -0.10052426232359053,
            "105": 0.030170718938986315,
            "106": 0.006852118480514062,
            "107": -0.002653224570277639,
            "108": -0.029680095135929247,
            "109": -0.03105509906953148,
            "110": 0.0835006389514928,
            "111": 0.025984171060402336,
            "112": 0.1683590981665167,
            "113": 0.10970730074525577,
            "114": -0.0627099837633177,
            "115": -0.08213031406475967,
            "116": -0.07328464838466887,
            "117": 0.004082141880680101,
            "118": 0.06180063947989095,
            "119": -0.008513623181722014,
            "120": -0.032633748437643786,
            "121": -0.022470873706663008,
            "122": 0.035066888746785284,
            "123": -0.046981487612035445,
            "124": 0.07304727756654981,
            "125": -0.01569068413314377,
            "126": -0.05262135915789361,
            "127": 0.017733234815906704
          },
          "sx": 4,
          "sy": 4,
          "depth": 8
        },
        {
          "w": {
            "0": 0.17468087048127667,
            "1": -0.039013624470716685,
            "2": -0.016466267645014743,
            "3": 0.051863952533327214,
            "4": 0.10428239101273454,
            "5": -0.09045460568833016,
            "6": 0.012769669757360384,
            "7": 0.014484821287469208,
            "8": 0.028731687945202335,
            "9": 0.07082184473187088,
            "10": -0.1314375252312195,
            "11": -0.16724705524033714,
            "12": -0.009326234452858823,
            "13": 0.016142274334601626,
            "14": -0.17018811545716497,
            "15": -0.0237079142520025,
            "16": -0.08782704372251314,
            "17": -0.08616412453681785,
            "18": 0.054823836081291134,
            "19": -0.007151372504702301,
            "20": -0.015284995099836154,
            "21": -0.06709674060936859,
            "22": -0.005868988109655188,
            "23": -0.049005173939090825,
            "24": 0.010619043387839228,
            "25": 0.2848646862668321,
            "26": 0.04096880750269316,
            "27": -0.03543672301636698,
            "28": -0.026666956216848427,
            "29": 0.06575855926541377,
            "30": -0.03969085957136949,
            "31": 0.12001891817267443,
            "32": -0.0032955472047183853,
            "33": 0.12984570158720465,
            "34": 0.04502886282490269,
            "35": 0.12360691030983159,
            "36": 0.00966258026126296,
            "37": -0.06991969167283106,
            "38": 0.20642438434422036,
            "39": -0.055950470326974776,
            "40": -0.09673669053047503,
            "41": -0.03129157350915309,
            "42": -0.1441720043569433,
            "43": 0.10455046134711628,
            "44": 0.013271872723497554,
            "45": -0.12262644189833673,
            "46": 0.005937508098238383,
            "47": -0.09801151758371927,
            "48": -0.13152932052505623,
            "49": 0.0383611995079924,
            "50": 0.015037079392844231,
            "51": 0.015107730133110689,
            "52": -0.05826020070508011,
            "53": 0.11157078727558836,
            "54": 0.03953730314040176,
            "55": 0.058723724715935816,
            "56": -0.019581164486009186,
            "57": 0.13671434945631514,
            "58": 0.06234589156954317,
            "59": -0.012455792625475042,
            "60": 0.19291983902998655,
            "61": 0.017693316060250524,
            "62": -0.06658862370660455,
            "63": -0.03697329761455125,
            "64": -0.033238553411921494,
            "65": 0.011579791238490535,
            "66": 0.25362442584061684,
            "67": 0.0017371381919548525,
            "68": 0.08387488572053838,
            "69": 0.15878078793876874,
            "70": -0.046091264398365715,
            "71": 0.10447477560591523,
            "72": -0.11475255291826109,
            "73": -0.08474271052711936,
            "74": 0.10794778117288162,
            "75": 0.021741030044999467,
            "76": -0.025443361401372027,
            "77": 0.008344972884687735,
            "78": -0.05484552217519855,
            "79": 0.14434073864534883,
            "80": -0.13579054464346266,
            "81": -0.14566282212554857,
            "82": -0.12901347122180729,
            "83": 0.029697165643301153,
            "84": -0.013425416545346371,
            "85": -0.1644620469185063,
            "86": -0.027665670975719737,
            "87": 0.0013971062007458398,
            "88": 0.0482605558832536,
            "89": 0.020013026461556373,
            "90": -0.07400105191093187,
            "91": -0.06295077022044072,
            "92": -0.0690693424696265,
            "93": -0.11443310304847926,
            "94": 0.06850879991280337,
            "95": -0.04687087264919623,
            "96": 0.04266468322591215,
            "97": 0.11245708639684214,
            "98": 0.10413777075609788,
            "99": -0.12441005017664904,
            "100": 0.06661271011414775,
            "101": -0.09669588255148984,
            "102": -0.087561662558781,
            "103": 0.008249277049940598,
            "104": 0.025078061644831822,
            "105": -0.0024233659182273924,
            "106": -0.04312435651297476,
            "107": 0.04918496915630794,
            "108": -0.049322101090402505,
            "109": -0.08539176743128668,
            "110": -0.005582969839001579,
            "111": -0.050882847854215416,
            "112": -0.14322015341404915,
            "113": -0.15946810908739895,
            "114": -0.07222681071343628,
            "115": -0.0658742877144123,
            "116": 0.08552941944718484,
            "117": -0.035282406023985434,
            "118": 0.004982531080039854,
            "119": -0.019775929151171195,
            "120": -0.12404598966367177,
            "121": 0.07011613769295594,
            "122": 0.06877030821211051,
            "123": 0.00942719636606711,
            "124": -0.03661263292611912,
            "125": 0.01702741930347537,
            "126": -0.08101946953434994,
            "127": 0.15192551308306737
          },
          "sx": 4,
          "sy": 4,
          "depth": 8
        },
        {
          "w": {
            "0": -0.0765612655304618,
            "1": -0.05327378844242414,
            "2": 0.13267479287653672,
            "3": 0.05301562523649825,
            "4": -0.08569401397922705,
            "5": 0.0785734761249553,
            "6": 0.15840366196730793,
            "7": -0.07835632977500541,
            "8": -0.04222578728699264,
            "9": -0.08053336366741212,
            "10": -0.1356708903727545,
            "11": 0.028715211015058553,
            "12": 0.07416740317180769,
            "13": -0.06440736264974573,
            "14": -0.20102370311215562,
            "15": -0.21009734512033754,
            "16": -0.00245912326583542,
            "17": -0.0061668265633297225,
            "18": 0.06849391613871283,
            "19": -0.2073918276855719,
            "20": 0.04276763803544914,
            "21": -0.11918214684829834,
            "22": 0.07145509889054635,
            "23": 0.11732218532768712,
            "24": 0.06484092811404217,
            "25": 0.023543520730086316,
            "26": -0.02587324535061122,
            "27": 0.05395494706249702,
            "28": 0.06195755503594599,
            "29": -0.1280849071093565,
            "30": -0.04697043231754049,
            "31": 0.001877682416748141,
            "32": 0.03448178530214217,
            "33": 0.13129552025034785,
            "34": -0.033207700149375005,
            "35": 0.05196924058140481,
            "36": 0.008297431694093088,
            "37": 0.10300811710842844,
            "38": 0.011699495457892959,
            "39": -0.07291236285504513,
            "40": -0.04442595363447647,
            "41": 0.1606991144046624,
            "42": -0.22565674047302126,
            "43": 0.12780419950229735,
            "44": 0.033317560630761384,
            "45": -0.05994211857547364,
            "46": -0.06387357237241252,
            "47": 0.02357350893306075,
            "48": 0.015343150721754193,
            "49": -0.03305739835006919,
            "50": 0.02497035336557019,
            "51": 0.13674538742402964,
            "52": 0.14840964339559218,
            "53": -0.1859291290526965,
            "54": 0.07463908962324696,
            "55": 0.014649031013457435,
            "56": 0.08393539123670282,
            "57": 0.11088673679095286,
            "58": 0.10466728908382811,
            "59": -0.04267484502210838,
            "60": 0.2390159612398741,
            "61": 0.009392955629021038,
            "62": -0.10789605419689376,
            "63": -0.047993207781643794,
            "64": 0.058666237252810845,
            "65": 0.086772389558678,
            "66": -0.007613864620539783,
            "67": 0.13113675858712848,
            "68": 0.016412203715834777,
            "69": 0.16005678018143282,
            "70": 0.06510021530302738,
            "71": 0.06162946172316367,
            "72": -0.036776919170878,
            "73": -0.054850801397094896,
            "74": -0.05710138113438054,
            "75": -0.10964469208122789,
            "76": -0.009005778348421725,
            "77": -0.0665613241240477,
            "78": -0.04314386774949457,
            "79": 0.06169508540084157,
            "80": 0.20974191082529897,
            "81": 0.09589171295234859,
            "82": -0.05394467447848964,
            "83": 0.06601971972435304,
            "84": 0.13081387834992492,
            "85": 0.07215824534387728,
            "86": 0.20749050197520527,
            "87": 0.08049830349289218,
            "88": -0.02505088081397714,
            "89": 0.062330931762759265,
            "90": 0.17027437465666054,
            "91": -0.039980236595545025,
            "92": 0.04048497091674053,
            "93": 0.15792044565877408,
            "94": 0.11557522656051457,
            "95": -0.017696492893584832,
            "96": 0.0009607965245594001,
            "97": -0.151025125071684,
            "98": 0.060353979501630475,
            "99": -0.022158833358918953,
            "100": -0.1394954513513958,
            "101": -0.024304875300832206,
            "102": 0.10655567047557288,
            "103": -0.021204499008790515,
            "104": -0.1224747250867966,
            "105": -0.0638718542464702,
            "106": 0.012743242907274297,
            "107": 0.049624218524371544,
            "108": -0.025541056724087997,
            "109": 0.007266137163699477,
            "110": 0.140943247766949,
            "111": 0.09994350766113558,
            "112": -0.039444674643182624,
            "113": 0.021025927201147824,
            "114": 0.012590680626541489,
            "115": -0.05483554270468236,
            "116": 0.029821061123787584,
            "117": -0.04901584560150413,
            "118": -0.1037150569120386,
            "119": 0.09314241780505877,
            "120": 0.10444723871798633,
            "121": 0.13014366565266472,
            "122": 0.03608256533968962,
            "123": -0.12042911568786378,
            "124": 0.03054403715032636,
            "125": -0.008636475695723681,
            "126": -0.20245340664349373,
            "127": 0.18263084052826875
          },
          "sx": 4,
          "sy": 4,
          "depth": 8
        },
        {
          "w": {
            "0": -0.003147966288879116,
            "1": 0.10034988324894166,
            "2": 0.07135421516765358,
            "3": 0.10460858327588769,
            "4": 0.021051761600174305,
            "5": 0.03694055222785411,
            "6": 0.06188226807142289,
            "7": -0.17602326441292263,
            "8": 0.049587821341833975,
            "9": 0.02345567255442013,
            "10": 0.0923070245320822,
            "11": -0.033876832838898314,
            "12": -0.18997297327523266,
            "13": 0.04862986255765311,
            "14": -0.10659332257736319,
            "15": -0.14539989065220815,
            "16": 0.04976676778390719,
            "17": 0.08447745439116201,
            "18": 0.027942280039404487,
            "19": -0.1115828103745011,
            "20": -0.026064225559312433,
            "21": -0.04373945747622181,
            "22": -0.05854916959226145,
            "23": -0.0367736366706428,
            "24": -0.07570467850143002,
            "25": 0.06547166187200844,
            "26": 0.03799156268939637,
            "27": 0.1324120731571211,
            "28": -0.11919408514565284,
            "29": -0.00503597993127097,
            "30": -0.13297784301581475,
            "31": -0.03312422428547849,
            "32": -0.005677324132306447,
            "33": 0.06794312788509546,
            "34": 0.09249970793637607,
            "35": -0.018870845459668814,
            "36": -0.022812421914885445,
            "37": -0.07083649286130927,
            "38": -0.030014037344819743,
            "39": 0.08501875126474862,
            "40": 0.037119199847280245,
            "41": -0.005445426971282473,
            "42": 0.23891475517253194,
            "43": 0.008002818288154273,
            "44": -0.23098506223273887,
            "45": 0.04853377275930177,
            "46": -0.08408866211646743,
            "47": -0.01961038021385385,
            "48": 0.1292466782668291,
            "49": 0.21209896147808,
            "50": -0.04209793112663359,
            "51": -0.04607993509489399,
            "52": 0.07528020112212638,
            "53": -0.05568993826011018,
            "54": 0.08541336514302515,
            "55": -0.15705613745204347,
            "56": -0.11626677175181863,
            "57": 0.0026779967704914113,
            "58": 0.09428229205336587,
            "59": -0.03440547833562787,
            "60": 0.07965928343459136,
            "61": -0.016844847530341725,
            "62": 0.016536814408760515,
            "63": 0.007124022968473136,
            "64": 0.19628194186550968,
            "65": -0.06369907522269594,
            "66": 0.055345751427510935,
            "67": 0.09496517480595949,
            "68": -0.12585061430779163,
            "69": 0.06790419975503173,
            "70": -0.1452239570131911,
            "71": -0.19078091451400062,
            "72": 0.12091228995808008,
            "73": 0.08380854903466231,
            "74": 0.09911238510007411,
            "75": -0.126024654600539,
            "76": -0.13084769510461863,
            "77": 0.024865962218285347,
            "78": 0.18092712445998155,
            "79": -0.038346333202570713,
            "80": 0.046849766972178256,
            "81": -0.19650989404916663,
            "82": -0.0043262121827834545,
            "83": -0.03353290166085153,
            "84": 0.03810320017553985,
            "85": 0.14202797333037726,
            "86": 0.08031597160002753,
            "87": 0.07600967133786286,
            "88": -0.0040158304148767655,
            "89": 0.1067530372218996,
            "90": 0.052243752271839514,
            "91": -0.033493328663419385,
            "92": -0.014482592967594413,
            "93": -0.19223449316757527,
            "94": -0.04660897643488905,
            "95": -0.012128392248180976,
            "96": 0.24228595609555328,
            "97": -0.08758541662131472,
            "98": 0.14032636752863117,
            "99": -0.05913422195956621,
            "100": -0.04907370437939195,
            "101": -0.056388789620129894,
            "102": -0.04700973690110918,
            "103": 0.06629655430001917,
            "104": 0.060093440829296546,
            "105": 0.00041581032465470066,
            "106": 0.20358563302449043,
            "107": 0.10032880322825274,
            "108": -0.05001350070181872,
            "109": 0.1117827780012411,
            "110": 0.018376630367819214,
            "111": -0.04395909342667672,
            "112": 0.007970323025942116,
            "113": -0.035732801324729016,
            "114": -0.02846803665170031,
            "115": -0.16673027585483086,
            "116": 0.03436633935820236,
            "117": -0.006079561036668154,
            "118": 0.03140217094616479,
            "119": 0.08061964146542666,
            "120": 0.038550848811064985,
            "121": -0.022901417473987985,
            "122": -0.09033904759406876,
            "123": 0.09828492219470533,
            "124": -0.23540324812055397,
            "125": -0.12390248766528975,
            "126": 0.04069545299917131,
            "127": 0.04512123738551975
          },
          "sx": 4,
          "sy": 4,
          "depth": 8
        },
        {
          "w": {
            "0": 0.07144932717928489,
            "1": -0.12001201616899702,
            "2": -0.06379406400723556,
            "3": 0.13339702950192286,
            "4": 0.10915397096347534,
            "5": -0.1145496022452032,
            "6": -0.06178537080027199,
            "7": 0.024921674788494438,
            "8": -0.08052514755590241,
            "9": -0.013306521872909238,
            "10": -0.00683697003732746,
            "11": 0.0836901469138656,
            "12": 0.01444643028814946,
            "13": -0.033243645330029985,
            "14": -0.09137367152483,
            "15": -0.0059719558941649506,
            "16": -0.11670629849877583,
            "17": -0.0719324186972441,
            "18": -0.04454102348493186,
            "19": 0.028099393420086487,
            "20": -0.057895349431001566,
            "21": -0.002875233928232772,
            "22": -0.09823408984055809,
            "23": 0.03304112422464234,
            "24": 0.07902751220832618,
            "25": 0.09407491240904156,
            "26": 0.016359653618381254,
            "27": -0.0035724172932294065,
            "28": 0.20177429922785706,
            "29": 0.03432358659263683,
            "30": 0.20459467514864377,
            "31": 0.012045815354704992,
            "32": 0.131915935525441,
            "33": 0.09375993536475931,
            "34": 0.21440139889833246,
            "35": -0.01212912554001966,
            "36": -0.06449580315456536,
            "37": -0.08843805306520054,
            "38": 0.21421629672740483,
            "39": -0.05482794813194873,
            "40": -0.002961414730247705,
            "41": 0.15791823790147513,
            "42": -0.10818276830837233,
            "43": 0.07663082032055027,
            "44": -0.002999783261488107,
            "45": 0.043893399648953474,
            "46": 0.07587278423275298,
            "47": -0.1108248733540943,
            "48": -0.04861273376910482,
            "49": -0.018892186702517202,
            "50": -0.08016395130894588,
            "51": -0.10666539613613635,
            "52": 0.07475665983526626,
            "53": 0.22529140702591433,
            "54": 0.03189884032553984,
            "55": 0.0050558142836327645,
            "56": -0.0340663780295753,
            "57": 0.14917117274839184,
            "58": 0.015051302148320568,
            "59": 0.035221298436906606,
            "60": -0.10835902294495317,
            "61": 0.14740997370673908,
            "62": 0.06594896048437014,
            "63": 0.06258473530727535,
            "64": 0.02171635001153083,
            "65": 0.21256271822920433,
            "66": 0.020519103865830803,
            "67": 0.011267980561537765,
            "68": 0.05997867680942711,
            "69": 0.08804245249401436,
            "70": -0.11294229935156933,
            "71": 0.12778197492825732,
            "72": 0.10119590077378611,
            "73": -0.08447117048316549,
            "74": -0.0398149325675332,
            "75": 0.10638606311528526,
            "76": 0.037335787714885806,
            "77": 0.20041785647765356,
            "78": 0.14350538796227322,
            "79": -0.20754539897716862,
            "80": 0.12374006768773597,
            "81": 0.01850794404892959,
            "82": -0.10660268019702662,
            "83": -0.06297489752359699,
            "84": 0.0007227744920047988,
            "85": 0.052508298498643115,
            "86": -0.01573712334892411,
            "87": -0.07225616388248599,
            "88": 0.11215979373898198,
            "89": 0.18580203058991066,
            "90": 0.12958878369244806,
            "91": -0.0011298872601512632,
            "92": 0.061156376210460946,
            "93": -0.01667835228314947,
            "94": -0.14510536316900235,
            "95": -0.10696813313858539,
            "96": -0.08849977581235152,
            "97": 0.13183593917345848,
            "98": -0.06261293315947142,
            "99": -0.06501667033233381,
            "100": 0.25563814072791347,
            "101": 0.007086067242425274,
            "102": -0.032495743399307,
            "103": -0.0451797742577074,
            "104": -0.16241718314829506,
            "105": -0.13639473978622182,
            "106": -0.15786452819792224,
            "107": -0.02843019873776415,
            "108": 0.030400678965845973,
            "109": -0.06755800178483745,
            "110": -0.046556493209437895,
            "111": -0.03157754522352971,
            "112": -0.12260223093085476,
            "113": 0.04070695194594985,
            "114": 0.04530846687032777,
            "115": 0.11325991241499513,
            "116": -0.12798911717912587,
            "117": 0.03729353446907936,
            "118": 0.046092729063849376,
            "119": -0.09482069268873596,
            "120": -0.003301258307572454,
            "121": 0.027507285671840652,
            "122": 0.17173135785776222,
            "123": -0.017844798927430638,
            "124": -0.043523796097577894,
            "125": 0.11883596827715832,
            "126": 0.11537270728293902,
            "127": 0.020265212941775933
          },
          "sx": 4,
          "sy": 4,
          "depth": 8
        },
        {
          "w": {
            "0": 0.10257235146874842,
            "1": -0.12749280320041625,
            "2": -0.05465793303532077,
            "3": -0.021935078524745168,
            "4": 0.058254462237349564,
            "5": -0.039148259578967656,
            "6": -0.023005996896867213,
            "7": -0.018081076041232026,
            "8": -0.10493339710275099,
            "9": 0.08165183358190102,
            "10": -0.12946748253950188,
            "11": 0.03214983407134179,
            "12": -0.07648507816202832,
            "13": -0.08745890990910474,
            "14": -0.021235988696406614,
            "15": 0.09313782035915304,
            "16": 0.06523564310027415,
            "17": -0.04219072783331533,
            "18": 0.01796066160387354,
            "19": -0.06664061868426573,
            "20": 0.09140768773000396,
            "21": -0.10248421860129098,
            "22": -0.13182730063866824,
            "23": -0.019501217820956207,
            "24": 0.11060913372967059,
            "25": 0.15825143688795554,
            "26": -0.11934070197220589,
            "27": 0.03026560116022738,
            "28": 0.16894859953967245,
            "29": -0.07176550715896793,
            "30": -0.07669833103057323,
            "31": 0.025383662208014454,
            "32": -0.10982114569149488,
            "33": -0.0518374804805402,
            "34": 0.000774230511768645,
            "35": -0.06927019043676672,
            "36": 0.004068554331594553,
            "37": -0.1665871479468596,
            "38": -0.04201002908302989,
            "39": -0.05443211233682349,
            "40": 0.06865454749916135,
            "41": 0.08601588074192933,
            "42": 0.06701247074322372,
            "43": 0.12045952662255051,
            "44": 0.13358805145134858,
            "45": -0.03273119362846568,
            "46": -0.0268405725034599,
            "47": -0.16241234072132948,
            "48": -0.17521819683254683,
            "49": -0.007824172331684106,
            "50": -0.14134200984695192,
            "51": -0.03145717068557831,
            "52": 0.12101333505012415,
            "53": -0.05288072324151324,
            "54": -0.01857483148414331,
            "55": -0.004801770833114804,
            "56": 0.16544765766503688,
            "57": -0.06600224132059013,
            "58": 0.0696380199257849,
            "59": -0.04049359836555473,
            "60": 0.07772501208197888,
            "61": 0.008454659088930519,
            "62": 0.11432078587340455,
            "63": -0.04730731284573498,
            "64": 0.07072124580439446,
            "65": -0.029733225569899494,
            "66": 0.05348206999841726,
            "67": 0.049317983976604876,
            "68": 0.0379705607375462,
            "69": 0.024427760436473902,
            "70": -0.09467057586362175,
            "71": 0.010146906378301714,
            "72": -0.08094525953892215,
            "73": -0.0236307596648437,
            "74": -0.08541014774872024,
            "75": -0.05257271302451818,
            "76": 0.006432478271933277,
            "77": 0.007405929878711793,
            "78": -0.14621709669033925,
            "79": 0.18947786221047896,
            "80": 0.02944173548600611,
            "81": -0.07695411782952039,
            "82": 0.030776682051692664,
            "83": -0.054527716609381396,
            "84": -0.012933027493919823,
            "85": 0.049371832548326826,
            "86": -0.20809896561199548,
            "87": 0.07669063915527012,
            "88": 0.09621565409635757,
            "89": -0.10576217419610948,
            "90": -0.023263324392135746,
            "91": 0.06029838970370106,
            "92": -0.06766725441833812,
            "93": -0.09988684459557103,
            "94": -0.17493071646084277,
            "95": 0.011907155017660943,
            "96": 0.1762396328953139,
            "97": 0.1254995891609677,
            "98": 0.06662356008866531,
            "99": -0.14455804400333078,
            "100": 0.0501346880451962,
            "101": 0.0857612742514374,
            "102": -0.025470110719070675,
            "103": 0.026342069158602537,
            "104": -0.008600995153583237,
            "105": 0.019589573400531128,
            "106": -0.017542315484063497,
            "107": 0.08951957102744272,
            "108": 0.0076656459659739246,
            "109": -0.06430995966875908,
            "110": 0.039355422288619824,
            "111": 0.12008061736484835,
            "112": 0.12845380785843652,
            "113": 0.2001315143138099,
            "114": -0.11754634909029539,
            "115": -0.05984874097871281,
            "116": -0.07341184130789911,
            "117": -0.19270008620940762,
            "118": 0.14157203629029266,
            "119": 0.093230870903857,
            "120": 0.01771199243777153,
            "121": -0.012619245015559064,
            "122": 0.0032184512199276132,
            "123": -0.001295628613857541,
            "124": -0.055767122714594775,
            "125": -0.021213243874839062,
            "126": 0.00004358832756030607,
            "127": -0.05746762676508746
          },
          "sx": 4,
          "sy": 4,
          "depth": 8
        },
        {
          "w": {
            "0": -0.04001895824788448,
            "1": -0.08230471336180319,
            "2": -0.0322064774010701,
            "3": 0.027338820914919324,
            "4": 0.028901548491613818,
            "5": -0.10284828190015084,
            "6": 0.07593450097115706,
            "7": -0.15011380951146985,
            "8": -0.15388557503832223,
            "9": -0.09476574647089936,
            "10": -0.036943264064729274,
            "11": -0.11431399105553197,
            "12": 0.10700503292177398,
            "13": -0.2354303339838315,
            "14": -0.03770918152575236,
            "15": 0.07387684122040764,
            "16": -0.014194509234493046,
            "17": -0.04435513235883823,
            "18": 0.06394342314643045,
            "19": 0.064628661296768,
            "20": -0.0772234940276184,
            "21": 0.07056169058921918,
            "22": 0.2279074798209811,
            "23": -0.03205480291270411,
            "24": -0.17762427851391588,
            "25": 0.07401451701493465,
            "26": 0.0037139571397727202,
            "27": 0.16220628588713112,
            "28": 0.14965943233868043,
            "29": -0.017096926482106607,
            "30": 0.13995148987937037,
            "31": 0.09631400805446279,
            "32": -0.10592530418659878,
            "33": -0.047162608487011336,
            "34": -0.07976272643294233,
            "35": 0.04065475283217872,
            "36": -0.06626231017004039,
            "37": -0.1678657126594146,
            "38": 0.10248362293001459,
            "39": 0.08093380301288991,
            "40": 0.1532972728419034,
            "41": 0.11513776441624575,
            "42": 0.0036869174993681476,
            "43": -0.007777565777448834,
            "44": -0.1417566007254111,
            "45": -0.005690295130731435,
            "46": -0.04378860867444332,
            "47": 0.10540973997977998,
            "48": -0.14705776997867864,
            "49": -0.04324224862338138,
            "50": 0.06741214727401985,
            "51": 0.03392937825301,
            "52": -0.08006466116418216,
            "53": -0.11951032970690233,
            "54": 0.025438109064160472,
            "55": 0.027068654831581343,
            "56": -0.027521867444286613,
            "57": -0.022858961433981466,
            "58": 0.2543020127955152,
            "59": -0.014116733677479494,
            "60": 0.005141643915583033,
            "61": -0.09727838571672952,
            "62": -0.015888773770205707,
            "63": -0.1354367215813481,
            "64": -0.013186241322666027,
            "65": 0.022955491502558902,
            "66": 0.05479857712553702,
            "67": 0.010426328433322238,
            "68": -0.16923997699848203,
            "69": 0.03392490497297751,
            "70": 0.0682146503944006,
            "71": -0.003975285235034435,
            "72": -0.03511226593331145,
            "73": -0.14683878316097698,
            "74": -0.06764521118676001,
            "75": -0.09672305576287574,
            "76": -0.07701983721965554,
            "77": -0.06633639524651089,
            "78": -0.0014838255048458325,
            "79": 0.1143687612761726,
            "80": -0.0007366020058831621,
            "81": -0.10640377363166258,
            "82": 0.1546971836600352,
            "83": 0.09832801988173179,
            "84": -0.07173539336686696,
            "85": -0.07528644223009143,
            "86": -0.11266406010834427,
            "87": -0.014489922341880764,
            "88": -0.055657566118672154,
            "89": 0.059643466206835506,
            "90": 0.15242482217059342,
            "91": 0.1188499737098557,
            "92": -0.15943797647714497,
            "93": -0.05490077745544748,
            "94": -0.002038019373912994,
            "95": -0.1434932210152606,
            "96": -0.001611942208957339,
            "97": 0.038276417516658015,
            "98": 0.07060550886625078,
            "99": -0.02795879438551366,
            "100": 0.044064322450764845,
            "101": 0.008832765811635673,
            "102": 0.01125824383810516,
            "103": 0.004710782825348646,
            "104": 0.17897817399822052,
            "105": 0.060943140223064525,
            "106": 0.10602492418623338,
            "107": 0.08703915259715463,
            "108": -0.04196868665496266,
            "109": 0.03424479496266785,
            "110": -0.008734389487030807,
            "111": 0.0185262409167223,
            "112": 0.09699382731208175,
            "113": 0.09124817030699503,
            "114": -0.0028979347129542967,
            "115": 0.02086244659758481,
            "116": 0.09244703395156745,
            "117": -0.04252134296242198,
            "118": 0.04289444835006929,
            "119": -0.05910322037078917,
            "120": -0.07780888692137695,
            "121": -0.04013784844542788,
            "122": 0.18182125035631988,
            "123": 0.1518562621089839,
            "124": -0.05666405204189302,
            "125": 0.02282431895515641,
            "126": -0.01273275522656531,
            "127": -0.13792586862881548
          },
          "sx": 4,
          "sy": 4,
          "depth": 8
        },
        {
          "w": {
            "0": -0.05910722614659891,
            "1": 0.09834033198313996,
            "2": 0.08218972992882509,
            "3": 0.06783431084306264,
            "4": -0.038172811628430156,
            "5": -0.10431073771406817,
            "6": -0.10265824766340306,
            "7": 0.09875505249269619,
            "8": 0.02515622855935701,
            "9": -0.11983602609813555,
            "10": 0.13842772756124025,
            "11": -0.007901555469569011,
            "12": 0.007718684076604738,
            "13": 0.0634424464026424,
            "14": 0.0245404613151028,
            "15": -0.07533278378946014,
            "16": 0.08258945707498681,
            "17": -0.14320695569296638,
            "18": 0.026172791358707995,
            "19": 0.038242214964429,
            "20": 0.1452092609666811,
            "21": 0.11112175470733758,
            "22": 0.08331765813520155,
            "23": -0.10368053223726015,
            "24": 0.11523542372785471,
            "25": -0.03947507572389798,
            "26": 0.12441186350285995,
            "27": -0.06864072127711951,
            "28": -0.08944030726317329,
            "29": 0.015901849093780025,
            "30": -0.027982322976483436,
            "31": -0.04329148528286382,
            "32": 0.10854883764961258,
            "33": 0.14755972794221614,
            "34": 0.09205856810738455,
            "35": -0.21343124023595836,
            "36": -0.11644167803748216,
            "37": -0.019814304250507845,
            "38": 0.0356359098334806,
            "39": -0.12282166455900237,
            "40": 0.05426963689642516,
            "41": -0.03133159443435605,
            "42": 0.023800874494750657,
            "43": -0.20142603826783884,
            "44": -0.06411790474556468,
            "45": 0.0423842286496534,
            "46": -0.056162124881499784,
            "47": -0.08090445981793155,
            "48": 0.03027026651284303,
            "49": -0.16276361183537075,
            "50": -0.12767970145312668,
            "51": -0.07655516766442322,
            "52": 0.08177117564631861,
            "53": 0.0006342070971145856,
            "54": -0.04649601272842945,
            "55": 0.002504634526663027,
            "56": 0.02421068924971322,
            "57": 0.03730874663274437,
            "58": 0.007119418973441043,
            "59": 0.002321499055062414,
            "60": 0.02159142495381844,
            "61": -0.14288771318465857,
            "62": -0.04900216913347449,
            "63": -0.08744401141967743,
            "64": -0.07382604245192897,
            "65": 0.01751215783744407,
            "66": 0.0183910186938137,
            "67": -0.0157429244310598,
            "68": -0.050808606359213554,
            "69": -0.02208694806271955,
            "70": -0.18072025354142043,
            "71": 0.17805421433047486,
            "72": 0.03584300276458117,
            "73": -0.04250465301079148,
            "74": 0.10031842711309195,
            "75": 0.005843989958862223,
            "76": 0.04315682274294534,
            "77": 0.012559853276298378,
            "78": -0.05325934228984881,
            "79": -0.04586952087646942,
            "80": -0.13736971915947038,
            "81": -0.15322169512163378,
            "82": 0.13993870811990544,
            "83": -0.024167483512587656,
            "84": -0.011146935311923924,
            "85": 0.014465613977765267,
            "86": -0.12431834958012938,
            "87": -0.05609717181803934,
            "88": 0.05426636833188097,
            "89": -0.09402066675935718,
            "90": 0.07523058857184241,
            "91": -0.043574919535574755,
            "92": 0.1390473066573304,
            "93": 0.053311355362111984,
            "94": 0.016331294938100285,
            "95": 0.10268094680385496,
            "96": 0.13678092467842493,
            "97": 0.09695501794924224,
            "98": -0.06980376880756553,
            "99": 0.017729405639155392,
            "100": 0.058473540210457586,
            "101": 0.010698924486264857,
            "102": 0.10302938066663986,
            "103": -0.18315121116449573,
            "104": -0.16354120284804124,
            "105": 0.01641738912717175,
            "106": -0.09551522742794043,
            "107": 0.12084599678077289,
            "108": -0.08047945694402493,
            "109": -0.09825505654157059,
            "110": -0.07082863523194693,
            "111": 0.04357420158472325,
            "112": -0.04226023217283226,
            "113": 0.10644799858827036,
            "114": 0.08060305407369862,
            "115": -0.006349294647188519,
            "116": -0.07937757274986784,
            "117": 0.08003552312215871,
            "118": 0.10597244453380156,
            "119": -0.04396172708803967,
            "120": 0.11643350638608191,
            "121": 0.005350065313224133,
            "122": -0.0034362079756765514,
            "123": 0.013170595353979204,
            "124": 0.007348885092016169,
            "125": 0.010488388666043178,
            "126": -0.2253895975878502,
            "127": -0.036338000501635305
          },
          "sx": 4,
          "sy": 4,
          "depth": 8
        },
        {
          "w": {
            "0": -0.16937243811895508,
            "1": 0.07192937158910068,
            "2": -0.13831374087882004,
            "3": 0.0017404660348044304,
            "4": -0.00038464159517577105,
            "5": -0.05112978986201934,
            "6": -0.02508066179261711,
            "7": 0.07366116367573987,
            "8": -0.04675395691263365,
            "9": 0.024183897038744986,
            "10": 0.15793560436115356,
            "11": 0.03689684514262557,
            "12": -0.11090524380028449,
            "13": -0.004911815711049443,
            "14": 0.14957527298348666,
            "15": -0.057835735139368585,
            "16": -0.04468252796546897,
            "17": -0.012387158157315803,
            "18": 0.1368886608765582,
            "19": 0.21206001039636305,
            "20": -0.03791716223841234,
            "21": -0.1399629131482952,
            "22": -0.04481449662537518,
            "23": 0.04871888008526135,
            "24": -0.030220710127992816,
            "25": 0.09947290148726935,
            "26": 0.06507067072584798,
            "27": 0.10583342169808715,
            "28": 0.037260633682524746,
            "29": -0.06031579868055753,
            "30": 0.06749486525974639,
            "31": -0.1419449036251416,
            "32": -0.002228319769102328,
            "33": -0.014525798277461375,
            "34": 0.2299642974335667,
            "35": 0.06732530218389404,
            "36": -0.029978321002307087,
            "37": 0.024990834006860432,
            "38": -0.04740212708765806,
            "39": -0.08536377060338077,
            "40": 0.0004891567207424309,
            "41": 0.008785620428257236,
            "42": 0.08128455757414418,
            "43": 0.11128658130100212,
            "44": 0.10455256200373496,
            "45": -0.04547534314304479,
            "46": -0.10774799515036396,
            "47": 0.09038970438870257,
            "48": 0.0912900761712915,
            "49": 0.08808035772280276,
            "50": -0.04406573015870492,
            "51": -0.11647793852506036,
            "52": 0.13776355526934778,
            "53": -0.19161136282379773,
            "54": -0.0531228055734161,
            "55": 0.10738250169149666,
            "56": 0.053733427094172656,
            "57": 0.020755384494338988,
            "58": 0.23203644070563736,
            "59": 0.010606463934034673,
            "60": -0.19658248934950825,
            "61": 0.005119878111755142,
            "62": 0.04704020754969383,
            "63": -0.1244985428691075,
            "64": -0.01921214273438469,
            "65": -0.09984755116567479,
            "66": -0.00030238172931101924,
            "67": -0.018809250188473223,
            "68": -0.14386697781907884,
            "69": 0.0443542691749964,
            "70": 0.057457772231153066,
            "71": 0.023300689144050316,
            "72": 0.04676739257670802,
            "73": -0.2548853745603237,
            "74": -0.0017627812967138297,
            "75": 0.08316478062181232,
            "76": -0.08065055114407914,
            "77": -0.08476404019722972,
            "78": -0.19258942190453426,
            "79": -0.06682828675205253,
            "80": 0.10745530216166908,
            "81": -0.06637044954201218,
            "82": -0.09939002471070359,
            "83": 0.06825158189256934,
            "84": 0.06417713861967349,
            "85": -0.10439928044326358,
            "86": -0.035744635290786364,
            "87": 0.003392937311750957,
            "88": 0.027679431368791692,
            "89": 0.12384240817540533,
            "90": -0.02587117975968081,
            "91": 0.08633282346210511,
            "92": 0.041163741401803663,
            "93": -0.09134006824534617,
            "94": 0.11833468505885734,
            "95": 0.08673686634911908,
            "96": -0.09865463476494556,
            "97": 0.018683761957415283,
            "98": -0.21520063720211158,
            "99": 0.01660650918463566,
            "100": -0.059253357307642335,
            "101": 0.12142795573018735,
            "102": -0.03229788876541336,
            "103": -0.04770742187007803,
            "104": 0.06120870693048778,
            "105": -0.16620938778077896,
            "106": 0.04340295338845893,
            "107": 0.03427007120587339,
            "108": 0.06014616494484263,
            "109": 0.011994160234738918,
            "110": -0.12637312842681966,
            "111": -0.07027644831215463,
            "112": 0.05665063253522842,
            "113": -0.06347021970598524,
            "114": 0.07387477380868733,
            "115": 0.1586267466656924,
            "116": -0.03267051146041226,
            "117": -0.10426322978790019,
            "118": -0.12277038874914031,
            "119": 0.13704179135637629,
            "120": 0.04035860361498039,
            "121": 0.03581286564667319,
            "122": 0.30665222496696437,
            "123": 0.010473668162282639,
            "124": 0.03510598017962246,
            "125": -0.09286034241823475,
            "126": -0.007250648477453896,
            "127": 0.13856400009675282
          },
          "sx": 4,
          "sy": 4,
          "depth": 8
        },
        {
          "w": {
            "0": 0.06949229291557275,
            "1": -0.01336973829804733,
            "2": 0.014314052976892063,
            "3": 0.034012905467620334,
            "4": 0.10837612468923762,
            "5": 0.1963623166533398,
            "6": 0.0739231547569958,
            "7": -0.03152224567116019,
            "8": 0.2692845300753536,
            "9": -0.11493201406856832,
            "10": 0.12693362641070674,
            "11": -0.11607318382578505,
            "12": -0.16433206541448206,
            "13": 0.20857054987254384,
            "14": -0.06449122592158263,
            "15": -0.1392234748869122,
            "16": 0.0934925840794904,
            "17": -0.0035661096158211072,
            "18": 0.2914867792707437,
            "19": 0.01305512015030489,
            "20": 0.0860889814804157,
            "21": 0.07825410670565844,
            "22": -0.023842254099969328,
            "23": -0.1374284642644875,
            "24": 0.13892228824219852,
            "25": -0.030534845176521816,
            "26": -0.1526063412733225,
            "27": 0.0336697717441895,
            "28": -0.08636481862577775,
            "29": -0.10720029405386652,
            "30": 0.0878251549999878,
            "31": -0.012432801146124349,
            "32": 0.23530883596621097,
            "33": 0.005355781038435298,
            "34": 0.07022665804005558,
            "35": -0.0063380478751402574,
            "36": 0.05326650200234461,
            "37": 0.008941416840803627,
            "38": 0.027493098213208448,
            "39": 0.024124636918765322,
            "40": 0.16401029486037416,
            "41": 0.013197180888301284,
            "42": 0.2492456417182065,
            "43": -0.15275776434683297,
            "44": 0.08245311995876563,
            "45": -0.054909162274147265,
            "46": 0.03724934101501443,
            "47": 0.015564989811170266,
            "48": 0.2003824182810013,
            "49": 0.02507847917164486,
            "50": 0.19335473298497832,
            "51": -0.0036100102173888906,
            "52": 0.041890307374995966,
            "53": -0.08695108717870413,
            "54": -0.194041772324203,
            "55": -0.026765361712051572,
            "56": 0.0953252870638013,
            "57": -0.06387838432631886,
            "58": 0.04257985097806011,
            "59": -0.04973501432682947,
            "60": 0.011739657979857458,
            "61": -0.01878370335350275,
            "62": -0.13461447422414313,
            "63": 0.13046219802487208,
            "64": 0.12691510295910036,
            "65": 0.020013737229535644,
            "66": 0.007668036994862737,
            "67": -0.043031972763999,
            "68": -0.14317173491759372,
            "69": -0.11391335246596931,
            "70": 0.03395331089443712,
            "71": 0.00017167073652344563,
            "72": 0.051372553547857955,
            "73": -0.026855953667175324,
            "74": -0.07423575610444226,
            "75": -0.0750569538606063,
            "76": 0.08660418516557228,
            "77": -0.11036852562438497,
            "78": 0.01605122813800245,
            "79": 0.12388830418374477,
            "80": 0.17742467729685135,
            "81": -0.12325843965745989,
            "82": 0.08545127580143651,
            "83": -0.00470752339266827,
            "84": -0.14893130556427375,
            "85": -0.08285688056176305,
            "86": -0.11906803627908047,
            "87": -0.01039365773939431,
            "88": 0.16849784309239188,
            "89": -0.01410729930684272,
            "90": 0.09825240319238293,
            "91": -0.06952763733511749,
            "92": 0.01656786569143781,
            "93": -0.0319318159625234,
            "94": -0.020296991003327002,
            "95": -0.04525265367562679,
            "96": 0.22855679219262004,
            "97": 0.03809553343402874,
            "98": 0.012496446591766552,
            "99": -0.15179527125636064,
            "100": 0.0747876805813959,
            "101": 0.053621953734527335,
            "102": 0.1091687657475558,
            "103": -0.15873332126827389,
            "104": 0.19066648771564995,
            "105": 0.014478765591002736,
            "106": 0.20397516167200735,
            "107": -0.01097665997681802,
            "108": 0.027527521617782602,
            "109": 0.025249369049979216,
            "110": -0.015136404753576973,
            "111": 0.006494588922604728,
            "112": -0.003867427614987074,
            "113": -0.025789976556167393,
            "114": 0.1916067475982274,
            "115": 0.036571760233899825,
            "116": 0.3835952750514154,
            "117": -0.017060730066199303,
            "118": 0.10464598411178387,
            "119": 0.1034517539790285,
            "120": 0.10034020226091685,
            "121": 0.041864070001027216,
            "122": 0.15033998147139738,
            "123": 0.09763361124906741,
            "124": 0.08841859634730614,
            "125": -0.05330299516442243,
            "126": 0.02921670369889464,
            "127": -0.09989328333048073
          },
          "sx": 4,
          "sy": 4,
          "depth": 8
        },
        {
          "w": {
            "0": 0.13018232792425286,
            "1": 0.06842210137394332,
            "2": -0.014042463954106027,
            "3": -0.04207198014511706,
            "4": 0.10187528804640995,
            "5": 0.07327060896284893,
            "6": -0.012563240988672892,
            "7": 0.07505280218282662,
            "8": 0.13921269068036388,
            "9": -0.03606128761482272,
            "10": 0.17989341666217362,
            "11": -0.1462425682526935,
            "12": -0.08999805242375881,
            "13": 0.0025630651473844165,
            "14": 0.05090186720596468,
            "15": -0.032022313678975706,
            "16": -0.05204294010032922,
            "17": 0.09483662226493202,
            "18": -0.028560311146810992,
            "19": 0.13389829480242754,
            "20": -0.0424717377205242,
            "21": -0.0008687886680475285,
            "22": -0.0249798454060836,
            "23": 0.015325432676885669,
            "24": 0.012906011790943054,
            "25": -0.017454121234988754,
            "26": 0.1665269972103454,
            "27": 0.015754486628453915,
            "28": -0.11343106658243438,
            "29": 0.0039970623663943715,
            "30": -0.15443170498987185,
            "31": -0.052979729448587025,
            "32": 0.21799821939561667,
            "33": 0.049866371710915854,
            "34": 0.004087372320074837,
            "35": -0.012356178831953146,
            "36": 0.10756450752820527,
            "37": -0.026331704476948613,
            "38": -0.008477259942028968,
            "39": 0.06345807269782486,
            "40": 0.17227571115359358,
            "41": -0.04791193141773498,
            "42": 0.012193955755181552,
            "43": -0.008705469227051435,
            "44": -0.030686125953378916,
            "45": 0.16305818985442094,
            "46": -0.0012560642629092492,
            "47": -0.10954678347222067,
            "48": 0.15614284387167537,
            "49": -0.05509560799105172,
            "50": 0.09345244868125045,
            "51": 0.17899497809589798,
            "52": -0.08867231593888404,
            "53": 0.09080322739636655,
            "54": 0.012350962205927947,
            "55": 0.04339982662674418,
            "56": -0.013478646897514112,
            "57": -0.06857532179361327,
            "58": -0.017442942483987083,
            "59": 0.04761071457084017,
            "60": 0.050768115749974314,
            "61": 0.006703813804678975,
            "62": -0.0867544584818784,
            "63": -0.026661520414953784,
            "64": 0.1649114242350058,
            "65": -0.008206003972371903,
            "66": 0.14090181292068463,
            "67": -0.10446739783201238,
            "68": 0.09717454453535777,
            "69": -0.19332819446979313,
            "70": 0.1973855183093994,
            "71": 0.13848512086675246,
            "72": 0.06838540547431014,
            "73": 0.016271558621857193,
            "74": 0.12674488906376571,
            "75": 0.10089650681200944,
            "76": 0.010296441365104885,
            "77": 0.1363076955555933,
            "78": -0.036169119192342496,
            "79": 0.024350629994175962,
            "80": 0.03238127652534857,
            "81": -0.10512184140794259,
            "82": -0.000024493523211689395,
            "83": -0.06633258196103382,
            "84": 0.0678620713149056,
            "85": -0.20386397024796457,
            "86": 0.013753637252367468,
            "87": 0.04912203022288508,
            "88": -0.05556834040494413,
            "89": 0.0657900155606655,
            "90": -0.014913777754158789,
            "91": -0.019430776236227815,
            "92": -0.03569849524843016,
            "93": 0.08270540544868465,
            "94": 0.07286113809472874,
            "95": -0.08048716414884854,
            "96": -0.14528830154458822,
            "97": -0.03745070741752314,
            "98": -0.003265995736760437,
            "99": 0.012672686041724375,
            "100": 0.06243335736613035,
            "101": -0.03339176020116983,
            "102": 0.11430701349584987,
            "103": 0.07346572442009171,
            "104": 0.046179202154210765,
            "105": -0.000030469631587245047,
            "106": 0.11376860434033291,
            "107": 0.027595909873324314,
            "108": 0.03606065864257637,
            "109": -0.06113319011715168,
            "110": -0.07793430217521058,
            "111": -0.04983673221169635,
            "112": 0.2071745544995361,
            "113": 0.12992997396532888,
            "114": 0.07210914453347131,
            "115": 0.11383982943043103,
            "116": -0.05261444771448274,
            "117": 0.16558980552794803,
            "118": -0.07642797130810358,
            "119": -0.06036818615656774,
            "120": -0.09183719892367714,
            "121": 0.02495584861010298,
            "122": 0.014818069705836467,
            "123": 0.01979642023338906,
            "124": -0.11470940410748971,
            "125": 0.07577034571600348,
            "126": -0.024921088442866432,
            "127": 0.09852223151742492
          },
          "sx": 4,
          "sy": 4,
          "depth": 8
        },
        {
          "w": {
            "0": 0.31389647637064627,
            "1": -0.1311636724790243,
            "2": 0.11018923638788278,
            "3": -0.012684946446105991,
            "4": 0.01974195129064488,
            "5": 0.10563269601735639,
            "6": -0.03947993076444612,
            "7": -0.020132009580777308,
            "8": 0.17288311433872014,
            "9": 0.11116471683192246,
            "10": -0.06448949246833392,
            "11": 0.16495458235399582,
            "12": 0.06160323646791685,
            "13": -0.025295015744525803,
            "14": 0.2442801795721054,
            "15": -0.037221174653819994,
            "16": -0.2583633873749687,
            "17": -0.04040926719708154,
            "18": 0.021505718936906726,
            "19": -0.05191379092712533,
            "20": -0.028940426133828166,
            "21": 0.057580886752670764,
            "22": -0.09589423651275863,
            "23": -0.02110449075744526,
            "24": -0.10639171138231507,
            "25": 0.16472504069802513,
            "26": -0.07022306874714064,
            "27": -0.05904985303590475,
            "28": -0.0005849600966959407,
            "29": -0.1140991026893833,
            "30": -0.008695154847050716,
            "31": -0.025323004470034497,
            "32": 0.17753505655085605,
            "33": 0.0028853401663762705,
            "34": 0.08097629884925553,
            "35": -0.11906170739225,
            "36": 0.05483201748273461,
            "37": -0.011540377104837771,
            "38": -0.07104879106314362,
            "39": 0.044028472127265544,
            "40": 0.14571512212139387,
            "41": -0.00811139939986179,
            "42": -0.10680890684352158,
            "43": 0.10395799722855427,
            "44": -0.08004135710157977,
            "45": -0.11830548909385778,
            "46": -0.0003089794384621643,
            "47": -0.0501171908567836,
            "48": -0.02268771931137238,
            "49": -0.03971356544314006,
            "50": 0.1366926454018204,
            "51": -0.20618306175816398,
            "52": -0.0794169635477651,
            "53": -0.07292642143447174,
            "54": -0.031035510650795916,
            "55": 0.047310491264721415,
            "56": -0.16562165708492768,
            "57": -0.01693741905217607,
            "58": -0.0891207646538037,
            "59": 0.0022026761165282265,
            "60": 0.0322377251104779,
            "61": -0.044563897384663397,
            "62": 0.05339156091843439,
            "63": 0.010494893988072095,
            "64": 0.16062312739143042,
            "65": -0.11178945228243639,
            "66": 0.05375189386584353,
            "67": -0.026835906346975524,
            "68": 0.1006536191703402,
            "69": 0.03909564653908646,
            "70": 0.0014731605764947116,
            "71": 0.1310008254071794,
            "72": 0.22752472158855547,
            "73": 0.038419967332904884,
            "74": -0.010524283855616446,
            "75": 0.15042312496492552,
            "76": 0.05674409214767732,
            "77": 0.13246892541854335,
            "78": -0.06515088929556642,
            "79": -0.0365715195173813,
            "80": 0.05213077908987963,
            "81": -0.05685363536770959,
            "82": -0.009702007888850601,
            "83": 0.06111694755725107,
            "84": 0.05708648616707226,
            "85": 0.05236155414645705,
            "86": 0.12384717156022028,
            "87": -0.034108752041947125,
            "88": 0.11028184625246035,
            "89": -0.04302533953958696,
            "90": -0.14514392034434984,
            "91": -0.02288506992951045,
            "92": -0.016577087919612994,
            "93": -0.10168737958315244,
            "94": 0.11668101205506676,
            "95": -0.09182570624118137,
            "96": 0.041513061179691495,
            "97": -0.02357092309218311,
            "98": 0.20822950137528842,
            "99": -0.14389045755254312,
            "100": 0.11718420735629116,
            "101": -0.06145352259923406,
            "102": -0.02821294314859552,
            "103": -0.08923416507186865,
            "104": 0.12767446710254235,
            "105": -0.16190901001867158,
            "106": 0.1341677666493614,
            "107": 0.12410177406658882,
            "108": 0.10008911422226877,
            "109": 0.015463014256900089,
            "110": -0.09098486403498192,
            "111": 0.10131172775524551,
            "112": -0.13503162155772433,
            "113": 0.11631551370138238,
            "114": 0.13329462250852292,
            "115": 0.07442454156864672,
            "116": 0.06548358002068931,
            "117": 0.14163043574144235,
            "118": -0.02140250491974044,
            "119": 0.050849588295856764,
            "120": -0.04207609217928251,
            "121": 0.07706766479740496,
            "122": 0.015698432291686243,
            "123": 0.08681918963012823,
            "124": -0.14312588046188573,
            "125": 0.008520083731064982,
            "126": 0.014783803421257314,
            "127": 0.05955613547432494
          },
          "sx": 4,
          "sy": 4,
          "depth": 8
        },
        {
          "w": {
            "0": 0.050007035399413736,
            "1": -0.15801006419751468,
            "2": 0.1778882006655638,
            "3": -0.12842789170194838,
            "4": 0.026931187232546727,
            "5": 0.057946250520434915,
            "6": -0.06284172910788402,
            "7": 0.018721926248406028,
            "8": -0.008991751974695922,
            "9": 0.04370500063584346,
            "10": -0.00753717636033547,
            "11": -0.030621429123103616,
            "12": 0.060225361889351035,
            "13": -0.046745595704627455,
            "14": 0.19832592043305414,
            "15": -0.026174453401171093,
            "16": 0.0599012758434866,
            "17": 0.09971344032274386,
            "18": -0.041789581103918776,
            "19": 0.057312298960222594,
            "20": 0.060089224160938315,
            "21": 0.13404232758203055,
            "22": 0.027727472497184772,
            "23": -0.09503844326957564,
            "24": -0.248170790320993,
            "25": 0.01652178011229578,
            "26": 0.08832619996896882,
            "27": -0.0615345008830823,
            "28": -0.13522004370840596,
            "29": -0.04805609377124329,
            "30": 0.059964375444867976,
            "31": 0.1473970386536473,
            "32": 0.0811036245289215,
            "33": 0.037111628968899725,
            "34": 0.09776216586413117,
            "35": 0.01892231144307055,
            "36": 0.09036024639420358,
            "37": 0.08688683255452662,
            "38": 0.04555121454281736,
            "39": 0.1651832297670036,
            "40": 0.0899521124782299,
            "41": -0.11204972095451542,
            "42": -0.015530820382865004,
            "43": 0.06626019197943561,
            "44": 0.004398963957095114,
            "45": 0.023218752468333277,
            "46": 0.06765521183692468,
            "47": -0.00015398427168206397,
            "48": -0.060753270324736375,
            "49": -0.0036027745915902377,
            "50": -0.10651575205931747,
            "51": -0.05957225257089049,
            "52": -0.03717720830973946,
            "53": 0.08599706589772786,
            "54": -0.1121761654149221,
            "55": 0.10225129284771604,
            "56": 0.04141295191460077,
            "57": 0.24561186871453244,
            "58": -0.12854913305378834,
            "59": 0.05879693526422259,
            "60": 0.14225044828101818,
            "61": 0.02870585347303117,
            "62": -0.1653828081444639,
            "63": 0.039146435644255795,
            "64": -0.03222053760546478,
            "65": -0.0067389229742703715,
            "66": -0.0711076743279537,
            "67": -0.10073488507466576,
            "68": 0.23159984591284924,
            "69": -0.11920041961569891,
            "70": 0.11327139565316233,
            "71": -0.06199505087145386,
            "72": -0.13409120647345504,
            "73": 0.009806957376422074,
            "74": 0.02582370675723728,
            "75": -0.030626496191697317,
            "76": -0.043586972436149514,
            "77": -0.14116270188808192,
            "78": 0.017626360803115776,
            "79": 0.1392896817857623,
            "80": -0.01550359431320565,
            "81": 0.06922726377420312,
            "82": -0.09046487491586859,
            "83": 0.070345006387311,
            "84": 0.06835627253621115,
            "85": 0.06378778571938844,
            "86": 0.13699382040018654,
            "87": 0.002776442199819385,
            "88": 0.11419455800444171,
            "89": -0.005092321980303117,
            "90": -0.22465980444269107,
            "91": -0.05888752000476878,
            "92": 0.027017193979186612,
            "93": 0.09617608155401212,
            "94": -0.09930916340219302,
            "95": -0.06357201402008182,
            "96": 0.1289256285590256,
            "97": 0.3276748225814079,
            "98": 0.12525649587543522,
            "99": -0.025074035038062825,
            "100": 0.02825144381892894,
            "101": 0.0147601750652679,
            "102": -0.13944812244529523,
            "103": -0.11191001530168691,
            "104": -0.0046815756836258325,
            "105": 0.025166442769069014,
            "106": 0.14891760811644222,
            "107": 0.031871808764311,
            "108": -0.062015095340752543,
            "109": -0.00834919662602739,
            "110": -0.07295947866532226,
            "111": -0.05164744718580993,
            "112": 0.12570209931069012,
            "113": -0.03188640835681524,
            "114": -0.026314004332826532,
            "115": 0.011220949840163204,
            "116": 0.0425655801968527,
            "117": -0.030786303288796484,
            "118": -0.06104478337443366,
            "119": 0.060399633681057836,
            "120": -0.1347387519998945,
            "121": 0.06367924548391007,
            "122": 0.07401641760456476,
            "123": -0.05202741226370344,
            "124": -0.08243269300832132,
            "125": 0.06589116199905229,
            "126": -0.08324440796570826,
            "127": -0.10390515532441044
          },
          "sx": 4,
          "sy": 4,
          "depth": 8
        }
      ],
      "in_depth": 8,
      "out_depth": 16,
      "layer_type": "conv",
      "l1_decay_mul": 0,
      "l2_decay_mul": 1
    },
    {
      "out_sx": 13,
      "out_sy": 13,
      "out_depth": 16,
      "layer_type": "relu"
    },
    {
      "sx": 2,
      "sy": 2,
      "pad": 0,
      "out_sx": 6,
      "out_sy": 6,
      "stride": 2,
      "in_depth": 16,
      "out_depth": 16,
      "layer_type": "pool"
    },
    {
      "sx": 3,
      "sy": 3,
      "pad": 1,
      "biases": {
        "w": {
          "0": 0.07434656256594084,
          "1": 0.10141170693877191,
          "2": 0.12320520713511687,
          "3": 0.10613797871113675,
          "4": 0.09487721127909891,
          "5": 0.1136815219365286,
          "6": 0.11724511360432806,
          "7": 0.09834360736482727,
          "8": 0.06094975616225355,
          "9": 0.07006367093726068,
          "10": 0.09777760626431403,
          "11": 0.0960475023450063,
          "12": 0.09652241566785073,
          "13": 0.11578777930807399,
          "14": 0.13470307953493338,
          "15": 0.11929227343669159
        },
        "sx": 1,
        "sy": 1,
        "depth": 16
      },
      "out_sx": 6,
      "out_sy": 6,
      "stride": 1,
      "filters": [
        {
          "w": {
            "0": 0.17269142596591422,
            "1": -0.10980260022282694,
            "2": 0.16219916389301167,
            "3": 0.06987875055711064,
            "4": -0.0004054878585544807,
            "5": 0.03125331661017372,
            "6": -0.11637757642337024,
            "7": 0.14651073400942516,
            "8": 0.15911957497964682,
            "9": 0.008427924889731216,
            "10": -0.07154173088979866,
            "11": -0.01868312919910828,
            "12": 0.047354330733593436,
            "13": -0.08940450698930785,
            "14": -0.08848322945321817,
            "15": 0.1339883780876197,
            "16": 0.018181316397262785,
            "17": 0.07305147161084771,
            "18": -0.061192766232002524,
            "19": 0.06656828166965026,
            "20": 0.012184574778316946,
            "21": 0.06688660153691657,
            "22": 0.11039805334968632,
            "23": -0.061485259757767446,
            "24": 0.09287889147775293,
            "25": 0.06916498353988565,
            "26": 0.16021837630689184,
            "27": 0.061024504208471525,
            "28": -0.05721218139208777,
            "29": -0.16071107569102341,
            "30": 0.033659824321756626,
            "31": -0.01945927290764588,
            "32": -0.05244755063291325,
            "33": 0.0833868421623001,
            "34": 0.015306228985860357,
            "35": -0.02521123172982445,
            "36": 0.0020865245463468564,
            "37": -0.007289030612372226,
            "38": -0.0008077154717185841,
            "39": -0.1335773285340071,
            "40": -0.11862178793508943,
            "41": -0.0369623144714371,
            "42": -0.12333677590432833,
            "43": -0.06294238507744576,
            "44": -0.0025412375474576426,
            "45": -0.00261151998444124,
            "46": 0.0003592591833880037,
            "47": -0.11066359653034069,
            "48": 0.07560549585670429,
            "49": -0.10403926199417639,
            "50": -0.036823768057766854,
            "51": -0.03750019948336176,
            "52": -0.0007646773263004054,
            "53": -0.08414786302579642,
            "54": -0.0027669423918377524,
            "55": -0.08350693248773461,
            "56": 0.18623545898167915,
            "57": 0.13884114739991393,
            "58": 0.01961532458304215,
            "59": -0.06830133393417039,
            "60": 0.1264762369659241,
            "61": -0.0865086291141206,
            "62": 0.008239075467594432,
            "63": -0.08656344576617238,
            "64": 0.16066620612199928,
            "65": 0.025947983843079704,
            "66": -0.07748592885234544,
            "67": -0.07532372662800912,
            "68": 0.0670051544361538,
            "69": 0.03416975316435298,
            "70": -0.03127843143545226,
            "71": 0.005355751056762915,
            "72": -0.013950140820922823,
            "73": 0.09635319177506725,
            "74": 0.03985845286821789,
            "75": 0.050903151389903104,
            "76": 0.12799498599016754,
            "77": -0.004047253571876214,
            "78": -0.11713875599739818,
            "79": -0.0647099252354631,
            "80": 0.014738694667308294,
            "81": 0.02108698688371999,
            "82": -0.0007311289314053758,
            "83": 0.0784425645414807,
            "84": -0.013510494442449613,
            "85": 0.004387290838614736,
            "86": 0.07110227604682096,
            "87": 0.07500244235277394,
            "88": 0.021128526266557847,
            "89": 0.011365756895748329,
            "90": 0.05912730286976744,
            "91": -0.07222089848077702,
            "92": 0.0838210923347714,
            "93": 0.08886038732642282,
            "94": 0.060159262536477805,
            "95": 0.07898162455759852,
            "96": 0.0320883630369401,
            "97": 0.16316975069373865,
            "98": -0.11827316003223978,
            "99": 0.14105561431281866,
            "100": 0.10217734947693777,
            "101": -0.04549929782908432,
            "102": 0.052548302243143684,
            "103": -0.06230976351149764,
            "104": -0.1418045189561481,
            "105": -0.061633434404478,
            "106": -0.03876895587886767,
            "107": -0.0683095904342288,
            "108": 0.07048902168160714,
            "109": 0.06424095762487231,
            "110": -0.0340675133889314,
            "111": -0.026518389425524067,
            "112": 0.1410792170643044,
            "113": 0.023808307700035173,
            "114": -0.07155407938759145,
            "115": 0.15364164855304435,
            "116": 0.027831918393569546,
            "117": 0.06958240979874969,
            "118": 0.0397929454081531,
            "119": -0.02800558110272365,
            "120": 0.1456771252415823,
            "121": 0.03227351764408651,
            "122": -0.1128558229281119,
            "123": -0.07592970747439792,
            "124": 0.026967493837991047,
            "125": -0.02328711644038084,
            "126": 0.07015761273607943,
            "127": 0.05885366090400699,
            "128": 0.047040643808298074,
            "129": 0.04451883459597325,
            "130": 0.03675444574647758,
            "131": -0.010589920861306182,
            "132": 0.07326518703631081,
            "133": -0.006587423230520968,
            "134": 0.25280163689876284,
            "135": -0.12380945235175692,
            "136": 0.06961431406129456,
            "137": 0.12075399380014896,
            "138": 0.05925117445819171,
            "139": -0.01605334567561131,
            "140": 0.10116704882793445,
            "141": 0.2429554664031934,
            "142": 0.16024609753873856,
            "143": 0.08130083154504425
          },
          "sx": 3,
          "sy": 3,
          "depth": 16
        },
        {
          "w": {
            "0": 0.029455658302104983,
            "1": -0.05144080986668997,
            "2": 0.023382958646077066,
            "3": -0.002162599478757843,
            "4": -0.06273926586669965,
            "5": -0.07597460558739223,
            "6": 0.0012283272232557006,
            "7": -0.026148402988117436,
            "8": 0.14939786691531984,
            "9": -0.019208113581847736,
            "10": 0.045157946705664795,
            "11": 0.01964882751165641,
            "12": 0.04246542910180849,
            "13": -0.1799518907039326,
            "14": 0.17051748880575934,
            "15": -0.0006274306752990141,
            "16": 0.07614331556222365,
            "17": 0.215222540169474,
            "18": 0.03253396669265657,
            "19": 0.014600320799078333,
            "20": -0.013553087685902812,
            "21": 0.1965652758535824,
            "22": 0.11607062676555145,
            "23": -0.020531461433199612,
            "24": -0.03979353707485644,
            "25": 0.08211527888194696,
            "26": -0.027964036533119237,
            "27": -0.07343675455792922,
            "28": 0.17942368917193224,
            "29": 0.00726173146626261,
            "30": 0.04618495327007864,
            "31": -0.03823492192271787,
            "32": -0.003073773500400289,
            "33": -0.057608601110743334,
            "34": -0.04116982104246391,
            "35": -0.09258814542607399,
            "36": -0.05842273285961447,
            "37": -0.034528068451038084,
            "38": -0.05059737988417256,
            "39": 0.07686251524955269,
            "40": 0.014936043335724125,
            "41": -0.04825900030634975,
            "42": -0.10001706583421115,
            "43": -0.07112717619656378,
            "44": -0.0339210705120067,
            "45": 0.10018077743417658,
            "46": 0.03085963344132878,
            "47": -0.04584807759476265,
            "48": 0.012346084529216393,
            "49": 0.016890350599747524,
            "50": 0.1021670133676579,
            "51": 0.02291276557344595,
            "52": -0.1593671204483145,
            "53": 0.02725070719205481,
            "54": 0.1096988199981196,
            "55": 0.16088495957020432,
            "56": 0.11017561286646639,
            "57": -0.07825685390124129,
            "58": 0.01655359685283912,
            "59": 0.10058952433141827,
            "60": 0.1744670985806809,
            "61": 0.1262949503053195,
            "62": 0.08416610609578898,
            "63": 0.1454787980388983,
            "64": 0.020844853122017667,
            "65": 0.1416498929526194,
            "66": -0.04432769421188098,
            "67": -0.016323397921196133,
            "68": -0.02021503602235292,
            "69": -0.10009456598805734,
            "70": 0.14512748443053677,
            "71": 0.13497580799568804,
            "72": 0.0018446433707176991,
            "73": -0.058720163947272044,
            "74": 0.07715264798273938,
            "75": 0.06413127987285196,
            "76": 0.07929714785183539,
            "77": 0.05875537042640989,
            "78": 0.11122844726837577,
            "79": 0.004931627182650438,
            "80": -0.07794085304223855,
            "81": 0.06687629092570628,
            "82": 0.1030007340958917,
            "83": -0.2242111030635077,
            "84": -0.05772286415685011,
            "85": 0.027309788733700668,
            "86": -0.035658005075963985,
            "87": 0.062374465065997496,
            "88": 0.0022343773743230323,
            "89": -0.09149512276947314,
            "90": -0.054972215251141085,
            "91": -0.12086200635532839,
            "92": -0.02974123333842861,
            "93": -0.0867056179382088,
            "94": 0.13273999374644788,
            "95": -0.0002556572678915657,
            "96": 0.1450979747829659,
            "97": -0.1366424580006792,
            "98": 0.07551655128925813,
            "99": -0.08002877149658821,
            "100": 0.17113192596071972,
            "101": -0.02736747604823257,
            "102": -0.08839881278516899,
