{"layers": [{"out_sx": 24, "out_sy": 24, "out_depth": 1, "layer_type": "input"}, {"sx": 5, "sy": 5, "pad": 2, "biases": {"w": {"0": 0.1510265858462041, "1": 0.048469478039576, "2": 0.03922353335077999, "3": -0.22761543610949764, "4": -0.14927120543679037, "5": 0.4183724033154092, "6": -0.06651500032910375, "7": -0.051451252752823515}, "sx": 1, "sy": 1, "depth": 8}, "out_sx": 24, "out_sy": 24, "stride": 1, "filters": [{"w": {"0": 0.2396653773003908, "1": 0.0010643084944997974, "2": 0.1797272568062863, "3": 0.3504264015523435, "4": 0.43576966096032144, "5": 0.4439028670576636, "6": 0.7706221974019365, "7": -0.020320061331301625, "8": 0.3713307754770618, "9": 0.2174526223950292, "10": 0.3868371907118552, "11": 0.19672225624968426, "12": 0.2715355066928498, "13": -0.1609611958140271, "14": -0.47244227619451784, "15": 0.41945595695280696, "16": -0.1282757793121307, "17": -0.4022670671546203, "18": -0.6500397270664311, "19": 0.10266508099766163, "20": 0.23430059322006852, "21": -0.18568523140706641, "22": -0.030201799024274573, "23": -0.24335025531576207, "24": -0.3765318404698179}, "sx": 5, "sy": 5, "depth": 1}, {"w": {"0": 0.1883265309394782, "1": -0.3873814718539091, "2": -0.45850816785929815, "3": -0.10811793430775193, "4": 0.349899525285024, "5": -0.40549118871047807, "6": -0.24302909795413116, "7": -0.10196223288518907, "8": 0.0067461239491613, "9": 0.0002361730266425574, "10": -0.12246993277060521, "11": -0.06525515639845646, "12": 0.2543476662755843, "13": -0.1914042342870184, "14": 0.14019848748269254, "15": 0.06565265182550509, "16": 0.09385907706433427, "17": -0.14565242755566307, "18": 0.015110205256462117, "19": 0.10695921742024828, "20": 0.07286317563102279, "21": 0.4038390091150601, "22": 0.38687573509803785, "23": 0.22477260944739863, "24": -0.11643317607771357}, "sx": 5, "sy": 5, "depth": 1}, {"w": {"0": 0.2413928428685398, "1": -0.29770280799532267, "2": 0.23406531821083967, "3": 0.09064942826868926, "4": 0.21856123130584168, "5": 0.17922709698613495, "6": 0.441818468594728, "7": 0.057395009705416014, "8": 0.3770663884414595, "9": 0.34408461130648993, "10": -0.10341393710976007, "11": 0.07508960658445434, "12": -0.09680327416415296, "13": -0.34124043641864005, "14": -0.021801956937342413, "15": -0.47342549548468627, "16": -0.2897791499518163, "17": -0.2399417110089664, "18": -0.05709329403783485, "19": -0.21386712693266322, "20": 0.2581225255421296, "21": -0.015155372469018703, "22": -0.10569152429621091, "23": -0.020243855051283056, "24": -0.2316453144717057}, "sx": 5, "sy": 5, "depth": 1}, {"w": {"0": 0.16724138968602706, "1": 0.4024121776897651, "2": 0.016115822548817233, "3": 0.31878817525492364, "4": 0.13705022085917046, "5": -0.15277823829015152, "6": -0.18010507006156198, "7": -0.0018686975380068772, "8": 0.23869087899104763, "9": -0.09543251513376896, "10": -0.39390281388254117, "11": 0.1787383704844046, "12": -0.059054942535574265, "13": 0.48642965057315085, "14": 0.0828060885930551, "15": -0.26117733469417814, "16": -0.18748274276832935, "17": 0.012050438222030939, "18": 0.19784161839773706, "19": 0.37775530731863977, "20": -0.3543850545036991, "21": -0.28585648828104454, "22": 0.31514737283405136, "23": 0.31937751532060776, "24": 0.774370348611495}, "sx": 5, "sy": 5, "depth": 1}, {"w": {"0": -0.1628285709329723, "1": 0.34880915824957365, "2": -0.031013519175700194, "3": 0.36237415710993415, "4": 0.0476319669193539, "5": 0.19589875267342544, "6": 0.0012706929444713335, "7": 0.6549117334458441, "8": 0.5512827850167332, "9": 0.4607459234908384, "10": 0.2807242592039944, "11": 0.31473559447120353, "12": -0.13059772544497103, "13": -0.20366649086604988, "14": 0.36104067421736463, "15": 0.12992754807883994, "16": -0.4010279927022631, "17": 0.21310229116226628, "18": 0.12955606445602535, "19": 0.15062571628079377, "20": -0.4419832641153445, "21": -0.23550312006779253, "22": -0.10054882243304841, "23": 0.12973983945551124, "24": 0.13968711458015728}, "sx": 5, "sy": 5, "depth": 1}, {"w": {"0": -0.47170859460615017, "1": -0.17462514894417583, "2": -0.6892752364629233, "3": -0.19834293935868297, "4": -0.33028096739530216, "5": -0.23507755918017667, "6": -0.23240400654414214, "7": -0.09337535360474203, "8": 0.046446291734679644, "9": -0.26446680772893477, "10": 0.1301325087338426, "11": 0.02947578863891859, "12": -0.12380015958680017, "13": -0.14551336228027228, "14": 0.025517173031123375, "15": 0.016850055072236803, "16": -0.04662363390665153, "17": 0.1957255400639869, "18": 0.0607113697650705, "19": 0.14711227746896702, "20": 0.504311600917641, "21": -0.03286133840546882, "22": 0.315280738137486, "23": 0.08508686950667815, "24": 0.0006355318322024217}, "sx": 5, "sy": 5, "depth": 1}, {"w": {"0": 0.11464637406740551, "1": -0.06905481933305221, "2": 0.26608624162098926, "3": 0.0032066261972208783, "4": -0.22004516983516648, "5": -0.03480067815402871, "6": 0.428627387954571, "7": -0.2046658774727005, "8": -0.2004735078537708, "9": -0.5191390338968398, "10": -0.16857599903441406, "11": 0.530906206535308, "12": -0.16523787370231444, "13": -0.10210633577013982, "14": -0.3594898407654934, "15": 0.22804113138516546, "16": 0.3787377318960085, "17": 0.4416900612583179, "18": 0.022422616467132655, "19": -0.029491826587412256, "20": 0.18588885162072297, "21": 0.23169615197689283, "22": 0.28120537172061166, "23": 0.05040268195538881, "24": 0.07751606945966112}, "sx": 5, "sy": 5, "depth": 1}, {"w": {"0": 0.06509362426381134, "1": -0.30558042980374894, "2": -0.5668587332171081, "3": -0.0003252527357101077, "4": 0.10184451254178636, "5": -0.024421586681220967, "6": 0.3084205481299378, "7": -0.13431476548294988, "8": -0.08629905292549064, "9": -0.09684566410694193, "10": 0.14510804339223646, "11": -0.19772107093840188, "12": -0.034915802081490706, "13": -0.22518915122954827, "14": -0.15065929415244556, "15": 0.32078778715648726, "16": 0.22774105246815018, "17": 0.02377009187725771, "18": 0.11867394940351284, "19": 0.3323813363977299, "20": 0.15919904914011673, "21": 0.21611315547053203, "22": 0.01099517722812247, "23": 0.2258066553386599, "24": 0.4188844330896584}, "sx": 5, "sy": 5, "depth": 1}], "in_depth": 1, "out_depth": 8, "layer_type": "conv", "l1_decay_mul": 0, "l2_decay_mul": 1}, {"out_sx": 24, "out_sy": 24, "out_depth": 8, "layer_type": "relu"}, {"sx": 2, "sy": 2, "pad": 0, "out_sx": 12, "out_sy": 12, "stride": 2, "in_depth": 8, "out_depth": 8, "layer_type": "pool"}, {"sx": 5, "sy": 5, "pad": 2, "biases": {"w": {"0": -0.04146004772446445, "1": -0.039391843992739074, "2": 0.007751766616718819, "3": -0.036940702866778266, "4": 0.015001406538996825, "5": -0.01758754699626276, "6": 0.01744968182276832, "7": 0.022423083588260947, "8": 0.0070674612743202095, "9": 0.10324509382370999, "10": 0.012867171678104928, "11": 0.03181759940278443, "12": 0.09357410959547005, "13": -0.04217967811855148, "14": -0.00015797781354747782, "15": -0.06752924199065737}, "sx": 1, "sy": 1, "depth": 16}, "out_sx": 12, "out_sy": 12, "stride": 1, "filters": [{"w": {"0": 0.0505520173040276, "1": 0.08767276814398903, "2": -0.08433803454684283, "3": -0.04390464832731158, "4": -0.10860452973270977, "5": 0.060151976404324174, "6": -0.0445784111223082, "7": -0.05618494116206118, "8": 0.05916723857322923, "9": 0.0006716390163643691, "10": -0.11228999129169254, "11": -0.09130922386032965, "12": -0.033084604314220355, "13": -0.06462346916791983, "14": 0.07961201188554264, "15": -0.10411767999735295, "16": -0.037196615466266666, "17": 0.014839942620108959, "18": -0.09222569763254053, "19": -0.11706415594230138, "20": 0.015253902057557698, "21": -0.07784606614612784, "22": 0.13149774610234394, "23": -0.08816782397582262, "24": 0.0072334107607411316, "25": -0.03065539571599797, "26": -0.012640415652419615, "27": -0.19326895002170033, "28": -0.13060481505340965, "29": -0.014758604653063626, "30": 0.05083175815636292, "31": -0.1615179664080975, "32": -0.06376194097680137, "33": -0.08730331857982135, "34": 0.021127537258643126, "35": 0.04100528120709563, "36": -0.17468437586137367, "37": -0.00809802051267279, "38": 0.042825300634071216, "39": 0.054774002873227125, "40": 0.042811808625600516, "41": 0.013178645362516166, "42": -0.1535647880182067, "43": -0.08461701140923628, "44": -0.03236683933902862, "45": -0.0823324676835277, "46": -0.05208218169082644, "47": 0.10513604656285812, "48": -0.049230844936989655, "49": -0.004204949830811456, "50": -0.026885716967737897, "51": -0.1135753183548232, "52": -0.07973596720132857, "53": 0.026352703507566244, "54": 0.015488656268914902, "55": 0.011636495175649995, "56": -0.049011224638584545, "57": 0.10040339530071367, "58": -0.018441966478879822, "59": 0.02502364296750689, "60": 0.026904177164573773, "61": 0.0016805736595351447, "62": 0.0074135523750643514, "63": -0.12623900474363783, "64": -0.1610483180258725, "65": -0.06426028961280196, "66": -0.0786919724650576, "67": 0.06822087502496939, "68": -0.1192228594005818, "69": -0.0843405115472665, "70": 0.026699643249744498, "71": 0.0634640051995562, "72": -0.1469796592627317, "73": -0.01511848109320264, "74": -0.045451641406493826, "75": 0.09654257280889056, "76": -0.21187071523841466, "77": 0.12851373156489615, "78": 0.039261361034567524, "79": 0.06262334520534461, "80": -0.1226668120803437, "81": 0.0619741013209875, "82": 0.03411278108959442, "83": 0.02355580166163759, "84": 0.013977428811694906, "85": 0.05623365804864664, "86": 0.05432672766558925, "87": 0.08349853710297293, "88": -0.08596450707205885, "89": 0.08474912149697521, "90": -0.1273254848204034, "91": 0.08159402016373266, "92": -0.007891363741653439, "93": 0.11834685381475699, "94": 0.13491267624342432, "95": 0.052397510352101925, "96": -0.03978723089136122, "97": 0.1041259617587851, "98": -0.030883903518228197, "99": 0.24161465452564151, "100": -0.14670785797045122, "101": 0.000591855842150719, "102": 0.0921628770346535, "103": 0.08090708884958983, "104": -0.1401853266767399, "105": 0.09186164449046863, "106": -0.045791317348380635, "107": -0.08036241020765493, "108": 0.06394016467176705, "109": 0.13442472989292503, "110": 0.007614655581761875, "111": 0.2003500555553647, "112": -0.11746630261195269, "113": 0.08595338631500427, "114": 0.006173084697686603, "115": -0.0794285636644366, "116": 0.052117418092896245, "117": 0.09872872600431573, "118": -0.043655546270421654, "119": 0.03370433024548637, "120": 0.21336837399123737, "121": 0.06225820049676541, "122": 0.055133320617108544, "123": -0.003310326776248867, "124": 0.2235554938905067, "125": 0.04669394342252319, "126": 0.05664128368083363, "127": -0.03126692127895611, "128": 0.13008930086796858, "129": -0.05146906311142444, "130": 0.06299418502586991, "131": 0.026938748424157787, "132": 0.03344625921943119, "133": -0.10369292854676658, "134": 0.08069169438138087, "135": 0.019437111280171178, "136": 0.06934993362472464, "137": -0.1893063785134584, "138": 0.02304934352730017, "139": -0.0787693839531216, "140": 0.13718810407449303, "141": -0.056694817789058445, "142": -0.09282394792504031, "143": 0.059760003333599446, "144": 0.3128234049145503, "145": -0.17342360951511676, "146": 0.053002705311446074, "147": -0.059565010066317016, "148": 0.21862906728554513, "149": -0.1020075610378423, "150": -0.1202005427339949, "151": -0.033944748944410415, "152": 0.355829998976127, "153": 0.021523590909388154, "154": 0.11428397041380874, "155": -0.038128624877706636, "156": 0.2277005333317888, "157": -0.05687016748570764, "158": -0.0922000100723681, "159": 0.05780364220951423, "160": 0.03906939578653706, "161": -0.07540612471284835, "162": 0.07863634284407543, "163": -0.25287029238794967, "164": 0.1045050203058879, "165": -0.07496065003496293, "166": -0.08633821372420541, "167": -0.11603332670627013, "168": -0.15900953316899943, "169": -0.13354999222163796, "170": 0.041846346117522304, "171": -0.096168345920752, "172": -0.1490649551929695, "173": -0.019190986389188928, "174": -0.0781878342522843, "175": -0.040512274012704234, "176": -0.16059355357352387, "177": -0.19075116977848955, "178": -0.013302947338833632, "179": -0.2647794011438585, "180": -0.05628829170703858, "181": -0.029700904530864793, "182": -0.07478874574602563, "183": -0.017987736420493165, "184": -0.1314887382864009, "185": -0.05612017642769427, "186": 0.0008212141033643917, "187": 0.0691856030320382, "188": -0.13119436954763328, "189": -0.1588436199597441, "190": -0.12272378947799147, "191": -0.05138230658406429, "192": -0.20680598793238208, "193": -0.005582478538049896, "194": -0.06441623424041204, "195": -0.15001806273241777, "196": -0.10079474299902498, "197": 0.05785647856405302, "198": -0.09340061966262254, "199": -0.11048257770269464}, "sx": 5, "sy": 5, "depth": 8}, {"w": {"0": 0.043733218813966954, "1": -0.014988311999849981, "2": -0.008652035392596277, "3": 0.04615123010530153, "4": -0.01131380537930175, "5": -0.010447038725974305, "6": -0.11990054163090827, "7": -0.09095461802611841, "8": 0.019696588953167476, "9": 0.02037290615601693, "10": -0.04929154863823497, "11": 0.05577763075462173, "12": -0.08065179200803148, "13": 0.0004830640699382189, "14": -0.07816090395018367, "15": -0.07654120832179419, "16": -0.042566102374999686, "17": 0.053600735564389074, "18": 0.1277178812477855, "19": 0.09574683647682887, "20": -0.016800825793464678, "21": 0.008989327620854538, "22": 0.03531788867984441, "23": 0.004059855975057706, "24": -0.037834975497010336, "25": 0.015120300209452068, "26": -0.022569631396160094, "27": 0.11690868554711217, "28": 0.14348008078056643, "29": 0.044492165746933134, "30": -0.009837213924529981, "31": 0.04505515377146179, "32": 0.025493523834207214, "33": -0.12571268645233272, "34": -0.01425957867712164, "35": 0.13051203951655616, "36": 0.09367027332077833, "37": -0.10808380098600656, "38": 0.039463427766410986, "39": 0.020937882306673886, "40": -0.05284951669545604, "41": 0.019352351756789513, "42": 0.023611072537318548, "43": -0.06085689350583773, "44": 0.022224866011378377, "45": 0.05342173586990591, "46": -0.1525428409130509, "47": -0.1279868071200195, "48": 0.06862471585990614, "49": -0.0175158622892295, "50": -0.09348471752422971, "51": -0.10607776648648842, "52": 0.03922464031204713, "53": -0.09339878688063746, "54": -0.005147390992276326, "55": 0.04087721428295546, "56": 0.15120265249250628, "57": 0.04917386916128821, "58": 0.06308635549662082, "59": -0.06916847435837883, "60": -0.06503074980711358, "61": -0.021431107321408054, "62": -0.10985343216043386, "63": -0.1579310712219626, "64": 0.001819752452777427, "65": 0.06613211476227022, "66": -0.05381467164264059, "67": 0.176233785543079, "68": 0.17058098816266462, "69": -0.16928824662925906, "70": 0.005453758173107127, "71": 0.028263303055562922, "72": -0.07564659069042043, "73": -0.2504587646275975, "74": -0.12271082768264309, "75": 0.25678777066723524, "76": 0.208121907756048, "77": -0.13877626888775405, "78": 0.08941881162618447, "79": 0.0003253358491764643, "80": 0.05638222070285655, "81": -0.11121212539874523, "82": 0.05001322874811712, "83": -0.025859882699326646, "84": -0.0524374726137824, "85": 0.02266634936046301, "86": -0.10731765959443322, "87": -0.06574027793028758, "88": 0.08862835339047556, "89": -0.08546994946517031, "90": 0.04000810191484016, "91": -0.026951119691695658, "92": -0.08684588779205463, "93": -0.10510859242736531, "94": 0.06861676537898277, "95": -0.07583135852176535, "96": -0.05356783983696286, "97": -0.07715812067260143, "98": -0.02389400035277747, "99": -0.02261609567412173, "100": -0.018616634182328014, "101": -0.029153356757014515, "102": -0.037131435092069266, "103": 0.03487371903540504, "104": -0.08318701596142582, "105": -0.01859985530887717, "106": 0.012933484543148516, "107": 0.032880688660771484, "108": -0.042138943357377445, "109": -0.05191139004113922, "110": -0.12346673347072656, "111": -0.01638459397026002, "112": -0.06284796695332268, "113": 0.08071109414986742, "114": 0.028072948929940885, "115": 0.1264976185517427, "116": 0.09707396982783684, "117": -0.06205809557429912, "118": 0.0006222386969896513, "119": -0.003261672436159062, "120": 0.055909158701938855, "121": 0.057375088863752845, "122": 0.04306048880648204, "123": -0.0887152847162106, "124": -0.08178151929905925, "125": -0.05687833087655847, "126": -0.017937339590331225, "127": 0.01402709649900423, "128": 0.006866505209299112, "129": 0.015504112926660934, "130": 0.006105676532395547, "131": -0.04212765378962925, "132": -0.1129148757737732, "133": 0.05860133716697098, "134": 0.012724170353810292, "135": -0.10442779170223292, "136": -0.011905837129480205, "137": 0.005470743219109679, "138": 0.06557098751588779, "139": -0.03676225659284704, "140": -0.12155537068965143, "141": -0.026144183932600505, "142": -0.03589643884935131, "143": -0.09349586161855139, "144": -0.11295203121472544, "145": 0.036885697456322926, "146": -0.06315268970751364, "147": 0.04508480266652995, "148": -0.09358396992360907, "149": 0.08396768878835946, "150": -0.033967518146302424, "151": -0.045558198730582665, "152": 0.1430040227892617, "153": -0.028526083042524124, "154": -0.07062387287300788, "155": -0.038170411569594144, "156": -0.03949228045177544, "157": 0.012420277869337307, "158": 0.14291949516787536, "159": 0.011570032978136078, "160": -0.0010916622451889542, "161": -0.006949779720835932, "162": -0.0547247541758604, "163": -0.05661926374010595, "164": -0.04505816639860011, "165": -0.06213294335493299, "166": -0.011334175637524929, "167": 0.0596081075120558, "168": -0.05541277193005127, "169": 0.14949753520130254, "170": -0.03311887696335047, "171": 0.018730850503831303, "172": -0.13824747659034808, "173": 0.014814577613849652, "174": 0.02925200648201121, "175": 0.13085668142963952, "176": -0.09187932434208763, "177": 0.0031254043811963965, "178": -0.16929027434261956, "179": -0.066972657053831, "180": 0.061479486299591386, "181": -0.003754155018475852, "182": 0.033390161866985416, "183": 0.06002479091831894, "184": -0.0014466308623093263, "185": 0.1538777476501386, "186": -0.10808425604925494, "187": 0.14238839785276272, "188": -0.11280775100713594, "189": -0.08057824267033195, "190": -0.05210819875796061, "191": 0.05724152232992869, "192": 0.09048617196823953, "193": -0.11008330156829786, "194": -0.1457765300927139, "195": 0.09473764746445312, "196": -0.13363635956612785, "197": -0.011327683668660202, "198": 0.045601982449352735, "199": -0.11631673225720156}, "sx": 5, "sy": 5, "depth": 8}, {"w": {"0": -0.13550254066311013, "1": -0.03722589773676154, "2": -0.17248490839014113, "3": 0.020664060483579827, "4": -0.07979990361868239, "5": -0.048439093276233997, "6": -0.020134040093992212, "7": 0.12322568343869561, "8": -0.18560746740553624, "9": 0.028477997330656542, "10": -0.16543886091740415, "11": -0.031238492886110813, "12": -0.03526372106456719, "13": 0.13628491270543597, "14": -0.2273311965012565, "15": 0.04681563295770699, "16": 0.033019798045900724, "17": -0.006787274462578119, "18": -0.0360259706648311, "19": -0.04231491301871218, "20": 0.08957033922552798, "21": -0.17820323578033548, "22": -0.07816137154631006, "23": -0.042620296126780706, "24": -0.09220956134032528, "25": -0.01573142457419786, "26": -0.03505121237640606, "27": 0.07766613562869733, "28": 0.0917269094443929, "29": -0.013455120084354488, "30": 0.07235448861301114, "31": -0.06639829520952345, "32": -0.0451653067670207, "33": -0.17341091339411177, "34": 0.01757613675964076, "35": 0.0956993682901865, "36": -0.1342309334894005, "37": -0.011862050850232337, "38": 0.08671816805579045, "39": 0.0402164448345147, "40": -0.051034042760663145, "41": -0.014394173299319355, "42": -0.0601427506878148, "43": -0.0784852634361569, "44": -0.06411847427146192, "45": 0.09151250333998139, "46": -0.11622992270896121, "47": 0.02857818969871162, "48": -0.04851850586699458, "49": 0.11291034979757018, "50": -0.0698323987169328, "51": -0.028555969253634222, "52": 0.1473560243312612, "53": 0.02716016397848573, "54": -0.07249574315804973, "55": -0.0661953451350557, "56": 0.06450322861329238, "57": 0.012487877100603431, "58": -0.020066111206121378, "59": -0.009298516145972114, "60": 0.08936498631154623, "61": -0.048398574680699594, "62": -0.057461942625794224, "63": -0.01229903043440841, "64": 0.015311681245218409, "65": -0.12507692436141457, "66": -0.005929738504800752, "67": -0.0003609060684861957, "68": 0.2608350989541062, "69": -0.006379959708920787, "70": 0.12159662981595039, "71": 0.09358690929571113, "72": -0.14382171106113542, "73": -0.15061335474229864, "74": -0.1043712942049997, "75": 0.08535933638249976, "76": 0.009090167165790853, "77": -0.09055602566394573, "78": 0.19881323246839847, "79": -0.010119967368926354, "80": 0.007210694129588089, "81": -0.041063972811741935, "82": 0.0422945303868961, "83": 0.03292611477131717, "84": 0.04350513108837283, "85": -0.08439827499526183, "86": -0.16776619487624025, "87": -0.11752409215190461, "88": 0.12533333636567096, "89": -0.05878905483088162, "90": 0.0073558921725946445, "91": 0.11073237008118265, "92": 0.04975650286128246, "93": -0.08014652713387391, "94": -0.0044720647670342655, "95": 0.012367469232560232, "96": 0.06688708986012068, "97": -0.10470140344763715, "98": 0.025668786817232742, "99": 0.06816779124517423, "100": -0.023998688057479095, "101": -0.057005630375310985, "102": -0.038523836102697516, "103": 0.01894430012148798, "104": -0.11548757430361166, "105": -0.06826071161980304, "106": 0.15990214703914177, "107": 0.07620627102427954, "108": 0.04716104490741789, "109": -0.12488287295946664, "110": 0.012984577283147216, "111": 0.04795982011945503, "112": -0.014179742541714967, "113": -0.0725110671256193, "114": 0.021547072300950057, "115": -0.010363251897687668, "116": 0.24393954114827274, "117": 0.028567133903784035, "118": 0.001036745584192686, "119": -0.027539869025372928, "120": -0.13646108597437354, "121": -0.037632937804027836, "122": 0.04124889271359319, "123": 0.027939270247061967, "124": 0.0638941149211359, "125": -0.10625297971249908, "126": 0.030560782142596783, "127": -0.07462085154863304, "128": 0.12257434034061951, "129": -0.06827633652784132, "130": 0.13007128405457227, "131": -0.0829257217089967, "132": 0.01639764988109048, "133": 0.013134857419181278, "134": 0.05080499796658906, "135": -0.0018209704930864882, "136": -0.04871025864032401, "137": 0.002296850980118797, "138": 0.09890953995355652, "139": -0.04751571893268297, "140": 0.09139477776765785, "141": 0.06332631449210296, "142": -0.02976197151743142, "143": -0.11772607063030469, "144": 0.16998826568530384, "145": 0.04405892545247968, "146": 0.05067029427626669, "147": -0.07198217503298754, "148": 0.020908844437122855, "149": -0.08213242572039249, "150": -0.09511989312075422, "151": -0.11547337431540088, "152": 0.13931486422007874, "153": -0.02491995092834869, "154": -0.10847784720598948, "155": -0.007397287582637236, "156": -0.05090572751051557, "157": 0.012702310197643644, "158": -0.01742708276101308, "159": 0.013144021261119779, "160": -0.02506795975976977, "161": -0.0693367170992454, "162": 0.09900522101304987, "163": 0.008613607782579864, "164": -0.0013981741360623468, "165": 0.025816576349887523, "166": 0.06577499253852855, "167": 0.015063177597635723, "168": 0.04553629386752118, "169": 0.043453764371070035, "170": -0.03530857797475992, "171": -0.15084022842862416, "172": -0.0020276205703982737, "173": -0.013918855390438715, "174": -0.04459262668216984, "175": -0.12970981603178922, "176": -0.057308609643515876, "177": -0.03412145668266119, "178": 0.10052530196365465, "179": -0.15192246728240646, "180": 0.040875343867201416, "181": -0.036442690172520185, "182": -0.04463276206209211, "183": -0.09272546293734167, "184": 0.04877675766519776, "185": -0.027834775558606622, "186": -0.028820517365595127, "187": 0.01677724348352872, "188": -0.1502960929884896, "189": 0.0065551851109163055, "190": -0.11739432383202372, "191": 0.016738271529459427, "192": -0.09996183477200446, "193": -0.03929670130893172, "194": -0.08634553169421758, "195": -0.08110881570918216, "196": -0.19755401223993196, "197": -0.02400332768977014, "198": 0.05702395833875267, "199": 0.09124036034873838}, "sx": 5, "sy": 5, "depth": 8}, {"w": {"0": 0.07303061515893589, "1": 0.0773737845307187, "2": -0.048586169537406895, "3": 0.1597715829859288, "4": -0.02173450958960117, "5": -0.047052466756843554, "6": 0.020471246751737882, "7": -0.03702954949366694, "8": 0.07765284595973493, "9": -0.03133152589715174, "10": 0.15103292815785022, "11": -0.05656049331912151, "12": 0.1375436361454339, "13": 0.0024444870839593212, "14": 0.04222571550163238, "15": -0.03175923700405051, "16": 0.013923790806133667, "17": -0.020688432029755278, "18": 0.05081380753132549, "19": -0.01808331813097511, "20": 0.0980382759986338, "21": -0.052770935136752815, "22": 0.022236447101083627, "23": -0.17495378299751194, "24": 0.008425205595081827, "25": -0.054040985446604094, "26": -0.044147232211498605, "27": -0.041270203914960515, "28": 0.019437542025216106, "29": -0.0743267408417104, "30": -0.04322782948598381, "31": 0.05867030781804402, "32": -0.18618399785996537, "33": -0.05642996292545198, "34": -0.0018875632970543363, "35": 0.22244614522831158, "36": -0.07196422537197252, "37": 0.03647003705869952, "38": -0.03879064059619727, "39": 0.04015176275932707, "40": 0.09146102707027168, "41": -0.1270505009721509, "42": -0.046582080359844784, "43": -0.007867715825319347, "44": -0.06330027734856117, "45": 0.045651153252847056, "46": -0.006064040791670061, "47": -0.09781266731798798, "48": -0.015552381868555447, "49": -0.12736505005838888, "50": 0.11707956410717077, "51": -0.10717433285697288, "52": 0.003995849190086206, "53": -0.0033024553343341395, "54": 0.024745469758309085, "55": -0.11034279432558498, "56": 0.1654142182515186, "57": 0.06096509045362765, "58": 0.04624479928470645, "59": 0.04839425071804014, "60": -0.02629298016870166, "61": -0.07635919667305625, "62": -0.10752187430509401, "63": -0.015314283828635327, "64": -0.13880712781616342, "65": 0.001382142311133746, "66": 0.07205391352168665, "67": 0.20967640510682425, "68": 0.11601255144248274, "69": -0.11076531292740918, "70": -0.14584603497676418, "71": -0.05194072463995713, "72": -0.05955943623210169, "73": -0.06076888772979864, "74": 0.06337753209103886, "75": -0.007246917984611317, "76": -0.045070048503050526, "77": -0.04506540287960697, "78": -0.040177739359634236, "79": -0.03476910487457451, "80": 0.027464994383660336, "81": 0.005575431170451724, "82": 0.033394402604976184, "83": -0.2159554044132255, "84": -0.09227009462813106, "85": -0.056047745039611796, "86": 0.006872412488469691, "87": 0.0052667953669143334, "88": -0.1684263701173748, "89": -0.12236835248054743, "90": 0.04942263353462172, "91": -0.05342607029228087, "92": -0.1778099139607449, "93": 0.029588823255516813, "94": -0.10218545073161378, "95": -0.023370537135397055, "96": -0.0854570008992185, "97": -0.06311610023826665, "98": -0.2561083347211065, "99": -0.12710843292050295, "100": -0.00954305303046467, "101": 0.07436135985632714, "102": -0.19082481556208994, "103": -0.024931867580847093, "104": -0.203279735706762, "105": 0.10084176956224647, "106": -0.08862336822581085, "107": 0.04987510238088044, "108": -0.02551104190876145, "109": 0.021698031725813607, "110": 0.05113569612266885, "111": 0.06980993200533267, "112": 0.21873254394332944, "113": 0.04266900131737955, "114": 0.0414036533861498, "115": -0.04272036740470515, "116": -0.13335508682370711, "117": -0.019276424908280347, "118": 0.18409358628284617, "119": -0.05426989278926256, "120": 0.04545291132497041, "121": -0.10960980118384013, "122": 0.02561471193738586, "123": -0.12181445965176561, "124": -0.15617655800492267, "125": -0.03122495248102157, "126": 0.1256706203606424, "127": 0.11148808338841605, "128": -0.2488522095929569, "129": 0.01223244746046031, "130": -0.04948841405576359, "131": 0.04293662330599692, "132": -0.16943417045403478, "133": -0.10119293869690754, "134": -0.05175847967910092, "135": 0.10253585734242912, "136": -0.19976091243798613, "137": 0.13918447186740837, "138": -0.02408180211216243, "139": 0.16306831088200624, "140": 0.08658533334650938, "141": -0.03174367664756274, "142": -0.20512555397575372, "143": 0.0023591030676622963, "144": 0.19072992901144686, "145": 0.19458955196738115, "146": 0.15237034486202833, "147": 0.013499861754353078, "148": 0.032340976822448415, "149": 0.0222433708451236, "150": 0.04451270930162147, "151": -0.1363025884702823, "152": 0.19079273625171594, "153": -0.17465761894982187, "154": -0.0627734971267026, "155": -0.22946445326656456, "156": -0.1718871674750255, "157": -0.0704869172922556, "158": 0.17444319840889935, "159": -0.0593980400010225, "160": 0.0009148960830894482, "161": -0.09335885877612134, "162": 0.08246650790302205, "163": -0.037243630039797394, "164": 0.057193579378004844, "165": 0.025395085047084227, "166": 0.031078536466272837, "167": 0.11611007755415619, "168": -0.1478540652120899, "169": 0.008435182953878585, "170": -0.14272998870015552, "171": 0.19555260795910887, "172": 0.07769658917616569, "173": 0.03519818554576141, "174": 0.009228951086349645, "175": 0.19489288686645828, "176": -0.10152565585271041, "177": 0.08696036006461275, "178": -0.03765237071691229, "179": 0.17531793016457764, "180": 0.00212205540938404, "181": -0.09060024970586666, "182": 0.03912773500472953, "183": -0.04671949021845125, "184": 0.20873949570172692, "185": -0.05011814258385382, "186": 0.11107709327861297, "187": -0.033290431140915976, "188": -0.022526837945813862, "189": -0.10550860172376127, "190": 0.20638634813906678, "191": -0.02105126468880274, "192": 0.011942311163224912, "193": -0.20971008172867178, "194": -0.06780930301738715, "195": -0.4137386725481949, "196": -0.18914725081437544, "197": -0.17737068383708543, "198": 0.1264722785550735, "199": -0.12174038407762362}, "sx": 5, "sy": 5, "depth": 8}, {"w": {"0": -0.02612694534547364, "1": -0.03241308377834877, "2": -0.09545990060268779, "3": 0.09570677692050251, "4": 0.01579832718774045, "5": -0.014450320186646513, "6": 0.024420559478584306, "7": -0.019164034851451427, "8": -0.017125390436565472, "9": 0.03415745305807373, "10": 0.09658397535122905, "11": -0.2584067639417047, "12": -0.008376094883421576, "13": 0.06425595924928054, "14": -0.07703836906439346, "15": 0.053489401913257885, "16": -0.08193954271338422, "17": 0.03450533870515801, "18": 0.009058631415397743, "19": -0.06348249395767266, "20": -0.10350261751697434, "21": 0.13237221258655588, "22": 0.07723848251383782, "23": -0.00025800726722053486, "24": -0.05189911372305871, "25": 0.12741438831706878, "26": 0.034220551567635156, "27": -0.0011802498589598323, "28": -0.24076390439016232, "29": 0.08716121951617371, "30": 0.15238761283494548, "31": 0.04558234003280318, "32": -0.14452927235584087, "33": -0.0082679781280896, "34": -0.09881310091526391, "35": -0.11683669589168373, "36": -0.1423838574730986, "37": -0.016311372479740318, "38": -0.17429719721768044, "39": 0.10557929207933521, "40": -0.05581906214613404, "41": -0.035946448629890965, "42": 0.06913419643546609, "43": -0.08507520304481747, "44": 0.056526691171204915, "45": -0.135541369870418, "46": -0.030926172742684284, "47": 0.07312011643634955, "48": -0.10745264735093983, "49": -0.07409409148642, "50": 0.06440125781706495, "51": 0.0511880172157592, "52": 0.017840925819287125, "53": 0.0586586041419505, "54": 0.04278912288584379, "55": -0.12167269484442868, "56": -0.14469292331737055, "57": -0.08987211776992622, "58": -0.11990896892381846, "59": 0.05005145368600824, "60": -0.08126732533660155, "61": 0.00017367828157298175, "62": 0.1394590978150665, "63": 0.17105648085429856, "64": -0.08944356828928181, "65": -0.011775544143363485, "66": -0.08841085434772507, "67": -0.00513302706025872, "68": -0.04104807840777236, "69": 0.045907572254450114, "70": 0.21200141297111058, "71": 0.09881162943906052, "72": -0.07463353082612526, "73": 0.017207091028161047, "74": 0.04593940781180751, "75": 0.021447635031440034, "76": 0.027080248091074528, "77": 0.18385858209062933, "78": 0.050787311793285425, "79": 0.030518420247176742, "80": 0.10021710398551523, "81": 0.00048151588976170926, "82": 0.0466754454503938, "83": 0.08251451362686828, "84": 0.23089042914435007, "85": -0.08898657904670737, "86": -0.05793425478275712, "87": -0.13430399508892693, "88": -0.0006285780728221212, "89": -0.10649851345053304, "90": 0.01624140837025599, "91": -0.06900362270341666, "92": 0.05513412961133177, "93": -0.018258035474533255, "94": 0.07652896589879031, "95": -0.0990412930934666, "96": -0.015732127866094354, "97": 0.024356297427987117, "98": 0.05124248670434896, "99": 0.03141745629866246, "100": 0.051053153787953116, "101": -0.04036848023916458, "102": -0.07138538067046353, "103": -0.05237021185593307, "104": 0.05288617313882198, "105": -0.04553174043188709, "106": -0.030800428786674966, "107": -0.026866858645241024, "108": 0.17299176658041016, "109": -0.17157451326514714, "110": -0.018282436167258272, "111": 0.1370807224741417, "112": -0.11137878724958951, "113": -0.05028287597957466, "114": -0.041193913128128985, "115": 0.06059878117458832, "116": -0.05413896180033185, "117": 0.07172460938120395, "118": -0.03340505971178614, "119": 0.12086344661477344, "120": -0.10351692959409935, "121": -0.01982605929244692, "122": 0.07197824799616102, "123": -0.04708255017249255, "124": 0.04519316578553665, "125": -0.14050764346865016, "126": -0.10552073743377352, "127": -0.07961280263313124, "128": 0.004206319357281469, "129": 0.11698268193316512, "130": -0.0460880803095107, "131": -0.0661446747943713, "132": -0.06175343082090513, "133": -0.057773695822728, "134": -0.026353352211777276, "135": -0.16940566769583024, "136": 0.027395703218238993, "137": -0.12322499425974887, "138": -0.06324586403191189, "139": -0.07088174490938395, "140": -0.11073008347182392, "141": -0.15839740539661337, "142": 0.024925287418847752, "143": 0.04431884263304696, "144": 0.09644515796913491, "145": -0.011924700768238901, "146": 0.15430920523061706, "147": -0.006875832273681239, "148": -0.004410361006688776, "149": -0.18806337448652025, "150": -0.06868630183497236, "151": 0.10454377184168279, "152": -0.23758805285181048, "153": -0.20637341401181591, "154": -0.14951232888025293, "155": 0.22059286002902026, "156": 0.06337213188544079, "157": 0.02975148897811896, "158": -0.0729580529576732, "159": -0.06837092633562826, "160": -0.18567513587720524, "161": 0.03361786119712137, "162": -0.04706992014646867, "163": -0.1836870470672973, "164": -0.2114007183486253, "165": -0.029325078292911005, "166": 0.015509728851531896, "167": -0.032860520585495996, "168": -0.07317513292081397, "169": -0.012825132488908587, "170": 0.01430597889747472, "171": -0.15066711453212525, "172": -0.10183222645847785, "173": -0.009358195229484556, "174": -0.14256678005795656, "175": -0.03980688878059962, "176": -0.13962551902617576, "177": -0.04633654022858095, "178": -0.1351610038345928, "179": -0.06459816548597089, "180": -0.1782636816880817, "181": -0.046794542300713234, "182": -0.09644077535602251, "183": -0.07414097206834999, "184": -0.12432234123991548, "185": 0.009694519199293308, "186": -0.041098231203564414, "187": 0.04054749836451808, "188": -0.06718594793155135, "189": -0.003573010277038206, "190": -0.10487731722351687, "191": -0.07280882788665342, "192": -0.1565773994782034, "193": 0.028221194301127198, "194": -0.042128946004804865, "195": 0.11231848428231613, "196": -0.09906309411890324, "197": 0.04877530040885264, "198": -0.1289288612607808, "199": 0.09139042715112271}, "sx": 5, "sy": 5, "depth": 8}, {"w": {"0": 0.14122648029091653, "1": 0.047386292295742004, "2": -0.03611160816359694, "3": -0.12227955467321502, "4": -0.06640976227720558, "5": -0.02511695088913084, "6": -0.16384051386059678, "7": 0.07628577800848423, "8": -0.019340344380303954, "9": 0.08611773962303394, "10": -0.14165190882918324, "11": 0.10164518844954067, "12": 0.028222097532932693, "13": -0.00943796629926994, "14": -0.100021034265183, "15": -0.045527540444118525, "16": -0.17936437358713106, "17": -0.05285801489072407, "18": -0.01832181270407905, "19": 0.09789424312269321, "20": 0.07315394618229541, "21": -0.1983549524819138, "22": 0.07149681964404857, "23": -0.07200060407763312, "24": 0.15835525467068373, "25": -0.049426004324546816, "26": 0.10459719376116566, "27": 0.03920670149684446, "28": 0.06961549941254419, "29": -0.021719033711605277, "30": 0.04178398035209861, "31": -0.20822065924757113, "32": 0.1252357882453088, "33": 0.005835843539847825, "34": -0.04271482584838389, "35": -0.03531525828587078, "36": -0.044700099026218736, "37": -0.00618063366634729, "38": -0.07898085535811071, "39": 0.083937044887921, "40": 0.12091449997280573, "41": -0.09378828332135745, "42": -0.0935681472011043, "43": -0.0498657550256644, "44": -0.110545601563051, "45": -0.04459066036348886, "46": -0.04420287403443878, "47": -0.05508677388657856, "48": 0.09317986825483549, "49": -0.09028824636881934, "50": -0.03204091507683664, "51": 0.1258215753934428, "52": 0.09392293435121139, "53": -0.06726553920497921, "54": -0.07481840001105614, "55": -0.0006560029582656932, "56": -0.18794279656536722, "57": -0.06292156247045018, "58": -0.039662138321463966, "59": 0.23183197690834673, "60": 0.186631703512247, "61": -0.30767242116510307, "62": -0.10029237900056955, "63": -0.061608649784951196, "64": -0.15420404198433782, "65": -0.033135075439189525, "66": -0.021226911341822908, "67": 0.02707799710294814, "68": 0.01887609913226595, "69": -0.10496636866632411, "70": 0.1377750498946267, "71": -0.025735331881584562, "72": -0.01831606665646724, "73": -0.02699014183506008, "74": -0.013965727938035112, "75": -0.07326596822349875, "76": 0.001982941031494724, "77": -0.010007268503253529, "78": -0.05258688060023863, "79": 0.20189787193090766, "80": -0.13536306771612397, "81": -0.12019339191785347, "82": -0.03874835214249335, "83": 0.011806828239570171, "84": -0.05709238111588115, "85": 0.03250767577834467, "86": -0.005589935329108703, "87": -0.04444402932992031, "88": -0.12886792542284595, "89": -0.01660422157836153, "90": -0.00021401353585508062, "91": 0.02922054153207581, "92": -0.0748935098740016, "93": -0.1235232432386729, "94": -0.09797161816097523, "95": 0.034825645265142015, "96": 0.007496737295065799, "97": -0.033478331598400156, "98": -0.012733068978159786, "99": -0.05197560518910122, "100": 0.037157406374995455, "101": -0.00003286576700646463, "102": 0.06403932261780833, "103": -0.10702394938771291, "104": -0.009833295147208952, "105": -0.035453991769436526, "106": -0.06131001809360245, "107": -0.12304016883421574, "108": 0.06296672541413821, "109": -0.091934971240413, "110": -0.135976729888392, "111": -0.07454746083887229, "112": -0.016013631400619864, "113": -0.18201843191627068, "114": -0.022162256463850002, "115": 0.05032280119819712, "116": 0.1449893221355327, "117": 0.05906631147647719, "118": -0.06708199472902164, "119": 0.040435331200539985, "120": -0.14837345501923613, "121": 0.06632440209389723, "122": -0.000653139891426528, "123": 0.03441293366537333, "124": 0.04563426423778657, "125": -0.027092784101300997, "126": -0.04024612764211101, "127": -0.15085540364779104, "128": -0.008408686566855773, "129": -0.013876307307959749, "130": -0.041075685553864115, "131": -0.00827234940474155, "132": -0.06553444530865754, "133": 0.03789880939074206, "134": 0.0009703805197351117, "135": -0.0253260551562977, "136": 0.08870622142851922, "137": -0.07616137580382625, "138": -0.04086484242978711, "139": -0.08535589135050535, "140": -0.1688706462055317, "141": 0.03176218960844315, "142": 0.05455001546935655, "143": -0.14756954027455904, "144": -0.002090802361289124, "145": -0.06415000157966233, "146": -0.02261935583465962, "147": -0.08801868004904422, "148": -0.021898838704999972, "149": -0.008193605493262831, "150": -0.09723017093170501, "151": 0.11250900491073756, "152": -0.036290748674144224, "153": 0.06551779199651925, "154": -0.02169296989375065, "155": -0.1514819076979181, "156": -0.012721255525084274, "157": -0.06857134936218824, "158": -0.10205653232932425, "159": 0.10819555851966935, "160": -0.12097773995202665, "161": 0.0729779171254125, "162": 0.032971051337675514, "163": 0.03101906228732791, "164": -0.002310825385318838, "165": -0.07692230883141779, "166": -0.06535033262261397, "167": 0.07009670833060516, "168": -0.006091695753267822, "169": 0.04949827436559477, "170": -0.10305771807976738, "171": -0.08994799580112814, "172": -0.10092081796384587, "173": -0.0346411294401124, "174": -0.021398956002567866, "175": -0.028530672733813822, "176": 0.07859155911991147, "177": -0.05463864290114356, "178": 0.1406212840471736, "179": -0.05404696074117507, "180": -0.009642849981972098, "181": 0.018117043618274715, "182": 0.01871965908921762, "183": -0.14106670361417545, "184": 0.0620451490232382, "185": -0.026369112855838046, "186": -0.12747708584426815, "187": -0.03327257228662122, "188": -0.07128651106227199, "189": -0.07981119591502034, "190": 0.11932210383641333, "191": 0.19010808842083224, "192": -0.08269629979003251, "193": -0.0032621545137626207, "194": -0.01655821393477186, "195": -0.05751957124976094, "196": -0.14611269242265082, "197": -0.029689042726793926, "198": -0.01115438904684776, "199": -0.024163693398518357}, "sx": 5, "sy": 5, "depth": 8}, {"w": {"0": 0.07906207223886295, "1": 0.0004385075603394402, "2": -0.024493902343738775, "3": -0.08485000560863783, "4": 0.18067179307680362, "5": -0.009852232450138991, "6": 0.0665440704274215, "7": 0.1340053831678815, "8": -0.049123894539965, "9": -0.057993294098674424, "10": -0.011023289212456589, "11": -0.11315123168670037, "12": -0.037992476597800896, "13": -0.03114788763220594, "14": 0.03895961533591935, "15": -0.024415083943333454, "16": 0.007158533761446198, "17": -0.03355353449473099, "18": -0.033103296104494605, "19": -0.14091448939547876, "20": -0.18136670945714478, "21": 0.15200867765761497, "22": -0.053053732615377734, "23": 0.017623967056719834, "24": -0.22517448447170177, "25": -0.016253591935332053, "26": -0.06618805499901305, "27": -0.05607676050868711, "28": -0.05457491647229439, "29": -0.05704202432940628, "30": -0.06336005375338055, "31": -0.1482534818359701, "32": -0.027239068314279184, "33": -0.16753267163443095, "34": 0.008286101174990816, "35": 0.09093994512429872, "36": -0.08139914456273853, "37": -0.04630098380937926, "38": 0.07695314924695627, "39": 0.03570793654752271, "40": -0.05639315062994987, "41": -0.043674786064981826, "42": -0.03866828910961795, "43": 0.21267526443739032, "44": 0.17811842602670594, "45": -0.15148581256363516, "46": 0.0366655347239097, "47": 0.04925363534251295, "48": 0.0022227526932253345, "49": 0.11378469570734383, "50": -0.06026034964839565, "51": -0.07041875607438129, "52": 0.034772827243866704, "53": -0.06522952081086818, "54": 0.19052060618850894, "55": 0.02936938144407009, "56": 0.023955666085704524, "57": 0.015159897614671, "58": -0.2092571744398341, "59": -0.059989491825196, "60": -0.07326215342384115, "61": 0.06237682139845766, "62": -0.1840700845919698, "63": 0.18062192526300147, "64": -0.21325100522047422, "65": -0.15820526372328564, "66": 0.047764677981475816, "67": 0.019032901761116168, "68": -0.04127213909012298, "69": 0.010424723181197627, "70": -0.14109426780820755, "71": 0.03749994133779596, "72": -0.12035353944296381, "73": 0.06340468598947564, "74": -0.05062829322168658, "75": 0.11620820215943689, "76": -0.03652497930045659, "77": -0.02617596560339423, "78": -0.00432830922574708, "79": 0.036832030848169314, "80": -0.10812866437387253, "81": 0.09431592027897934, "82": 0.0326359390487992, "83": 0.14211367793954494, "84": 0.010178626375520323, "85": -0.13558353901898842, "86": 0.03208553035241388, "87": -0.035132326997020485, "88": 0.06011492587530423, "89": 0.10036815226113696, "90": -0.0975299972140894, "91": -0.09973061331748302, "92": 0.02619558925878754, "93": 0.03937006143152827, "94": -0.03836660238892943, "95": 0.02703804137878157, "96": 0.04933268354118783, "97": -0.10186135564261704, "98": 0.025956824974665334, "99": -0.10277628438314675, "100": -0.13485267593152583, "101": -0.03609688724173805, "102": -0.03107857142211499, "103": 0.0018936028854790825, "104": -0.1629847421766185, "105": -0.03409929491737038, "106": -0.2170605489171305, "107": 0.23919865302286317, "108": -0.000887800625876663, "109": -0.11332442005282575, "110": -0.08643838019919213, "111": 0.10134275662271884, "112": -0.1347898484034644, "113": 0.04830308258898218, "114": -0.034982502800966715, "115": 0.11270743261337085, "116": 0.0969841014481275, "117": -0.07093172693868811, "118": -0.13831734456868003, "119": 0.022132042743425027, "120": 0.10858040409587416, "121": 0.02466277103127663, "122": -0.04454562148840009, "123": 0.0684714212845656, "124": -0.05284026771848022, "125": -0.05974288291413102, "126": -0.018462467852078925, "127": 0.06647950818264003, "128": 0.006437527208534139, "129": -0.042348502066212344, "130": 0.06368813285941437, "131": -0.08010695895504129, "132": 0.01418407499781385, "133": 0.0007124720129078426, "134": 0.14403716985718548, "135": -0.11245769596971492, "136": -0.08434583805128357, "137": -0.008590349637424301, "138": 0.13289778257933252, "139": 0.046974757784591585, "140": -0.0894954897285944, "141": -0.01826741075467626, "142": -0.039535558984080066, "143": 0.040448960398779675, "144": -0.1192520240389323, "145": 0.05881456496082336, "146": 0.0012287622290542398, "147": 0.05421793234673806, "148": 0.07255875087685318, "149": -0.014212781748299272, "150": -0.11593529923379622, "151": 0.03179467031659814, "152": 0.13710111744739684, "153": 0.16155288978644256, "154": -0.03754359816208975, "155": 0.08281374122358369, "156": -0.03866966912731092, "157": 0.02851144718607689, "158": 0.010546439075036182, "159": -0.08482372875306741, "160": 0.14303868964438385, "161": 0.05051758045947942, "162": -0.05706524825896514, "163": -0.033340182364102536, "164": -0.0140934308993808, "165": -0.13707512087625082, "166": 0.08865655901879735, "167": -0.022809323359940594, "168": -0.06397826182402049, "169": 0.014573761784835316, "170": 0.07602158952373303, "171": -0.01859060722883378, "172": 0.06087220096922834, "173": -0.11642317408622951, "174": -0.018370187884585398, "175": 0.0752587053331244, "176": -0.08551203045525306, "177": 0.07377214782481448, "178": 0.019948816190650354, "179": 0.14248559501423788, "180": 0.04602448215858483, "181": -0.09994626469585406, "182": -0.08710248838236408, "183": 0.09019124192574937, "184": -0.08613061985728654, "185": 0.20667179085300977, "186": -0.1917201910773804, "187": 0.27576893403352987, "188": 0.03784263253437731, "189": -0.049224200599399706, "190": 0.016665009018397996, "191": 0.10481562792633667, "192": 0.11487272800656995, "193": 0.027561448746148926, "194": -0.10506260732525916, "195": 0.09935831364321746, "196": 0.057865413008633876, "197": -0.13305712679628007, "198": 0.04992321689281594, "199": 0.004911630480251041}, "sx": 5, "sy": 5, "depth": 8}, {"w": {"0": 0.03530794770648386, "1": -0.12543250761217511, "2": 0.0010190131771262909, "3": -0.06085329859550268, "4": 0.04163494964728433, "5": -0.05450640127513569, "6": -0.14395139506931243, "7": 0.03008441908254002, "8": 0.04013386020214238, "9": 0.027325081341334434, "10": 0.03243730681113193, "11": -0.0750224295917446, "12": 0.08306809566977766, "13": 0.013323177117870762, "14": -0.0813742791601007, "15": -0.053254902460237466, "16": 0.11336077196186314, "17": 0.11290533789713618, "18": 0.15986717669126801, "19": 0.08548947964563436, "20": 0.20722175372187027, "21": -0.07738571683316373, "22": 0.05577829980380159, "23": 0.012041307373520327, "24": 0.05818579360664868, "25": 0.06638509667092772, "26": 0.13788849395308428, "27": -0.03654828494841539, "28": 0.09224988025163441, "29": 0.05191400214997339, "30": -0.11255219194516586, "31": -0.06688971458895523, "32": -0.09191870200547375, "33": 0.019947291579447853, "34": 0.03367971258821249, "35": -0.08069067844220429, "36": -0.08707712576087949, "37": -0.11126750709622214, "38": -0.0123685414563106, "39": -0.049744964812172617, "40": 0.041857641947765416, "41": 0.00973890167857703, "42": 0.08925869251001796, "43": -0.1237391438863115, "44": 0.08823468605073065, "45": -0.012327218512005, "46": -0.03665307667643138, "47": 0.039654248463034045, "48": 0.13618069711418915, "49": 0.009453341532977872, "50": 0.24939877691576057, "51": -0.1284648211289373, "52": 0.07309837425793639, "53": 0.038731394360672855, "54": -0.18920545364023178, "55": -0.12643508941314943, "56": 0.13396719127255743, "57": -0.0993417572421478, "58": 0.0360438450304652, "59": 0.031045001955444934, "60": -0.030558553699687185, "61": -0.15648469049837524, "62": -0.05692928449282553, "63": 0.026949489245164486, "64": 0.006033845735986923, "65": -0.09109472736069253, "66": -0.016406358787254247, "67": 0.035150708305550366, "68": -0.048336460051147764, "69": 0.007541322877114027, "70": 0.059896008376754316, "71": -0.02860381060217744, "72": 0.0944283477355039, "73": 0.0391959601640068, "74": 0.005483785077500901, "75": 0.019820967476443303, "76": -0.17214158696879422, "77": 0.018179063758024867, "78": 0.14922954016551976, "79": -0.09115358729748865, "80": 0.018575692478005005, "81": 0.11524998751224824, "82": 0.10086214377024463, "83": -0.15062857594957085, "84": -0.05349180577993533, "85": -0.021701649820327892, "86": 0.06828095361248225, "87": 0.08635703618759609, "88": -0.08409916671255567, "89": 0.12556195880768656, "90": 0.04068524934402975, "91": -0.10673310169007634, "92": -0.06338482093091911, "93": -0.013408597598188772, "94": -0.04289035667058248, "95": 0.04953068230442732, "96": -0.1276280544943545, "97": -0.07811775453426541, "98": -0.22096139325184902, "99": 0.08991727595794444, "100": -0.07788459613691777, "101": 0.0030715909194399755, "102": 0.0734249201886005, "103": -0.14538705419845055, "104": -0.11630804360675062, "105": 0.01092031603896197, "106": -0.10804745782442857, "107": -0.029545493405044303, "108": 0.014080994117053016, "109": 0.02142507160624353, "110": -0.11044415142019277, "111": -0.06120245540147666, "112": -0.024223151275689865, "113": -0.02522110037665085, "114": -0.07230202972718815, "115": -0.0675111614997105, "116": 0.005831135677833269, "117": 0.07702395694607293, "118": 0.015342497924502875, "119": -0.009742297023984756, "120": -0.06106847318493701, "121": -0.1643510622206123, "122": -0.02884833785826002, "123": 0.14202675766497816, "124": 0.03647303726100375, "125": 0.01342928516250753, "126": 0.2033336771034136, "127": 0.06674662068275383, "128": -0.040198681102101466, "129": -0.0495589474045033, "130": 0.025551999967307858, "131": -0.06367597821396055, "132": 0.006443897177185575, "133": 0.03258471597917181, "134": 0.14853553289403848, "135": 0.14736012356126124, "136": -0.1615145797524799, "137": -0.05366206355869968, "138": 0.005014731164692464, "139": -0.0006682273281959533, "140": -0.015129827663236806, "141": 0.0772171341716029, "142": -0.016865736185427048, "143": -0.004095421327315651, "144": -0.13645894519135768, "145": -0.02301469125658618, "146": -0.04222976909563196, "147": -0.015307766194556803, "148": -0.013575211853672078, "149": 0.021860617116946864, "150": -0.09239317383213434, "151": -0.01480430883981379, "152": 0.07133009004698114, "153": -0.015444577497063643, "154": -0.049632628053181, "155": 0.0322693420879069, "156": -0.10976840423777959, "157": 0.004735012099677944, "158": 0.09182316081348588, "159": -0.09536166248916898, "160": -0.13883670863525205, "161": -0.06798093743511134, "162": -0.04702025495911836, "163": 0.1886052559042289, "164": 0.1486217667743485, "165": -0.044736902280743444, "166": 0.018690040877230713, "167": -0.08009729277351331, "168": 0.1830036110515959, "169": -0.10036484104662893, "170": 0.0634224173122726, "171": 0.10005048603605603, "172": 0.03372918349383991, "173": 0.024208777196278848, "174": 0.2292261552023534, "175": 0.017696091432881724, "176": 0.06349550317236721, "177": 0.048123892059376394, "178": -0.1496956446973518, "179": -0.21160283262512053, "180": -0.03942635538830502, "181": 0.02856586496823714, "182": -0.01641906056601759, "183": 0.1829936834975606, "184": 0.0402295445340259, "185": -0.026240641810998812, "186": -0.04799316053796282, "187": 0.19704854541398692, "188": -0.15499960572056184, "189": 0.02795362216586498, "190": -0.10284737976852001, "191": -0.05380487412950905, "192": -0.0825354122473729, "193": 0.0227409195055772, "194": -0.025462276165136886, "195": 0.014024125326614012, "196": -0.03271968441054, "197": -0.055197942011584324, "198": -0.017419278215021324, "199": -0.03547021258539764}, "sx": 5, "sy": 5, "depth": 8}, {"w": {"0": -0.16762427352789747, "1": -0.0916596220245159, "2": 0.04737972890951168, "3": -0.025819368765925273, "4": 0.13696187865596096, "5": 0.013795682730722285, "6": 0.2439459252402107, "7": 0.1639895697551676, "8": -0.12247990572401027, "9": -0.03421780360186946, "10": -0.1434310593219627, "11": -0.018899974647828534, "12": 0.026588279780313296, "13": -0.06271611351754472, "14": 0.13386665165358394, "15": 0.05738326629068514, "16": -0.11591136095465181, "17": -0.023766603084292386, "18": -0.20770454145357886, "19": -0.006054875025560495, "20": -0.11858444171891772, "21": 0.09234123104876696, "22": 0.02113678386676067, "23": 0.08048998078125247, "24": 0.0017189484907573463, "25": -0.0038362188291969925, "26": 0.0840292878548846, "27": -0.0745387099744487, "28": -0.01707921419876227, "29": -0.03920096862321424, "30": -0.06430600534636213, "31": 0.11694058694013247, "32": -0.13059694100250405, "33": -0.07302451956288107, "34": 0.05440690857406435, "35": 0.005473741651548877, "36": -0.0060811089140656175, "37": 0.03132304646375532, "38": -0.027073217466061554, "39": -0.08784962061355393, "40": 0.004444807141794901, "41": -0.05952021255015384, "42": 0.11592151577077342, "43": 0.06742591918053437, "44": 0.1685450021055899, "45": -0.018631849560806713, "46": -0.0435289236302915, "47": 0.013002151278857642, "48": 0.01078842398295473, "49": 0.03515657016925421, "50": 0.04252294793856998, "51": 0.17208132314411312, "52": 0.11153941786321293, "53": -0.002696460522246523, "54": -0.0027272032004221737, "55": -0.11955256854801573, "56": -0.06488771009106675, "57": -0.003292183827798627, "58": 0.012459578730211312, "59": 0.04632629709177387, "60": 0.13405840038999084, "61": -0.06941604659412304, "62": 0.031118440360178433, "63": -0.004602038138788378, "64": 0.055488599164130736, "65": 0.14252700843617594, "66": -0.002732836985038843, "67": 0.045760619992231306, "68": -0.10245890380229662, "69": -0.07862680690843407, "70": -0.0182589310958682, "71": -0.015267398978013545, "72": -0.10973411666797393, "73": 0.0388061829669623, "74": -0.11917841671854974, "75": 0.019323960458473097, "76": -0.025435913290599046, "77": 0.15398203827253046, "78": 0.005494953100901991, "79": -0.007903903550016626, "80": 0.07384596674316349, "81": 0.0298673344817872, "82": 0.11579924990880049, "83": -0.028772835476163612, "84": 0.016047272816709156, "85": -0.004735115629731746, "86": 0.016962875550613547, "87": 0.1106847764725368, "88": 0.0456394600407103, "89": -0.15312912672254733, "90": 0.09481420541932958, "91": 0.1422792387068533, "92": 0.06412229650750055, "93": 0.0022337665379898917, "94": -0.07272570370766586, "95": -0.16877367037315802, "96": -0.0031637769887759635, "97": -0.07568558341424014, "98": 0.03906091797653903, "99": 0.13377680689090224, "100": 0.09893366600492746, "101": 0.09803027813640988, "102": -0.1441351664166352, "103": -0.11794758176064371, "104": 0.07430528486471416, "105": -0.08397819343129227, "106": 0.08060878322185534, "107": 0.13082946053313022, "108": 0.044962240072610564, "109": -0.05717509720571506, "110": -0.022030963132574227, "111": -0.0747645613145321, "112": 0.22721180210012135, "113": -0.08740582697808534, "114": 0.07493547625957445, "115": -0.16991429307653516, "116": 0.14258677157504354, "117": 0.008534779412707466, "118": 0.035806847975932386, "119": 0.05431600735019824, "120": -0.23514723349117034, "121": -0.04936389556209418, "122": -0.03791797448142499, "123": -0.07839967074173076, "124": -0.172597918140147, "125": 0.11750516922135863, "126": -0.051398201687742694, "127": 0.03377211882740536, "128": -0.16703880667375817, "129": -0.026812767095449892, "130": -0.01799060029709022, "131": -0.0807537948237893, "132": -0.09658178891441423, "133": -0.09228862722860132, "134": 0.022319228082989726, "135": -0.025868812525733368, "136": -0.05994543180293645, "137": 0.04375818913265193, "138": -0.11705866151218569, "139": -0.025347538723384154, "140": -0.14361884689039497, "141": 0.05348766026973814, "142": -0.0032064769749845295, "143": -0.09825217070968648, "144": -0.024573329409276593, "145": -0.08256674895289062, "146": 0.12258132676500791, "147": -0.10841767517178337, "148": -0.06475448509118477, "149": 0.020753127632029682, "150": 0.02291703675914508, "151": -0.1146909336766029, "152": -0.07820765506620113, "153": 0.015385153889896985, "154": 0.036460389950286214, "155": -0.03166054287922625, "156": 0.15398761947633477, "157": -0.06638702470935814, "158": -0.008431725961770112, "159": -0.16377768739272497, "160": -0.09107684591649079, "161": 0.1043890404844066, "162": 0.037828743606094895, "163": -0.0665512791949365, "164": -0.16435578906719178, "165": 0.027554491034149475, "166": 0.04884983354501629, "167": 0.08844085923418256, "168": -0.147336292119704, "169": 0.11230572559296795, "170": -0.06038549893106366, "171": -0.12223602748150265, "172": -0.10650979526253367, "173": 0.05091764111930013, "174": -0.03557816426046774, "175": 0.12146242424423924, "176": -0.027154265404999923, "177": -0.11149297631183248, "178": -0.12140869812293238, "179": -0.03564369592328074, "180": -0.13390072699611086, "181": 0.015215602153844123, "182": -0.1651741287283525, "183": 0.07719600833437443, "184": -0.08886565566100524, "185": 0.0646441771146895, "186": -0.03212459588613333, "187": -0.07457732249988054, "188": -0.054860439555982084, "189": -0.10435911925978891, "190": 0.24378996335300912, "191": -0.020787693886761115, "192": -0.1315901541129451, "193": 0.08839106286808623, "194": -0.0017018927334310587, "195": -0.04991739987321978, "196": -0.08766501933254718, "197": 0.08888384576382977, "198": -0.0148744177473724, "199": 0.05291852122902115}, "sx": 5, "sy": 5, "depth": 8}, {"w": {"0": -0.08922144998849557, "1": 0.003000772382326551, "2": 0.07120070048377543, "3": 0.018574203048704288, "4": 0.036345157785614576, "5": -0.008012358854410874, "6": -0.038411048990931965, "7": -0.0030346598482947577, "8": -0.1467192869504834, "9": -0.12112326130520053, "10": 0.0057453352253471306, "11": 0.08789075201502894, "12": -0.07684850290904043, "13": 0.03504847019002969, "14": -0.11940922822175187, "15": -0.01677998007945813, "16": 0.011716621391900571, "17": -0.06237727845834046, "18": -0.12034493077140454, "19": -0.07777350916157902, "20": 0.022497143129779858, "21": -0.0255977408944017, "22": 0.047652114759577396, "23": 0.09202883101135174, "24": 0.061000434552534157, "25": -0.0164325837840253, "26": -0.010295306463327762, "27": -0.07094348029317057, "28": -0.01925475551985746, "29": -0.04523475057626473, "30": 0.0000962693271446116, "31": 0.029034055391539342, "32": -0.0587868291768522, "33": 0.06173335007313433, "34": 0.023765069277034832, "35": 0.035385872179727024, "36": 0.030096549633801976, "37": -0.07802585385477366, "38": -0.003630901804237775, "39": 0.07284999519333445, "40": 0.002915039680276822, "41": 0.09179028385811555, "42": 0.009897335640017602, "43": -0.011803521242484589, "44": -0.06397742163854218, "45": -0.009548215332718107, "46": -0.09658236622660069, "47": -0.02241875449259665, "48": 0.05917877510402502, "49": -0.10721085168363602, "50": -0.10465500225310198, "51": -0.07867324173863925, "52": -0.022477721147231233, "53": 0.026075041600927967, "54": 0.00576696910076704, "55": -0.12460943555952984, "56": -0.10063877848150021, "57": 0.022081788784014716, "58": -0.07510592593764812, "59": -0.024666647426523074, "60": 0.03659680388412316, "61": -0.016573565086168897, "62": 0.016328759647730045, "63": -0.04825342072608359, "64": -0.025112074151976905, "65": 0.040853757894747746, "66": 0.06137351618737149, "67": 0.008718102194553146, "68": 0.06594673691379341, "69": -0.16062226551980757, "70": -0.06681259613548123, "71": 0.011489238311694247, "72": -0.06105365711713027, "73": -0.05505713724392946, "74": -0.020354884275253927, "75": -0.0428754078349112, "76": -0.06587875441763388, "77": -0.016122931352823874, "78": -0.06803236281539812, "79": 0.00013145936487229018, "80": -0.10325775790168512, "81": 0.024364484629743707, "82": -0.005651511641023491, "83": 0.01390018808862894, "84": -0.0072461486355753285, "85": -0.05483606958291747, "86": -0.10170405299664344, "87": -0.05369771922766947, "88": 0.03267412252478169, "89": -0.04105108528373301, "90": 0.023264258639640194, "91": -0.07757654856190212, "92": -0.12441903422556477, "93": -0.15000228596914492, "94": -0.004514832922314232, "95": 0.1305766296144056, "96": 0.037375431437931025, "97": 0.023257636879371456, "98": 0.014481323455733941, "99": 0.051357147589841536, "100": -0.1932388950831258, "101": -0.06389711832349858, "102": 0.0519071214803965, "103": 0.05822417124194135, "104": -0.02247586255507097, "105": -0.030794957093894206, "106": -0.03160120988119808, "107": -0.035924985102551384, "108": 0.0396117487722272, "109": -0.0950624335082268, "110": -0.0038029866996272853, "111": 0.05174120715261943, "112": -0.05683544355812894, "113": 0.0720916543362918, "114": -0.14802756694526803, "115": 0.008964246150006336, "116": -0.06330479477370224, "117": -0.019679970409874667, "118": 0.0076926634584382845, "119": 0.04731544061646404, "120": -0.08182015972038105, "121": -0.05999709750740505, "122": 0.12481997623740056, "123": 0.055188102586289256, "124": -0.0510192974867311, "125": 0.06577095333910901, "126": -0.07373908281633632, "127": -0.017611283007362758, "128": -0.11943389288959207, "129": -0.2455749117322388, "130": 0.16513319566784668, "131": 0.03815877638040145, "132": -0.014711141298025704, "133": -0.18111309427854877, "134": -0.15380296204354457, "135": 0.00567599188230937, "136": -0.055230891163178475, "137": -0.020755581970111858, "138": -0.040725752586622706, "139": 0.046713196339218103, "140": -0.012121758494946606, "141": 0.012485591247808401, "142": 0.0382284130625271, "143": 0.014278546951116763, "144": -0.04940061534260168, "145": -0.015434116437913243, "146": 0.006914679809305201, "147": 0.0051811606575241365, "148": -0.010701433697878151, "149": -0.05536890215190599, "150": 0.07678235068455048, "151": -0.037314078983704466, "152": 0.10965166256857231, "153": 0.05639541854404183, "154": 0.02751308326197445, "155": -0.0032770848687546303, "156": -0.11185995097571742, "157": -0.05813239436346992, "158": 0.07498666643928667, "159": -0.02859003318542997, "160": -0.1111718409153967, "161": 0.07407244441973013, "162": 0.020749632316892704, "163": 0.013370345304277225, "164": -0.14919158533453492, "165": -0.030722119845133865, "166": -0.08079067744043651, "167": 0.011368120942986759, "168": 0.04634741058902372, "169": 0.09411400191365155, "170": -0.1267039393017809, "171": 0.020241160436623853, "172": -0.06222399881582571, "173": -0.03483263336639803, "174": -0.04381595332237807, "175": -0.05558052574282662, "176": 0.08236485014790801, "177": 0.0788244991321946, "178": 0.03141413316765366, "179": 0.0534330868851383, "180": -0.030777077282949084, "181": 0.11066319549355474, "182": 0.09187145375688065, "183": 0.064885724651554, "184": 0.14414693020701388, "185": 0.1041676170985892, "186": 0.035086514328078015, "187": 0.014985197741157232, "188": -0.09688965379100704, "189": 0.03481403490620127, "190": -0.0689533716026311, "191": -0.044212641677270306, "192": 0.05982889406940138, "193": -0.14973020810271617, "194": -0.04500791436386618, "195": -0.14703629612935032, "196": -0.0763570927205614, "197": -0.06384803994940753, "198": 0.06695621872332463, "199": 0.16010750545428942}, "sx": 5, "sy": 5, "depth": 8}, {"w": {"0": 0.21351028164233737, "1": -0.09456593383848891, "2": 0.0347627843137487, "3": -0.08051379247518342, "4": -0.008422229836929933, "5": -0.053910663624781516, "6": 0.015459662529925502, "7": 0.026801923960054503, "8": 0.0851925896272, "9": -0.12052245327829093, "10": 0.008014027116981296, "11": -0.11266950507181546, "12": 0.08402611964201424, "13": -0.053013544879133026, "14": -0.12221676845598571, "15": -0.12871351035085657, "16": -0.10984188777840206, "17": 0.06515431513473403, "18": -0.0889423743747752, "19": 0.10174680102592884, "20": 0.0032652063025893742, "21": -0.0684453578584116, "22": -0.06299785154367235, "23": 0.10376416592581925, "24": -0.1032484057845515, "25": -0.03579385763193573, "26": -0.09343768786026307, "27": 0.2543166174447375, "28": -0.027056923050884297, "29": 0.01892239282343838, "30": 0.06911348501403591, "31": -0.07276411778574828, "32": 0.12679636469975553, "33": 0.03215836573299233, "34": 0.009206486428190946, "35": -0.02759671179121545, "36": -0.01900986337709554, "37": 0.03404488161819283, "38": 0.07978402502511962, "39": -0.08504453339430318, "40": 0.2244284717422494, "41": -0.05058974071259162, "42": -0.00019501662162763498, "43": -0.06492714076266223, "44": -0.003979574467516879, "45": -0.1344156501746241, "46": 0.192176340728648, "47": 0.09804277040004307, "48": -0.10080192944932329, "49": -0.03180565809376818, "50": 0.046484415583297335, "51": -0.18345209212583552, "52": -0.14848977580410527, "53": 0.05237998672748337, "54": 0.10024010072336635, "55": -0.16201777202541875, "56": -0.1192500065074642, "57": -0.1422507493949705, "58": -0.014064522722560075, "59": 0.07983825421044537, "60": -0.12652730549743205, "61": -0.03285613593768435, "62": -0.05039782072671874, "63": -0.03892992291281191, "64": -0.057476403061567094, "65": -0.030748027616927985, "66": -0.031016563076206857, "67": 0.05599265239926741, "68": 0.07161562750672851, "69": -0.04083221085753747, "70": -0.07065941975911105, "71": 0.01211710417170866, "72": 0.0789873896499684, "73": 0.04757991643747435, "74": -0.10781391835478799, "75": 0.1307272688784234, "76": 0.10346517197367121, "77": 0.05108777647734674, "78": 0.031526637868100366, "79": 0.1000539286144382, "80": -0.05253136302630811, "81": -0.16111415403000123, "82": 0.04305106014127425, "83": 0.017023049790129148, "84": 0.019511744323197678, "85": -0.051344440268774216, "86": 0.09709843196011417, "87": 0.026543386809902945, "88": -0.030405616252888776, "89": -0.14048864122660926, "90": -0.13235913299706803, "91": -0.1267735688884483, "92": -0.17227888104434325, "93": 0.07162025674279497, "94": 0.04585514059733345, "95": 0.04145780925329147, "96": -0.047661085974759196, "97": 0.012672050507090235, "98": 0.0776927625624454, "99": -0.050414889466218374, "100": -0.029580415245958305, "101": 0.01099264366475903, "102": -0.0642434476476779, "103": -0.09273696156796658, "104": -0.11180950360459951, "105": 0.0011363192141631334, "106": 0.010051562394989546, "107": 0.019098641736866706, "108": 0.0952168859337234, "109": -0.10160327768977442, "110": -0.15461000959862695, "111": -0.049745446434040705, "112": -0.00800041006607492, "113": -0.05217484416073531, "114": 0.059661773543429636, "115": -0.009479458160324621, "116": 0.05935177830870888, "117": -0.09464587507910732, "118": -0.017827653467848092, "119": 0.039028166964900746, "120": 0.08775426536423864, "121": 0.018780054784631586, "122": -0.12279408668796753, "123": 0.04159877670579487, "124": -0.0662578056453088, "125": -0.059105991459780814, "126": 0.12386278068520402, "127": 0.07116617813450489, "128": 0.004640438842663779, "129": 0.021077102497825698, "130": 0.02841686403774807, "131": 0.057559362341094954, "132": -0.18295381174573172, "133": 0.003875183357175577, "134": -0.10024888194200765, "135": -0.00870665835055282, "136": -0.01461724548758976, "137": -0.0670044679872579, "138": 0.023547901288769598, "139": -0.1336876950862353, "140": -0.013442668763325376, "141": 0.0434710231476114, "142": 0.08340577491551625, "143": 0.06391577232803337, "144": -0.05322319464563792, "145": 0.07651219355254303, "146": 0.056894129568832406, "147": -0.07690743431807172, "148": -0.1277858608610407, "149": 0.02984385838671296, "150": 0.10187348945431823, "151": 0.11460283711141304, "152": -0.05937815211897672, "153": -0.0121855283886598, "154": 0.035228118894318476, "155": -0.059652164436379274, "156": -0.06716175893635265, "157": 0.11374638649679275, "158": 0.06383674307938221, "159": 0.0023963423394298233, "160": -0.08992979733166111, "161": -0.02947385334356145, "162": -0.028979966329871567, "163": 0.0388503755494208, "164": 0.09667953641169359, "165": 0.04577383875927043, "166": -0.012044925221526389, "167": -0.02540447082975501, "168": 0.058693738966491486, "169": 0.019574861158765854, "170": 0.0007449824970303895, "171": 0.0925355934444082, "172": 0.12156593079841976, "173": -0.16838902549314316, "174": -0.07400716379364732, "175": -0.004259625520734533, "176": -0.13165811250420903, "177": -0.05916273739085383, "178": 0.1719214431336643, "179": -0.06320642413340805, "180": 0.021707816153849258, "181": 0.04050451030871451, "182": 0.0012337499223338308, "183": 0.04117569324181585, "184": -0.11755482248041524, "185": 0.13046621248769757, "186": -0.11914638437183687, "187": 0.09257981518005262, "188": 0.01908638481396326, "189": 0.029405098368485018, "190": 0.1078219993859871, "191": 0.11191779612277418, "192": -0.029812074094894267, "193": 0.05969226032794834, "194": -0.09600596382656092, "195": -0.10399587258156728, "196": 0.030445859709485427, "197": 0.059002612194759725, "198": 0.05424348169025291, "199": 0.05218167490681412}, "sx": 5, "sy": 5, "depth": 8}, {"w": {"0": 0.016109830787570625, "1": -0.1333925117657997, "2": 0.03552976303255727, "3": -0.00047749497752661344, "4": -0.11529027025487228, "5": -0.04228148467324039, "6": 0.01863781099320752, "7": 0.09461233234681421, "8": -0.12056881494349989, "9": 0.05102775614837658, "10": -0.0473184799097393, "11": 0.040328566707891186, "12": -0.050011287924777964, "13": -0.02741420679630316, "14": -0.037858976075005754, "15": 0.10492172092219786, "16": -0.0838694489932351, "17": 0.05075488096083144, "18": 0.007651916321474851, "19": 0.0866945176515382, "20": -0.1988991176715955, "21": 0.05058867309469481, "22": 0.06083625606253835, "23": -0.06893675705104022, "24": 0.09546077158479331, "25": 0.022588749278518283, "26": -0.031594454424146254, "27": -0.08442806355692045, "28": -0.009060769939451747, "29": -0.0248362527366715, "30": 0.03428242420039322, "31": 0.08704450039738926, "32": 0.14133066555244206, "33": 0.06535313991664216, "34": 0.03983566016611078, "35": 0.08286901660014985, "36": 0.1779522362650904, "37": 0.0408580531494434, "38": -0.0956073175602107, "39": 0.07597413227812949, "40": -0.09892051596908771, "41": 0.03161958400043349, "42": -0.011055089453802727, "43": -0.1744804015749936, "44": 0.04417258697553056, "45": -0.03029305543780893, "46": -0.03152601286375559, "47": -0.004675122749264292, "48": 0.09893582672058361, "49": -0.10839439041114719, "50": -0.02337345752725256, "51": -0.17563297738746123, "52": 0.033568479072372495, "53": -0.005031805225645484, "54": -0.01728978662280574, "55": -0.11504564188703854, "56": 0.16432149462969095, "57": 0.048570107180528226, "58": 0.0820942364168575, "59": 0.004342072634364843, "60": 0.12925431592443845, "61": -0.092711425982237, "62": -0.1196062282482289, "63": -0.10061857617238686, "64": 0.19686670904895803, "65": -0.08150955854995195, "66": 0.06736254655975393, "67": 0.030449149407264318, "68": 0.006112006723669417, "69": -0.2338141644049328, "70": -0.09433598942087976, "71": -0.060235110764915396, "72": 0.04844392965996669, "73": -0.04186160522137018, "74": 0.10959491436816211, "75": 0.034691969657670914, "76": 0.03692500708554859, "77": -0.11463849616826835, "78": -0.009452452236552177, "79": -0.10327188382924982, "80": 0.021210669266361618, "81": -0.14684474627538394, "82": 0.2017442340876194, "83": -0.0780986151790348, "84": -0.05058546725580617, "85": -0.06424736773731198, "86": -0.046320806223899204, "87": 0.014651879534597529, "88": 0.12476614562545128, "89": -0.0780143283997367, "90": 0.24324106064433665, "91": -0.018199591367330615, "92": 0.011701217970976395, "93": -0.13884088585561744, "94": -0.01110488500189386, "95": -0.09476252488130851, "96": -0.04086439434388106, "97": -0.0309570968870493, "98": 0.11566634614811871, "99": 0.022242014127956993, "100": -0.1671750254369251, "101": 0.006757328088161349, "102": 0.02610483516191478, "103": 0.10478057905012177, "104": -0.22881496330858814, "105": -0.06489277894702762, "106": 0.029399564735970527, "107": -0.09100696110869874, "108": -0.11022996613765558, "109": -0.019273134220772495, "110": -0.037813417328444704, "111": -0.08879910271291598, "112": -0.10119795085789611, "113": 0.05694783974222722, "114": -0.037275466317116084, "115": -0.1041216260594854, "116": -0.056281489969013054, "117": 0.12713960460375967, "118": -0.08024586267924774, "119": -0.0007237342785702997, "120": -0.1749786362531872, "121": -0.0405007534606976, "122": -0.12043346696819988, "123": 0.010783643255710112, "124": -0.2050032927014339, "125": -0.007561772095679062, "126": -0.16312634052585012, "127": -0.04583091734276634, "128": -0.1849232052952139, "129": 0.07727263027865776, "130": -0.0519471594491865, "131": 0.039729694558529684, "132": -0.06826616906878208, "133": 0.14013491851804863, "134": -0.06429456892101369, "135": 0.13998352792243932, "136": -0.15785751580485102, "137": 0.06592770344270962, "138": -0.1357442691993182, "139": 0.06284950950115911, "140": -0.08327237146171293, "141": -0.04797411409786591, "142": -0.12545007472824937, "143": -0.06780422012588026, "144": -0.0588110683355057, "145": -0.0073472311615932545, "146": -0.06152418670356361, "147": 0.03894588363507566, "148": -0.0284776706279617, "149": -0.01769757579805196, "150": -0.038748934936646065, "151": -0.006623078523834993, "152": 0.05777444840896911, "153": 0.022071337124575326, "154": -0.03112585478012843, "155": -0.033278357549158345, "156": -0.13229893365326278, "157": -0.06434285145107164, "158": -0.040681200990621384, "159": -0.04003175699671499, "160": -0.12072911612129553, "161": -0.04656705330262487, "162": -0.14873400347085533, "163": 0.10657565757243496, "164": -0.10918553209282482, "165": 0.08559529463789857, "166": 0.00022334868690462373, "167": -0.1583087579664265, "168": 0.047067314511673806, "169": -0.008797885388242645, "170": -0.05068044062981263, "171": 0.03425516854632844, "172": -0.0009112768575842227, "173": 0.04901954719927042, "174": -0.014762913847056733, "175": -0.11005592092802143, "176": 0.007576453988537369, "177": -0.05292957653302449, "178": 0.06325724380771942, "179": -0.023177727928463926, "180": -0.0340637247356449, "181": -0.03402421112391323, "182": 0.0628125412171853, "183": 0.0546953887230533, "184": 0.05390054025412863, "185": -0.0444437089292243, "186": -0.032892893289704704, "187": 0.11867458087293895, "188": 0.0803931335855799, "189": -0.004157125420070787, "190": -0.04002047149561811, "191": 0.0828915360368917, "192": 0.13874945284948426, "193": -0.09896592484063182, "194": 0.011002711358092877, "195": 0.14648432009503104, "196": 0.015273660022391609, "197": -0.0636434155304096, "198": -0.013635970237759344, "199": 0.016308772923783604}, "sx": 5, "sy": 5, "depth": 8}, {"w": {"0": 0.13346869130613598, "1": 0.04991446481561053, "2": -0.04303986736285445, "3": -0.10084126782819736, "4": -0.03519896263713386, "5": 0.050959111638583146, "6": -0.1321469576689204, "7": -0.028678298661221836, "8": 0.055338179940718935, "9": -0.006263545910709161, "10": -0.08135504964645397, "11": 0.03166436291180379, "12": 0.07144202059696173, "13": 0.01595501544032708, "14": -0.08211218135530868, "15": -0.05982892620506913, "16": 0.12270420212706121, "17": 0.16670228862411207, "18": 0.07815876664258342, "19": 0.11017199922971999, "20": -0.04400522389649913, "21": -0.01615828951295777, "22": -0.02415973426491076, "23": 0.06886019871884035, "24": -0.15151832079743446, "25": 0.016540586468961914, "26": 0.07675591533536218, "27": 0.054006917719269826, "28": -0.003590186567263409, "29": 0.12728142016748742, "30": 0.1538063907322208, "31": 0.0983354804472923, "32": -0.05876093589026663, "33": -0.026256912438151453, "34": 0.010681210553675886, "35": 0.1264101562536468, "36": 0.028841741099872274, "37": 0.08182268448618427, "38": -0.012560934068991548, "39": 0.014357989755753392, "40": -0.008622910386804735, "41": -0.07595834542672393, "42": 0.12789993162975707, "43": -0.23406882052519887, "44": -0.13469379521068067, "45": 0.061714116749247996, "46": 0.01062361176706789, "47": -0.08830525449158207, "48": -0.0206700705826834, "49": -0.19367276570205852, "50": 0.07659501412312017, "51": -0.1580117053256633, "52": 0.1201203098602196, "53": 0.1147738839758388, "54": -0.005006000022108982, "55": -0.18000319025579953, "56": -0.07863140900764751, "57": -0.07739983592241832, "58": 0.02763882909368106, "59": -0.09309620985526533, "60": 0.1486775489495387, "61": -0.10917402926345685, "62": -0.2086886903250154, "63": -0.05543443518103913, "64": 0.10281730090948284, "65": 0.021161708746477007, "66": 0.17340304113124957, "67": 0.04751965270667912, "68": -0.012474114785974445, "69": 0.016173816297923454, "70": 0.06510918289786378, "71": 0.004477181717758582, "72": 0.07739527440913144, "73": 0.01392012725361287, "74": 0.1016260644773155, "75": 0.03629457562416106, "76": 0.07275856541359306, "77": -0.18195079605309072, "78": -0.06674602980840984, "79": 0.012606362864485543, "80": 0.057065555265578875, "81": 0.06320396661677054, "82": -0.08036340556542049, "83": -0.11443965047727987, "84": -0.11894534349831593, "85": 0.08976663854360094, "86": -0.04640454400339546, "87": -0.07150597784314838, "88": 0.0056358624820927496, "89": 0.02144111374139944, "90": -0.0232621166205336, "91": -0.11099345629561427, "92": -0.24969122499574353, "93": 0.017903927385171856, "94": -0.07158802920321747, "95": -0.02733400908263491, "96": -0.03553926218905455, "97": -0.07001325063166057, "98": -0.0345359541823083, "99": -0.10239980202637286, "100": -0.09101961251942395, "101": -0.016741386468989983, "102": -0.07317513111720413, "103": -0.015649001904200145, "104": 0.041655426813070204, "105": 0.0034458068349040127, "106": 0.12042212424545594, "107": 0.023385351601160453, "108": -0.12357639901201639, "109": 0.039466534899365656, "110": -0.11341139446838543, "111": 0.06815641901055712, "112": 0.053932347863160195, "113": 0.02360949707725957, "114": 0.12939570888390706, "115": -0.04114895892163284, "116": 0.05783803300321234, "117": -0.035480706743029326, "118": -0.0926060781966126, "119": -0.19193800480429363, "120": 0.013339495613946241, "121": -0.025596657395086857, "122": -0.10309271348820026, "123": -0.0514831196097523, "124": -0.01061714436104513, "125": 0.03275355701922627, "126": 0.038199207938138226, "127": 0.07306125903378052, "128": -0.0002940587940822771, "129": -0.029667153955942285, "130": -0.06382464349059852, "131": 0.03534319019308176, "132": -0.017102242208679005, "133": 0.10801564732786559, "134": 0.12113986889530641, "135": 0.12277380267362822, "136": -0.10558713119980144, "137": 0.12431752985121328, "138": -0.01709797417175448, "139": -0.17612710849657526, "140": -0.15885788799395387, "141": 0.09603720437898584, "142": -0.04252078567636033, "143": 0.20251282983376, "144": -0.07409726732656885, "145": 0.05316335488877989, "146": 0.019295931930440494, "147": -0.03431173979147469, "148": -0.1998531653217543, "149": -0.08848035356749558, "150": 0.13649613733963703, "151": 0.07300291916211683, "152": -0.13767299511073403, "153": 0.0008470590767910729, "154": -0.00835248293073997, "155": -0.09732851972464705, "156": -0.2046499536231284, "157": 0.18506967977433433, "158": 0.09913666971300748, "159": -0.024284160123957243, "160": 0.09014937501826308, "161": -0.08997836733920687, "162": 0.0248309280695101, "163": 0.05310902758504206, "164": -0.04038485622847134, "165": 0.05297579392758445, "166": 0.0802222441344578, "167": 0.07634602561511336, "168": 0.015954121390201186, "169": 0.011521741300090886, "170": -0.050892041905818565, "171": 0.11756838890899302, "172": 0.014543827679660785, "173": 0.0013371362441497207, "174": -0.0023894529121725556, "175": 0.07244512334064108, "176": -0.06123528797605833, "177": 0.028511354042319373, "178": -0.03349243838061319, "179": 0.05655415058711306, "180": 0.00018027013930375208, "181": 0.08833139588495309, "182": 0.053169542209991795, "183": 0.08211454200316386, "184": -0.14286255684242263, "185": 0.020356794361248428, "186": -0.06326962641107749, "187": -0.023314728959374753, "188": -0.09337537192908117, "189": -0.014894341107346665, "190": 0.07097780673037399, "191": 0.08559797335075552, "192": -0.15692225660844675, "193": 0.15748096606726592, "194": -0.008170230484931417, "195": -0.08927537809367192, "196": -0.06482963698909656, "197": 0.0301470200858901, "198": 0.10053568406258545, "199": -0.025733505044969712}, "sx": 5, "sy": 5, "depth": 8}, {"w": {"0": -0.10292587225364297, "1": -0.07077796867129611, "2": -0.007569425496038994, "3": -0.0827428660806879, "4": -0.1669614929898808, "5": 0.025005000309463087, "6": 0.00017419473692025756, "7": -0.0005778590511054792, "8": -0.15690498360603047, "9": -0.012690714795561303, "10": -0.026209563244641562, "11": -0.03105049188311839, "12": -0.15121948021606413, "13": -0.007991153314365881, "14": 0.06570765423609919, "15": 0.10424106290210175, "16": -0.27570512672687153, "17": 0.07065466044209938, "18": 0.07074544762597637, "19": 0.024213195409867435, "20": -0.041811872951984935, "21": 0.10091242328507562, "22": -0.06376824859968679, "23": -0.050895372603748344, "24": -0.0633660783447042, "25": -0.18846536502144481, "26": -0.08574367733118221, "27": -0.10183740558948456, "28": -0.11380312504743971, "29": 0.10425133319963194, "30": -0.08366351317378545, "31": -0.0023116034922465133, "32": -0.0765500057094354, "33": -0.0893517252196861, "34": -0.12881349298454375, "35": -0.0809595160832786, "36": -0.035793362161302515, "37": 0.03355744922490901, "38": 0.07477325925161314, "39": 0.03714908966812402, "40": -0.06249047015701667, "41": -0.11272589336494479, "42": -0.03604056653344127, "43": -0.03563609797447178, "44": -0.11289102497549683, "45": -0.015621345243836966, "46": -0.10439138231372237, "47": -0.06093487950361983, "48": -0.14554882042958672, "49": -0.0667745878641553, "50": -0.01245212692709043, "51": 0.13979827736221412, "52": 0.03609542624189744, "53": -0.002955849661164171, "54": -0.027686341694644026, "55": -0.03307193290981926, "56": 0.1571587003048465, "57": 0.03327095179258038, "58": -0.030064695736243267, "59": 0.013784539490362232, "60": -0.1819565164903516, "61": 0.05010487685751825, "62": 0.08096506400849095, "63": -0.0029625092698351736, "64": 0.10992120377617261, "65": -0.04305310908134237, "66": 0.0016605795782890927, "67": -0.0970497888929114, "68": -0.04701147819799947, "69": 0.03690822479806285, "70": 0.04208417144232512, "71": -0.042506957624046354, "72": -0.019544185494417447, "73": 0.10389002880901678, "74": 0.02063865349456935, "75": -0.022243592863099387, "76": 0.1288220804119902, "77": -0.169825850416886, "78": -0.15535662759597693, "79": -0.04596821371977217, "80": -0.2611708036538148, "81": -0.0687589541705347, "82": -0.2023734511214246, "83": 0.20056123253208008, "84": 0.04498878355458278, "85": -0.147253249777925, "86": -0.16175688223389217, "87": -0.08787549691365505, "88": -0.2310336913413008, "89": 0.010390789600067497, "90": -0.02503174993522521, "91": 0.16949248646960144, "92": 0.05208609254833315, "93": -0.01795119935546002, "94": -0.041417429405323246, "95": 0.04504778672570748, "96": 0.1706888536792757, "97": -0.03838995712596897, "98": -0.05747841849576632, "99": -0.04941097256929752, "100": -0.03177287821781187, "101": -0.026666378173399945, "102": 0.2159637069084507, "103": 0.04449093681675015, "104": 0.12108791929142308, "105": 0.008099148016807644, "106": 0.04937298735913868, "107": 0.022668961156130374, "108": -0.0637650580804449, "109": -0.19242001192007718, "110": -0.06678000797195915, "111": 0.05353662233709107, "112": -0.07538423204080781, "113": 0.08803380634873392, "114": -0.01917157816016558, "115": 0.05577170142454063, "116": -0.04231837874213823, "117": -0.1521710206501433, "118": -0.09957865834041545, "119": -0.10372425334735008, "120": -0.31032305891208267, "121": 0.02320916170101815, "122": -0.17703311021432058, "123": 0.059152382551521714, "124": -0.04437527014057282, "125": -0.09810172392187841, "126": -0.15279433939296502, "127": -0.02762567701294991, "128": -0.20011613098330508, "129": -0.04250949644914169, "130": -0.026841617537773407, "131": 0.2770664688581441, "132": 0.16462419649465665, "133": -0.14870468883245797, "134": 0.09175363777161033, "135": 0.15937319539825065, "136": 0.26462624232913984, "137": -0.06455026104544981, "138": -0.06081857561182461, "139": 0.10951705701018413, "140": 0.10768209783001703, "141": -0.23020429548997257, "142": 0.24164504021509808, "143": 0.12573263741417356, "144": -0.09117171566655445, "145": 0.0542786710074478, "146": 0.025324663757612307, "147": -0.10407823546043833, "148": -0.06021583267352138, "149": -0.11034341896276163, "150": 0.03288644012822733, "151": 0.17831468095253053, "152": -0.21919131019121874, "153": 0.11311215591030889, "154": -0.10420892418082008, "155": 0.028872180085490556, "156": 0.006871878563853081, "157": -0.08323371855109302, "158": 0.20865660808590777, "159": 0.15974353297566243, "160": -0.1959262178575903, "161": 0.15132609374287045, "162": -0.07571018593795557, "163": 0.04292177894332685, "164": 0.26284828764880946, "165": -0.10231644559251436, "166": 0.028351321557076762, "167": -0.007120890424365279, "168": -0.04314281270351868, "169": -0.07894968984345428, "170": -0.038676723493255814, "171": -0.005368888687245223, "172": 0.2023959131238331, "173": -0.14939369881898834, "174": 0.10883052957656418, "175": 0.06897154584243392, "176": -0.01917247543114747, "177": 0.004349422818415801, "178": -0.11082715614852359, "179": -0.027727471597572703, "180": 0.0558199685208696, "181": -0.23206834485724628, "182": 0.097696071638328, "183": -0.04275258627569044, "184": -0.02834864135969771, "185": 0.05391245700119065, "186": 0.10596706990804432, "187": 0.0015774072268024064, "188": 0.04704723525105829, "189": -0.12087985556798185, "190": 0.08451214097619786, "191": -0.08420166873534342, "192": 0.07949280658230892, "193": -0.04288095981972445, "194": -0.01326589198531369, "195": -0.14682860335460038, "196": 0.19633334953199813, "197": -0.10530666419729892, "198": -0.049256524754802675, "199": 0.015372475506415018}, "sx": 5, "sy": 5, "depth": 8}, {"w": {"0": -0.2883694197246123, "1": 0.08816669821935455, "2": -0.02126482601960946, "3": 0.17847813843936444, "4": -0.09561403690009891, "5": 0.15006348216691112, "6": -0.07315105733765756, "7": 0.06002514413760306, "8": -0.006956407860485285, "9": 0.04221756402622162, "10": -0.07694368538606469, "11": -0.007641078597238661, "12": 0.019891356076810092, "13": -0.04147494086281426, "14": -0.19995056714813017, "15": 0.030908426084513652, "16": -0.07656544172910934, "17": -0.05120387383187223, "18": 0.027580912784045557, "19": 0.0761439970478192, "20": -0.038892672033222976, "21": -0.011355512571374338, "22": -0.08147413778638521, "23": -0.07685458451419794, "24": 0.11775404883619385, "25": 0.11627849094531006, "26": -0.08924931317104225, "27": -0.13528470472623425, "28": -0.0052909394641189, "29": -0.08034364271198426, "30": 0.0028864054644602414, "31": -0.09540886828727727, "32": 0.15331375179575749, "33": -0.0732346590951081, "34": -0.08292958185913589, "35": -0.054962600450355434, "36": 0.036174874290863517, "37": -0.1403099161281029, "38": -0.0015168207436521547, "39": 0.032834467609302614, "40": -0.11449654761821888, "41": -0.04213331724642177, "42": -0.12399842522215648, "43": 0.10058896455864821, "44": 0.06828914352116744, "45": -0.02565862840619577, "46": -0.13508244688703053, "47": 0.07801533172880497, "48": -0.008865493570943288, "49": 0.03772543980966128, "50": -0.04201321820800433, "51": 0.18015761878814326, "52": 0.054203365951001725, "53": -0.016120331119066682, "54": -0.019559687073662603, "55": -0.032119100792935784, "56": 0.26038569375821635, "57": -0.011607635233046998, "58": 0.03352876872444377, "59": -0.12497952493405275, "60": -0.0866578880116116, "61": 0.02264306779195785, "62": 0.04094358438988084, "63": -0.10072591313692457, "64": -0.0003369038862532541, "65": -0.0274017019466601, "66": -0.10301838109674363, "67": -0.1700852984262177, "68": -0.0898374927559819, "69": -0.057296734992444295, "70": 0.022554467354853603, "71": -0.006886244805629554, "72": -0.1798501644176359, "73": -0.004219516239186835, "74": -0.037642333789296545, "75": -0.1127144216989139, "76": -0.13445180724250508, "77": 0.050352352031957565, "78": -0.1211035827302292, "79": -0.05880213135447376, "80": -0.2053692702353655, "81": -0.04746995085860244, "82": -0.1457762129367531, "83": 0.26590943237850573, "84": 0.1852880343832935, "85": -0.11622173879495123, "86": -0.11623629853458209, "87": -0.02697156474677867, "88": 0.028252296921076912, "89": 0.124286148180086, "90": -0.029461736094284718, "91": -0.017080485090568653, "92": -0.019230417511697653, "93": -0.0902439536032897, "94": 0.1275431082423536, "95": -0.1572598388087777, "96": 0.11799627573951046, "97": -0.026873441885659977, "98": -0.06797475574593236, "99": -0.08106050541921626, "100": -0.21854017345193, "101": -0.019071297881910403, "102": -0.01689696585034487, "103": -0.05401367194952209, "104": -0.12104405291860265, "105": -0.089483770560744, "106": -0.1651853647351989, "107": -0.07779401621440825, "108": -0.10222487721549596, "109": -0.11273190719333105, "110": -0.0004934284929118248, "111": -0.10242484158351313, "112": -0.13948846936132958, "113": 0.06529656024747355, "114": -0.05559311712133455, "115": 0.010117136506009525, "116": -0.1707661678409254, "117": -0.0751858895162158, "118": -0.19146175391124914, "119": -0.030941322771593626, "120": -0.29460188888713157, "121": 0.10885282372939917, "122": 0.015303851378268278, "123": 0.27721992107765775, "124": 0.13908060362006314, "125": -0.1716873900325875, "126": -0.1545574843024003, "127": 0.0988599460771113, "128": 0.06909079898406549, "129": -0.04690328130658441, "130": -0.045083343918220636, "131": 0.07556437324501909, "132": -0.02630590206092631, "133": -0.19801709373051096, "134": 0.2261107496105972, "135": -0.07354646873658371, "136": 0.24791585863378832, "137": -0.19685750251787118, "138": 0.07703305213342528, "139": -0.166943236287309, "140": -0.2272132151273674, "141": -0.19835048089534502, "142": 0.03675674892537404, "143": -0.0966279158045396, "144": -0.15367762156192968, "145": 0.035764809753938, "146": -0.10143343527197834, "147": -0.030122729710055373, "148": -0.11516132152797837, "149": 0.002012984986572959, "150": -0.11532207765908667, "151": -0.02861642669102639, "152": -0.144961402224372, "153": 0.08715511009016602, "154": -0.11139709870530788, "155": 0.03672153485828789, "156": 0.0027848665256611344, "157": -0.09663633102737255, "158": -0.06761116261661519, "159": 0.006369401890856404, "160": -0.11874123799269724, "161": 0.05071854146672202, "162": -0.05194195963233823, "163": 0.1678357291044406, "164": 0.027443442067864067, "165": -0.0701481505649941, "166": 0.02653198258532203, "167": 0.0005182039164025479, "168": 0.021217270250342785, "169": -0.040209384316050825, "170": -0.07837021976947306, "171": 0.08107593690935191, "172": 0.05809453416897934, "173": -0.07141086758414114, "174": 0.19539922094857556, "175": -0.11962595991198137, "176": 0.13938603858910878, "177": -0.1093590938434843, "178": -0.09993558294783218, "179": -0.05192751142134189, "180": -0.03841916207418751, "181": -0.13389893091643673, "182": 0.07743419053787352, "183": 0.044747898620697286, "184": -0.22300751413951753, "185": 0.025115185688604366, "186": 0.043423555148291125, "187": 0.03193706322690366, "188": -0.1092317898758466, "189": 0.010800595856586482, "190": -0.1827805664895016, "191": -0.015563262718368812, "192": -0.08965392323151776, "193": -0.011689693767304877, "194": -0.08775705768320453, "195": 0.09221865323237498, "196": -0.03156625343537866, "197": -0.03173909653405716, "198": 0.06548813835251611, "199": 0.04341759007181236}, "sx": 5, "sy": 5, "depth": 8}, {"w": {"0": 0.11226609736657871, "1": -0.1304402152327955, "2": 0.005157936649432661, "3": -0.11416316893765274, "4": -0.061740411917898134, "5": -0.03530647714320039, "6": -0.03498706122139399, "7": -0.1334957665911776, "8": 0.19031114846199346, "9": -0.0852397758248505, "10": -0.056830522824900954, "11": 0.003883062876674208, "12": -0.0334982346105879, "13": 0.0632045603853786, "14": -0.08727507958626486, "15": -0.09120098401830758, "16": -0.07783565291199947, "17": -0.09646992572045227, "18": -0.10306333317767521, "19": -0.09881270169506924, "20": -0.03435887263018168, "21": 0.10937711668303307, "22": -0.08493051118672479, "23": -0.20889489602054825, "24": -0.07374331371499074, "25": -0.1943327811539171, "26": -0.0853584857783425, "27": 0.045707020520742714, "28": 0.031063524919638378, "29": -0.07511250970436217, "30": -0.07228480404129921, "31": -0.10179842575273984, "32": 0.16655727458981764, "33": 0.0022527778261434133, "34": 0.02357283274378014, "35": -0.05664279735798775, "36": 0.05635476013286863, "37": -0.06139567831410277, "38": -0.08237625449315696, "39": -0.044987364167110945, "40": -0.11428469998556216, "41": -0.004970578567331107, "42": 0.0508085334430191, "43": -0.04645962725940654, "44": -0.06419080606268762, "45": -0.10188422069447209, "46": -0.0007489793762857111, "47": -0.21448902535128275, "48": -0.019971661010550323, "49": 0.021007927044915064, "50": -0.008685173025250839, "51": -0.12167367622671516, "52": -0.21653520628092915, "53": -0.02543400784964254, "54": -0.1739240622535372, "55": -0.18525287666790086, "56": -0.11803075591945693, "57": -0.029914119481612135, "58": -0.07613441794347006, "59": -0.14824591538750337, "60": -0.16393971172305477, "61": -0.03219496270897602, "62": -0.10243223322321349, "63": -0.08747567396544463, "64": -0.027650300326745057, "65": 0.08489306323238258, "66": 0.11072334655345534, "67": -0.008112297016360815, "68": -0.008029848100013929, "69": -0.09805173405473479, "70": -0.1481478978619348, "71": -0.12762064370801857, "72": 0.017386131638976888, "73": -0.046083695962380974, "74": 0.10309503264404613, "75": -0.010583858754851579, "76": -0.037142103504613846, "77": -0.05289182413777639, "78": -0.16869025502191604, "79": -0.12880684189966196, "80": -0.2094826086308421, "81": -0.04511751582476475, "82": -0.009020788935444545, "83": 0.08085881138465298, "84": -0.16325836391964807, "85": 0.022703108361892287, "86": 0.051875108887476956, "87": 0.2181479281612778, "88": -0.2802559519308814, "89": 0.08614502140001246, "90": -0.02104837814634532, "91": -0.020162245050671213, "92": -0.13373750051811084, "93": 0.10683575460859636, "94": -0.010937750418630002, "95": 0.04158902771259761, "96": -0.31688651687902314, "97": 0.006371054224067901, "98": 0.04790612571895378, "99": -0.10426092088366612, "100": -0.07900575432040977, "101": 0.03688306242097335, "102": -0.03426111673369443, "103": 0.08247589882701924, "104": -0.24514245715047242, "105": 0.030580232934518208, "106": 0.0525833959666406, "107": -0.15727837982740905, "108": -0.20378143424716533, "109": -0.0253866883410726, "110": 0.03812718755264795, "111": 0.08612779070854568, "112": -0.13304972749042696, "113": -0.027400955291719844, "114": 0.019954264436117367, "115": -0.2704146316503684, "116": -0.1990725886569082, "117": -0.015795149958230476, "118": -0.05305739480095757, "119": -0.08820054891391856, "120": -0.02917173171975315, "121": 0.1005255982450136, "122": 0.07034911006118168, "123": 0.00976048155108074, "124": 0.028886924456327234, "125": -0.12156848868963077, "126": 0.04949441306716125, "127": 0.023938132885889245, "128": -0.13133767439319743, "129": -0.1318857979900956, "130": 0.05371908612188636, "131": 0.14023336049537716, "132": 0.07160071892589037, "133": 0.13718449858448617, "134": 0.08329681123042705, "135": 0.07177318468756083, "136": -0.09267542628705773, "137": 0.01783437948633115, "138": -0.027139697695450094, "139": 0.12645575819540203, "140": 0.050030289120204005, "141": 0.19729019615755014, "142": 0.22434315986997205, "143": 0.04386875030121923, "144": -0.17822712255733095, "145": 0.10517505635716458, "146": 0.10636106978206876, "147": -0.19549865628850827, "148": -0.11166505231174768, "149": -0.12387883877382921, "150": 0.21051636813663613, "151": 0.12858450876644267, "152": -0.1384727315191277, "153": 0.07178951424582508, "154": -0.09422128262800551, "155": -0.07566684280944765, "156": -0.27441647207567554, "157": 0.09135676413824671, "158": 0.06836838826540187, "159": 0.02581830067262614, "160": 0.06617805446051576, "161": -0.13317402413960494, "162": 0.19672501887731164, "163": -0.12420097835499008, "164": 0.2920655783424924, "165": -0.04151327855875103, "166": 0.12453369734621927, "167": -0.1841684301418464, "168": 0.0743408212397724, "169": -0.06125794551180635, "170": 0.15011727547296635, "171": -0.03466631634380738, "172": 0.36052314215874404, "173": -0.06040232264328482, "174": -0.08557965041921288, "175": -0.08743582323637145, "176": -0.017201730413266177, "177": -0.17929863994955467, "178": 0.19168606858565831, "179": 0.2331172002665237, "180": 0.3719800081085755, "181": 0.04818515002769373, "182": -0.047826790045164616, "183": -0.03570487968157125, "184": -0.10163816099006738, "185": -0.10861888833638716, "186": 0.03315901930363964, "187": 0.3477811586301381, "188": 0.2260565070522287, "189": 0.04169999320878079, "190": 0.07773445046298995, "191": 0.23212967205993496, "192": -0.10930742569469534, "193": 0.02254490391245306, "194": -0.07479386072337368, "195": 0.06538183606947236, "196": 0.007086911280766691, "197": -0.07881231146266884, "198": 0.1783975528667131, "199": 0.16891773604470825}, "sx": 5, "sy": 5, "depth": 8}], "in_depth": 8, "out_depth": 16, "layer_type": "conv", "l1_decay_mul": 0, "l2_decay_mul": 1}, {"out_sx": 12, "out_sy": 12, "out_depth": 16, "layer_type": "relu"}, {"sx": 3, "sy": 3, "pad": 0, "out_sx": 4, "out_sy": 4, "stride": 3, "in_depth": 16, "out_depth": 16, "layer_type": "pool"}, {"biases": {"w": {"0": -0.04524075013823555, "1": 0.09533646460846855, "2": -0.03985521534364157, "3": -0.029322122899669976, "4": 0.028756928913781708, "5": 0.019175378349129163, "6": 0.008392705614582958, "7": -0.007507151013254477, "8": -0.03099002118697913, "9": 0.001253783095818237}, "sx": 1, "sy": 1, "depth": 10}, "out_sx": 1, "out_sy": 1, "filters": [{"w": {"0": -0.002714249941920139, "1": 0.08603738763615142, "2": -0.035271554128175765, "3": -0.0020985201164777233, "4": -0.013905551726829012, "5": 0.10870486493909505, "6": 0.13283672215232456, "7": -0.04311110384737594, "8": -0.04748659313764264, "9": -0.12006913435254607, "10": -0.06658191044330125, "11": 0.014609292259331311, "12": -0.025719989823608555, "13": 0.05366989133082423, "14": -0.08697209606220405, "15": 0.01888446657799064, "16": -0.00736268546987232, "17": -0.10483168330679767, "18": -0.04357515712484081, "19": 0.030958462408531544, "20": 0.07383798075657919, "21": -0.06569108384755634, "22": 0.14384142300617625, "23": 0.033268879614091015, "24": 0.07815202889923624, "25": 0.07866350516871283, "26": 0.06079376036826428, "27": 0.018833194416754212, "28": 0.03625853852573889, "29": -0.17748654947486986, "30": -0.16428085837539816, "31": 0.1470593242988128, "32": 0.0007552322108782469, "33": -0.038312911924752176, "34": 0.08216952492936097, "35": -0.07674313289312176, "36": 0.050237060716460266, "37": -0.0200647517918627, "38": -0.11863531620158527, "39": 0.052232092289817025, "40": -0.07919460461323402, "41": -0.07631639110343816, "42": -0.06388528095016993, "43": 0.04419009636426818, "44": 0.027937993732011716, "45": 0.0709045936735375, "46": -0.08631020100981407, "47": -0.03297195895145934, "48": -0.061987677828192755, "49": -0.11731550750405953, "50": -0.004484579407419705, "51": -0.08996234752783071, "52": -0.020320074793431588, "53": 0.056377895888136687, "54": -0.009256534535016847, "55": -0.04205409667893924, "56": -0.12387581777615503, "57": 